{"learner":{"attributes":{"best_iteration":"79","best_score":"0.00896397612352924","scikit_learn":"{\"_estimator_type\": \"classifier\"}"},"feature_names":[],"feature_types":[],"gradient_booster":{"model":{"cats":{"enc":[],"feature_segments":[],"sorted_idx":[]},"gbtree_model_param":{"num_parallel_tree":"1","num_trees":"280"},"iteration_indptr":[0,1,2,3,4,5,6,7,8,9,10,11,12,13,14,15,16,17,18,19,20,21,22,23,24,25,26,27,28,29,30,31,32,33,34,35,36,37,38,39,40,41,42,43,44,45,46,47,48,49,50,51,52,53,54,55,56,57,58,59,60,61,62,63,64,65,66,67,68,69,70,71,72,73,74,75,76,77,78,79,80,81,82,83,84,85,86,87,88,89,90,91,92,93,94,95,96,97,98,99,100,101,102,103,104,105,106,107,108,109,110,111,112,113,114,115,116,117,118,119,120,121,122,123,124,125,126,127,128,129,130,131,132,133,134,135,136,137,138,139,140,141,142,143,144,145,146,147,148,149,150,151,152,153,154,155,156,157,158,159,160,161,162,163,164,165,166,167,168,169,170,171,172,173,174,175,176,177,178,179,180,181,182,183,184,185,186,187,188,189,190,191,192,193,194,195,196,197,198,199,200,201,202,203,204,205,206,207,208,209,210,211,212,213,214,215,216,217,218,219,220,221,222,223,224,225,226,227,228,229,230,231,232,233,234,235,236,237,238,239,240,241,242,243,244,245,246,247,248,249,250,251,252,253,254,255,256,257,258,259,260,261,262,263,264,265,266,267,268,269,270,271,272,273,274,275,276,277,278,279,280],"tree_info":[0,0,0,0,0,0,0,0,0,0,0,0,0,0,0,0,0,0,0,0,0,0,0,0,0,0,0,0,0,0,0,0,0,0,0,0,0,0,0,0,0,0,0,0,0,0,0,0,0,0,0,0,0,0,0,0,0,0,0,0,0,0,0,0,0,0,0,0,0,0,0,0,0,0,0,0,0,0,0,0,0,0,0,0,0,0,0,0,0,0,0,0,0,0,0,0,0,0,0,0,0,0,0,0,0,0,0,0,0,0,0,0,0,0,0,0,0,0,0,0,0,0,0,0,0,0,0,0,0,0,0,0,0,0,0,0,0,0,0,0,0,0,0,0,0,0,0,0,0,0,0,0,0,0,0,0,0,0,0,0,0,0,0,0,0,0,0,0,0,0,0,0,0,0,0,0,0,0,0,0,0,0,0,0,0,0,0,0,0,0,0,0,0,0,0,0,0,0,0,0,0,0,0,0,0,0,0,0,0,0,0,0,0,0,0,0,0,0,0,0,0,0,0,0,0,0,0,0,0,0,0,0,0,0,0,0,0,0,0,0,0,0,0,0,0,0,0,0,0,0,0,0,0,0,0,0,0,0,0,0,0,0,0,0,0,0,0,0,0,0,0,0,0,0,0,0,0,0,0,0],"trees":[{"base_weights":[-6.225363E-2,-1.4057061E-1,2.2760892E0,2.3009593E0,8.368614E-2,1.8510278E-1,1.19624734E-1],"categories":[],"categories_nodes":[],"categories_segments":[],"categories_sizes":[],"default_left":[0,0,0,0,0,0,0],"id":0,"left_children":[1,-1,3,5,-1,-1,-1],"loss_changes":[7.4806555E2,0E0,1.8796997E0,1.3693237E-1,0E0,0E0,0E0],"parents":[2147483647,0,0,2,2,3,3],"right_children":[2,-1,4,6,-1,-1,-1],"split_conditions":[7.504581E-1,-1.4057061E-1,2.0061667E0,2.5805564E0,8.368614E-2,1.8510278E-1,1.19624734E-1],"split_indices":[776,0,461,6,0,0,0],"split_type":[0,0,0,0,0,0,0],"sum_hessian":[1.886477E2,1.0941076E2,7.923694E1,7.751973E1,1.7172092E0,7.604784E1,1.4718935E0],"tree_param":{"num_deleted":"0","num_feature":"777","num_nodes":"7","size_leaf_vector":"1"}},{"base_weights":[1.6299844E-2,-1.3272664E-1,1.5648903E0,-1.3090198E-1,1.8908404E0,1.9469279E0,-1.2103573E-1,-1.21977136E-1,1.9959484E0,2.0446746E0,2.0185877E-1,2.085639E0,3.1891678E-2,-1.1880072E-1,1.5253626E-1,1.6769855E-1,1.0836714E-1],"categories":[],"categories_nodes":[],"categories_segments":[],"categories_sizes":[],"default_left":[0,0,0,0,0,0,0,0,0,0,0,0,0,0,0,0,0],"id":1,"left_children":[1,-1,3,-1,5,7,-1,-1,9,11,13,15,-1,-1,-1,-1,-1],"loss_changes":[5.0773724E2,0E0,1.0637045E2,0E0,1.7868347E1,1.5718842E1,0E0,0E0,7.5518494E0,5.5391235E0,7.4241304E0,7.458496E-2,0E0,0E0,0E0,0E0,0E0],"parents":[2147483647,0,0,2,2,4,4,5,5,8,8,9,9,10,10,11,11],"right_children":[2,-1,4,-1,6,8,-1,-1,10,12,14,16,-1,-1,-1,-1,-1],"split_conditions":[1E0,-1.3272664E-1,7.54229E-1,-1.3090198E-1,4.7708902E-1,-1.696172E0,-1.2103573E-1,-1.21977136E-1,1.4160923E0,9.940806E-1,2.213526E-1,1.4315964E0,3.1891678E-2,-1.1880072E-1,1.5253626E-1,1.6769855E-1,1.0836714E-1],"split_indices":[774,0,775,0,411,337,0,0,293,602,614,0,0,0,0,0,0],"split_type":[0,0,0,0,0,0,0,0,0,0,0,0,0,0,0,0,0],"sum_hessian":[1.955832E2,9.390637E1,1.0167683E2,9.339916E0,9.2336914E1,9.09E1,1.4369103E0,1.2064277E0,8.969357E1,8.72487E1,2.444875E0,8.504331E1,2.20539E0,1.1974252E0,1.2474499E0,8.355637E1,1.4869349E0],"tree_param":{"num_deleted":"0","num_feature":"777","num_nodes":"17","size_leaf_vector":"1"}},{"base_weights":[4.9777538E-2,-1.2633428E-1,1.878876E0,1.1067299E0,1.9189733E0,1.7244872E-2,1.4667755E-1,1.5437491E-1,9.460648E-2],"categories":[],"categories_nodes":[],"categories_segments":[],"categories_sizes":[],"default_left":[0,0,0,0,0,0,0,0,0],"id":2,"left_children":[1,-1,3,5,7,-1,-1,-1,-1],"loss_changes":[5.764614E2,0E0,2.3320923E0,2.8326669E0,1.715393E-1,0E0,0E0,0E0,0E0],"parents":[2147483647,0,0,2,2,3,3,4,4],"right_children":[2,-1,4,6,8,-1,-1,-1,-1],"split_conditions":[7.504581E-1,-1.2633428E-1,7.7554715E-1,-1.6951157E-1,1.5028534E0,1.7244872E-2,1.4667755E-1,1.5437491E-1,9.460648E-2],"split_indices":[776,0,776,305,28,0,0,0,0],"split_type":[0,0,0,0,0,0,0,0,0],"sum_hessian":[1.933427E2,1.0223604E2,9.110665E1,4.7300487E0,8.63766E1,2.2337797E0,2.496269E0,8.488155E1,1.4950486E0],"tree_param":{"num_deleted":"0","num_feature":"777","num_nodes":"9","size_leaf_vector":"1"}},{"base_weights":[1.1363594E-1,-1.2074486E-1,1.727565E0,-1.2139768E-1,1.7810029E0,1.4486687E-1,9.1951644E-1,3.0960025E-2,1.2937878E-1],"categories":[],"categories_nodes":[],"categories_segments":[],"categories_sizes":[],"default_left":[0,0,0,0,0,0,0,0,0],"id":3,"left_children":[1,-1,3,-1,5,-1,7,-1,-1],"loss_changes":[4.755178E2,0E0,1.5983276E1,0E0,1.8763733E0,0E0,9.3204546E-1,0E0,0E0],"parents":[2147483647,0,0,2,2,4,4,6,6],"right_children":[2,-1,4,-1,6,-1,8,-1,-1],"split_conditions":[7.4227554E-1,-1.2074486E-1,1E0,-1.2139768E-1,7.9934865E-1,1.4486687E-1,4.61348E-1,3.0960025E-2,1.2937878E-1],"split_indices":[776,0,774,0,468,0,308,0,0],"split_type":[0,0,0,0,0,0,0,0,0],"sum_hessian":[1.8141266E2,9.0418495E1,9.099416E1,1.4111637E0,8.9583E1,8.6386055E1,3.1969447E0,1.963569E0,1.2333758E0],"tree_param":{"num_deleted":"0","num_feature":"777","num_nodes":"9","size_leaf_vector":"1"}},{"base_weights":[-3.6931634E-2,-1.161355E-1,1.6353996E0,-1.15234986E-1,1.6836753E0,1.3640867E-1,4.9821656E-2],"categories":[],"categories_nodes":[],"categories_segments":[],"categories_sizes":[],"default_left":[0,0,0,0,0,0,0],"id":4,"left_children":[1,-1,3,-1,5,-1,-1],"loss_changes":[4.0873196E2,0E0,1.1925644E1,0E0,1.4300842E0,0E0,0E0],"parents":[2147483647,0,0,2,2,4,4],"right_children":[2,-1,4,-1,6,-1,-1],"split_conditions":[7.4227554E-1,-1.161355E-1,1E0,-1.15234986E-1,1.3416995E0,1.3640867E-1,4.9821656E-2],"split_indices":[776,0,774,0,354,0,0],"split_type":[0,0,0,0,0,0,0],"sum_hessian":[1.72645E2,9.356791E1,7.9077095E1,1.1567998E0,7.7920296E1,7.623068E1,1.6896116E0],"tree_param":{"num_deleted":"0","num_feature":"777","num_nodes":"7","size_leaf_vector":"1"}},{"base_weights":[-3.0911043E-2,-1.1212431E-1,1.5688726E0,4.43298E-2,1.5892252E0,5.2686878E-2,1.285988E-1],"categories":[],"categories_nodes":[],"categories_segments":[],"categories_sizes":[],"default_left":[0,0,0,0,0,0,0],"id":5,"left_children":[1,-1,3,-1,5,-1,-1],"loss_changes":[3.6362384E2,0E0,1.269577E0,0E0,9.3621826E-1,0E0,0E0],"parents":[2147483647,0,0,2,2,4,4],"right_children":[2,-1,4,-1,6,-1,-1],"split_conditions":[7.4227554E-1,-1.1212431E-1,-1.2589556E0,4.43298E-2,-1.0332509E0,5.2686878E-2,1.285988E-1],"split_indices":[776,0,392,0,627,0,0],"split_type":[0,0,0,0,0,0,0],"sum_hessian":[1.6572041E2,8.92965E1,7.6423904E1,1.6519036E0,7.4772E1,1.6081119E0,7.3163895E1],"tree_param":{"num_deleted":"0","num_feature":"777","num_nodes":"7","size_leaf_vector":"1"}},{"base_weights":[-5.9726205E-2,-1.087686E-1,1.492871E0,1.5146713E0,3.3827882E-2,1.2283871E-1,3.943054E-2],"categories":[],"categories_nodes":[],"categories_segments":[],"categories_sizes":[],"default_left":[0,0,0,0,0,0,0],"id":6,"left_children":[1,-1,3,5,-1,-1,-1],"loss_changes":[3.318409E2,0E0,1.4760437E0,1.2692108E0,0E0,0E0,0E0],"parents":[2147483647,0,0,2,2,3,3],"right_children":[2,-1,4,6,-1,-1,-1],"split_conditions":[7.504581E-1,-1.087686E-1,1.4834846E0,1.1194531E0,3.3827882E-2,1.2283871E-1,3.943054E-2],"split_indices":[776,0,435,645,0,0,0],"split_type":[0,0,0,0,0,0,0],"sum_hessian":[1.6431244E2,8.9480995E1,7.483144E1,7.320295E1,1.6284926E0,7.159699E1,1.6059557E0],"tree_param":{"num_deleted":"0","num_feature":"777","num_nodes":"7","size_leaf_vector":"1"}},{"base_weights":[9.978619E-3,-1.1552471E0,1.1344433E0,-1.2383806E0,1.14688165E-1,-3.9403614E-1,1.2770535E0,-1.0577305E-1,9.3632564E-2,1.0978192E-1,-1.045075E-1,-3.7556544E-1,1.3524551E0,1.0270613E-1,-1.1027667E-1,1.4004751E0,-0E0,8.22356E-3,1.4397308E0,-1.0042581E-1,1.0270613E-1,3.5445713E-2,1.4637697E0,1.1845989E-1,5.1763944E-2],"categories":[],"categories_nodes":[],"categories_segments":[],"categories_sizes":[],"default_left":[0,0,0,0,0,0,0,0,0,0,0,0,0,0,0,0,0,0,0,0,0,0,0,0,0],"id":7,"left_children":[1,3,5,7,-1,9,11,-1,-1,-1,-1,13,15,-1,-1,17,19,-1,21,-1,-1,-1,23,-1,-1],"loss_changes":[1.9934998E2,1.6153038E1,1.7025063E1,1.4726761E1,0E0,1.0712751E1,8.989319E0,0E0,0E0,0E0,0E0,5.2325706E0,4.5384293E0,0E0,0E0,3.1516113E0,3.8416371E0,0E0,1.2572784E0,0E0,0E0,0E0,5.4707336E-1,0E0,0E0],"parents":[2147483647,0,0,1,1,2,2,3,3,5,5,6,6,11,11,12,12,15,15,16,16,18,18,22,22],"right_children":[2,4,6,8,-1,10,12,-1,-1,-1,-1,14,16,-1,-1,18,20,-1,22,-1,-1,-1,24,-1,-1],"split_conditions":[7.696299E-1,2.6476924E0,1.6E1,2.3394904E0,1.14688165E-1,-1.1284791E0,-3.9833513E-1,-1.0577305E-1,9.3632564E-2,1.0978192E-1,-1.045075E-1,-2.07528E0,1.6418778E0,1.0270613E-1,-1.1027667E-1,-6.440047E-1,-3.7124783E-1,8.22356E-3,-1.1097887E0,-1.0042581E-1,1.0270613E-1,3.5445713E-2,6.6265786E-1,1.1845989E-1,5.1763944E-2],"split_indices":[775,211,768,388,0,623,129,0,0,0,0,611,690,0,0,595,306,0,550,0,0,0,424,0,0],"split_type":[0,0,0,0,0,0,0,0,0,0,0,0,0,0,0,0,0,0,0,0,0,0,0,0,0],"sum_hessian":[1.5202783E2,7.46075E1,7.742033E1,7.2361465E1,2.2460308E0,6.5261874E0,7.089414E1,7.000349E1,2.3579812E0,2.167645E0,4.3585424E0,3.0135822E0,6.788056E1,1.0838225E0,1.9297599E0,6.561525E1,2.2653081E0,2.022754E0,6.3592495E1,1.1814857E0,1.0838225E0,1.64272E0,6.1949776E1,6.0496395E1,1.4533813E0],"tree_param":{"num_deleted":"0","num_feature":"777","num_nodes":"25","size_leaf_vector":"1"}},{"base_weights":[-2.355619E-2,-1.0324544E-1,1.3643603E0,1.3981683E0,1.3085473E-3,2.9307773E-2,1.4203539E0,1.431345E0,5.974704E-2,1.1525243E-1,6.646641E-2],"categories":[],"categories_nodes":[],"categories_segments":[],"categories_sizes":[],"default_left":[0,0,0,0,0,0,0,0,0,0,0],"id":8,"left_children":[1,-1,3,5,-1,-1,7,9,-1,-1,-1],"loss_changes":[2.4681107E2,0E0,2.879486E0,1.2472E0,0E0,0E0,1.4607239E-1,4.722595E-3,0E0,0E0,0E0],"parents":[2147483647,0,0,2,2,3,3,6,6,7,7],"right_children":[2,-1,4,6,-1,-1,8,10,-1,-1,-1],"split_conditions":[7.4227554E-1,-1.0324544E-1,3.0818012E-1,-1.0963215E0,1.3085473E-3,2.9307773E-2,1.0101435E0,1.5748466E0,5.974704E-2,1.1525243E-1,6.646641E-2],"split_indices":[776,0,21,26,0,0,632,320,0,0,0],"split_type":[0,0,0,0,0,0,0,0,0,0,0],"sum_hessian":[1.4023761E2,7.335939E1,6.687821E1,6.515292E1,1.7252873E0,1.5073619E0,6.364556E1,6.2381874E1,1.2636883E0,6.115004E1,1.2318354E0],"tree_param":{"num_deleted":"0","num_feature":"777","num_nodes":"11","size_leaf_vector":"1"}},{"base_weights":[4.7719333E-2,-1.0094488E-1,1.3266424E0,-0E0,1.3589058E0,1.378847E0,2.337322E-2,6.309322E-2,1.1177344E-1],"categories":[],"categories_nodes":[],"categories_segments":[],"categories_sizes":[],"default_left":[0,0,0,0,0,0,0,0,0],"id":9,"left_children":[1,-1,3,-1,5,7,-1,-1,-1],"loss_changes":[2.461316E2,0E0,3.2024689E0,0E0,1.3204651E0,4.412079E-1,0E0,0E0,0E0],"parents":[2147483647,0,0,2,2,4,4,5,5],"right_children":[2,-1,4,-1,6,8,-1,-1,-1],"split_conditions":[7.4227554E-1,-1.0094488E-1,-1.0363545E0,-0E0,1.7454699E0,-1.3267157E0,2.337322E-2,6.309322E-2,1.1177344E-1],"split_indices":[776,0,105,0,402,352,0,0,0],"split_type":[0,0,0,0,0,0,0,0,0],"sum_hessian":[1.4683817E2,7.2504974E1,7.43332E1,1.7563479E0,7.257685E1,7.1117355E1,1.4594889E0,2.418004E0,6.8699356E1],"tree_param":{"num_deleted":"0","num_feature":"777","num_nodes":"9","size_leaf_vector":"1"}},{"base_weights":[-0E0,-9.885846E-2,1.2839376E0,-1.08272016E-1,1.3322037E0,1.0849818E-1,5.001027E-2],"categories":[],"categories_nodes":[],"categories_segments":[],"categories_sizes":[],"default_left":[0,0,0,0,0,0,0],"id":10,"left_children":[1,-1,3,-1,5,-1,-1],"loss_changes":[2.1359564E2,0E0,8.515549E0,0E0,8.1469727E-1,0E0,0E0],"parents":[2147483647,0,0,2,2,4,4],"right_children":[2,-1,4,-1,6,-1,-1],"split_conditions":[7.4227554E-1,-9.885846E-2,1E0,-1.08272016E-1,1.1130779E0,1.0849818E-1,5.001027E-2],"split_indices":[776,0,774,0,246,0,0],"split_type":[0,0,0,0,0,0,0],"sum_hessian":[1.3450131E2,6.8494675E1,6.600664E1,1.1124443E0,6.4894196E1,6.2544395E1,2.3497963E0],"tree_param":{"num_deleted":"0","num_feature":"777","num_nodes":"7","size_leaf_vector":"1"}},{"base_weights":[9.084624E-3,-9.709064E-2,1.2493975E0,-1.0791872E-1,1.3078924E0,1.0571678E-1,3.6228884E-2],"categories":[],"categories_nodes":[],"categories_segments":[],"categories_sizes":[],"default_left":[0,0,0,0,0,0,0],"id":11,"left_children":[1,-1,3,-1,5,-1,-1],"loss_changes":[1.9178976E2,0E0,9.65023E0,0E0,4.648285E-1,0E0,0E0],"parents":[2147483647,0,0,2,2,4,4],"right_children":[2,-1,4,-1,6,-1,-1],"split_conditions":[7.4227554E-1,-9.709064E-2,1E0,-1.0791872E-1,8.237912E-1,1.0571678E-1,3.6228884E-2],"split_indices":[776,0,774,0,36,0,0],"split_type":[0,0,0,0,0,0,0],"sum_hessian":[1.2634149E2,6.3573948E1,6.2767544E1,1.3076098E0,6.1459934E1,6.032957E1,1.1303632E0],"tree_param":{"num_deleted":"0","num_feature":"777","num_nodes":"7","size_leaf_vector":"1"}},{"base_weights":[-5.9593193E-2,-9.546508E-2,1.1865765E0,-1.0301781E-1,1.2399417E0,1.0292507E-1,2.0800404E-1,3.8899057E-2,-0E0],"categories":[],"categories_nodes":[],"categories_segments":[],"categories_sizes":[],"default_left":[0,0,0,0,0,0,0,0,0],"id":12,"left_children":[1,-1,3,-1,5,-1,7,-1,-1],"loss_changes":[1.6123828E2,0E0,7.2622375E0,0E0,2.3664398E0,0E0,1.6809027E-1,0E0,0E0],"parents":[2147483647,0,0,2,2,4,4,6,6],"right_children":[2,-1,4,-1,6,-1,8,-1,-1],"split_conditions":[7.4227554E-1,-9.546508E-2,1E0,-1.0301781E-1,1.1405072E0,1.0292507E-1,1.6217634E-2,3.8899057E-2,-0E0],"split_indices":[776,0,774,0,303,0,6,0,0],"split_type":[0,0,0,0,0,0,0,0,0],"sum_hessian":[1.140054E2,5.9747826E1,5.4257576E1,1.068735E0,5.3188843E1,5.0764282E1,2.4245622E0,1.1056278E0,1.3189344E0],"tree_param":{"num_deleted":"0","num_feature":"777","num_nodes":"9","size_leaf_vector":"1"}},{"base_weights":[3.8958587E-2,-9.401689E-2,1.1824358E0,-9.977918E-2,1.2351259E0,1.00935884E-1,3.417185E-2],"categories":[],"categories_nodes":[],"categories_segments":[],"categories_sizes":[],"default_left":[0,0,0,0,0,0,0],"id":13,"left_children":[1,-1,3,-1,5,-1,-1],"loss_changes":[1.6305862E2,0E0,7.840439E0,0E0,1.038765E0,0E0,0E0],"parents":[2147483647,0,0,2,2,4,4],"right_children":[2,-1,4,-1,6,-1,-1],"split_conditions":[7.4227554E-1,-9.401689E-2,1E0,-9.977918E-2,1.4377638E0,1.00935884E-1,3.417185E-2],"split_indices":[776,0,774,0,569,0,0],"split_type":[0,0,0,0,0,0,0],"sum_hessian":[1.1732497E2,5.685182E1,6.0473145E1,1.2063757E0,5.926677E1,5.720326E1,2.0635107E0],"tree_param":{"num_deleted":"0","num_feature":"777","num_nodes":"7","size_leaf_vector":"1"}},{"base_weights":[9.591745E-3,-9.271966E-2,1.1583941E0,1.2007498E0,-1.6899956E-2,1.2264801E0,1.1950694E-2,4.5350414E-2,9.8975144E-2],"categories":[],"categories_nodes":[],"categories_segments":[],"categories_sizes":[],"default_left":[0,0,0,0,0,0,0,0,0],"id":14,"left_children":[1,-1,3,5,-1,7,-1,-1,-1],"loss_changes":[1.3728064E2,0E0,3.1284256E0,1.1809158E0,0E0,8.646393E-2,0E0,0E0,0E0],"parents":[2147483647,0,0,2,2,3,3,5,5],"right_children":[2,-1,4,6,-1,8,-1,-1,-1],"split_conditions":[7.4227554E-1,-9.271966E-2,5.862213E-1,1.1340425E0,-1.6899956E-2,-1.0963215E0,1.1950694E-2,4.5350414E-2,9.8975144E-2],"split_indices":[776,0,244,623,0,26,0,0,0],"split_type":[0,0,0,0,0,0,0,0,0],"sum_hessian":[1.0213933E2,5.05816E1,5.1557724E1,5.0103313E1,1.4544113E0,4.878525E1,1.3180616E0,1.0101416E0,4.777511E1],"tree_param":{"num_deleted":"0","num_feature":"777","num_nodes":"9","size_leaf_vector":"1"}},{"base_weights":[-2.8008193E-2,-9.154083E-2,1.124175E0,4.5203054E-1,1.1909859E0,-1.2228834E-1,9.992501E-2,4.021349E-2,9.630644E-2],"categories":[],"categories_nodes":[],"categories_segments":[],"categories_sizes":[],"default_left":[0,0,0,0,0,0,0,0,0],"id":15,"left_children":[1,-1,3,5,7,-1,-1,-1,-1],"loss_changes":[1.2638631E2,0E0,1.9396629E0,7.3842454E0,1.4559937E-1,0E0,0E0,0E0,0E0],"parents":[2147483647,0,0,2,2,3,3,4,4],"right_children":[2,-1,4,6,8,-1,-1,-1,-1],"split_conditions":[7.4227554E-1,-9.154083E-2,7.7554715E-1,-2.348419E-2,-1.934285E0,-1.2228834E-1,9.992501E-2,4.021349E-2,9.630644E-2],"split_indices":[776,0,776,45,286,0,0,0,0],"split_type":[0,0,0,0,0,0,0,0,0],"sum_hessian":[9.814704E1,4.990393E1,4.824311E1,4.566311E0,4.36768E1,1.2512667E0,3.3150442E0,1.0153781E0,4.2661423E1],"tree_param":{"num_deleted":"0","num_feature":"777","num_nodes":"9","size_leaf_vector":"1"}},{"base_weights":[-4.245365E-2,-9.048177E-2,1.1300462E0,1.1727827E0,-9.304486E-3,4.623321E-2,9.5527746E-2],"categories":[],"categories_nodes":[],"categories_segments":[],"categories_sizes":[],"default_left":[0,0,0,0,0,0,0],"id":16,"left_children":[1,-1,3,5,-1,-1,-1],"loss_changes":[1.14657875E2,0E0,2.4358368E0,2.7674484E-1,0E0,0E0,0E0],"parents":[2147483647,0,0,2,2,3,3],"right_children":[2,-1,4,6,-1,-1,-1],"split_conditions":[7.4227554E-1,-9.048177E-2,1.4834846E0,-8.6069024E-1,-9.304486E-3,4.623321E-2,9.5527746E-2],"split_indices":[776,0,435,269,0,0,0],"split_type":[0,0,0,0,0,0,0],"sum_hessian":[8.971269E1,4.65756E1,4.3137096E1,4.1803513E1,1.3335836E0,1.6991097E0,4.0104404E1],"tree_param":{"num_deleted":"0","num_feature":"777","num_nodes":"7","size_leaf_vector":"1"}},{"base_weights":[-0E0,-8.954479E-2,1.0991758E0,1.1328877E0,-6.7752493E-3,-0E0,9.343721E-2],"categories":[],"categories_nodes":[],"categories_segments":[],"categories_sizes":[],"default_left":[0,0,0,0,0,0,0],"id":17,"left_children":[1,-1,3,5,-1,-1,-1],"loss_changes":[1.0465416E2,0E0,1.8460617E0,1.7224045E0,0E0,0E0,0E0],"parents":[2147483647,0,0,2,2,3,3],"right_children":[2,-1,4,6,-1,-1,-1],"split_conditions":[7.4227554E-1,-8.954479E-2,1.4036846E0,-1.0332509E0,-6.7752493E-3,-0E0,9.343721E-2],"split_indices":[776,0,80,627,0,0,0],"split_type":[0,0,0,0,0,0,0],"sum_hessian":[8.494417E1,4.2044952E1,4.2899216E1,4.1812508E1,1.086709E0,1.2147095E0,4.0597797E1],"tree_param":{"num_deleted":"0","num_feature":"777","num_nodes":"7","size_leaf_vector":"1"}},{"base_weights":[1.9303942E-2,-1.0582504E0,1.0893348E0,7.8664646E-2,-8.935647E-2,1.1305616E0,-2.7361607E-2,9.261165E-2,-0E0],"categories":[],"categories_nodes":[],"categories_segments":[],"categories_sizes":[],"default_left":[0,0,0,0,0,0,0,0,0],"id":18,"left_children":[1,3,5,-1,-1,7,-1,-1,-1],"loss_changes":[9.535747E1,5.013733E0,2.569687E0,0E0,0E0,1.1092796E0,0E0,0E0,0E0],"parents":[2147483647,0,0,1,1,2,2,5,5],"right_children":[2,4,6,-1,-1,8,-1,-1,-1],"split_conditions":[7.5622517E-1,-2.4810262E0,1.1130779E0,7.8664646E-2,-8.935647E-2,1.936209E0,-2.7361607E-2,9.261165E-2,-0E0],"split_indices":[776,371,246,0,0,516,0,0,0],"split_type":[0,0,0,0,0,0,0,0,0],"sum_hessian":[8.2579384E1,4.1089497E1,4.1489887E1,1.0649621E0,4.0024536E1,4.042207E1,1.0678146E0,3.937774E1,1.0443313E0],"tree_param":{"num_deleted":"0","num_feature":"777","num_nodes":"9","size_leaf_vector":"1"}},{"base_weights":[5.3370586E-3,-8.786304E-2,1.0275451E0,-3.8683772E-2,1.0809721E0,1.1131914E0,-0E0,3.112285E-2,9.09945E-2],"categories":[],"categories_nodes":[],"categories_segments":[],"categories_sizes":[],"default_left":[0,0,0,0,0,0,0,0,0],"id":19,"left_children":[1,-1,3,-1,5,7,-1,-1,-1],"loss_changes":[8.71046E1,0E0,3.3440285E0,0E0,1.4116402E0,4.5362854E-1,0E0,0E0,0E0],"parents":[2147483647,0,0,2,2,4,4,5,5],"right_children":[2,-1,4,-1,6,8,-1,-1,-1],"split_conditions":[7.4227554E-1,-8.786304E-2,-1.0363545E0,-3.8683772E-2,1.347229E0,-1.491999E0,-0E0,3.112285E-2,9.09945E-2],"split_indices":[776,0,105,0,580,575,0,0,0],"split_type":[0,0,0,0,0,0,0,0,0],"sum_hessian":[7.709869E1,3.7014347E1,4.008434E1,1.2756501E0,3.880869E1,3.7730442E1,1.0782472E0,1.4155316E0,3.631491E1],"tree_param":{"num_deleted":"0","num_feature":"777","num_nodes":"9","size_leaf_vector":"1"}},{"base_weights":[-2.4291933E-2,-9.9841386E-1,1.1126139E0,-1.0866052E0,4.7975693E-2,9.044188E-2,4.0682238E-2,-1.1172533E0,-0E0,-8.7230936E-2,-1.277847E-1],"categories":[],"categories_nodes":[],"categories_segments":[],"categories_sizes":[],"default_left":[0,0,0,0,0,0,0,0,0,0,0],"id":20,"left_children":[1,3,5,7,-1,-1,-1,9,-1,-1,-1],"loss_changes":[7.980936E1,5.5762634E0,1.2804031E-1,1.1888809E0,0E0,0E0,0E0,3.5812378E-2,0E0,0E0,0E0],"parents":[2147483647,0,0,1,1,2,2,3,3,7,7],"right_children":[2,4,6,8,-1,-1,-1,10,-1,-1,-1],"split_conditions":[7.7554715E-1,2.1494064E0,2.063652E0,2.0706131E0,4.7975693E-2,9.044188E-2,4.0682238E-2,7.4334997E-1,-0E0,-8.7230936E-2,-1.277847E-1],"split_indices":[776,454,278,323,0,0,0,776,0,0,0],"split_type":[0,0,0,0,0,0,0,0,0,0,0],"sum_hessian":[7.195579E1,3.8812973E1,3.3142815E1,3.6872467E1,1.9405057E0,3.1944796E1,1.198018E0,3.5826454E1,1.0460142E0,3.4350277E1,1.476178E0],"tree_param":{"num_deleted":"0","num_feature":"777","num_nodes":"11","size_leaf_vector":"1"}},{"base_weights":[1.63008E-2,-8.6514354E-2,1.0110866E0,-9.31042E-2,1.0844834E0,9.01307E-2,-1.3983566E-2],"categories":[],"categories_nodes":[],"categories_segments":[],"categories_sizes":[],"default_left":[0,0,0,0,0,0,0],"id":21,"left_children":[1,-1,3,-1,5,-1,-1],"loss_changes":[7.442338E1,0E0,5.7831497E0,0E0,1.9694252E0,0E0,0E0],"parents":[2147483647,0,0,2,2,4,4],"right_children":[2,-1,4,-1,6,-1,-1],"split_conditions":[7.4227554E-1,-8.6514354E-2,1E0,-9.31042E-2,1.4447907E0,9.01307E-2,-1.3983566E-2],"split_indices":[776,0,774,0,212,0,0],"split_type":[0,0,0,0,0,0,0],"sum_hessian":[6.804052E1,3.2286747E1,3.575377E1,1.0847309E0,3.4669037E1,3.3644505E1,1.0245335E0],"tree_param":{"num_deleted":"0","num_feature":"777","num_nodes":"7","size_leaf_vector":"1"}},{"base_weights":[2.645048E-2,-8.5927725E-2,1.0446708E0,-0E0,1.0790945E0,3.7229884E-2,8.909189E-2],"categories":[],"categories_nodes":[],"categories_segments":[],"categories_sizes":[],"default_left":[0,0,0,0,0,0,0],"id":22,"left_children":[1,-1,3,-1,5,-1,-1],"loss_changes":[7.284448E1,0E0,1.2494164E0,0E0,4.7441483E-1,0E0,0E0],"parents":[2147483647,0,0,2,2,4,4],"right_children":[2,-1,4,-1,6,-1,-1],"split_conditions":[7.4227554E-1,-8.5927725E-2,-1.8253773E0,-0E0,-1.2937689E0,3.7229884E-2,8.909189E-2],"split_indices":[776,0,286,0,352,0,0],"split_type":[0,0,0,0,0,0,0],"sum_hessian":[6.488801E1,3.1125145E1,3.3762863E1,1.050541E0,3.2712322E1,1.9749994E0,3.0737324E1],"tree_param":{"num_deleted":"0","num_feature":"777","num_nodes":"7","size_leaf_vector":"1"}},{"base_weights":[5.7735145E-3,-8.5351475E-2,9.51852E-1,-9.1466226E-2,1.0297029E0,8.8340044E-2,-1.4927035E-2],"categories":[],"categories_nodes":[],"categories_segments":[],"categories_sizes":[],"default_left":[0,0,0,0,0,0,0],"id":23,"left_children":[1,-1,3,-1,5,-1,-1],"loss_changes":[6.1071583E1,0E0,5.283579E0,0E0,2.9316483E0,0E0,0E0],"parents":[2147483647,0,0,2,2,4,4],"right_children":[2,-1,4,-1,6,-1,-1],"split_conditions":[7.4227554E-1,-8.5351475E-2,1E0,-9.1466226E-2,1.4447907E0,8.8340044E-2,-1.4927035E-2],"split_indices":[776,0,774,0,212,0,0],"split_type":[0,0,0,0,0,0,0],"sum_hessian":[6.007286E1,2.8089916E1,3.1982943E1,1.061178E0,3.0921764E1,2.9234163E1,1.6876014E0],"tree_param":{"num_deleted":"0","num_feature":"777","num_nodes":"7","size_leaf_vector":"1"}},{"base_weights":[1.2707425E-2,-8.4809415E-2,9.490943E-1,1.0231959E0,-5.6300122E-2,1.8858837E-2,1.0546004E0,8.658661E-2,1.9656798E-2],"categories":[],"categories_nodes":[],"categories_segments":[],"categories_sizes":[],"default_left":[0,0,0,0,0,0,0,0,0],"id":24,"left_children":[1,-1,3,5,-1,-1,7,-1,-1],"loss_changes":[5.6089684E1,0E0,3.7410908E0,5.397663E-1,0E0,0E0,4.3992805E-1,0E0,0E0],"parents":[2147483647,0,0,2,2,3,3,6,6],"right_children":[2,-1,4,6,-1,-1,8,-1,-1],"split_conditions":[7.4227554E-1,-8.4809415E-2,1.1130779E0,-1.0963215E0,-5.6300122E-2,1.8858837E-2,8.744809E-1,8.658661E-2,1.9656798E-2],"split_indices":[776,0,246,26,0,0,77,0,0],"split_type":[0,0,0,0,0,0,0,0,0],"sum_hessian":[5.5727173E1,2.5908052E1,2.981912E1,2.8630976E1,1.1881461E0,1.26415E0,2.7366825E1,2.6296629E1,1.0701963E0],"tree_param":{"num_deleted":"0","num_feature":"777","num_nodes":"9","size_leaf_vector":"1"}},{"base_weights":[1.5350179E-3,-8.4331974E-2,9.2928946E-1,1.0075711E0,-5.120852E-2,1.0491296E0,1.80586E-3,8.700327E-2,1.32298125E-2],"categories":[],"categories_nodes":[],"categories_segments":[],"categories_sizes":[],"default_left":[0,0,0,0,0,0,0,0,0],"id":25,"left_children":[1,-1,3,5,-1,7,-1,-1,-1],"loss_changes":[5.039009E1,0E0,3.4554482E0,9.4428253E-1,0E0,6.8967056E-1,0E0,0E0,0E0],"parents":[2147483647,0,0,2,2,3,3,5,5],"right_children":[2,-1,4,6,-1,8,-1,-1,-1],"split_conditions":[7.4227554E-1,-8.4331974E-2,1.322268E0,1.5032977E0,-5.120852E-2,1.5019242E0,1.80586E-3,8.700327E-2,1.32298125E-2],"split_indices":[776,0,212,340,0,138,0,0,0],"split_type":[0,0,0,0,0,0,0,0,0],"sum_hessian":[5.1344395E1,2.3952034E1,2.7392359E1,2.6184229E1,1.2081307E0,2.5003557E1,1.1806705E0,2.3818691E1,1.1848658E0],"tree_param":{"num_deleted":"0","num_feature":"777","num_nodes":"9","size_leaf_vector":"1"}},{"base_weights":[-1.8353201E-2,-8.38725E-2,9.0063006E-1,9.9967235E-1,-2.4408229E-2,1.0411792E0,2.5319015E-3,2.877234E-2,8.6338505E-2],"categories":[],"categories_nodes":[],"categories_segments":[],"categories_sizes":[],"default_left":[0,0,0,0,0,0,0,0,0],"id":26,"left_children":[1,-1,3,5,-1,7,-1,-1,-1],"loss_changes":[4.3706596E1,0E0,3.0072021E0,7.769413E-1,0E0,3.6266327E-1,0E0,0E0,0E0],"parents":[2147483647,0,0,2,2,3,3,5,5],"right_children":[2,-1,4,6,-1,8,-1,-1,-1],"split_conditions":[7.4227554E-1,-8.38725E-2,7.984449E-1,1.964788E0,-2.4408229E-2,-1.3523194E0,2.5319015E-3,2.877234E-2,8.6338505E-2],"split_indices":[776,0,246,547,0,427,0,0,0],"split_type":[0,0,0,0,0,0,0,0,0],"sum_hessian":[4.6033543E1,2.17627E1,2.4270844E1,2.252995E1,1.7408952E0,2.1480415E1,1.0495343E0,1.3358394E0,2.0144575E1],"tree_param":{"num_deleted":"0","num_feature":"777","num_nodes":"9","size_leaf_vector":"1"}},{"base_weights":[2.6795814E-2,-8.347271E-2,9.3941575E-1,-9.0820014E-2,1.041301E0,1.6635794E-2,8.5887134E-2],"categories":[],"categories_nodes":[],"categories_segments":[],"categories_sizes":[],"default_left":[0,0,0,0,0,0,0],"id":27,"left_children":[1,-1,3,-1,5,-1,-1],"loss_changes":[4.4082466E1,0E0,5.2230415E0,0E0,4.6165657E-1,0E0,0E0],"parents":[2147483647,0,0,2,2,4,4],"right_children":[2,-1,4,-1,6,-1,-1],"split_conditions":[7.3970366E-1,-8.347271E-2,1E0,-9.0820014E-2,-1.6653922E0,1.6635794E-2,8.5887134E-2],"split_indices":[776,0,774,0,7,0,0],"split_type":[0,0,0,0,0,0,0],"sum_hessian":[4.5027107E1,2.0659815E1,2.4367294E1,1.0570233E0,2.331027E1,1.024746E0,2.2285524E1],"tree_param":{"num_deleted":"0","num_feature":"777","num_nodes":"7","size_leaf_vector":"1"}},{"base_weights":[2.3583597E-2,-8.943202E-1,8.4965065E-2,-1.0295742E0,5.268795E-2,-0E0,-8.640947E-2],"categories":[],"categories_nodes":[],"categories_segments":[],"categories_sizes":[],"default_left":[0,0,0,0,0,0,0],"id":28,"left_children":[1,3,-1,5,-1,-1,-1],"loss_changes":[3.862575E1,4.5879135E0,0E0,9.351082E-1,0E0,0E0,0E0],"parents":[2147483647,0,0,1,1,3,3],"right_children":[2,4,-1,6,-1,-1,-1],"split_conditions":[7.7554715E-1,2.0645504E0,8.4965065E-2,-1.9060692E0,5.268795E-2,-0E0,-8.640947E-2],"split_indices":[776,601,0,7,0,0,0],"split_type":[0,0,0,0,0,0,0],"sum_hessian":[4.0380245E1,2.1377563E1,1.900268E1,1.9754509E1,1.6230551E0,1.0095298E0,1.874498E1],"tree_param":{"num_deleted":"0","num_feature":"777","num_nodes":"7","size_leaf_vector":"1"}},{"base_weights":[-2.6599886E-2,-8.366034E-2,7.575648E-1,-7.358608E-2,8.870108E-1,-1.8337965E-2,9.756754E-1,1.0129572E0,2.4853326E-2,4.753886E-2,8.382676E-2],"categories":[],"categories_nodes":[],"categories_segments":[],"categories_sizes":[],"default_left":[0,0,0,0,0,0,0,0,0,0,0],"id":29,"left_children":[1,-1,3,-1,5,-1,7,9,-1,-1,-1],"loss_changes":[2.9890608E1,0E0,4.615143E0,0E0,2.0464582E0,0E0,2.760582E-1,1.581192E-2,0E0,0E0,0E0],"parents":[2147483647,0,0,2,2,4,4,6,6,7,7],"right_children":[2,-1,4,-1,6,-1,8,10,-1,-1,-1],"split_conditions":[1E0,-8.366034E-2,7.54229E-1,-7.358608E-2,-4.8729697E-1,-1.8337965E-2,-4.6458766E-3,-6.778924E-1,2.4853326E-2,4.753886E-2,8.382676E-2],"split_indices":[774,0,775,0,129,0,411,105,0,0,0],"split_type":[0,0,0,0,0,0,0,0,0,0,0],"sum_hessian":[3.7238613E1,1.6250874E1,2.0987741E1,1.4109501E0,1.9576792E1,1.3339987E0,1.8242792E1,1.707376E1,1.1690328E0,1.6605753E0,1.5413184E1],"tree_param":{"num_deleted":"0","num_feature":"777","num_nodes":"11","size_leaf_vector":"1"}},{"base_weights":[-1.6343994E-2,-9.749261E-1,8.9828753E-1,-0E0,-8.329604E-2,1.0007904E0,-3.5790574E-2,8.409854E-2,1.937415E-2],"categories":[],"categories_nodes":[],"categories_segments":[],"categories_sizes":[],"default_left":[0,0,0,0,0,0,0,0,0],"id":30,"left_children":[1,3,5,-1,-1,7,-1,-1,-1],"loss_changes":[3.1223492E1,1.2322903E0,2.5975237E0,0E0,0E0,4.7894478E-1,0E0,0E0,0E0],"parents":[2147483647,0,0,1,1,2,2,5,5],"right_children":[2,4,6,-1,-1,8,-1,-1,-1],"split_conditions":[7.504581E-1,-1.941413E0,8.344381E-1,-0E0,-8.329604E-2,1.738237E0,-3.5790574E-2,8.409854E-2,1.937415E-2],"split_indices":[776,453,468,0,0,513,0,0,0],"split_type":[0,0,0,0,0,0,0,0,0],"sum_hessian":[3.548237E1,1.7387058E1,1.809531E1,1.0136918E0,1.6373365E1,1.6911661E1,1.1836488E0,1.5687264E1,1.2243963E0],"tree_param":{"num_deleted":"0","num_feature":"777","num_nodes":"9","size_leaf_vector":"1"}},{"base_weights":[-4.267479E-2,-8.214348E-2,8.536547E-1,9.908081E-1,-7.649061E-2,2.7975325E-2,8.3824165E-2],"categories":[],"categories_nodes":[],"categories_segments":[],"categories_sizes":[],"default_left":[0,0,0,0,0,0,0],"id":31,"left_children":[1,-1,3,5,-1,-1,-1],"loss_changes":[2.960428E1,0E0,4.4022226E0,4.0768814E-1,0E0,0E0,0E0],"parents":[2147483647,0,0,2,2,3,3],"right_children":[2,-1,4,6,-1,-1,-1],"split_conditions":[7.4227554E-1,-8.214348E-2,7.9934865E-1,-8.628678E-1,-7.649061E-2,2.7975325E-2,8.3824165E-2],"split_indices":[776,0,468,595,0,0,0],"split_type":[0,0,0,0,0,0,0],"sum_hessian":[3.3418167E1,1.59886675E1,1.74295E1,1.6288542E1,1.1409578E0,1.5366476E0,1.4751894E1],"tree_param":{"num_deleted":"0","num_feature":"777","num_nodes":"7","size_leaf_vector":"1"}},{"base_weights":[3.4666784E-2,-9.635081E-1,9.104433E-1,-8.265997E-2,-0E0,1.0106069E0,-3.8395397E-2,3.159274E-2,8.343585E-2],"categories":[],"categories_nodes":[],"categories_segments":[],"categories_sizes":[],"default_left":[0,0,0,0,0,0,0,0,0],"id":32,"left_children":[1,3,5,-1,-1,7,-1,-1,-1],"loss_changes":[2.8918732E1,1.0388584E0,2.5560598E0,0E0,0E0,1.3326645E-1,0E0,0E0,0E0],"parents":[2147483647,0,0,1,1,2,2,5,5],"right_children":[2,4,6,-1,-1,8,-1,-1,-1],"split_conditions":[7.504581E-1,1.7875465E0,7.9934865E-1,-8.265997E-2,-0E0,-1.8235568E0,-3.8395397E-2,3.159274E-2,8.343585E-2],"split_indices":[776,277,468,0,0,448,0,0,0],"split_type":[0,0,0,0,0,0,0,0,0],"sum_hessian":[3.2968124E1,1.5340549E1,1.7627575E1,1.4304797E1,1.0357523E0,1.6538813E1,1.0887623E0,1.0501243E0,1.54886875E1],"tree_param":{"num_deleted":"0","num_feature":"777","num_nodes":"9","size_leaf_vector":"1"}},{"base_weights":[3.8501076E-2,-8.223089E-2,9.198087E-1,8.143012E-2,4.031361E-3],"categories":[],"categories_nodes":[],"categories_segments":[],"categories_sizes":[],"default_left":[0,0,0,0,0],"id":33,"left_children":[1,-1,3,-1,-1],"loss_changes":[2.7986876E1,0E0,1.2646561E0,0E0,0E0],"parents":[2147483647,0,0,2,2],"right_children":[2,-1,4,-1,-1],"split_conditions":[7.504581E-1,-8.223089E-2,1.4965668E0,8.143012E-2,4.031361E-3],"split_indices":[776,0,538,0,0],"split_type":[0,0,0,0,0],"sum_hessian":[2.9672567E1,1.3360339E1,1.6312227E1,1.452552E1,1.7867078E0],"tree_param":{"num_deleted":"0","num_feature":"777","num_nodes":"5","size_leaf_vector":"1"}},{"base_weights":[-0E0,-8.64501E-1,9.906816E-1,-8.543295E-2,-9.739252E-3,8.259805E-2,2.8850028E-2,-7.2771065E-2,6.332533E-2],"categories":[],"categories_nodes":[],"categories_segments":[],"categories_sizes":[],"default_left":[0,0,0,0,0,0,0,0,0],"id":34,"left_children":[1,3,5,-1,7,-1,-1,-1,-1],"loss_changes":[2.3649473E1,2.428381E0,1.4996338E-1,0E0,2.2224128E0,0E0,0E0,0E0,0E0],"parents":[2147483647,0,0,1,1,2,2,4,4],"right_children":[2,4,6,-1,8,-1,-1,-1,-1],"split_conditions":[7.7554715E-1,1.0858269E0,6.8494296E-1,-8.543295E-2,7.4227554E-1,8.259805E-2,2.8850028E-2,-7.2771065E-2,6.332533E-2],"split_indices":[776,129,540,0,776,0,0,0,0],"split_type":[0,0,0,0,0,0,0,0,0],"sum_hessian":[2.7485977E1,1.4654177E1,1.28317995E1,1.1711739E1,2.9424384E0,1.1819016E1,1.0127832E0,1.4526722E0,1.4897662E0],"tree_param":{"num_deleted":"0","num_feature":"777","num_nodes":"9","size_leaf_vector":"1"}},{"base_weights":[-2.2318486E-2,-8.220078E-2,6.90804E-1,-5.8075268E-2,8.477409E-1,9.553387E-1,-5.5567906E-3,8.046894E-2,2.822493E-2],"categories":[],"categories_nodes":[],"categories_segments":[],"categories_sizes":[],"default_left":[0,0,0,0,0,0,0,0,0],"id":35,"left_children":[1,-1,3,-1,5,7,-1,-1,-1],"loss_changes":[1.770419E1,0E0,3.2413058E0,0E0,1.395175E0,1.7407799E-1,0E0,0E0,0E0],"parents":[2147483647,0,0,2,2,4,4,5,5],"right_children":[2,-1,4,-1,6,8,-1,-1,-1],"split_conditions":[1E0,-8.220078E-2,-4.1611966E-1,-5.8075268E-2,1.3628377E-1,-4.2567715E-2,-5.5567906E-3,8.046894E-2,2.822493E-2],"split_indices":[774,0,703,0,162,21,0,0,0],"split_type":[0,0,0,0,0,0,0,0,0],"sum_hessian":[2.45223E1,1.023593E1,1.428637E1,1.3267727E0,1.2959598E1,1.1713779E1,1.2458183E0,1.0586736E1,1.1270436E0],"tree_param":{"num_deleted":"0","num_feature":"777","num_nodes":"9","size_leaf_vector":"1"}},{"base_weights":[1.7216077E-2,-9.4819814E-1,9.005731E-1,-0E0,-8.297067E-2,8.202682E-2,-0E0],"categories":[],"categories_nodes":[],"categories_segments":[],"categories_sizes":[],"default_left":[0,0,0,0,0,0,0],"id":36,"left_children":[1,3,5,-1,-1,-1,-1],"loss_changes":[2.0748146E1,9.6421814E-1,1.5351505E0,0E0,0E0,0E0,0E0],"parents":[2147483647,0,0,1,1,2,2],"right_children":[2,4,6,-1,-1,-1,-1],"split_conditions":[7.58519E-1,-1.5979736E0,1.3448193E0,-0E0,-8.297067E-2,8.202682E-2,-0E0],"split_indices":[776,477,266,0,0,0,0],"split_type":[0,0,0,0,0,0,0],"sum_hessian":[2.4215908E1,1.1503533E1,1.2712375E1,1.001731E0,1.0501802E1,1.1253436E1,1.458939E0],"tree_param":{"num_deleted":"0","num_feature":"777","num_nodes":"7","size_leaf_vector":"1"}},{"base_weights":[3.5899967E-2,-8.0394275E-2,8.4041363E-1,9.826443E-1,-6.071272E-3,8.20244E-2,3.3553537E-2],"categories":[],"categories_nodes":[],"categories_segments":[],"categories_sizes":[],"default_left":[0,0,0,0,0,0,0],"id":37,"left_children":[1,-1,3,5,-1,-1,-1],"loss_changes":[1.8600515E1,0E0,1.7561588E0,6.584835E-2,0E0,0E0,0E0],"parents":[2147483647,0,0,2,2,3,3],"right_children":[2,-1,4,6,-1,-1,-1],"split_conditions":[7.4227554E-1,-8.0394275E-2,9.456856E-1,2.586115E-1,-6.071272E-3,8.20244E-2,3.3553537E-2],"split_indices":[776,0,540,56,0,0,0],"split_type":[0,0,0,0,0,0,0],"sum_hessian":[2.2116325E1,9.570507E0,1.2545817E1,1.0969695E1,1.5761222E0,9.953498E0,1.0161974E0],"tree_param":{"num_deleted":"0","num_feature":"777","num_nodes":"7","size_leaf_vector":"1"}},{"base_weights":[7.832001E-2,-8.099939E-2,9.2557454E-1,1.8217677E-2,8.160371E-2],"categories":[],"categories_nodes":[],"categories_segments":[],"categories_sizes":[],"default_left":[0,0,0,0,0],"id":38,"left_children":[1,-1,3,-1,-1],"loss_changes":[2.0064522E1,0E0,6.4622784E-1,0E0,0E0],"parents":[2147483647,0,0,2,2],"right_children":[2,-1,4,-1,-1],"split_conditions":[7.504581E-1,-8.099939E-2,-1.5974692E0,1.8217677E-2,8.160371E-2],"split_indices":[776,0,452,0,0],"split_type":[0,0,0,0,0],"sum_hessian":[2.1600697E1,9.37603E0,1.2224667E1,1.6334435E0,1.0591223E1],"tree_param":{"num_deleted":"0","num_feature":"777","num_nodes":"5","size_leaf_vector":"1"}},{"base_weights":[7.111666E-2,-8.175879E-1,9.6595395E-1,3.0589603E-2,-1.0007043E0,8.119298E-2,3.0169832E-2,-8.491104E-2,-2.885428E-2],"categories":[],"categories_nodes":[],"categories_segments":[],"categories_sizes":[],"default_left":[0,0,0,0,0,0,0,0,0],"id":39,"left_children":[1,3,5,-1,7,-1,-1,-1,-1],"loss_changes":[1.6846907E1,2.4159384E0,1.158514E-1,0E0,1.6599178E-1,0E0,0E0,0E0,0E0],"parents":[2147483647,0,0,1,1,2,2,4,4],"right_children":[2,4,6,-1,8,-1,-1,-1,-1],"split_conditions":[7.7554715E-1,-1.5222318E0,2.0012217E0,3.0589603E-2,1.3192328E0,8.119298E-2,3.0169832E-2,-8.491104E-2,-2.885428E-2],"split_indices":[776,411,763,0,689,0,0,0,0],"split_type":[0,0,0,0,0,0,0,0,0],"sum_hessian":[2.1042551E1,1.049277E1,1.0549781E1,1.2938154E0,9.198955E0,9.51172E0,1.0380608E0,8.19496E0,1.0039948E0],"tree_param":{"num_deleted":"0","num_feature":"777","num_nodes":"9","size_leaf_vector":"1"}},{"base_weights":[-0E0,-7.969239E-2,7.2424096E-1,9.255559E-1,-2.519232E-2,1.6552983E-2,8.079931E-2],"categories":[],"categories_nodes":[],"categories_segments":[],"categories_sizes":[],"default_left":[0,0,0,0,0,0,0],"id":40,"left_children":[1,-1,3,5,-1,-1,-1],"loss_changes":[1.3632652E1,0E0,2.3735895E0,4.0291882E-1,0E0,0E0,0E0],"parents":[2147483647,0,0,2,2,3,3],"right_children":[2,-1,4,6,-1,-1,-1],"split_conditions":[7.4227554E-1,-7.969239E-2,7.435313E-1,7.5622517E-1,-2.519232E-2,1.6552983E-2,8.079931E-2],"split_indices":[776,0,569,776,0,0,0],"split_type":[0,0,0,0,0,0,0],"sum_hessian":[1.8762398E1,7.9099984E0,1.0852399E1,9.193389E0,1.6590093E0,1.1377829E0,8.055606E0],"tree_param":{"num_deleted":"0","num_feature":"777","num_nodes":"7","size_leaf_vector":"1"}},{"base_weights":[2.3620956E-2,-7.943756E-2,7.4827296E-1,9.040322E-1,-1.4129146E-2,1.0019218E-2,7.923036E-2],"categories":[],"categories_nodes":[],"categories_segments":[],"categories_sizes":[],"default_left":[0,0,0,0,0,0,0],"id":41,"left_children":[1,-1,3,5,-1,-1,-1],"loss_changes":[1.319027E1,0E0,1.6159296E0,4.7369814E-1,0E0,0E0,0E0],"parents":[2147483647,0,0,2,2,3,3],"right_children":[2,-1,4,6,-1,-1,-1],"split_conditions":[7.4227554E-1,-7.943756E-2,9.834423E-1,-1.1866595E0,-1.4129146E-2,1.0019218E-2,7.923036E-2],"split_indices":[776,0,540,551,0,0,0],"split_type":[0,0,0,0,0,0,0],"sum_hessian":[1.7824501E1,7.3398514E0,1.048465E1,9.085646E0,1.3990047E0,1.0601963E0,8.025449E0],"tree_param":{"num_deleted":"0","num_feature":"777","num_nodes":"7","size_leaf_vector":"1"}},{"base_weights":[2.8758494E-3,-7.316395E-1,9.342534E-1,-9.9530685E-1,7.094877E-2,2.885306E-2,8.001253E-2,-8.5709676E-2,-2.976814E-2,6.398962E-2,-4.0990554E-2],"categories":[],"categories_nodes":[],"categories_segments":[],"categories_sizes":[],"default_left":[0,0,0,0,0,0,0,0,0,0,0],"id":42,"left_children":[1,3,5,7,9,-1,-1,-1,-1,-1,-1],"loss_changes":[1.183137E1,2.1418839E0,1.054368E-1,1.5012169E-1,1.0420649E0,0E0,0E0,0E0,0E0,0E0,0E0],"parents":[2147483647,0,0,1,1,2,2,3,3,4,4],"right_children":[2,4,6,8,10,-1,-1,-1,-1,-1,-1],"split_conditions":[7.7554715E-1,1.0858269E0,-1.1305197E0,1.1270611E0,-1.0248457E0,2.885306E-2,8.001253E-2,-8.5709676E-2,-2.976814E-2,6.398962E-2,-4.0990554E-2],"split_indices":[776,129,534,18,95,0,0,0,0,0,0],"split_type":[0,0,0,0,0,0,0,0,0,0,0],"sum_hessian":[1.7139025E1,9.517351E0,7.6216745E0,7.265567E0,2.2517843E0,1.0131257E0,6.6085486E0,6.2651815E0,1.0003853E0,1.0825225E0,1.1692618E0],"tree_param":{"num_deleted":"0","num_feature":"777","num_nodes":"11","size_leaf_vector":"1"}},{"base_weights":[-1.3558899E-2,-7.1437263E-1,7.955163E-2,3.4911096E-2,-9.0594435E-1,-8.481731E-2,1.1039503E-3],"categories":[],"categories_nodes":[],"categories_segments":[],"categories_sizes":[],"default_left":[0,0,0,0,0,0,0],"id":43,"left_children":[1,3,-1,-1,5,-1,-1],"loss_changes":[1.0590458E1,2.051186E0,0E0,0E0,1.2295151E0,0E0,0E0],"parents":[2147483647,0,0,1,1,4,4],"right_children":[2,4,-1,-1,6,-1,-1],"split_conditions":[7.7554715E-1,-1.5768418E0,7.955163E-2,3.4911096E-2,1.503881E0,-8.481731E-2,1.1039503E-3],"split_indices":[776,377,0,0,87,0,0],"split_type":[0,0,0,0,0,0,0],"sum_hessian":[1.4919635E1,8.881208E0,6.0384264E0,1.1671466E0,7.714062E0,6.709894E0,1.004168E0],"tree_param":{"num_deleted":"0","num_feature":"777","num_nodes":"7","size_leaf_vector":"1"}},{"base_weights":[-3.3026908E-2,-7.8184897E-1,9.0573174E-1,-9.791125E-1,2.0452095E-2,2.5660131E-2,7.915692E-2,-8.4599905E-2,-2.9850274E-2],"categories":[],"categories_nodes":[],"categories_segments":[],"categories_sizes":[],"default_left":[0,0,0,0,0,0,0,0,0],"id":44,"left_children":[1,3,5,7,-1,-1,-1,-1,-1],"loss_changes":[1.0138732E1,1.7605128E0,1.3421965E-1,1.333251E-1,0E0,0E0,0E0,0E0,0E0],"parents":[2147483647,0,0,1,1,2,2,3,3],"right_children":[2,4,6,8,-1,-1,-1,-1,-1],"split_conditions":[7.7554715E-1,1.4154112E0,-1.0773798E0,1.1283493E0,2.0452095E-2,2.5660131E-2,7.915692E-2,-8.4599905E-2,-2.9850274E-2],"split_indices":[776,373,504,400,0,0,0,0,0],"split_type":[0,0,0,0,0,0,0,0,0],"sum_hessian":[1.4323554E1,8.044518E0,6.279035E0,6.8593636E0,1.1851555E0,1.0019455E0,5.2770896E0,5.858778E0,1.0005854E0],"tree_param":{"num_deleted":"0","num_feature":"777","num_nodes":"9","size_leaf_vector":"1"}},{"base_weights":[1.0366396E-3,-7.735345E-1,9.059575E-1,1.1842953E-2,-8.3369546E-2,7.910083E-2,2.537261E-2],"categories":[],"categories_nodes":[],"categories_segments":[],"categories_sizes":[],"default_left":[0,0,0,0,0,0,0],"id":45,"left_children":[1,3,5,-1,-1,-1,-1],"loss_changes":[9.77548E0,1.9558334E0,1.4103699E-1,0E0,0E0,0E0,0E0],"parents":[2147483647,0,0,1,1,2,2],"right_children":[2,4,6,-1,-1,-1,-1],"split_conditions":[7.7554715E-1,-1.317702E0,1.1470243E0,1.1842953E-2,-8.3369546E-2,7.910083E-2,2.537261E-2],"split_indices":[776,411,266,0,0,0,0],"split_type":[0,0,0,0,0,0,0],"sum_hessian":[1.3803871E1,7.3708563E0,6.433015E0,1.568646E0,5.8022103E0,5.42547E0,1.007545E0],"tree_param":{"num_deleted":"0","num_feature":"777","num_nodes":"7","size_leaf_vector":"1"}},{"base_weights":[3.6754698E-2,-8.016674E-2,6.928334E-1,-2.962374E-2,7.573758E-2],"categories":[],"categories_nodes":[],"categories_segments":[],"categories_sizes":[],"default_left":[0,0,0,0,0],"id":46,"left_children":[1,-1,3,-1,-1],"loss_changes":[8.5228E0,0E0,2.1865156E0,0E0,0E0],"parents":[2147483647,0,0,2,2],"right_children":[2,-1,4,-1,-1],"split_conditions":[1E0,-8.016674E-2,7.696299E-1,-2.962374E-2,7.573758E-2],"split_indices":[774,0,775,0,0],"split_type":[0,0,0,0,0],"sum_hessian":[1.24381695E1,4.731591E0,7.706578E0,1.3892083E0,6.3173695E0],"tree_param":{"num_deleted":"0","num_feature":"777","num_nodes":"5","size_leaf_vector":"1"}},{"base_weights":[6.171209E-2,-6.7607343E-1,7.884163E-2,-8.361786E-2,2.1048712E-2],"categories":[],"categories_nodes":[],"categories_segments":[],"categories_sizes":[],"default_left":[0,0,0,0,0],"id":47,"left_children":[1,3,-1,-1,-1],"loss_changes":[8.299206E0,2.4229598E0,0E0,0E0,0E0],"parents":[2147483647,0,0,1,1],"right_children":[2,4,-1,-1,-1],"split_conditions":[7.7554715E-1,1.0858269E0,7.884163E-2,-8.361786E-2,2.1048712E-2],"split_indices":[776,129,0,0,0],"split_type":[0,0,0,0,0],"sum_hessian":[1.2003422E1,6.6103544E0,5.393067E0,4.83208E0,1.7782745E0],"tree_param":{"num_deleted":"0","num_feature":"777","num_nodes":"5","size_leaf_vector":"1"}},{"base_weights":[1.4594551E-2,-8.036089E-2,6.295695E-1,-4.936647E-2,7.846716E-2,-8.623494E-2,5.876201E-2],"categories":[],"categories_nodes":[],"categories_segments":[],"categories_sizes":[],"default_left":[0,0,0,0,0,0,0],"id":48,"left_children":[1,-1,3,5,-1,-1,-1],"loss_changes":[7.3222547E0,0E0,1.8804021E0,2.0762992E0,0E0,0E0,0E0],"parents":[2147483647,0,0,2,2,3,3],"right_children":[2,-1,4,6,-1,-1,-1],"split_conditions":[1E0,-8.036089E-2,7.7554715E-1,7.553602E-1,7.846716E-2,-8.623494E-2,5.876201E-2],"split_indices":[774,0,776,214,0,0,0],"split_type":[0,0,0,0,0,0,0],"sum_hessian":[1.1634618E1,4.290869E0,7.3437486E0,2.4051046E0,4.938644E0,1.0966843E0,1.3084203E0],"tree_param":{"num_deleted":"0","num_feature":"777","num_nodes":"7","size_leaf_vector":"1"}},{"base_weights":[-0E0,-7.9493746E-2,6.384913E-1,-1.557205E-2,7.183686E-2],"categories":[],"categories_nodes":[],"categories_segments":[],"categories_sizes":[],"default_left":[0,0,0,0,0],"id":49,"left_children":[1,-1,3,-1,-1],"loss_changes":[6.441263E0,0E0,1.4414299E0,0E0,0E0],"parents":[2147483647,0,0,2,2],"right_children":[2,-1,4,-1,-1],"split_conditions":[1E0,-7.9493746E-2,7.6866806E-1,-1.557205E-2,7.183686E-2],"split_indices":[774,0,775,0,0],"split_type":[0,0,0,0,0],"sum_hessian":[1.0060715E1,3.8917508E0,6.1689634E0,1.3587141E0,4.8102493E0],"tree_param":{"num_deleted":"0","num_feature":"777","num_nodes":"5","size_leaf_vector":"1"}},{"base_weights":[3.603522E-2,-7.939896E-2,5.910035E-1,-4.002227E-2,8.0789185E-1,7.557511E-2,2.309062E-2],"categories":[],"categories_nodes":[],"categories_segments":[],"categories_sizes":[],"default_left":[0,0,0,0,0,0,0],"id":50,"left_children":[1,-1,3,-1,5,-1,-1],"loss_changes":[6.1426373E0,0E0,1.745913E0,0E0,2.6557708E-1,0E0,0E0],"parents":[2147483647,0,0,2,2,4,4],"right_children":[2,-1,4,-1,6,-1,-1],"split_conditions":[1E0,-7.939896E-2,-1.3990423E-1,-4.002227E-2,-2.5739595E-1,7.557511E-2,2.309062E-2],"split_indices":[774,0,723,0,157,0,0],"split_type":[0,0,0,0,0,0,0],"sum_hessian":[1.0724253E1,3.666185E0,7.0580683E0,1.0654651E0,5.9926033E0,4.52124E0,1.4713631E0],"tree_param":{"num_deleted":"0","num_feature":"777","num_nodes":"7","size_leaf_vector":"1"}},{"base_weights":[-1.07944034E-1,-7.8038745E-2,5.871016E-1,7.4622065E-2,-3.4147136E-2],"categories":[],"categories_nodes":[],"categories_segments":[],"categories_sizes":[],"default_left":[0,0,0,0,0],"id":51,"left_children":[1,-1,3,-1,-1],"loss_changes":[5.54985E0,0E0,1.8357165E0,0E0,0E0],"parents":[2147483647,0,0,2,2],"right_children":[2,-1,4,-1,-1],"split_conditions":[7.504581E-1,-7.8038745E-2,1.187365E0,7.4622065E-2,-3.4147136E-2],"split_indices":[776,0,538,0,0],"split_type":[0,0,0,0,0],"sum_hessian":[9.009754E0,4.073609E0,4.9361453E0,3.773001E0,1.1631445E0],"tree_param":{"num_deleted":"0","num_feature":"777","num_nodes":"5","size_leaf_vector":"1"}},{"base_weights":[3.736964E-2,-7.8742854E-2,5.8636415E-1,-0E0,7.731553E-2,5.466977E-2,-7.0986554E-2],"categories":[],"categories_nodes":[],"categories_segments":[],"categories_sizes":[],"default_left":[0,0,0,0,0,0,0],"id":52,"left_children":[1,-1,3,5,-1,-1,-1],"loss_changes":[5.3167057E0,0E0,1.4392176E0,1.5580977E0,0E0,0E0,0E0],"parents":[2147483647,0,0,2,2,3,3],"right_children":[2,-1,4,6,-1,-1,-1],"split_conditions":[1E0,-7.8742854E-2,7.7554715E-1,-4.4611707E-1,7.731553E-2,5.466977E-2,-7.0986554E-2],"split_indices":[774,0,776,426,0,0,0],"split_type":[0,0,0,0,0,0,0],"sum_hessian":[9.442562E0,3.2074606E0,6.2351017E0,2.436897E0,3.7982047E0,1.3605726E0,1.0763243E0],"tree_param":{"num_deleted":"0","num_feature":"777","num_nodes":"7","size_leaf_vector":"1"}},{"base_weights":[-0E0,-7.0129645E-1,6.772482E-2,2.2450745E-2,-8.185554E-2],"categories":[],"categories_nodes":[],"categories_segments":[],"categories_sizes":[],"default_left":[0,0,0,0,0],"id":53,"left_children":[1,3,-1,-1,-1],"loss_changes":[5.0950613E0,1.5681801E0,0E0,0E0,0E0],"parents":[2147483647,0,0,1,1],"right_children":[2,4,-1,-1,-1],"split_conditions":[7.7554715E-1,-1.3259815E0,6.772482E-2,2.2450745E-2,-8.185554E-2],"split_indices":[776,290,0,0,0],"split_type":[0,0,0,0,0],"sum_hessian":[8.440434E0,4.564896E0,3.8755386E0,1.0368743E0,3.5280218E0],"tree_param":{"num_deleted":"0","num_feature":"777","num_nodes":"5","size_leaf_vector":"1"}},{"base_weights":[6.499645E-2,-7.572952E-2,6.7382604E-1,7.391135E-2,-1.2379174E-2],"categories":[],"categories_nodes":[],"categories_segments":[],"categories_sizes":[],"default_left":[0,0,0,0,0],"id":54,"left_children":[1,-1,3,-1,-1],"loss_changes":[4.957345E0,0E0,1.1634381E0,0E0,0E0],"parents":[2147483647,0,0,2,2],"right_children":[2,-1,4,-1,-1],"split_conditions":[7.4227554E-1,-7.572952E-2,1.1123141E0,7.391135E-2,-1.2379174E-2],"split_indices":[776,0,10,0,0],"split_type":[0,0,0,0,0],"sum_hessian":[7.979936E0,2.9116406E0,5.0682955E0,3.9992306E0,1.0690649E0],"tree_param":{"num_deleted":"0","num_feature":"777","num_nodes":"5","size_leaf_vector":"1"}},{"base_weights":[2.4996456E-2,-7.842469E-2,5.773663E-1,6.819434E-2,-9.4073685E-3],"categories":[],"categories_nodes":[],"categories_segments":[],"categories_sizes":[],"default_left":[0,0,0,0,0],"id":55,"left_children":[1,-1,3,-1,-1],"loss_changes":[4.4251E0,0E0,1.1024586E0,0E0,0E0],"parents":[2147483647,0,0,2,2],"right_children":[2,-1,4,-1,-1],"split_conditions":[1E0,-7.842469E-2,-7.036997E-2,6.819434E-2,-9.4073685E-3],"split_indices":[774,0,656,0,0],"split_type":[0,0,0,0,0],"sum_hessian":[7.9347615E0,2.720238E0,5.214524E0,3.8498416E0,1.3646821E0],"tree_param":{"num_deleted":"0","num_feature":"777","num_nodes":"5","size_leaf_vector":"1"}},{"base_weights":[6.958946E-2,-7.754197E-2,5.9480906E-1,7.126113E-2,-8.988798E-3],"categories":[],"categories_nodes":[],"categories_segments":[],"categories_sizes":[],"default_left":[0,0,0,0,0],"id":56,"left_children":[1,-1,3,-1,-1],"loss_changes":[4.0198193E0,0E0,1.1500173E0,0E0,0E0],"parents":[2147483647,0,0,2,2],"right_children":[2,-1,4,-1,-1],"split_conditions":[1E0,-7.754197E-2,-3.3767298E-1,7.126113E-2,-8.988798E-3],"split_indices":[774,0,549,0,0],"split_type":[0,0,0,0,0],"sum_hessian":[7.3262334E0,2.3663938E0,4.95984E0,3.6051664E0,1.3546733E0],"tree_param":{"num_deleted":"0","num_feature":"777","num_nodes":"5","size_leaf_vector":"1"}},{"base_weights":[5.9475075E-2,-7.050045E-1,7.221984E-2,-0E0,-7.740821E-2],"categories":[],"categories_nodes":[],"categories_segments":[],"categories_sizes":[],"default_left":[0,0,0,0,0],"id":57,"left_children":[1,3,-1,-1,-1],"loss_changes":[4.2769966E0,5.490606E-1,0E0,0E0,0E0],"parents":[2147483647,0,0,1,1],"right_children":[2,4,-1,-1,-1],"split_conditions":[7.58519E-1,-7.782793E-1,7.221984E-2,-0E0,-7.740821E-2],"split_indices":[776,463,0,0,0],"split_type":[0,0,0,0,0],"sum_hessian":[6.4784055E0,3.3284726E0,3.1499329E0,1.0031846E0,2.325288E0],"tree_param":{"num_deleted":"0","num_feature":"777","num_nodes":"5","size_leaf_vector":"1"}},{"base_weights":[6.9296986E-2,-7.73099E-2,6.5373325E-1,-0E0,7.1112975E-2],"categories":[],"categories_nodes":[],"categories_segments":[],"categories_sizes":[],"default_left":[0,0,0,0,0],"id":58,"left_children":[1,-1,3,-1,-1],"loss_changes":[3.8310921E0,0E0,6.834909E-1,0E0,0E0],"parents":[2147483647,0,0,2,2],"right_children":[2,-1,4,-1,-1],"split_conditions":[1E0,-7.73099E-2,7.696299E-1,-0E0,7.1112975E-2],"split_indices":[774,0,775,0,0],"split_type":[0,0,0,0,0],"sum_hessian":[6.268776E0,2.1731799E0,4.0955963E0,1.0430101E0,3.052586E0],"tree_param":{"num_deleted":"0","num_feature":"777","num_nodes":"5","size_leaf_vector":"1"}},{"base_weights":[-0E0,-7.409372E-2,5.4957855E-1,7.244301E-2,-2.0668479E-3],"categories":[],"categories_nodes":[],"categories_segments":[],"categories_sizes":[],"default_left":[0,0,0,0,0],"id":59,"left_children":[1,-1,3,-1,-1],"loss_changes":[3.1249766E0,0E0,9.100982E-1,0E0,0E0],"parents":[2147483647,0,0,2,2],"right_children":[2,-1,4,-1,-1],"split_conditions":[7.4227554E-1,-7.409372E-2,-1.9036695E-1,7.244301E-2,-2.0668479E-3],"split_indices":[776,0,419,0,0],"split_type":[0,0,0,0,0],"sum_hessian":[6.0634704E0,2.202395E0,3.8610756E0,2.4929962E0,1.3680793E0],"tree_param":{"num_deleted":"0","num_feature":"777","num_nodes":"5","size_leaf_vector":"1"}},{"base_weights":[-0E0,-6.280575E-1,7.471218E-2,6.5661077E-3,-8.072731E-2],"categories":[],"categories_nodes":[],"categories_segments":[],"categories_sizes":[],"default_left":[0,0,0,0,0],"id":60,"left_children":[1,3,-1,-1,-1],"loss_changes":[3.5148845E0,1.0638677E0,0E0,0E0,0E0],"parents":[2147483647,0,0,1,1],"right_children":[2,4,-1,-1,-1],"split_conditions":[7.7554715E-1,-1.2239927E0,7.471218E-2,6.5661077E-3,-8.072731E-2],"split_indices":[776,377,0,0,0],"split_type":[0,0,0,0,0],"sum_hessian":[5.828323E0,3.442249E0,2.3860738E0,1.1084923E0,2.3337567E0],"tree_param":{"num_deleted":"0","num_feature":"777","num_nodes":"5","size_leaf_vector":"1"}},{"base_weights":[-0E0,-7.3111266E-2,4.218821E-1,6.4108185E-2,-4.0593453E-2],"categories":[],"categories_nodes":[],"categories_segments":[],"categories_sizes":[],"default_left":[0,0,0,0,0],"id":61,"left_children":[1,-1,3,-1,-1],"loss_changes":[2.3701313E0,0E0,1.4937496E0,0E0,0E0],"parents":[2147483647,0,0,2,2],"right_children":[2,-1,4,-1,-1],"split_conditions":[7.4227554E-1,-7.3111266E-2,7.435313E-1,6.4108185E-2,-4.0593453E-2],"split_indices":[776,0,569,0,0],"split_type":[0,0,0,0,0],"sum_hessian":[5.9178605E0,1.9111837E0,4.0066767E0,2.9425192E0,1.0641574E0],"tree_param":{"num_deleted":"0","num_feature":"777","num_nodes":"5","size_leaf_vector":"1"}},{"base_weights":[4.7176335E-2,-7.076141E-2,4.2557707E-1,5.960119E-2,-2.4615318E-2],"categories":[],"categories_nodes":[],"categories_segments":[],"categories_sizes":[],"default_left":[0,0,0,0,0],"id":62,"left_children":[1,-1,3,-1,-1],"loss_changes":[1.8320776E0,0E0,9.781689E-1,0E0,0E0],"parents":[2147483647,0,0,2,2],"right_children":[2,-1,4,-1,-1],"split_conditions":[1E0,-7.076141E-2,5.698603E-1,5.960119E-2,-2.4615318E-2],"split_indices":[774,0,184,0,0],"split_type":[0,0,0,0,0],"sum_hessian":[5.2287397E0,1.3954654E0,3.8332741E0,2.783411E0,1.0498631E0],"tree_param":{"num_deleted":"0","num_feature":"777","num_nodes":"5","size_leaf_vector":"1"}},{"base_weights":[-5.087281E-2,-6.7380404E-1,5.7680067E-2,-0E0,-8.102062E-2],"categories":[],"categories_nodes":[],"categories_segments":[],"categories_sizes":[],"default_left":[0,0,0,0,0],"id":63,"left_children":[1,3,-1,-1,-1],"loss_changes":[2.4733207E0,6.526468E-1,0E0,0E0,0E0],"parents":[2147483647,0,0,1,1],"right_children":[2,4,-1,-1,-1],"split_conditions":[7.7554715E-1,-6.1308485E-1,5.7680067E-2,-0E0,-8.102062E-2],"split_indices":[776,468,0,0,0],"split_type":[0,0,0,0,0],"sum_hessian":[5.035075E0,2.8766217E0,2.1584535E0,1.0004317E0,1.8761902E0],"tree_param":{"num_deleted":"0","num_feature":"777","num_nodes":"5","size_leaf_vector":"1"}},{"base_weights":[4.101109E-2,-5.9119858E-2,6.919501E-2],"categories":[],"categories_nodes":[],"categories_segments":[],"categories_sizes":[],"default_left":[0,0,0],"id":64,"left_children":[1,-1,-1],"loss_changes":[2.9084694E0,0E0,0E0],"parents":[2147483647,0,0],"right_children":[2,-1,-1],"split_conditions":[7.58519E-1,-5.9119858E-2,6.919501E-2],"split_indices":[776,0,0],"split_type":[0,0,0],"sum_hessian":[4.382411E0,2.1795638E0,2.2028475E0],"tree_param":{"num_deleted":"0","num_feature":"777","num_nodes":"3","size_leaf_vector":"1"}},{"base_weights":[7.151498E-3,-7.557349E-2,5.233138E-1,-3.0753857E-3,7.31999E-2],"categories":[],"categories_nodes":[],"categories_segments":[],"categories_sizes":[],"default_left":[0,0,0,0,0],"id":65,"left_children":[1,-1,3,-1,-1],"loss_changes":[2.2136383E0,0E0,7.8266114E-1,0E0,0E0],"parents":[2147483647,0,0,2,2],"right_children":[2,-1,4,-1,-1],"split_conditions":[1E0,-7.557349E-2,7.58519E-1,-3.0753857E-3,7.31999E-2],"split_indices":[774,0,776,0,0],"split_type":[0,0,0,0,0],"sum_hessian":[4.4882765E0,1.4788795E0,3.009397E0,1.1326656E0,1.8767314E0],"tree_param":{"num_deleted":"0","num_feature":"777","num_nodes":"5","size_leaf_vector":"1"}},{"base_weights":[6.396169E-3,-7.016332E-2,3.9769924E-1,-2.6420979E-2,7.010064E-2],"categories":[],"categories_nodes":[],"categories_segments":[],"categories_sizes":[],"default_left":[0,0,0,0,0],"id":66,"left_children":[1,-1,3,-1,-1],"loss_changes":[1.64353E0,0E0,1.3034688E0,0E0,0E0],"parents":[2147483647,0,0,2,2],"right_children":[2,-1,4,-1,-1],"split_conditions":[7.4227554E-1,-7.016332E-2,-7.659644E-1,-2.6420979E-2,7.010064E-2],"split_indices":[776,0,610,0,0],"split_type":[0,0,0,0,0],"sum_hessian":[4.8001757E0,1.3564948E0,3.4436808E0,1.2738299E0,2.169851E0],"tree_param":{"num_deleted":"0","num_feature":"777","num_nodes":"5","size_leaf_vector":"1"}},{"base_weights":[1.919303E-1,-6.980586E-2,6.6975094E-2],"categories":[],"categories_nodes":[],"categories_segments":[],"categories_sizes":[],"default_left":[0,0,0],"id":67,"left_children":[1,-1,-1],"loss_changes":[2.6083672E0,0E0,0E0],"parents":[2147483647,0,0],"right_children":[2,-1,-1],"split_conditions":[7.4227554E-1,-6.980586E-2,6.6975094E-2],"split_indices":[776,0,0],"split_type":[0,0,0],"sum_hessian":[3.6797853E0,1.3105762E0,2.369209E0],"tree_param":{"num_deleted":"0","num_feature":"777","num_nodes":"3","size_leaf_vector":"1"}},{"base_weights":[-0E0,-7.398733E-2,3.951468E-1,6.390945E-2,-1.0781644E-2],"categories":[],"categories_nodes":[],"categories_segments":[],"categories_sizes":[],"default_left":[0,0,0,0,0],"id":68,"left_children":[1,-1,3,-1,-1],"loss_changes":[1.5403197E0,0E0,7.021309E-1,0E0,0E0],"parents":[2147483647,0,0,2,2],"right_children":[2,-1,4,-1,-1],"split_conditions":[1E0,-7.398733E-2,-4.367657E-1,6.390945E-2,-1.0781644E-2],"split_indices":[774,0,157,0,0],"split_type":[0,0,0,0,0],"sum_hessian":[4.0344706E0,1.2152401E0,2.8192303E0,1.7113923E0,1.107838E0],"tree_param":{"num_deleted":"0","num_feature":"777","num_nodes":"5","size_leaf_vector":"1"}},{"base_weights":[-0E0,-7.373856E-2,4.320621E-1,-4.722587E-3,7.064005E-2],"categories":[],"categories_nodes":[],"categories_segments":[],"categories_sizes":[],"default_left":[0,0,0,0,0],"id":69,"left_children":[1,-1,3,-1,-1],"loss_changes":[1.5534058E0,0E0,6.7499274E-1,0E0,0E0],"parents":[2147483647,0,0,2,2],"right_children":[2,-1,4,-1,-1],"split_conditions":[1E0,-7.373856E-2,7.7554715E-1,-4.722587E-3,7.064005E-2],"split_indices":[774,0,776,0,0],"split_type":[0,0,0,0,0],"sum_hessian":[3.7272985E0,1.1998967E0,2.527402E0,1.1074106E0,1.4199913E0],"tree_param":{"num_deleted":"0","num_feature":"777","num_nodes":"5","size_leaf_vector":"1"}},{"base_weights":[-2.7915312E-2,3.8159024E-2,-4.8794564E-2],"categories":[],"categories_nodes":[],"categories_segments":[],"categories_sizes":[],"default_left":[0,0,0],"id":70,"left_children":[1,-1,-1],"loss_changes":[1.1783001E0,0E0,0E0],"parents":[2147483647,0,0],"right_children":[2,-1,-1],"split_conditions":[-1.9036695E-1,3.8159024E-2,-4.8794564E-2],"split_indices":[419,0,0],"split_type":[0,0,0],"sum_hessian":[3.8360147E0,1.9494783E0,1.8865366E0],"tree_param":{"num_deleted":"0","num_feature":"777","num_nodes":"3","size_leaf_vector":"1"}},{"base_weights":[-0E0,-6.794619E-2,4.2003852E-1,7.148013E-2,-7.311091E-3],"categories":[],"categories_nodes":[],"categories_segments":[],"categories_sizes":[],"default_left":[0,0,0,0,0],"id":71,"left_children":[1,-1,3,-1,-1],"loss_changes":[1.2994847E0,0E0,7.2864246E-1,0E0,0E0],"parents":[2147483647,0,0,2,2],"right_children":[2,-1,4,-1,-1],"split_conditions":[7.4227554E-1,-6.794619E-2,-1.5189327E-1,7.148013E-2,-7.311091E-3],"split_indices":[776,0,471,0,0],"split_type":[0,0,0,0,0],"sum_hessian":[3.6390393E0,1.1076269E0,2.5314124E0,1.4130594E0,1.118353E0],"tree_param":{"num_deleted":"0","num_feature":"777","num_nodes":"5","size_leaf_vector":"1"}},{"base_weights":[-0E0,-4.4812033E-1,4.929097E-2,-7.9762794E-2,4.6193428E-4],"categories":[],"categories_nodes":[],"categories_segments":[],"categories_sizes":[],"default_left":[0,0,0,0,0],"id":72,"left_children":[1,3,-1,-1,-1],"loss_changes":[1.0084612E0,6.4018756E-1,0E0,0E0,0E0],"parents":[2147483647,0,0,1,1],"right_children":[2,4,-1,-1,-1],"split_conditions":[7.7554715E-1,1.6150342E-1,4.929097E-2,-7.9762794E-2,4.6193428E-4],"split_indices":[776,373,0,0,0],"split_type":[0,0,0,0,0],"sum_hessian":[3.52123E0,2.0306776E0,1.4905524E0,1.0062981E0,1.0243795E0],"tree_param":{"num_deleted":"0","num_feature":"777","num_nodes":"5","size_leaf_vector":"1"}},{"base_weights":[-2.6024528E-2,-5.8015298E-2,3.0212954E-1,5.08925E-2,-6.6318826E-5],"categories":[],"categories_nodes":[],"categories_segments":[],"categories_sizes":[],"default_left":[0,0,0,0,0],"id":73,"left_children":[1,-1,3,-1,-1],"loss_changes":[9.2287236E-1,0E0,3.265779E-1,0E0,0E0],"parents":[2147483647,0,0,2,2],"right_children":[2,-1,4,-1,-1],"split_conditions":[-4.8495952E-2,-5.8015298E-2,-3.914733E-1,5.08925E-2,-6.6318826E-5],"split_indices":[723,0,471,0,0],"split_type":[0,0,0,0,0],"sum_hessian":[3.68381E0,1.2703286E0,2.4134815E0,1.3048857E0,1.1085957E0],"tree_param":{"num_deleted":"0","num_feature":"777","num_nodes":"5","size_leaf_vector":"1"}},{"base_weights":[-0E0,-3.71426E-2,3.931053E-2],"categories":[],"categories_nodes":[],"categories_segments":[],"categories_sizes":[],"default_left":[0,0,0],"id":74,"left_children":[1,-1,-1],"loss_changes":[8.740458E-1,0E0,0E0],"parents":[2147483647,0,0],"right_children":[2,-1,-1],"split_conditions":[2.3821352E-1,-3.71426E-2,3.931053E-2],"split_indices":[388,0,0],"split_type":[0,0,0],"sum_hessian":[3.7113247E0,1.9112291E0,1.8000956E0],"tree_param":{"num_deleted":"0","num_feature":"777","num_nodes":"3","size_leaf_vector":"1"}},{"base_weights":[-5.5099104E-2,4.1646607E-2,-4.448386E-2],"categories":[],"categories_nodes":[],"categories_segments":[],"categories_sizes":[],"default_left":[0,0,0],"id":75,"left_children":[1,-1,-1],"loss_changes":[9.9289894E-1,0E0,0E0],"parents":[2147483647,0,0],"right_children":[2,-1,-1],"split_conditions":[-5.014058E-1,4.1646607E-2,-4.448386E-2],"split_indices":[471,0,0],"split_type":[0,0,0],"sum_hessian":[3.3079531E0,1.4266156E0,1.8813376E0],"tree_param":{"num_deleted":"0","num_feature":"777","num_nodes":"3","size_leaf_vector":"1"}},{"base_weights":[-1.0827775E-2,3.2060776E-2,-5.356379E-2],"categories":[],"categories_nodes":[],"categories_segments":[],"categories_sizes":[],"default_left":[0,0,0],"id":76,"left_children":[1,-1,-1],"loss_changes":[9.2332685E-1,0E0,0E0],"parents":[2147483647,0,0],"right_children":[2,-1,-1],"split_conditions":[-9.594547E-2,3.2060776E-2,-5.356379E-2],"split_indices":[12,0,0],"split_type":[0,0,0],"sum_hessian":[3.1672435E0,1.8516209E0,1.3156226E0],"tree_param":{"num_deleted":"0","num_feature":"777","num_nodes":"3","size_leaf_vector":"1"}},{"base_weights":[-7.106606E-2,-5.146645E-2,4.8091277E-2],"categories":[],"categories_nodes":[],"categories_segments":[],"categories_sizes":[],"default_left":[0,0,0],"id":77,"left_children":[1,-1,-1],"loss_changes":[1.2515181E0,0E0,0E0],"parents":[2147483647,0,0],"right_children":[2,-1,-1],"split_conditions":[7.7554715E-1,-5.146645E-2,4.8091277E-2],"split_indices":[776,0,0],"split_type":[0,0,0],"sum_hessian":[3.119917E0,1.783056E0,1.3368609E0],"tree_param":{"num_deleted":"0","num_feature":"777","num_nodes":"3","size_leaf_vector":"1"}},{"base_weights":[-1.6945006E-2,-6.806946E-2,3.3560166E-1,6.9661066E-2,-1.5318054E-2],"categories":[],"categories_nodes":[],"categories_segments":[],"categories_sizes":[],"default_left":[0,0,0,0,0],"id":78,"left_children":[1,-1,3,-1,-1],"loss_changes":[1.0589923E0,0E0,7.3600876E-1,0E0,0E0],"parents":[2147483647,0,0,2,2],"right_children":[2,-1,4,-1,-1],"split_conditions":[7.504581E-1,-6.806946E-2,5.176578E-1,6.9661066E-2,-1.5318054E-2],"split_indices":[776,0,482,0,0],"split_type":[0,0,0,0,0],"sum_hessian":[3.2734609E0,1.0486135E0,2.2248473E0,1.1975135E0,1.0273339E0],"tree_param":{"num_deleted":"0","num_feature":"777","num_nodes":"5","size_leaf_vector":"1"}},{"base_weights":[-0E0,4.344194E-2,-2.907842E-2],"categories":[],"categories_nodes":[],"categories_segments":[],"categories_sizes":[],"default_left":[0,0,0],"id":79,"left_children":[1,-1,-1],"loss_changes":[6.3141614E-1,0E0,0E0],"parents":[2147483647,0,0],"right_children":[2,-1,-1],"split_conditions":[-6.276522E-1,4.344194E-2,-2.907842E-2],"split_indices":[162,0,0],"split_type":[0,0,0],"sum_hessian":[3.0652387E0,1.233883E0,1.8313556E0],"tree_param":{"num_deleted":"0","num_feature":"777","num_nodes":"3","size_leaf_vector":"1"}},{"base_weights":[6.623115E-2,4.21853E-2,-4.535824E-2],"categories":[],"categories_nodes":[],"categories_segments":[],"categories_sizes":[],"default_left":[0,0,0],"id":80,"left_children":[1,-1,-1],"loss_changes":[9.171305E-1,0E0,0E0],"parents":[2147483647,0,0],"right_children":[2,-1,-1],"split_conditions":[-3.629596E-1,4.21853E-2,-4.535824E-2],"split_indices":[549,0,0],"split_type":[0,0,0],"sum_hessian":[3.0361123E0,1.8723005E0,1.1638118E0],"tree_param":{"num_deleted":"0","num_feature":"777","num_nodes":"3","size_leaf_vector":"1"}},{"base_weights":[5.3074464E-2,-3.6536753E-2,4.328325E-2],"categories":[],"categories_nodes":[],"categories_segments":[],"categories_sizes":[],"default_left":[0,0,0],"id":81,"left_children":[1,-1,-1],"loss_changes":[6.547335E-1,0E0,0E0],"parents":[2147483647,0,0],"right_children":[2,-1,-1],"split_conditions":[7.696299E-1,-3.6536753E-2,4.328325E-2],"split_indices":[775,0,0],"split_type":[0,0,0],"sum_hessian":[2.471736E0,1.0904524E0,1.3812836E0],"tree_param":{"num_deleted":"0","num_feature":"777","num_nodes":"3","size_leaf_vector":"1"}},{"base_weights":[6.9769938E-3,4.0281195E-2,-3.3785027E-2],"categories":[],"categories_nodes":[],"categories_segments":[],"categories_sizes":[],"default_left":[0,0,0],"id":82,"left_children":[1,-1,-1],"loss_changes":[6.839615E-1,0E0,0E0],"parents":[2147483647,0,0],"right_children":[2,-1,-1],"split_conditions":[-1.9036695E-1,4.0281195E-2,-3.3785027E-2],"split_indices":[419,0,0],"split_type":[0,0,0],"sum_hessian":[3.0431287E0,1.5358479E0,1.5072807E0],"tree_param":{"num_deleted":"0","num_feature":"777","num_nodes":"3","size_leaf_vector":"1"}},{"base_weights":[6.876225E-2,-4.216422E-2,4.557203E-2],"categories":[],"categories_nodes":[],"categories_segments":[],"categories_sizes":[],"default_left":[0,0,0],"id":83,"left_children":[1,-1,-1],"loss_changes":[7.7027047E-1,0E0,0E0],"parents":[2147483647,0,0],"right_children":[2,-1,-1],"split_conditions":[7.696299E-1,-4.216422E-2,4.557203E-2],"split_indices":[775,0,0],"split_type":[0,0,0],"sum_hessian":[2.443528E0,1.005162E0,1.4383659E0],"tree_param":{"num_deleted":"0","num_feature":"777","num_nodes":"3","size_leaf_vector":"1"}},{"base_weights":[-1.5965283E-2,-3.9281357E-2,3.3052694E-2],"categories":[],"categories_nodes":[],"categories_segments":[],"categories_sizes":[],"default_left":[0,0,0],"id":84,"left_children":[1,-1,-1],"loss_changes":[6.347777E-1,0E0,0E0],"parents":[2147483647,0,0],"right_children":[2,-1,-1],"split_conditions":[2.7967203E-1,-3.9281357E-2,3.3052694E-2],"split_indices":[388,0,0],"split_type":[0,0,0],"sum_hessian":[2.948312E0,1.5278865E0,1.4204255E0],"tree_param":{"num_deleted":"0","num_feature":"777","num_nodes":"3","size_leaf_vector":"1"}},{"base_weights":[-1.7280726E-2,-4.7594078E-2,3.034286E-2],"categories":[],"categories_nodes":[],"categories_segments":[],"categories_sizes":[],"default_left":[0,0,0],"id":85,"left_children":[1,-1,-1],"loss_changes":[6.7675656E-1,0E0,0E0],"parents":[2147483647,0,0],"right_children":[2,-1,-1],"split_conditions":[2.7543852E-1,-4.7594078E-2,3.034286E-2],"split_indices":[134,0,0],"split_type":[0,0,0],"sum_hessian":[2.72224E0,1.2190856E0,1.5031543E0],"tree_param":{"num_deleted":"0","num_feature":"777","num_nodes":"3","size_leaf_vector":"1"}},{"base_weights":[-0E0,2.5462223E-2,-4.4871204E-2],"categories":[],"categories_nodes":[],"categories_segments":[],"categories_sizes":[],"default_left":[0,0,0],"id":86,"left_children":[1,-1,-1],"loss_changes":[5.178535E-1,0E0,0E0],"parents":[2147483647,0,0],"right_children":[2,-1,-1],"split_conditions":[-2.6775652E-1,2.5462223E-2,-4.4871204E-2],"split_indices":[132,0,0],"split_type":[0,0,0],"sum_hessian":[2.693166E0,1.6613659E0,1.0318E0],"tree_param":{"num_deleted":"0","num_feature":"777","num_nodes":"3","size_leaf_vector":"1"}},{"base_weights":[1.7779944E-2,4.7043163E-2,-3.4986064E-2],"categories":[],"categories_nodes":[],"categories_segments":[],"categories_sizes":[],"default_left":[0,0,0],"id":87,"left_children":[1,-1,-1],"loss_changes":[6.7566323E-1,0E0,0E0],"parents":[2147483647,0,0],"right_children":[2,-1,-1],"split_conditions":[-6.5455747E-1,4.7043163E-2,-3.4986064E-2],"split_indices":[656,0,0],"split_type":[0,0,0],"sum_hessian":[2.4142864E0,1.1808275E0,1.2334589E0],"tree_param":{"num_deleted":"0","num_feature":"777","num_nodes":"3","size_leaf_vector":"1"}},{"base_weights":[-0E0,3.762448E-2,-3.5813473E-2],"categories":[],"categories_nodes":[],"categories_segments":[],"categories_sizes":[],"default_left":[0,0,0],"id":88,"left_children":[1,-1,-1],"loss_changes":[6.333878E-1,0E0,0E0],"parents":[2147483647,0,0],"right_children":[2,-1,-1],"split_conditions":[-1.9036695E-1,3.762448E-2,-3.5813473E-2],"split_indices":[419,0,0],"split_type":[0,0,0],"sum_hessian":[2.8875003E0,1.4155793E0,1.471921E0],"tree_param":{"num_deleted":"0","num_feature":"777","num_nodes":"3","size_leaf_vector":"1"}},{"base_weights":[1.8142678E-2,3.5877958E-2,-2.699445E-2],"categories":[],"categories_nodes":[],"categories_segments":[],"categories_sizes":[],"default_left":[0,0,0],"id":89,"left_children":[1,-1,-1],"loss_changes":[4.4721875E-1,0E0,0E0],"parents":[2147483647,0,0],"right_children":[2,-1,-1],"split_conditions":[-4.367657E-1,3.5877958E-2,-2.699445E-2],"split_indices":[157,0,0],"split_type":[0,0,0],"sum_hessian":[2.7162971E0,1.3745536E0,1.3417436E0],"tree_param":{"num_deleted":"0","num_feature":"777","num_nodes":"3","size_leaf_vector":"1"}},{"base_weights":[5.6955677E-2,-2.3910424E-2,4.191191E-2],"categories":[],"categories_nodes":[],"categories_segments":[],"categories_sizes":[],"default_left":[0,0,0],"id":90,"left_children":[1,-1,-1],"loss_changes":[4.7566473E-1,0E0,0E0],"parents":[2147483647,0,0],"right_children":[2,-1,-1],"split_conditions":[6.26097E-1,-2.3910424E-2,4.191191E-2],"split_indices":[129,0,0],"split_type":[0,0,0],"sum_hessian":[2.5837183E0,1.332719E0,1.2509992E0],"tree_param":{"num_deleted":"0","num_feature":"777","num_nodes":"3","size_leaf_vector":"1"}},{"base_weights":[-0E0,-2.7274974E-2,4.1964196E-2],"categories":[],"categories_nodes":[],"categories_segments":[],"categories_sizes":[],"default_left":[0,0,0],"id":91,"left_children":[1,-1,-1],"loss_changes":[4.9143913E-1,0E0,0E0],"parents":[2147483647,0,0],"right_children":[2,-1,-1],"split_conditions":[7.137131E-1,-2.7274974E-2,4.1964196E-2],"split_indices":[276,0,0],"split_type":[0,0,0],"sum_hessian":[2.6415071E0,1.6289567E0,1.0125505E0],"tree_param":{"num_deleted":"0","num_feature":"777","num_nodes":"3","size_leaf_vector":"1"}},{"base_weights":[9.850295E-2,3.8335558E-2,-2.1272093E-2],"categories":[],"categories_nodes":[],"categories_segments":[],"categories_sizes":[],"default_left":[0,0,0],"id":92,"left_children":[1,-1,-1],"loss_changes":[3.6986002E-1,0E0,0E0],"parents":[2147483647,0,0],"right_children":[2,-1,-1],"split_conditions":[-6.5941596E-1,3.8335558E-2,-2.1272093E-2],"split_indices":[549,0,0],"split_type":[0,0,0],"sum_hessian":[2.3665154E0,1.3092017E0,1.0573136E0],"tree_param":{"num_deleted":"0","num_feature":"777","num_nodes":"3","size_leaf_vector":"1"}},{"base_weights":[9.692713E-3,-3.427973E-2,2.9707683E-2],"categories":[],"categories_nodes":[],"categories_segments":[],"categories_sizes":[],"default_left":[0,0,0],"id":93,"left_children":[1,-1,-1],"loss_changes":[4.201829E-1,0E0,0E0],"parents":[2147483647,0,0],"right_children":[2,-1,-1],"split_conditions":[-1.2114129E-1,-3.427973E-2,2.9707683E-2],"split_indices":[71,0,0],"split_type":[0,0,0],"sum_hessian":[2.5744848E0,1.0090239E0,1.5654608E0],"tree_param":{"num_deleted":"0","num_feature":"777","num_nodes":"3","size_leaf_vector":"1"}},{"base_weights":[5.9140116E-2,4.112867E-2,-2.74753E-2],"categories":[],"categories_nodes":[],"categories_segments":[],"categories_sizes":[],"default_left":[0,0,0],"id":94,"left_children":[1,-1,-1],"loss_changes":[4.7919524E-1,0E0,0E0],"parents":[2147483647,0,0],"right_children":[2,-1,-1],"split_conditions":[-6.7300844E-1,4.112867E-2,-2.74753E-2],"split_indices":[549,0,0],"split_type":[0,0,0],"sum_hessian":[2.3865874E0,1.252527E0,1.1340605E0],"tree_param":{"num_deleted":"0","num_feature":"777","num_nodes":"3","size_leaf_vector":"1"}},{"base_weights":[-0E0,2.479188E-2,-2.7494024E-2],"categories":[],"categories_nodes":[],"categories_segments":[],"categories_sizes":[],"default_left":[0,0,0],"id":95,"left_children":[1,-1,-1],"loss_changes":[2.577014E-1,0E0,0E0],"parents":[2147483647,0,0],"right_children":[2,-1,-1],"split_conditions":[-1.9036695E-1,2.479188E-2,-2.7494024E-2],"split_indices":[419,0,0],"split_type":[0,0,0],"sum_hessian":[2.2817326E0,1.1165814E0,1.1651511E0],"tree_param":{"num_deleted":"0","num_feature":"777","num_nodes":"3","size_leaf_vector":"1"}},{"base_weights":[-8.267297E-2,2.3222307E-2,-3.818283E-2],"categories":[],"categories_nodes":[],"categories_segments":[],"categories_sizes":[],"default_left":[0,0,0],"id":96,"left_children":[1,-1,-1],"loss_changes":[3.7495685E-1,0E0,0E0],"parents":[2147483647,0,0],"right_children":[2,-1,-1],"split_conditions":[-4.1578084E-1,2.3222307E-2,-3.818283E-2],"split_indices":[157,0,0],"split_type":[0,0,0],"sum_hessian":[2.2787917E0,1.0233666E0,1.2554252E0],"tree_param":{"num_deleted":"0","num_feature":"777","num_nodes":"3","size_leaf_vector":"1"}},{"base_weights":[-0E0,-3.0053023E-2,2.2777798E-2],"categories":[],"categories_nodes":[],"categories_segments":[],"categories_sizes":[],"default_left":[0,0,0],"id":97,"left_children":[1,-1,-1],"loss_changes":[2.576955E-1,0E0,0E0],"parents":[2147483647,0,0],"right_children":[2,-1,-1],"split_conditions":[2.8144044E-1,-3.0053023E-2,2.2777798E-2],"split_indices":[202,0,0],"split_type":[0,0,0],"sum_hessian":[2.1944284E0,1.106784E0,1.0876446E0],"tree_param":{"num_deleted":"0","num_feature":"777","num_nodes":"3","size_leaf_vector":"1"}},{"base_weights":[-0E0,3.1398054E-2,-3.4694824E-2],"categories":[],"categories_nodes":[],"categories_segments":[],"categories_sizes":[],"default_left":[0,0,0],"id":98,"left_children":[1,-1,-1],"loss_changes":[4.569866E-1,0E0,0E0],"parents":[2147483647,0,0],"right_children":[2,-1,-1],"split_conditions":[-4.1578084E-1,3.1398054E-2,-3.4694824E-2],"split_indices":[157,0,0],"split_type":[0,0,0],"sum_hessian":[2.5377898E0,1.2000195E0,1.3377703E0],"tree_param":{"num_deleted":"0","num_feature":"777","num_nodes":"3","size_leaf_vector":"1"}},{"base_weights":[4.6008002E-2,-1.6740074E-2,3.9389424E-2],"categories":[],"categories_nodes":[],"categories_segments":[],"categories_sizes":[],"default_left":[0,0,0],"id":99,"left_children":[1,-1,-1],"loss_changes":[3.1846443E-1,0E0,0E0],"parents":[2147483647,0,0],"right_children":[2,-1,-1],"split_conditions":[7.7554715E-1,-1.6740074E-2,3.9389424E-2],"split_indices":[776,0,0],"split_type":[0,0,0],"sum_hessian":[2.382647E0,1.3650496E0,1.0175973E0],"tree_param":{"num_deleted":"0","num_feature":"777","num_nodes":"3","size_leaf_vector":"1"}},{"base_weights":[-5.220513E-2,-3.982651E-2,2.343262E-2],"categories":[],"categories_nodes":[],"categories_segments":[],"categories_sizes":[],"default_left":[0,0,0],"id":100,"left_children":[1,-1,-1],"loss_changes":[3.9349228E-1,0E0,0E0],"parents":[2147483647,0,0],"right_children":[2,-1,-1],"split_conditions":[2.7543852E-1,-3.982651E-2,2.343262E-2],"split_indices":[134,0,0],"split_type":[0,0,0],"sum_hessian":[2.281824E0,1.1360557E0,1.1457683E0],"tree_param":{"num_deleted":"0","num_feature":"777","num_nodes":"3","size_leaf_vector":"1"}},{"base_weights":[3.7431017E-2,-2.1571962E-2,3.6810625E-2],"categories":[],"categories_nodes":[],"categories_segments":[],"categories_sizes":[],"default_left":[0,0,0],"id":101,"left_children":[1,-1,-1],"loss_changes":[3.0268785E-1,0E0,0E0],"parents":[2147483647,0,0],"right_children":[2,-1,-1],"split_conditions":[7.706553E-1,-2.1571962E-2,3.6810625E-2],"split_indices":[129,0,0],"split_type":[0,0,0],"sum_hessian":[2.038444E0,1.0288508E0,1.0095932E0],"tree_param":{"num_deleted":"0","num_feature":"777","num_nodes":"3","size_leaf_vector":"1"}},{"base_weights":[-0E0,-3.1643435E-2,2.8964145E-2],"categories":[],"categories_nodes":[],"categories_segments":[],"categories_sizes":[],"default_left":[0,0,0],"id":102,"left_children":[1,-1,-1],"loss_changes":[3.6704206E-1,0E0,0E0],"parents":[2147483647,0,0],"right_children":[2,-1,-1],"split_conditions":[2.3821352E-1,-3.1643435E-2,2.8964145E-2],"split_indices":[388,0,0],"split_type":[0,0,0],"sum_hessian":[2.4253962E0,1.2558887E0,1.1695075E0],"tree_param":{"num_deleted":"0","num_feature":"777","num_nodes":"3","size_leaf_vector":"1"}},{"base_weights":[1.9890938E-2,-1.9849364E-2,2.7977109E-2],"categories":[],"categories_nodes":[],"categories_segments":[],"categories_sizes":[],"default_left":[0,0,0],"id":103,"left_children":[1,-1,-1],"loss_changes":[2.1938631E-1,0E0,0E0],"parents":[2147483647,0,0],"right_children":[2,-1,-1],"split_conditions":[2.7967203E-1,-1.9849364E-2,2.7977109E-2],"split_indices":[388,0,0],"split_type":[0,0,0],"sum_hessian":[2.2250624E0,1.03504E0,1.1900223E0],"tree_param":{"num_deleted":"0","num_feature":"777","num_nodes":"3","size_leaf_vector":"1"}},{"base_weights":[-0E0,2.7713805E-2,-2.770928E-2],"categories":[],"categories_nodes":[],"categories_segments":[],"categories_sizes":[],"default_left":[0,0,0],"id":104,"left_children":[1,-1,-1],"loss_changes":[3.0726308E-1,0E0,0E0],"parents":[2147483647,0,0],"right_children":[2,-1,-1],"split_conditions":[-1.9036695E-1,2.7713805E-2,-2.770928E-2],"split_indices":[419,0,0],"split_type":[0,0,0],"sum_hessian":[2.4407873E0,1.1374953E0,1.3032922E0],"tree_param":{"num_deleted":"0","num_feature":"777","num_nodes":"3","size_leaf_vector":"1"}},{"base_weights":[2.242312E-2,-2.1399416E-2,3.3592544E-2],"categories":[],"categories_nodes":[],"categories_segments":[],"categories_sizes":[],"default_left":[0,0,0],"id":105,"left_children":[1,-1,-1],"loss_changes":[2.859207E-1,0E0,0E0],"parents":[2147483647,0,0],"right_children":[2,-1,-1],"split_conditions":[5.2481323E-1,-2.1399416E-2,3.3592544E-2],"split_indices":[57,0,0],"split_type":[0,0,0],"sum_hessian":[2.2039611E0,1.1111996E0,1.0927615E0],"tree_param":{"num_deleted":"0","num_feature":"777","num_nodes":"3","size_leaf_vector":"1"}},{"base_weights":[-0E0],"categories":[],"categories_nodes":[],"categories_segments":[],"categories_sizes":[],"default_left":[0],"id":106,"left_children":[-1],"loss_changes":[0E0],"parents":[2147483647],"right_children":[-1],"split_conditions":[-0E0],"split_indices":[0],"split_type":[0],"sum_hessian":[1.9415531E0],"tree_param":{"num_deleted":"0","num_feature":"777","num_nodes":"1","size_leaf_vector":"1"}},{"base_weights":[4.4264823E-2,-1.5071211E-2,2.9287672E-2],"categories":[],"categories_nodes":[],"categories_segments":[],"categories_sizes":[],"default_left":[0,0,0],"id":107,"left_children":[1,-1,-1],"loss_changes":[1.8659094E-1,0E0,0E0],"parents":[2147483647,0,0],"right_children":[2,-1,-1],"split_conditions":[2.7967203E-1,-1.5071211E-2,2.9287672E-2],"split_indices":[388,0,0],"split_type":[0,0,0],"sum_hessian":[2.0919442E0,1.012215E0,1.0797292E0],"tree_param":{"num_deleted":"0","num_feature":"777","num_nodes":"3","size_leaf_vector":"1"}},{"base_weights":[-0E0,3.0280964E-2,-3.4092788E-2],"categories":[],"categories_nodes":[],"categories_segments":[],"categories_sizes":[],"default_left":[0,0,0],"id":108,"left_children":[1,-1,-1],"loss_changes":[3.653151E-1,0E0,0E0],"parents":[2147483647,0,0],"right_children":[2,-1,-1],"split_conditions":[-1.9036695E-1,3.0280964E-2,-3.4092788E-2],"split_indices":[419,0,0],"split_type":[0,0,0],"sum_hessian":[2.1323462E0,1.080781E0,1.0515653E0],"tree_param":{"num_deleted":"0","num_feature":"777","num_nodes":"3","size_leaf_vector":"1"}},{"base_weights":[-1.6146056E-2,1.8782688E-2,-3.3458523E-2],"categories":[],"categories_nodes":[],"categories_segments":[],"categories_sizes":[],"default_left":[0,0,0],"id":109,"left_children":[1,-1,-1],"loss_changes":[2.560237E-1,0E0,0E0],"parents":[2147483647,0,0],"right_children":[2,-1,-1],"split_conditions":[-3.4734305E-2,1.8782688E-2,-3.3458523E-2],"split_indices":[605,0,0],"split_type":[0,0,0],"sum_hessian":[2.2009437E0,1.1868111E0,1.0141326E0],"tree_param":{"num_deleted":"0","num_feature":"777","num_nodes":"3","size_leaf_vector":"1"}},{"base_weights":[-0E0,-2.5761385E-2,2.790769E-2],"categories":[],"categories_nodes":[],"categories_segments":[],"categories_sizes":[],"default_left":[0,0,0],"id":110,"left_children":[1,-1,-1],"loss_changes":[2.5115862E-1,0E0,0E0],"parents":[2147483647,0,0],"right_children":[2,-1,-1],"split_conditions":[4.177252E-1,-2.5761385E-2,2.790769E-2],"split_indices":[134,0,0],"split_type":[0,0,0],"sum_hessian":[2.108968E0,1.0563487E0,1.0526192E0],"tree_param":{"num_deleted":"0","num_feature":"777","num_nodes":"3","size_leaf_vector":"1"}},{"base_weights":[-0E0,-2.5707176E-2,3.0480696E-2],"categories":[],"categories_nodes":[],"categories_segments":[],"categories_sizes":[],"default_left":[0,0,0],"id":111,"left_children":[1,-1,-1],"loss_changes":[2.70387E-1,0E0,0E0],"parents":[2147483647,0,0],"right_children":[2,-1,-1],"split_conditions":[3.1192502E-1,-2.5707176E-2,3.0480696E-2],"split_indices":[105,0,0],"split_type":[0,0,0],"sum_hessian":[2.0541062E0,1.0190871E0,1.035019E0],"tree_param":{"num_deleted":"0","num_feature":"777","num_nodes":"3","size_leaf_vector":"1"}},{"base_weights":[-0E0,-1.8374275E-2,2.5563285E-2],"categories":[],"categories_nodes":[],"categories_segments":[],"categories_sizes":[],"default_left":[0,0,0],"id":112,"left_children":[1,-1,-1],"loss_changes":[1.7087907E-1,0E0,0E0],"parents":[2147483647,0,0],"right_children":[2,-1,-1],"split_conditions":[1.6953287E-1,-1.8374275E-2,2.5563285E-2],"split_indices":[108,0,0],"split_type":[0,0,0],"sum_hessian":[2.1201982E0,1.112333E0,1.0078651E0],"tree_param":{"num_deleted":"0","num_feature":"777","num_nodes":"3","size_leaf_vector":"1"}},{"base_weights":[-0E0],"categories":[],"categories_nodes":[],"categories_segments":[],"categories_sizes":[],"default_left":[0],"id":113,"left_children":[-1],"loss_changes":[0E0],"parents":[2147483647],"right_children":[-1],"split_conditions":[-0E0],"split_indices":[0],"split_type":[0],"sum_hessian":[1.933191E0],"tree_param":{"num_deleted":"0","num_feature":"777","num_nodes":"1","size_leaf_vector":"1"}},{"base_weights":[-0E0,2.8074963E-2,-2.077882E-2],"categories":[],"categories_nodes":[],"categories_segments":[],"categories_sizes":[],"default_left":[0,0,0],"id":114,"left_children":[1,-1,-1],"loss_changes":[2.0291486E-1,0E0,0E0],"parents":[2147483647,0,0],"right_children":[2,-1,-1],"split_conditions":[-5.146518E-1,2.8074963E-2,-2.077882E-2],"split_indices":[8,0,0],"split_type":[0,0,0],"sum_hessian":[2.0083003E0,1.00536E0,1.0029402E0],"tree_param":{"num_deleted":"0","num_feature":"777","num_nodes":"3","size_leaf_vector":"1"}},{"base_weights":[-0E0,-2.8755222E-2,2.1031804E-2],"categories":[],"categories_nodes":[],"categories_segments":[],"categories_sizes":[],"default_left":[0,0,0],"id":115,"left_children":[1,-1,-1],"loss_changes":[2.3126248E-1,0E0,0E0],"parents":[2147483647,0,0],"right_children":[2,-1,-1],"split_conditions":[2.7543852E-1,-2.8755222E-2,2.1031804E-2],"split_indices":[134,0,0],"split_type":[0,0,0],"sum_hessian":[2.2338927E0,1.0813186E0,1.1525741E0],"tree_param":{"num_deleted":"0","num_feature":"777","num_nodes":"3","size_leaf_vector":"1"}},{"base_weights":[-0E0,-1.727661E-2,2.1105954E-2],"categories":[],"categories_nodes":[],"categories_segments":[],"categories_sizes":[],"default_left":[0,0,0],"id":116,"left_children":[1,-1,-1],"loss_changes":[1.2432021E-1,0E0,0E0],"parents":[2147483647,0,0],"right_children":[2,-1,-1],"split_conditions":[-1.2649855E-4,-1.727661E-2,2.1105954E-2],"split_indices":[233,0,0],"split_type":[0,0,0],"sum_hessian":[2.0180902E0,1.006725E0,1.0113654E0],"tree_param":{"num_deleted":"0","num_feature":"777","num_nodes":"3","size_leaf_vector":"1"}},{"base_weights":[-1.9559303E-2,1.9030118E-2,-2.9230053E-2],"categories":[],"categories_nodes":[],"categories_segments":[],"categories_sizes":[],"default_left":[0,0,0],"id":117,"left_children":[1,-1,-1],"loss_changes":[2.1634533E-1,0E0,0E0],"parents":[2147483647,0,0],"right_children":[2,-1,-1],"split_conditions":[-2.2322561E-1,1.9030118E-2,-2.9230053E-2],"split_indices":[509,0,0],"split_type":[0,0,0],"sum_hessian":[2.139713E0,1.0384119E0,1.1013012E0],"tree_param":{"num_deleted":"0","num_feature":"777","num_nodes":"3","size_leaf_vector":"1"}},{"base_weights":[-0E0,-2.7355798E-2,2.057866E-2],"categories":[],"categories_nodes":[],"categories_segments":[],"categories_sizes":[],"default_left":[0,0,0],"id":118,"left_children":[1,-1,-1],"loss_changes":[2.0402372E-1,0E0,0E0],"parents":[2147483647,0,0],"right_children":[2,-1,-1],"split_conditions":[2.5489913E-2,-2.7355798E-2,2.057866E-2],"split_indices":[624,0,0],"split_type":[0,0,0],"sum_hessian":[2.1024206E0,1.0623299E0,1.0400907E0],"tree_param":{"num_deleted":"0","num_feature":"777","num_nodes":"3","size_leaf_vector":"1"}},{"base_weights":[2.492573E-2],"categories":[],"categories_nodes":[],"categories_segments":[],"categories_sizes":[],"default_left":[0],"id":119,"left_children":[-1],"loss_changes":[0E0],"parents":[2147483647],"right_children":[-1],"split_conditions":[1.9940583E-3],"split_indices":[0],"split_type":[0],"sum_hessian":[1.7914846E0],"tree_param":{"num_deleted":"0","num_feature":"777","num_nodes":"1","size_leaf_vector":"1"}},{"base_weights":[-0E0],"categories":[],"categories_nodes":[],"categories_segments":[],"categories_sizes":[],"default_left":[0],"id":120,"left_children":[-1],"loss_changes":[0E0],"parents":[2147483647],"right_children":[-1],"split_conditions":[-0E0],"split_indices":[0],"split_type":[0],"sum_hessian":[1.8054074E0],"tree_param":{"num_deleted":"0","num_feature":"777","num_nodes":"1","size_leaf_vector":"1"}},{"base_weights":[-0E0,2.0434069E-2,-2.62832E-2],"categories":[],"categories_nodes":[],"categories_segments":[],"categories_sizes":[],"default_left":[0,0,0],"id":121,"left_children":[1,-1,-1],"loss_changes":[1.9144192E-1,0E0,0E0],"parents":[2147483647,0,0],"right_children":[2,-1,-1],"split_conditions":[-1.9036695E-1,2.0434069E-2,-2.62832E-2],"split_indices":[419,0,0],"split_type":[0,0,0],"sum_hessian":[2.0809827E0,1.0204002E0,1.0605824E0],"tree_param":{"num_deleted":"0","num_feature":"777","num_nodes":"3","size_leaf_vector":"1"}},{"base_weights":[-5.4581843E-2],"categories":[],"categories_nodes":[],"categories_segments":[],"categories_sizes":[],"default_left":[0],"id":122,"left_children":[-1],"loss_changes":[0E0],"parents":[2147483647],"right_children":[-1],"split_conditions":[-4.3665473E-3],"split_indices":[0],"split_type":[0],"sum_hessian":[1.9930577E0],"tree_param":{"num_deleted":"0","num_feature":"777","num_nodes":"1","size_leaf_vector":"1"}},{"base_weights":[-3.2990808E-3,-2.8893482E-2,2.2003448E-2],"categories":[],"categories_nodes":[],"categories_segments":[],"categories_sizes":[],"default_left":[0,0,0],"id":123,"left_children":[1,-1,-1],"loss_changes":[2.347201E-1,0E0,0E0],"parents":[2147483647,0,0],"right_children":[2,-1,-1],"split_conditions":[2.7985755E-1,-2.8893482E-2,2.2003448E-2],"split_indices":[309,0,0],"split_type":[0,0,0],"sum_hessian":[2.1327965E0,1.1139023E0,1.0188942E0],"tree_param":{"num_deleted":"0","num_feature":"777","num_nodes":"3","size_leaf_vector":"1"}},{"base_weights":[-0E0,2.4986923E-2,-2.1269238E-2],"categories":[],"categories_nodes":[],"categories_segments":[],"categories_sizes":[],"default_left":[0,0,0],"id":124,"left_children":[1,-1,-1],"loss_changes":[1.8590727E-1,0E0,0E0],"parents":[2147483647,0,0],"right_children":[2,-1,-1],"split_conditions":[-6.7072487E-1,2.4986923E-2,-2.1269238E-2],"split_indices":[656,0,0],"split_type":[0,0,0],"sum_hessian":[2.0866454E0,1.0539615E0,1.0326837E0],"tree_param":{"num_deleted":"0","num_feature":"777","num_nodes":"3","size_leaf_vector":"1"}},{"base_weights":[-4.990887E-3,-2.6123991E-2,1.6923234E-2],"categories":[],"categories_nodes":[],"categories_segments":[],"categories_sizes":[],"default_left":[0,0,0],"id":125,"left_children":[1,-1,-1],"loss_changes":[1.6461204E-1,0E0,0E0],"parents":[2147483647,0,0],"right_children":[2,-1,-1],"split_conditions":[3.7180826E-1,-2.6123991E-2,1.6923234E-2],"split_indices":[557,0,0],"split_type":[0,0,0],"sum_hessian":[2.0464375E0,1.0342441E0,1.0121936E0],"tree_param":{"num_deleted":"0","num_feature":"777","num_nodes":"3","size_leaf_vector":"1"}},{"base_weights":[2.8615786E-2],"categories":[],"categories_nodes":[],"categories_segments":[],"categories_sizes":[],"default_left":[0],"id":126,"left_children":[-1],"loss_changes":[0E0],"parents":[2147483647],"right_children":[-1],"split_conditions":[2.2892628E-3],"split_indices":[0],"split_type":[0],"sum_hessian":[1.901983E0],"tree_param":{"num_deleted":"0","num_feature":"777","num_nodes":"1","size_leaf_vector":"1"}},{"base_weights":[9.644209E-3],"categories":[],"categories_nodes":[],"categories_segments":[],"categories_sizes":[],"default_left":[0],"id":127,"left_children":[-1],"loss_changes":[0E0],"parents":[2147483647],"right_children":[-1],"split_conditions":[7.715367E-4],"split_indices":[0],"split_type":[0],"sum_hessian":[1.8270897E0],"tree_param":{"num_deleted":"0","num_feature":"777","num_nodes":"1","size_leaf_vector":"1"}},{"base_weights":[-6.816245E-3,-2.6886119E-2,1.5305801E-2],"categories":[],"categories_nodes":[],"categories_segments":[],"categories_sizes":[],"default_left":[0,0,0],"id":128,"left_children":[1,-1,-1],"loss_changes":[1.6383024E-1,0E0,0E0],"parents":[2147483647,0,0],"right_children":[2,-1,-1],"split_conditions":[-4.201699E-2,-2.6886119E-2,1.5305801E-2],"split_indices":[624,0,0],"split_type":[0,0,0],"sum_hessian":[2.1258295E0,1.0104928E0,1.1153365E0],"tree_param":{"num_deleted":"0","num_feature":"777","num_nodes":"3","size_leaf_vector":"1"}},{"base_weights":[-3.5874065E-2],"categories":[],"categories_nodes":[],"categories_segments":[],"categories_sizes":[],"default_left":[0],"id":129,"left_children":[-1],"loss_changes":[0E0],"parents":[2147483647],"right_children":[-1],"split_conditions":[-2.8699252E-3],"split_indices":[0],"split_type":[0],"sum_hessian":[1.9140617E0],"tree_param":{"num_deleted":"0","num_feature":"777","num_nodes":"1","size_leaf_vector":"1"}},{"base_weights":[-0E0],"categories":[],"categories_nodes":[],"categories_segments":[],"categories_sizes":[],"default_left":[0],"id":130,"left_children":[-1],"loss_changes":[0E0],"parents":[2147483647],"right_children":[-1],"split_conditions":[-0E0],"split_indices":[0],"split_type":[0],"sum_hessian":[1.9292496E0],"tree_param":{"num_deleted":"0","num_feature":"777","num_nodes":"1","size_leaf_vector":"1"}},{"base_weights":[-0E0],"categories":[],"categories_nodes":[],"categories_segments":[],"categories_sizes":[],"default_left":[0],"id":131,"left_children":[-1],"loss_changes":[0E0],"parents":[2147483647],"right_children":[-1],"split_conditions":[-0E0],"split_indices":[0],"split_type":[0],"sum_hessian":[1.9684675E0],"tree_param":{"num_deleted":"0","num_feature":"777","num_nodes":"1","size_leaf_vector":"1"}},{"base_weights":[-0E0],"categories":[],"categories_nodes":[],"categories_segments":[],"categories_sizes":[],"default_left":[0],"id":132,"left_children":[-1],"loss_changes":[0E0],"parents":[2147483647],"right_children":[-1],"split_conditions":[-0E0],"split_indices":[0],"split_type":[0],"sum_hessian":[1.6470655E0],"tree_param":{"num_deleted":"0","num_feature":"777","num_nodes":"1","size_leaf_vector":"1"}},{"base_weights":[-1.3986899E-2],"categories":[],"categories_nodes":[],"categories_segments":[],"categories_sizes":[],"default_left":[0],"id":133,"left_children":[-1],"loss_changes":[0E0],"parents":[2147483647],"right_children":[-1],"split_conditions":[-1.1189518E-3],"split_indices":[0],"split_type":[0],"sum_hessian":[1.9529551E0],"tree_param":{"num_deleted":"0","num_feature":"777","num_nodes":"1","size_leaf_vector":"1"}},{"base_weights":[-5.0485663E-2],"categories":[],"categories_nodes":[],"categories_segments":[],"categories_sizes":[],"default_left":[0],"id":134,"left_children":[-1],"loss_changes":[0E0],"parents":[2147483647],"right_children":[-1],"split_conditions":[-4.038853E-3],"split_indices":[0],"split_type":[0],"sum_hessian":[1.8979572E0],"tree_param":{"num_deleted":"0","num_feature":"777","num_nodes":"1","size_leaf_vector":"1"}},{"base_weights":[1.2990333E-2],"categories":[],"categories_nodes":[],"categories_segments":[],"categories_sizes":[],"default_left":[0],"id":135,"left_children":[-1],"loss_changes":[0E0],"parents":[2147483647],"right_children":[-1],"split_conditions":[1.0392267E-3],"split_indices":[0],"split_type":[0],"sum_hessian":[1.7072647E0],"tree_param":{"num_deleted":"0","num_feature":"777","num_nodes":"1","size_leaf_vector":"1"}},{"base_weights":[5.0961184E-3],"categories":[],"categories_nodes":[],"categories_segments":[],"categories_sizes":[],"default_left":[0],"id":136,"left_children":[-1],"loss_changes":[0E0],"parents":[2147483647],"right_children":[-1],"split_conditions":[4.0768945E-4],"split_indices":[0],"split_type":[0],"sum_hessian":[1.979167E0],"tree_param":{"num_deleted":"0","num_feature":"777","num_nodes":"1","size_leaf_vector":"1"}},{"base_weights":[-2.3948427E-2],"categories":[],"categories_nodes":[],"categories_segments":[],"categories_sizes":[],"default_left":[0],"id":137,"left_children":[-1],"loss_changes":[0E0],"parents":[2147483647],"right_children":[-1],"split_conditions":[-1.9158742E-3],"split_indices":[0],"split_type":[0],"sum_hessian":[1.8740933E0],"tree_param":{"num_deleted":"0","num_feature":"777","num_nodes":"1","size_leaf_vector":"1"}},{"base_weights":[-0E0],"categories":[],"categories_nodes":[],"categories_segments":[],"categories_sizes":[],"default_left":[0],"id":138,"left_children":[-1],"loss_changes":[0E0],"parents":[2147483647],"right_children":[-1],"split_conditions":[-0E0],"split_indices":[0],"split_type":[0],"sum_hessian":[1.8872293E0],"tree_param":{"num_deleted":"0","num_feature":"777","num_nodes":"1","size_leaf_vector":"1"}},{"base_weights":[-0E0,2.3427753E-2,-1.7941654E-2],"categories":[],"categories_nodes":[],"categories_segments":[],"categories_sizes":[],"default_left":[0,0,0],"id":139,"left_children":[1,-1,-1],"loss_changes":[1.4834927E-1,0E0,0E0],"parents":[2147483647,0,0],"right_children":[2,-1,-1],"split_conditions":[-2.8439894E-1,2.3427753E-2,-1.7941654E-2],"split_indices":[457,0,0],"split_type":[0,0,0],"sum_hessian":[2.0535562E0,1.0404793E0,1.0130769E0],"tree_param":{"num_deleted":"0","num_feature":"777","num_nodes":"3","size_leaf_vector":"1"}},{"base_weights":[-0E0],"categories":[],"categories_nodes":[],"categories_segments":[],"categories_sizes":[],"default_left":[0],"id":140,"left_children":[-1],"loss_changes":[0E0],"parents":[2147483647],"right_children":[-1],"split_conditions":[-0E0],"split_indices":[0],"split_type":[0],"sum_hessian":[1.8732022E0],"tree_param":{"num_deleted":"0","num_feature":"777","num_nodes":"1","size_leaf_vector":"1"}},{"base_weights":[-4.2098954E-2],"categories":[],"categories_nodes":[],"categories_segments":[],"categories_sizes":[],"default_left":[0],"id":141,"left_children":[-1],"loss_changes":[0E0],"parents":[2147483647],"right_children":[-1],"split_conditions":[-3.3679162E-3],"split_indices":[0],"split_type":[0],"sum_hessian":[1.9584394E0],"tree_param":{"num_deleted":"0","num_feature":"777","num_nodes":"1","size_leaf_vector":"1"}},{"base_weights":[-0E0],"categories":[],"categories_nodes":[],"categories_segments":[],"categories_sizes":[],"default_left":[0],"id":142,"left_children":[-1],"loss_changes":[0E0],"parents":[2147483647],"right_children":[-1],"split_conditions":[-0E0],"split_indices":[0],"split_type":[0],"sum_hessian":[1.6464233E0],"tree_param":{"num_deleted":"0","num_feature":"777","num_nodes":"1","size_leaf_vector":"1"}},{"base_weights":[-0E0],"categories":[],"categories_nodes":[],"categories_segments":[],"categories_sizes":[],"default_left":[0],"id":143,"left_children":[-1],"loss_changes":[0E0],"parents":[2147483647],"right_children":[-1],"split_conditions":[-0E0],"split_indices":[0],"split_type":[0],"sum_hessian":[1.8037717E0],"tree_param":{"num_deleted":"0","num_feature":"777","num_nodes":"1","size_leaf_vector":"1"}},{"base_weights":[-2.1140184E-2],"categories":[],"categories_nodes":[],"categories_segments":[],"categories_sizes":[],"default_left":[0],"id":144,"left_children":[-1],"loss_changes":[0E0],"parents":[2147483647],"right_children":[-1],"split_conditions":[-1.6912147E-3],"split_indices":[0],"split_type":[0],"sum_hessian":[1.8940793E0],"tree_param":{"num_deleted":"0","num_feature":"777","num_nodes":"1","size_leaf_vector":"1"}},{"base_weights":[-0E0],"categories":[],"categories_nodes":[],"categories_segments":[],"categories_sizes":[],"default_left":[0],"id":145,"left_children":[-1],"loss_changes":[0E0],"parents":[2147483647],"right_children":[-1],"split_conditions":[-0E0],"split_indices":[0],"split_type":[0],"sum_hessian":[1.9889643E0],"tree_param":{"num_deleted":"0","num_feature":"777","num_nodes":"1","size_leaf_vector":"1"}},{"base_weights":[-0E0],"categories":[],"categories_nodes":[],"categories_segments":[],"categories_sizes":[],"default_left":[0],"id":146,"left_children":[-1],"loss_changes":[0E0],"parents":[2147483647],"right_children":[-1],"split_conditions":[-0E0],"split_indices":[0],"split_type":[0],"sum_hessian":[1.961663E0],"tree_param":{"num_deleted":"0","num_feature":"777","num_nodes":"1","size_leaf_vector":"1"}},{"base_weights":[-0E0],"categories":[],"categories_nodes":[],"categories_segments":[],"categories_sizes":[],"default_left":[0],"id":147,"left_children":[-1],"loss_changes":[0E0],"parents":[2147483647],"right_children":[-1],"split_conditions":[-0E0],"split_indices":[0],"split_type":[0],"sum_hessian":[1.929367E0],"tree_param":{"num_deleted":"0","num_feature":"777","num_nodes":"1","size_leaf_vector":"1"}},{"base_weights":[-1.3427472E-2],"categories":[],"categories_nodes":[],"categories_segments":[],"categories_sizes":[],"default_left":[0],"id":148,"left_children":[-1],"loss_changes":[0E0],"parents":[2147483647],"right_children":[-1],"split_conditions":[-1.0741977E-3],"split_indices":[0],"split_type":[0],"sum_hessian":[1.9794196E0],"tree_param":{"num_deleted":"0","num_feature":"777","num_nodes":"1","size_leaf_vector":"1"}},{"base_weights":[-7.240526E-3],"categories":[],"categories_nodes":[],"categories_segments":[],"categories_sizes":[],"default_left":[0],"id":149,"left_children":[-1],"loss_changes":[0E0],"parents":[2147483647],"right_children":[-1],"split_conditions":[-5.7924207E-4],"split_indices":[0],"split_type":[0],"sum_hessian":[1.8154589E0],"tree_param":{"num_deleted":"0","num_feature":"777","num_nodes":"1","size_leaf_vector":"1"}},{"base_weights":[-0E0,1.5763052E-2,-2.0310063E-2],"categories":[],"categories_nodes":[],"categories_segments":[],"categories_sizes":[],"default_left":[0,0,0],"id":150,"left_children":[1,-1,-1],"loss_changes":[1.1311345E-1,0E0,0E0],"parents":[2147483647,0,0],"right_children":[2,-1,-1],"split_conditions":[2.4582943E-1,1.5763052E-2,-2.0310063E-2],"split_indices":[10,0,0],"split_type":[0,0,0],"sum_hessian":[2.0626929E0,1.015641E0,1.0470519E0],"tree_param":{"num_deleted":"0","num_feature":"777","num_nodes":"3","size_leaf_vector":"1"}},{"base_weights":[-0E0],"categories":[],"categories_nodes":[],"categories_segments":[],"categories_sizes":[],"default_left":[0],"id":151,"left_children":[-1],"loss_changes":[0E0],"parents":[2147483647],"right_children":[-1],"split_conditions":[-0E0],"split_indices":[0],"split_type":[0],"sum_hessian":[1.7951041E0],"tree_param":{"num_deleted":"0","num_feature":"777","num_nodes":"1","size_leaf_vector":"1"}},{"base_weights":[-0E0],"categories":[],"categories_nodes":[],"categories_segments":[],"categories_sizes":[],"default_left":[0],"id":152,"left_children":[-1],"loss_changes":[0E0],"parents":[2147483647],"right_children":[-1],"split_conditions":[-0E0],"split_indices":[0],"split_type":[0],"sum_hessian":[1.9237787E0],"tree_param":{"num_deleted":"0","num_feature":"777","num_nodes":"1","size_leaf_vector":"1"}},{"base_weights":[-0E0],"categories":[],"categories_nodes":[],"categories_segments":[],"categories_sizes":[],"default_left":[0],"id":153,"left_children":[-1],"loss_changes":[0E0],"parents":[2147483647],"right_children":[-1],"split_conditions":[-0E0],"split_indices":[0],"split_type":[0],"sum_hessian":[1.8720974E0],"tree_param":{"num_deleted":"0","num_feature":"777","num_nodes":"1","size_leaf_vector":"1"}},{"base_weights":[-0E0],"categories":[],"categories_nodes":[],"categories_segments":[],"categories_sizes":[],"default_left":[0],"id":154,"left_children":[-1],"loss_changes":[0E0],"parents":[2147483647],"right_children":[-1],"split_conditions":[-0E0],"split_indices":[0],"split_type":[0],"sum_hessian":[1.9681603E0],"tree_param":{"num_deleted":"0","num_feature":"777","num_nodes":"1","size_leaf_vector":"1"}},{"base_weights":[-0E0,2.2510728E-2,-2.5475608E-2],"categories":[],"categories_nodes":[],"categories_segments":[],