{"learner":{"attributes":{"best_iteration":"45","best_score":"0.0933675808366388","scikit_learn":"{\"_estimator_type\": \"classifier\"}"},"feature_names":[],"feature_types":[],"gradient_booster":{"model":{"cats":{"enc":[],"feature_segments":[],"sorted_idx":[]},"gbtree_model_param":{"num_parallel_tree":"1","num_trees":"246"},"iteration_indptr":[0,1,2,3,4,5,6,7,8,9,10,11,12,13,14,15,16,17,18,19,20,21,22,23,24,25,26,27,28,29,30,31,32,33,34,35,36,37,38,39,40,41,42,43,44,45,46,47,48,49,50,51,52,53,54,55,56,57,58,59,60,61,62,63,64,65,66,67,68,69,70,71,72,73,74,75,76,77,78,79,80,81,82,83,84,85,86,87,88,89,90,91,92,93,94,95,96,97,98,99,100,101,102,103,104,105,106,107,108,109,110,111,112,113,114,115,116,117,118,119,120,121,122,123,124,125,126,127,128,129,130,131,132,133,134,135,136,137,138,139,140,141,142,143,144,145,146,147,148,149,150,151,152,153,154,155,156,157,158,159,160,161,162,163,164,165,166,167,168,169,170,171,172,173,174,175,176,177,178,179,180,181,182,183,184,185,186,187,188,189,190,191,192,193,194,195,196,197,198,199,200,201,202,203,204,205,206,207,208,209,210,211,212,213,214,215,216,217,218,219,220,221,222,223,224,225,226,227,228,229,230,231,232,233,234,235,236,237,238,239,240,241,242,243,244,245,246],"tree_info":[0,0,0,0,0,0,0,0,0,0,0,0,0,0,0,0,0,0,0,0,0,0,0,0,0,0,0,0,0,0,0,0,0,0,0,0,0,0,0,0,0,0,0,0,0,0,0,0,0,0,0,0,0,0,0,0,0,0,0,0,0,0,0,0,0,0,0,0,0,0,0,0,0,0,0,0,0,0,0,0,0,0,0,0,0,0,0,0,0,0,0,0,0,0,0,0,0,0,0,0,0,0,0,0,0,0,0,0,0,0,0,0,0,0,0,0,0,0,0,0,0,0,0,0,0,0,0,0,0,0,0,0,0,0,0,0,0,0,0,0,0,0,0,0,0,0,0,0,0,0,0,0,0,0,0,0,0,0,0,0,0,0,0,0,0,0,0,0,0,0,0,0,0,0,0,0,0,0,0,0,0,0,0,0,0,0,0,0,0,0,0,0,0,0,0,0,0,0,0,0,0,0,0,0,0,0,0,0,0,0,0,0,0,0,0,0,0,0,0,0,0,0,0,0,0,0,0,0,0,0,0,0,0,0,0,0,0,0,0,0,0,0,0,0,0,0],"trees":[{"base_weights":[-5.2188773E-2,-1.6395023E-1,1.8751454E0,1.5536802E-1,9.6924275E-1,3.0035779E-2,1.4135179E-1],"categories":[],"categories_nodes":[],"categories_segments":[],"categories_sizes":[],"default_left":[0,0,0,0,0,0,0],"id":0,"left_children":[1,-1,3,-1,5,-1,-1],"loss_changes":[3.3705038E2,0E0,2.2385254E0,0E0,1.2697735E0,0E0,0E0],"parents":[2147483647,0,0,2,2,4,4],"right_children":[2,-1,4,-1,6,-1,-1],"split_conditions":[7.321667E-1,-1.6395023E-1,4.7590393E-1,1.5536802E-1,3.8257873E-1,3.0035779E-2,1.4135179E-1],"split_indices":[776,0,387,0,301,0,0],"split_type":[0,0,0,0,0,0,0],"sum_hessian":[8.7437256E1,4.2969166E1,4.446809E1,4.122042E1,3.2476695E0,1.9985658E0,1.2491037E0],"tree_param":{"num_deleted":"0","num_feature":"777","num_nodes":"7","size_leaf_vector":"1"}},{"base_weights":[-9.315556E-2,-1.6029363E0,1.5345443E0,2.1541215E-1,-1.512785E-1,-1.4894828E-1,1.7870504E0,1.4006199E-1,-1.4496548E-1,8.526067E-2,1.4475551E-1],"categories":[],"categories_nodes":[],"categories_segments":[],"categories_sizes":[],"default_left":[0,0,0,0,0,0,0,0,0,0,0],"id":1,"left_children":[1,3,5,7,-1,-1,9,-1,-1,-1,-1],"loss_changes":[2.2548271E2,2.517559E1,3.8023865E1,2.0451239E1,0E0,0E0,2.0353699E-1,0E0,0E0,0E0,0E0],"parents":[2147483647,0,0,1,1,2,2,3,3,6,6],"right_children":[2,4,6,8,-1,-1,10,-1,-1,-1,-1],"split_conditions":[7.864711E-1,-1.3911415E0,1E0,-5.014948E-1,-1.512785E-1,-1.4894828E-1,-5.9449965E-1,1.4006199E-1,-1.4496548E-1,8.526067E-2,1.4475551E-1],"split_indices":[775,124,774,106,0,0,7,0,0,0,0],"split_type":[0,0,0,0,0,0,0,0,0,0,0],"sum_hessian":[9.163061E1,4.7575947E1,4.405466E1,6.4510098E0,4.112494E1,2.9892557E0,4.1065403E1,3.7093687E0,2.741641E0,1.4856963E0,3.957971E1],"tree_param":{"num_deleted":"0","num_feature":"777","num_nodes":"11","size_leaf_vector":"1"}},{"base_weights":[1.8398903E-3,-1.4130099E-1,1.6320509E0,1.9476725E-2,1.6877934E0,7.505523E-2,1.3665873E-1],"categories":[],"categories_nodes":[],"categories_segments":[],"categories_sizes":[],"default_left":[0,0,0,0,0,0,0],"id":2,"left_children":[1,-1,3,-1,5,-1,-1],"loss_changes":[2.678865E2,0E0,3.4894104E0,0E0,2.9771423E-1,0E0,0E0],"parents":[2147483647,0,0,2,2,4,4],"right_children":[2,-1,4,-1,6,-1,-1],"split_conditions":[7.321667E-1,-1.4130099E-1,-1.3856674E0,1.9476725E-2,-1.4706206E0,7.505523E-2,1.3665873E-1],"split_indices":[776,0,52,0,15,0,0],"split_type":[0,0,0,0,0,0,0],"sum_hessian":[9.2824936E1,4.44915E1,4.833343E1,1.9608878E0,4.6372543E1,1.4614823E0,4.491106E1],"tree_param":{"num_deleted":"0","num_feature":"777","num_nodes":"7","size_leaf_vector":"1"}},{"base_weights":[1.0050476E-1,-1.3354284E-1,1.6062876E0,1.3003214E-1,6.9399305E-2],"categories":[],"categories_nodes":[],"categories_segments":[],"categories_sizes":[],"default_left":[0,0,0,0,0],"id":3,"left_children":[1,-1,3,-1,-1],"loss_changes":[2.346365E2,0E0,2.8855133E-1,0E0,0E0],"parents":[2147483647,0,0,2,2],"right_children":[2,-1,4,-1,-1],"split_conditions":[7.3861045E-1,-1.3354284E-1,9.495365E-1,1.3003214E-1,6.9399305E-2],"split_indices":[776,0,315,0,0],"split_type":[0,0,0,0,0],"sum_hessian":[8.7928825E1,4.03813E1,4.7547523E1,4.6119884E1,1.4276408E0],"tree_param":{"num_deleted":"0","num_feature":"777","num_nodes":"5","size_leaf_vector":"1"}},{"base_weights":[-3.124789E-2,-1.2656282E-1,1.4946533E0,9.95862E-3,1.2455198E-1],"categories":[],"categories_nodes":[],"categories_segments":[],"categories_sizes":[],"default_left":[0,0,0,0,0],"id":4,"left_children":[1,-1,3,-1,-1],"loss_changes":[1.9801039E2,0E0,3.380371E0,0E0,0E0],"parents":[2147483647,0,0,2,2],"right_children":[2,-1,4,-1,-1],"split_conditions":[7.321667E-1,-1.2656282E-1,-1.6298378E0,9.95862E-3,1.2455198E-1],"split_indices":[776,0,20,0,0],"split_type":[0,0,0,0,0],"sum_hessian":[8.355323E1,4.147661E1,4.2076622E1,1.9200599E0,4.015656E1],"tree_param":{"num_deleted":"0","num_feature":"777","num_nodes":"5","size_leaf_vector":"1"}},{"base_weights":[3.2548793E-2,-1.2080775E-1,1.429723E0,-0E0,1.1941635E-1],"categories":[],"categories_nodes":[],"categories_segments":[],"categories_sizes":[],"default_left":[0,0,0,0,0],"id":5,"left_children":[1,-1,3,-1,-1],"loss_changes":[1.7552847E2,0E0,3.781395E0,0E0,0E0],"parents":[2147483647,0,0,2,2],"right_children":[2,-1,4,-1,-1],"split_conditions":[7.289895E-1,-1.2080775E-1,-9.625971E-1,-0E0,1.1941635E-1],"split_indices":[776,0,241,0,0],"split_type":[0,0,0,0,0],"sum_hessian":[8.132307E1,3.860635E1,4.2716717E1,1.8365039E0,4.0880215E1],"tree_param":{"num_deleted":"0","num_feature":"777","num_nodes":"5","size_leaf_vector":"1"}},{"base_weights":[-2.9032866E-2,-1.1631929E-1,1.3778877E0,1.5335858E-2,1.4217342E0,5.1837888E-2,1.15542345E-1],"categories":[],"categories_nodes":[],"categories_segments":[],"categories_sizes":[],"default_left":[0,0,0,0,0,0,0],"id":6,"left_children":[1,-1,3,-1,5,-1,-1],"loss_changes":[1.601259E2,0E0,1.8780441E0,0E0,3.6627197E-1,0E0,0E0],"parents":[2147483647,0,0,2,2,4,4],"right_children":[2,-1,4,-1,6,-1,-1],"split_conditions":[7.321667E-1,-1.1631929E-1,-1.2811981E0,1.5335858E-2,-1.5294414E0,5.1837888E-2,1.15542345E-1],"split_indices":[776,0,691,0,333,0,0],"split_type":[0,0,0,0,0,0,0],"sum_hessian":[7.974663E1,3.9660717E1,4.008591E1,1.5379719E0,3.854794E1,1.2925928E0,3.7255344E1],"tree_param":{"num_deleted":"0","num_feature":"777","num_nodes":"7","size_leaf_vector":"1"}},{"base_weights":[1.7011693E-2,-1.0986707E0,1.1849968E0,8.7230283E-1,-1.3119614E0,1.291401E0,-1.1967418E-1,1.04268104E-1,1.8232439E-2,-1.1247115E-1,1.060505E-1,-0E0,1.3646183E0,6.0743496E-2,1.1056056E-1],"categories":[],"categories_nodes":[],"categories_segments":[],"categories_sizes":[],"default_left":[0,0,0,0,0,0,0,0,0,0,0,0,0,0,0],"id":7,"left_children":[1,3,5,7,9,11,-1,-1,-1,-1,-1,-1,13,-1,-1],"loss_changes":[9.7435265E1,1.6174473E1,1.052565E1,8.289182E-1,8.677559E0,3.3527832E0,0E0,0E0,0E0,0E0,0E0,0E0,3.1391144E-2,0E0,0E0],"parents":[2147483647,0,0,1,1,2,2,3,3,4,4,5,5,12,12],"right_children":[2,4,6,8,10,12,-1,-1,-1,-1,-1,-1,14,-1,-1],"split_conditions":[7.8435016E-1,-1.7910647E0,7.103653E-2,-1.3963712E0,2.469253E0,-1.1733197E0,-1.1967418E-1,1.04268104E-1,1.8232439E-2,-1.1247115E-1,1.060505E-1,-0E0,-1.5884913E0,6.0743496E-2,1.1056056E-1],"split_indices":[775,109,644,0,11,24,0,0,0,0,0,0,611,0,0],"split_type":[0,0,0,0,0,0,0,0,0,0,0,0,0,0,0],"sum_hessian":[7.464398E1,3.812605E1,3.6517933E1,3.6499205E0,3.4476128E1,3.5196854E1,1.3210824E0,2.0386539E0,1.6112664E0,3.3361595E1,1.1145338E0,1.8813926E0,3.331546E1,1.1978416E0,3.211762E1],"tree_param":{"num_deleted":"0","num_feature":"777","num_nodes":"15","size_leaf_vector":"1"}},{"base_weights":[-1.4146846E-2,-1.0952446E-1,1.3015659E0,1.0826854E-1,8.034372E-3],"categories":[],"categories_nodes":[],"categories_segments":[],"categories_sizes":[],"default_left":[0,0,0,0,0],"id":8,"left_children":[1,-1,3,-1,-1],"loss_changes":[1.17612045E2,0E0,1.8966751E0,0E0,0E0],"parents":[2147483647,0,0,2,2],"right_children":[2,-1,4,-1,-1],"split_conditions":[7.3861045E-1,-1.0952446E-1,1.0876325E0,1.0826854E-1,8.034372E-3],"split_indices":[776,0,441,0,0],"split_type":[0,0,0,0,0],"sum_hessian":[6.585067E1,3.2485832E1,3.336484E1,3.188261E1,1.4822297E0],"tree_param":{"num_deleted":"0","num_feature":"777","num_nodes":"5","size_leaf_vector":"1"}},{"base_weights":[4.8258368E-2,-1.0592063E-1,1.2454278E0,-6.3453047E-3,1.308669E0,4.0415738E-2,1.06378466E-1],"categories":[],"categories_nodes":[],"categories_segments":[],"categories_sizes":[],"default_left":[0,0,0,0,0,0,0],"id":9,"left_children":[1,-1,3,-1,5,-1,-1],"loss_changes":[1.19861916E2,0E0,3.4223366E0,0E0,3.7117386E-1,0E0,0E0],"parents":[2147483647,0,0,2,2,4,4],"right_children":[2,-1,4,-1,6,-1,-1],"split_conditions":[7.321667E-1,-1.0592063E-1,-9.625971E-1,-6.3453047E-3,-1.2445247E0,4.0415738E-2,1.06378466E-1],"split_indices":[776,0,241,0,636,0,0],"split_type":[0,0,0,0,0,0,0],"sum_hessian":[7.2845924E1,3.3891216E1,3.8954704E1,1.6877518E0,3.7266953E1,1.1357783E0,3.6131176E1],"tree_param":{"num_deleted":"0","num_feature":"777","num_nodes":"7","size_leaf_vector":"1"}},{"base_weights":[4.305404E-2,-1.0324466E-1,1.2237875E0,1.0345145E-1,2.8925627E-1,4.0680602E-2,2.0893493E-4],"categories":[],"categories_nodes":[],"categories_segments":[],"categories_sizes":[],"default_left":[0,0,0,0,0,0,0],"id":10,"left_children":[1,-1,3,-1,5,-1,-1],"loss_changes":[1.00824585E2,0E0,1.9920921E0,0E0,9.8629236E-2,0E0,0E0],"parents":[2147483647,0,0,2,2,4,4],"right_children":[2,-1,4,-1,6,-1,-1],"split_conditions":[7.321667E-1,-1.0324466E-1,5.4337895E-1,1.0345145E-1,2.1325034E-1,4.0680602E-2,2.0893493E-4],"split_indices":[776,0,93,0,612,0,0],"split_type":[0,0,0,0,0,0,0],"sum_hessian":[6.3915123E1,2.9964111E1,3.395101E1,3.1464466E1,2.486545E0,1.1453798E0,1.3411653E0],"tree_param":{"num_deleted":"0","num_feature":"777","num_nodes":"7","size_leaf_vector":"1"}},{"base_weights":[-5.1743537E-3,-1.0096913E-1,1.1706262E0,3.677994E-2,1.0169748E-1,-2.2930808E-2,4.366429E-2],"categories":[],"categories_nodes":[],"categories_segments":[],"categories_sizes":[],"default_left":[0,0,0,0,0,0,0],"id":11,"left_children":[1,-1,3,5,-1,-1,-1],"loss_changes":[9.171294E1,0E0,3.4911537E0,4.9607614E-1,0E0,0E0,0E0],"parents":[2147483647,0,0,2,2,3,3],"right_children":[2,-1,4,6,-1,-1,-1],"split_conditions":[7.321667E-1,-1.0096913E-1,-5.104271E-1,-6.391278E-1,1.0169748E-1,-2.2930808E-2,4.366429E-2],"split_indices":[776,0,269,2,0,0,0],"split_type":[0,0,0,0,0,0,0],"sum_hessian":[6.192841E1,2.9978653E1,3.1949757E1,2.7074203E0,2.9242336E1,1.527421E0,1.1799994E0],"tree_param":{"num_deleted":"0","num_feature":"777","num_nodes":"7","size_leaf_vector":"1"}},{"base_weights":[-3.1009745E-2,-9.8786645E-2,1.1298923E0,1.2176473E0,-2.725944E-2,2.8052721E-2,9.9730216E-2],"categories":[],"categories_nodes":[],"categories_segments":[],"categories_sizes":[],"default_left":[0,0,0,0,0,0,0],"id":12,"left_children":[1,-1,3,5,-1,-1,-1],"loss_changes":[7.67132E1,0E0,3.7294617E0,4.45652E-1,0E0,0E0,0E0],"parents":[2147483647,0,0,2,2,3,3],"right_children":[2,-1,4,6,-1,-1,-1],"split_conditions":[7.289895E-1,-9.8786645E-2,8.1135744E-1,-1.2859709E0,-2.725944E-2,2.8052721E-2,9.9730216E-2],"split_indices":[776,0,152,649,0,0,0],"split_type":[0,0,0,0,0,0,0],"sum_hessian":[5.476343E1,2.693359E1,2.7829842E1,2.6349451E1,1.4803911E0,1.0116374E0,2.5337814E1],"tree_param":{"num_deleted":"0","num_feature":"777","num_nodes":"7","size_leaf_vector":"1"}},{"base_weights":[6.444884E-2,-9.7039945E-2,1.1747581E0,9.801902E-2,-0E0],"categories":[],"categories_nodes":[],"categories_segments":[],"categories_sizes":[],"default_left":[0,0,0,0,0],"id":13,"left_children":[1,-1,3,-1,-1],"loss_changes":[8.263354E1,0E0,1.9928284E0,0E0,0E0],"parents":[2147483647,0,0,2,2],"right_children":[2,-1,4,-1,-1],"split_conditions":[7.321667E-1,-9.7039945E-2,2.4011847E-1,9.801902E-2,-0E0],"split_indices":[776,0,519,0,0],"split_type":[0,0,0,0,0],"sum_hessian":[5.8142765E1,2.6983599E1,3.1159166E1,2.996719E1,1.1919762E0],"tree_param":{"num_deleted":"0","num_feature":"777","num_nodes":"5","size_leaf_vector":"1"}},{"base_weights":[-0E0,-9.535401E-2,1.111808E0,-3.0015914E-2,9.63268E-2],"categories":[],"categories_nodes":[],"categories_segments":[],"categories_sizes":[],"default_left":[0,0,0,0,0],"id":14,"left_children":[1,-1,3,-1,-1],"loss_changes":[6.709335E1,0E0,3.7242432E0,0E0,0E0],"parents":[2147483647,0,0,2,2],"right_children":[2,-1,4,-1,-1],"split_conditions":[7.321667E-1,-9.535401E-2,-5.104271E-1,-3.0015914E-2,9.63268E-2],"split_indices":[776,0,269,0,0],"split_type":[0,0,0,0,0],"sum_hessian":[5.051228E1,2.4353373E1,2.6158907E1,1.4417243E0,2.4717184E1],"tree_param":{"num_deleted":"0","num_feature":"777","num_nodes":"5","size_leaf_vector":"1"}},{"base_weights":[4.289149E-3,-9.380659E-2,1.05774E0,-3.5202406E-2,9.436902E-2],"categories":[],"categories_nodes":[],"categories_segments":[],"categories_sizes":[],"default_left":[0,0,0,0,0],"id":15,"left_children":[1,-1,3,-1,-1],"loss_changes":[5.9432255E1,0E0,4.748104E0,0E0,0E0],"parents":[2147483647,0,0,2,2],"right_children":[2,-1,4,-1,-1],"split_conditions":[7.321667E-1,-9.380659E-2,-5.104271E-1,-3.5202406E-2,9.436902E-2],"split_indices":[776,0,269,0,0],"split_type":[0,0,0,0,0],"sum_hessian":[4.782897E1,2.2534107E1,2.5294867E1,1.8174783E0,2.3477388E1],"tree_param":{"num_deleted":"0","num_feature":"777","num_nodes":"5","size_leaf_vector":"1"}},{"base_weights":[-7.161373E-2,-9.245286E-2,1.049899E0,9.319825E-2,-3.0697827E-4],"categories":[],"categories_nodes":[],"categories_segments":[],"categories_sizes":[],"default_left":[0,0,0,0,0],"id":16,"left_children":[1,-1,3,-1,-1],"loss_changes":[5.0706318E1,0E0,2.618433E0,0E0,0E0],"parents":[2147483647,0,0,2,2],"right_children":[2,-1,4,-1,-1],"split_conditions":[7.321667E-1,-9.245286E-2,1.0226083E0,9.319825E-2,-3.0697827E-4],"split_indices":[776,0,637,0,0],"split_type":[0,0,0,0,0],"sum_hessian":[4.1576763E1,2.1194992E1,2.0381771E1,1.8471981E1,1.9097894E0],"tree_param":{"num_deleted":"0","num_feature":"777","num_nodes":"5","size_leaf_vector":"1"}},{"base_weights":[4.5257356E-2,-9.115051E-2,1.0192841E0,-4.2910516E-2,1.1224965E0,3.7789352E-2,9.256075E-2],"categories":[],"categories_nodes":[],"categories_segments":[],"categories_sizes":[],"default_left":[0,0,0,0,0,0,0],"id":17,"left_children":[1,-1,3,-1,5,-1,-1],"loss_changes":[4.795869E1,0E0,3.7785912E0,0E0,2.5497437E-1,0E0,0E0],"parents":[2147483647,0,0,2,2,4,4],"right_children":[2,-1,4,-1,6,-1,-1],"split_conditions":[7.289895E-1,-9.115051E-2,-1.2567632E0,-4.2910516E-2,-7.025448E-1,3.7789352E-2,9.256075E-2],"split_indices":[776,0,20,0,62,0,0],"split_type":[0,0,0,0,0,0,0],"sum_hessian":[4.1455444E1,1.8645218E1,2.2810225E1,1.3312055E0,2.147902E1,1.3024576E0,2.0176561E1],"tree_param":{"num_deleted":"0","num_feature":"777","num_nodes":"7","size_leaf_vector":"1"}},{"base_weights":[3.6135845E-2,-9.0187386E-2,1.0352349E0,-2.4723964E-2,1.1081092E0,9.123418E-2,2.7653221E-2],"categories":[],"categories_nodes":[],"categories_segments":[],"categories_sizes":[],"default_left":[0,0,0,0,0,0,0],"id":18,"left_children":[1,-1,3,-1,5,-1,-1],"loss_changes":[4.6139767E1,0E0,2.2142563E0,0E0,3.009529E-1,0E0,0E0],"parents":[2147483647,0,0,2,2,4,4],"right_children":[2,-1,4,-1,6,-1,-1],"split_conditions":[7.321667E-1,-9.0187386E-2,-1.4511865E0,-2.4723964E-2,1.1435888E0,9.123418E-2,2.7653221E-2],"split_indices":[776,0,360,0,424,0,0],"split_type":[0,0,0,0,0,0,0],"sum_hessian":[3.958178E1,1.8227522E1,2.1354258E1,1.0034205E0,2.0350838E1,1.9343773E1,1.0070641E0],"tree_param":{"num_deleted":"0","num_feature":"777","num_nodes":"7","size_leaf_vector":"1"}},{"base_weights":[6.73864E-2,-8.919806E-2,1.0217185E0,-2.257206E-2,9.017E-2],"categories":[],"categories_nodes":[],"categories_segments":[],"categories_sizes":[],"default_left":[0,0,0,0,0],"id":19,"left_children":[1,-1,3,-1,-1],"loss_changes":[4.3016617E1,0E0,3.0279617E0,0E0,0E0],"parents":[2147483647,0,0,2,2],"right_children":[2,-1,4,-1,-1],"split_conditions":[7.321667E-1,-8.919806E-2,-5.104271E-1,-2.257206E-2,9.017E-2],"split_indices":[776,0,269,0,0],"split_type":[0,0,0,0,0],"sum_hessian":[3.8012264E1,1.6917107E1,2.1095156E1,1.4851323E0,1.9610023E1],"tree_param":{"num_deleted":"0","num_feature":"777","num_nodes":"5","size_leaf_vector":"1"}},{"base_weights":[-6.1416887E-3,-8.910297E-2,1.0207218E0,8.910731E-2,-2.4056368E-2],"categories":[],"categories_nodes":[],"categories_segments":[],"categories_sizes":[],"default_left":[0,0,0,0,0],"id":20,"left_children":[1,-1,3,-1,-1],"loss_changes":[3.8145054E1,0E0,2.2516232E0,0E0,0E0],"parents":[2147483647,0,0,2,2],"right_children":[2,-1,4,-1,-1],"split_conditions":[7.3363346E-1,-8.910297E-2,1.0979155E0,8.910731E-2,-2.4056368E-2],"split_indices":[776,0,721,0,0],"split_type":[0,0,0,0,0],"sum_hessian":[3.3407257E1,1.6125242E1,1.7282013E1,1.6237974E1,1.0440385E0],"tree_param":{"num_deleted":"0","num_feature":"777","num_nodes":"5","size_leaf_vector":"1"}},{"base_weights":[-0E0,-8.9136496E-2,1.060118E0,8.8575855E-2,1.9157456E-2],"categories":[],"categories_nodes":[],"categories_segments":[],"categories_sizes":[],"default_left":[0,0,0,0,0],"id":21,"left_children":[1,-1,3,-1,-1],"loss_changes":[3.8473732E1,0E0,4.6834183E-1,0E0,0E0],"parents":[2147483647,0,0,2,2],"right_children":[2,-1,4,-1,-1],"split_conditions":[7.3861045E-1,-8.9136496E-2,1.4532818E0,8.8575855E-2,1.9157456E-2],"split_indices":[776,0,244,0,0],"split_type":[0,0,0,0,0],"sum_hessian":[3.2454372E1,1.5798321E1,1.665605E1,1.559424E1,1.0618104E0],"tree_param":{"num_deleted":"0","num_feature":"777","num_nodes":"5","size_leaf_vector":"1"}},{"base_weights":[-1.708163E-2,-8.6724974E-2,9.245514E-1,-5.6490675E-2,1.0577967E0,8.837339E-2,1.9329462E-2],"categories":[],"categories_nodes":[],"categories_segments":[],"categories_sizes":[],"default_left":[0,0,0,0,0,0,0],"id":22,"left_children":[1,-1,3,-1,5,-1,-1],"loss_changes":[3.186819E1,0E0,3.732976E0,0E0,4.1937637E-1,0E0,0E0],"parents":[2147483647,0,0,2,2,4,4],"right_children":[2,-1,4,-1,6,-1,-1],"split_conditions":[7.321667E-1,-8.6724974E-2,-9.625971E-1,-5.6490675E-2,1.1879737E0,8.837339E-2,1.9329462E-2],"split_indices":[776,0,241,0,558,0,0],"split_type":[0,0,0,0,0,0,0],"sum_hessian":[3.158007E1,1.48601465E1,1.6719925E1,1.1754879E0,1.5544436E1,1.4541148E1,1.0032884E0],"tree_param":{"num_deleted":"0","num_feature":"777","num_nodes":"7","size_leaf_vector":"1"}},{"base_weights":[5.975281E-2,-8.590162E-2,9.6470046E-1,-0E0,8.729129E-2],"categories":[],"categories_nodes":[],"categories_segments":[],"categories_sizes":[],"default_left":[0,0,0,0,0],"id":23,"left_children":[1,-1,3,-1,-1],"loss_changes":[3.0867414E1,0E0,2.1377602E0,0E0,0E0],"parents":[2147483647,0,0,2,2],"right_children":[2,-1,4,-1,-1],"split_conditions":[7.289895E-1,-8.590162E-2,-5.104271E-1,-0E0,8.729129E-2],"split_indices":[776,0,269,0,0],"split_type":[0,0,0,0,0],"sum_hessian":[2.9983849E1,1.3247031E1,1.6736818E1,1.8717129E0,1.4865106E1],"tree_param":{"num_deleted":"0","num_feature":"777","num_nodes":"5","size_leaf_vector":"1"}},{"base_weights":[1.0742217E-1,-8.532769E-2,1.033406E0,8.6873084E-2,1.0378477E-2],"categories":[],"categories_nodes":[],"categories_segments":[],"categories_sizes":[],"default_left":[0,0,0,0,0],"id":24,"left_children":[1,-1,3,-1,-1],"loss_changes":[3.0798025E1,0E0,5.998173E-1,0E0,0E0],"parents":[2147483647,0,0,2,2],"right_children":[2,-1,4,-1,-1],"split_conditions":[7.321667E-1,-8.532769E-2,1.3523519E0,8.6873084E-2,1.0378477E-2],"split_indices":[776,0,441,0,0],"split_type":[0,0,0,0,0],"sum_hessian":[2.82127E1,1.2379067E1,1.5833632E1,1.4827215E1,1.0064176E0],"tree_param":{"num_deleted":"0","num_feature":"777","num_nodes":"5","size_leaf_vector":"1"}},{"base_weights":[8.262384E-3,-8.465787E-2,8.6534464E-1,-5.4789685E-2,1.0121047E0,8.602556E-2,1.0839202E-2],"categories":[],"categories_nodes":[],"categories_segments":[],"categories_sizes":[],"default_left":[0,0,0,0,0,0,0],"id":25,"left_children":[1,-1,3,-1,5,-1,-1],"loss_changes":[2.3264513E1,0E0,3.308609E0,0E0,5.694189E-1,0E0,0E0],"parents":[2147483647,0,0,2,2,4,4],"right_children":[2,-1,4,-1,6,-1,-1],"split_conditions":[7.321667E-1,-8.465787E-2,-1.3856674E0,-5.4789685E-2,1.0876325E0,8.602556E-2,1.0839202E-2],"split_indices":[776,0,52,0,441,0,0],"split_type":[0,0,0,0,0,0,0],"sum_hessian":[2.535689E1,1.1229586E1,1.4127304E1,1.1320362E0,1.2995268E1,1.1980812E1,1.0144557E0],"tree_param":{"num_deleted":"0","num_feature":"777","num_nodes":"7","size_leaf_vector":"1"}},{"base_weights":[9.9712135E-3,-9.4992334E-1,9.267972E-1,-8.6489104E-2,1.6504286E-2,-2.6192019E-2,8.512509E-2],"categories":[],"categories_nodes":[],"categories_segments":[],"categories_sizes":[],"default_left":[0,0,0,0,0,0,0],"id":26,"left_children":[1,3,5,-1,-1,-1,-1],"loss_changes":[2.001623E1,1.7943468E0,2.1232786E0,0E0,0E0,0E0,0E0],"parents":[2147483647,0,0,1,1,2,2],"right_children":[2,4,6,-1,-1,-1,-1],"split_conditions":[7.3861045E-1,1.9342742E0,-3.6211178E-1,-8.6489104E-2,1.6504286E-2,-2.6192019E-2,8.512509E-2],"split_indices":[776,458,90,0,0,0,0],"split_type":[0,0,0,0,0,0,0],"sum_hessian":[2.2627394E1,1.0989061E1,1.1638332E1,9.965964E0,1.023097E0,1.0536706E0,1.05846615E1],"tree_param":{"num_deleted":"0","num_feature":"777","num_nodes":"7","size_leaf_vector":"1"}},{"base_weights":[-6.397347E-2,-8.5741736E-2,9.182113E-1,-2.7919007E-2,8.465009E-2],"categories":[],"categories_nodes":[],"categories_segments":[],"categories_sizes":[],"default_left":[0,0,0,0,0],"id":27,"left_children":[1,-1,3,-1,-1],"loss_changes":[2.2334324E1,0E0,2.1212626E0,0E0,0E0],"parents":[2147483647,0,0,2,2],"right_children":[2,-1,4,-1,-1],"split_conditions":[7.3861045E-1,-8.5741736E-2,-1.1249032E0,-2.7919007E-2,8.465009E-2],"split_indices":[776,0,89,0,0],"split_type":[0,0,0,0,0],"sum_hessian":[2.2425207E1,1.1125884E1,1.1299323E1,1.0293411E0,1.0269981E1],"tree_param":{"num_deleted":"0","num_feature":"777","num_nodes":"5","size_leaf_vector":"1"}},{"base_weights":[3.7749015E-2,-8.2926184E-2,8.629577E-1,-4.8387107E-2,8.443674E-2],"categories":[],"categories_nodes":[],"categories_segments":[],"categories_sizes":[],"default_left":[0,0,0,0,0],"id":28,"left_children":[1,-1,3,-1,-1],"loss_changes":[1.7751143E1,0E0,3.313305E0,0E0,0E0],"parents":[2147483647,0,0,2,2],"right_children":[2,-1,4,-1,-1],"split_conditions":[7.289895E-1,-8.2926184E-2,-5.104271E-1,-4.8387107E-2,8.443674E-2],"split_indices":[776,0,269,0,0],"split_type":[0,0,0,0,0],"sum_hessian":[1.9925827E1,8.586461E0,1.1339366E1,1.2275542E0,1.0111813E1],"tree_param":{"num_deleted":"0","num_feature":"777","num_nodes":"5","size_leaf_vector":"1"}},{"base_weights":[-0E0,-8.813368E-2,7.093053E-1,-2.2695359E-2,7.967921E-2,-7.588408E-2,8.071916E-2],"categories":[],"categories_nodes":[],"categories_segments":[],"categories_sizes":[],"default_left":[0,0,0,0,0,0,0],"id":29,"left_children":[1,-1,3,5,-1,-1,-1],"loss_changes":[1.4641399E1,0E0,2.5261688E0,3.0782807E0,0E0,0E0,0E0],"parents":[2147483647,0,0,2,2,3,3],"right_children":[2,-1,4,6,-1,-1,-1],"split_conditions":[1E0,-8.813368E-2,7.7803004E-1,1.1193572E0,7.967921E-2,-7.588408E-2,8.071916E-2],"split_indices":[774,0,775,491,0,0,0],"split_type":[0,0,0,0,0,0,0],"sum_hessian":[1.8661697E1,7.2469516E0,1.1414746E1,3.1101596E0,8.304586E0,1.7030007E0,1.4071591E0],"tree_param":{"num_deleted":"0","num_feature":"777","num_nodes":"7","size_leaf_vector":"1"}},{"base_weights":[-0E0,-8.971443E-2,7.301586E-1,-7.509502E-2,8.360801E-2],"categories":[],"categories_nodes":[],"categories_segments":[],"categories_sizes":[],"default_left":[0,0,0,0,0],"id":30,"left_children":[1,-1,3,-1,-1],"loss_changes":[1.4264093E1,0E0,5.6596975E0,0E0,0E0],"parents":[2147483647,0,0,2,2],"right_children":[2,-1,4,-1,-1],"split_conditions":[1E0,-8.971443E-2,7.228436E-1,-7.509502E-2,8.360801E-2],"split_indices":[774,0,776,0,0],"split_type":[0,0,0,0,0],"sum_hessian":[1.7347084E1,6.775075E0,1.0572008E1,1.5990317E0,8.972977E0],"tree_param":{"num_deleted":"0","num_feature":"777","num_nodes":"5","size_leaf_vector":"1"}},{"base_weights":[-3.1834714E-2,-9.979559E-1,8.2258396E-2,-3.402579E-2,-8.442967E-2],"categories":[],"categories_nodes":[],"categories_segments":[],"categories_sizes":[],"default_left":[0,0,0,0,0],"id":31,"left_children":[1,3,-1,-1,-1],"loss_changes":[1.6404375E1,7.287979E-2,0E0,0E0,0E0],"parents":[2147483647,0,0,1,1],"right_children":[2,4,-1,-1,-1],"split_conditions":[7.5950813E-1,-1.2414341E0,8.2258396E-2,-3.402579E-2,-8.442967E-2],"split_indices":[776,561,0,0,0],"split_type":[0,0,0,0,0],"sum_hessian":[1.5900969E1,8.38017E0,7.5207987E0,1.0000998E0,7.38007E0],"tree_param":{"num_deleted":"0","num_feature":"777","num_nodes":"5","size_leaf_vector":"1"}},{"base_weights":[1.42584285E-2,-8.322655E-2,8.6914676E-1,8.238211E-2,-2.1166079E-2],"categories":[],"categories_nodes":[],"categories_segments":[],"categories_sizes":[],"default_left":[0,0,0,0,0],"id":32,"left_children":[1,-1,3,-1,-1],"loss_changes":[1.4540141E1,0E0,1.7439055E0,0E0,0E0],"parents":[2147483647,0,0,2,2],"right_children":[2,-1,4,-1,-1],"split_conditions":[7.3861045E-1,-8.322655E-2,1.6047245E0,8.238211E-2,-2.1166079E-2],"split_indices":[776,0,211,0,0],"split_type":[0,0,0,0,0],"sum_hessian":[1.603042E1,7.1082716E0,8.92215E0,7.9124355E0,1.0097139E0],"tree_param":{"num_deleted":"0","num_feature":"777","num_nodes":"5","size_leaf_vector":"1"}},{"base_weights":[2.6664289E-2,-8.8619515E-2,7.123608E-1,-7.367938E-2,8.2803495E-2],"categories":[],"categories_nodes":[],"categories_segments":[],"categories_sizes":[],"default_left":[0,0,0,0,0],"id":33,"left_children":[1,-1,3,-1,-1],"loss_changes":[1.1639981E1,0E0,5.04056E0,0E0,0E0],"parents":[2147483647,0,0,2,2],"right_children":[2,-1,4,-1,-1],"split_conditions":[1E0,-8.8619515E-2,7.228436E-1,-7.367938E-2,8.2803495E-2],"split_indices":[774,0,776,0,0],"split_type":[0,0,0,0,0],"sum_hessian":[1.4904239E1,5.5351E0,9.369139E0,1.4659047E0,7.903234E0],"tree_param":{"num_deleted":"0","num_feature":"777","num_nodes":"5","size_leaf_vector":"1"}},{"base_weights":[8.211234E-2,-8.035949E-2,8.757816E-1,-6.131482E-3,8.243165E-2],"categories":[],"categories_nodes":[],"categories_segments":[],"categories_sizes":[],"default_left":[0,0,0,0,0],"id":34,"left_children":[1,-1,3,-1,-1],"loss_changes":[1.2015079E1,0E0,1.3152432E0,0E0,0E0],"parents":[2147483647,0,0,2,2],"right_children":[2,-1,4,-1,-1],"split_conditions":[7.321667E-1,-8.035949E-2,-2.0519876E0,-6.131482E-3,8.243165E-2],"split_indices":[776,0,378,0,0],"split_type":[0,0,0,0,0],"sum_hessian":[1.3828754E1,5.766607E0,8.062148E0,1.0218247E0,7.0403233E0],"tree_param":{"num_deleted":"0","num_feature":"777","num_nodes":"5","size_leaf_vector":"1"}},{"base_weights":[-4.5816228E-2,-8.8313065E-2,6.897202E-1,7.651513E-2,-1.005257E-2],"categories":[],"categories_nodes":[],"categories_segments":[],"categories_sizes":[],"default_left":[0,0,0,0,0],"id":35,"left_children":[1,-1,3,-1,-1],"loss_changes":[9.391497E0,0E0,1.6327989E0,0E0,0E0],"parents":[2147483647,0,0,2,2],"right_children":[2,-1,4,-1,-1],"split_conditions":[1E0,-8.8313065E-2,-2.454448E-1,7.651513E-2,-1.005257E-2],"split_indices":[774,0,519,0,0],"split_type":[0,0,0,0,0],"sum_hessian":[1.1884598E1,4.9282374E0,6.9563603E0,5.344806E0,1.6115541E0],"tree_param":{"num_deleted":"0","num_feature":"777","num_nodes":"5","size_leaf_vector":"1"}},{"base_weights":[5.0006706E-2,-8.741455E-2,7.431686E-1,-7.002346E-2,8.160343E-2],"categories":[],"categories_nodes":[],"categories_segments":[],"categories_sizes":[],"default_left":[0,0,0,0,0],"id":36,"left_children":[1,-1,3,-1,-1],"loss_changes":[1.0177517E1,0E0,3.6977396E0,0E0,0E0],"parents":[2147483647,0,0,2,2],"right_children":[2,-1,4,-1,-1],"split_conditions":[1E0,-8.741455E-2,7.228436E-1,-7.002346E-2,8.160343E-2],"split_indices":[774,0,776,0,0],"split_type":[0,0,0,0,0],"sum_hessian":[1.2780733E1,4.747198E0,8.033535E0,1.0912971E0,6.9422383E0],"tree_param":{"num_deleted":"0","num_feature":"777","num_nodes":"5","size_leaf_vector":"1"}},{"base_weights":[2.2233637E-2,-8.707649E-2,6.7427117E-1,-7.108498E-2,8.111102E-2],"categories":[],"categories_nodes":[],"categories_segments":[],"categories_sizes":[],"default_left":[0,0,0,0,0],"id":37,"left_children":[1,-1,3,-1,-1],"loss_changes":[8.187992E0,0E0,3.9086347E0,0E0,0E0],"parents":[2147483647,0,0,2,2],"right_children":[2,-1,4,-1,-1],"split_conditions":[1E0,-8.707649E-2,7.228436E-1,-7.108498E-2,8.111102E-2],"split_indices":[774,0,776,0,0],"split_type":[0,0,0,0,0],"sum_hessian":[1.1253906E1,4.079919E0,7.173988E0,1.2002777E0,5.97371E0],"tree_param":{"num_deleted":"0","num_feature":"777","num_nodes":"5","size_leaf_vector":"1"}},{"base_weights":[8.522147E-2,-7.883916E-2,7.954264E-1,-1.6807534E-2,8.0751196E-2],"categories":[],"categories_nodes":[],"categories_segments":[],"categories_sizes":[],"default_left":[0,0,0,0,0],"id":38,"left_children":[1,-1,3,-1,-1],"loss_changes":[8.644141E0,0E0,1.5965257E0,0E0,0E0],"parents":[2147483647,0,0,2,2],"right_children":[2,-1,4,-1,-1],"split_conditions":[7.289895E-1,-7.883916E-2,-1.0780723E0,-1.6807534E-2,8.0751196E-2],"split_indices":[776,0,673,0,0],"split_type":[0,0,0,0,0],"sum_hessian":[1.1275668E1,4.4199266E0,6.855741E0,1.1046567E0,5.7510843E0],"tree_param":{"num_deleted":"0","num_feature":"777","num_nodes":"5","size_leaf_vector":"1"}},{"base_weights":[8.28509E-2,-8.5683726E-2,7.09239E-1,-6.87592E-2,8.051238E-2],"categories":[],"categories_nodes":[],"categories_segments":[],"categories_sizes":[],"default_left":[0,0,0,0,0],"id":39,"left_children":[1,-1,3,-1,-1],"loss_changes":[7.6436E0,0E0,3.3121743E0,0E0,0E0],"parents":[2147483647,0,0,2,2],"right_children":[2,-1,4,-1,-1],"split_conditions":[1E0,-8.5683726E-2,7.200905E-1,-6.87592E-2,8.051238E-2],"split_indices":[774,0,776,0,0],"split_type":[0,0,0,0,0],"sum_hessian":[1.05121765E1,3.6162865E0,6.89589E0,1.0158573E0,5.880033E0],"tree_param":{"num_deleted":"0","num_feature":"777","num_nodes":"5","size_leaf_vector":"1"}},{"base_weights":[-4.0095303E-2,-7.685193E-2,8.392949E-1,7.798553E-2,1.8918611E-2],"categories":[],"categories_nodes":[],"categories_segments":[],"categories_sizes":[],"default_left":[0,0,0,0,0],"id":40,"left_children":[1,-1,3,-1,-1],"loss_changes":[7.2344623E0,0E0,2.0812488E-1,0E0,0E0],"parents":[2147483647,0,0,2,2],"right_children":[2,-1,4,-1,-1],"split_conditions":[7.5950813E-1,-7.685193E-2,6.5329593E-1,7.798553E-2,1.8918611E-2],"split_indices":[776,0,243,0,0],"split_type":[0,0,0,0,0],"sum_hessian":[8.798917E0,4.3628054E0,4.4361115E0,3.429089E0,1.0070223E0],"tree_param":{"num_deleted":"0","num_feature":"777","num_nodes":"5","size_leaf_vector":"1"}},{"base_weights":[5.6227867E-2,-8.467468E-2,7.1346885E-1,5.9593646E-3,7.825022E-2],"categories":[],"categories_nodes":[],"categories_segments":[],"categories_sizes":[],"default_left":[0,0,0,0,0],"id":41,"left_children":[1,-1,3,-1,-1],"loss_changes":[6.600845E0,0E0,8.447921E-1,0E0,0E0],"parents":[2147483647,0,0,2,2],"right_children":[2,-1,4,-1,-1],"split_conditions":[1E0,-8.467468E-2,7.7803004E-1,5.9593646E-3,7.825022E-2],"split_indices":[774,0,775,0,0],"split_type":[0,0,0,0,0],"sum_hessian":[8.944806E0,3.2365339E0,5.708273E0,1.8271682E0,3.8811045E0],"tree_param":{"num_deleted":"0","num_feature":"777","num_nodes":"5","size_leaf_vector":"1"}},{"base_weights":[9.534932E-2,-8.461162E-2,7.1274585E-1,1.1074205E-2,7.62456E-2],"categories":[],"categories_nodes":[],"categories_segments":[],"categories_sizes":[],"default_left":[0,0,0,0,0],"id":42,"left_children":[1,-1,3,-1,-1],"loss_changes":[6.36857E0,0E0,6.7911124E-1,0E0,0E0],"parents":[2147483647,0,0,2,2],"right_children":[2,-1,4,-1,-1],"split_conditions":[1E0,-8.461162E-2,7.8435016E-1,1.1074205E-2,7.62456E-2],"split_indices":[774,0,775,0,0],"split_type":[0,0,0,0,0],"sum_hessian":[8.881047E0,3.0144262E0,5.8666215E0,1.9058863E0,3.9607353E0],"tree_param":{"num_deleted":"0","num_feature":"777","num_nodes":"5","size_leaf_vector":"1"}},{"base_weights":[-3.2296835E-3,-8.385731E-2,6.304195E-1,6.950692E-2,-1.6736765E-3],"categories":[],"categories_nodes":[],"categories_segments":[],"categories_sizes":[],"default_left":[0,0,0,0,0],"id":43,"left_children":[1,-1,3,-1,-1],"loss_changes":[4.917233E0,0E0,8.023442E-1,0E0,0E0],"parents":[2147483647,0,0,2,2],"right_children":[2,-1,4,-1,-1],"split_conditions":[1E0,-8.385731E-2,-1.5478785E-1,6.950692E-2,-1.6736765E-3],"split_indices":[774,0,519,0,0],"split_type":[0,0,0,0,0],"sum_hessian":[7.23051E0,2.7860317E0,4.4444785E0,3.3737497E0,1.0707289E0],"tree_param":{"num_deleted":"0","num_feature":"777","num_nodes":"5","size_leaf_vector":"1"}},{"base_weights":[-4.499226E-4,-7.672674E-2,6.652828E-1,-1.4535215E-2,7.821248E-2],"categories":[],"categories_nodes":[],"categories_segments":[],"categories_sizes":[],"default_left":[0,0,0,0,0],"id":44,"left_children":[1,-1,3,-1,-1],"loss_changes":[4.618035E0,0E0,1.2078477E0,0E0,0E0],"parents":[2147483647,0,0,2,2],"right_children":[2,-1,4,-1,-1],"split_conditions":[7.321667E-1,-7.672674E-2,-5.405781E-1,-1.4535215E-2,7.821248E-2],"split_indices":[776,0,333,0,0],"split_type":[0,0,0,0,0],"sum_hessian":[7.060865E0,2.9568732E0,4.1039915E0,1.0090324E0,3.0949593E0],"tree_param":{"num_deleted":"0","num_feature":"777","num_nodes":"5","size_leaf_vector":"1"}},{"base_weights":[-1.0274164E-1,-7.3592484E-2,7.7422315E-1,7.47016E-2,2.3724329E-2],"categories":[],"categories_nodes":[],"categories_segments":[],"categories_sizes":[],"default_left":[0,0,0,0,0],"id":45,"left_children":[1,-1,3,-1,-1],"loss_changes":[4.7689815E0,0E0,7.437372E-2,0E0,0E0],"parents":[2147483647,0,0,2,2],"right_children":[2,-1,4,-1,-1],"split_conditions":[7.5950813E-1,-7.3592484E-2,4.3303597E-1,7.47016E-2,2.3724329E-2],"split_indices":[776,0,104,0,0],"split_type":[0,0,0,0,0],"sum_hessian":[6.5107594E0,3.4396021E0,3.0711575E0,2.070932E0,1.0002255E0],"tree_param":{"num_deleted":"0","num_feature":"777","num_nodes":"5","size_leaf_vector":"1"}},{"base_weights":[-0E0,-8.214237E-2,5.963816E-1,-0E0,7.603617E-2],"categories":[],"categories_nodes":[],"categories_segments":[],"categories_sizes":[],"default_left":[0,0,0,0,0],"id":46,"left_children":[1,-1,3,-1,-1],"loss_changes":[4.040099E0,0E0,9.557835E-1,0E0,0E0],"parents":[2147483647,0,0,2,2],"right_children":[2,-1,4,-1,-1],"split_conditions":[1E0,-8.214237E-2,7.8435016E-1,-0E0,7.603617E-2],"split_indices":[774,0,775,0,0],"split_type":[0,0,0,0,0],"sum_hessian":[6.4204774E0,2.3932312E0,4.0272465E0,1.4199812E0,2.607265E0],"tree_param":{"num_deleted":"0","num_feature":"777","num_nodes":"5","size_leaf_vector":"1"}},{"base_weights":[5.1592823E-2,-8.185363E-2,6.4684373E-1,-0E0,6.786355E-2],"categories":[],"categories_nodes":[],"categories_segments":[],"categories_sizes":[],"default_left":[0,0,0,0,0],"id":47,"left_children":[1,-1,3,-1,-1],"loss_changes":[4.228278E0,0E0,5.936904E-1,0E0,0E0],"parents":[2147483647,0,0,2,2],"right_children":[2,-1,4,-1,-1],"split_conditions":[1E0,-8.185363E-2,1.8723053E-1,-0E0,6.786355E-2],"split_indices":[774,0,7,0,0],"split_type":[0,0,0,0,0],"sum_hessian":[6.557746E0,2.2501783E0,4.307568E0,1.0030612E0,3.3045068E0],"tree_param":{"num_deleted":"0","num_feature":"777","num_nodes":"5","size_leaf_vector":"1"}},{"base_weights":[1.4716609E-1,-7.465542E-2,8.1264573E-1,7.722875E-2,2.0699386E-2],"categories":[],"categories_nodes":[],"categories_segments":[],"categories_sizes":[],"default_left":[0,0,0,0,0],"id":48,"left_children":[1,-1,3,-1,-1],"loss_changes":[4.3113384E0,0E0,1.5828395E-1,0E0,0E0],"parents":[2147483647,0,0,2,2],"right_children":[2,-1,4,-1,-1],"split_conditions":[7.289895E-1,-7.465542E-2,4.8743284E-1,7.722875E-2,2.0699386E-2],"split_indices":[776,0,480,0,0],"split_type":[0,0,0,0,0],"sum_hessian":[5.89349E0,2.168548E0,3.724942E0,2.7151494E0,1.0097926E0],"tree_param":{"num_deleted":"0","num_feature":"777","num_nodes":"5","size_leaf_vector":"1"}},{"base_weights":[1.44334035E-2,-8.156314E-2,6.05443E-1,4.0686233E-3,7.1816556E-2],"categories":[],"categories_nodes":[],"categories_segments":[],"categories_sizes":[],"default_left":[0,0,0,0,0],"id":49,"left_children":[1,-1,3,-1,-1],"loss_changes":[3.607101E0,0E0,5.1241744E-1,0E0,0E0],"parents":[2147483647,0,0,2,2],"right_children":[2,-1,4,-1,-1],"split_conditions":[1E0,-8.156314E-2,7.8435016E-1,4.0686233E-3,7.1816556E-2],"split_indices":[774,0,775,0,0],"split_type":[0,0,0,0,0],"sum_hessian":[5.863463E0,2.0428846E0,3.8205783E0,1.4845673E0,2.3360112E0],"tree_param":{"num_deleted":"0","num_feature":"777","num_nodes":"5","size_leaf_vector":"1"}},{"base_weights":[6.572171E-2,-8.0631636E-2,6.197546E-1,7.026303E-2,-7.49823E-4],"categories":[],"categories_nodes":[],"categories_segments":[],"categories_sizes":[],"default_left":[0,0,0,0,0],"id":50,"left_children":[1,-1,3,-1,-1],"loss_changes":[3.4686449E0,0E0,7.5007045E-1,0E0,0E0],"parents":[2147483647,0,0,2,2],"right_children":[2,-1,4,-1,-1],"split_conditions":[1E0,-8.0631636E-2,-1.5478785E-1,7.026303E-2,-7.49823E-4],"split_indices":[774,0,519,0,0],"split_type":[0,0,0,0,0],"sum_hessian":[5.7867227E0,1.8792754E0,3.9074473E0,2.8877392E0,1.019708E0],"tree_param":{"num_deleted":"0","num_feature":"777","num_nodes":"5","size_leaf_vector":"1"}},{"base_weights":[-8.402607E-2,-7.5672895E-2,6.1005664E-1,7.253256E-2,1.5574524E-3],"categories":[],"categories_nodes":[],"categories_segments":[],"categories_sizes":[],"default_left":[0,0,0,0,0],"id":51,"left_children":[1,-1,3,-1,-1],"loss_changes":[2.9315338E0,0E0,3.4402096E-1,0E0,0E0],"parents":[2147483647,0,0,2,2],"right_children":[2,-1,4,-1,-1],"split_conditions":[7.3861045E-1,-7.5672895E-2,2.6508468E-1,7.253256E-2,1.5574524E-3],"split_indices":[776,0,597,0,0],"split_type":[0,0,0,0,0],"sum_hessian":[4.715183E0,2.17075E0,2.5444329E0,1.5371572E0,1.0072757E0],"tree_param":{"num_deleted":"0","num_feature":"777","num_nodes":"5","size_leaf_vector":"1"}},{"base_weights":[2.3254741E-2,-7.349289E-2,6.5220094E-1,-0E0,7.520454E-2],"categories":[],"categories_nodes":[],"categories_segments":[],"categories_sizes":[],"default_left":[0,0,0,0,0],"id":52,"left_children":[1,-1,3,-1,-1],"loss_changes":[2.8955555E0,0E0,5.0235033E-1,0E0,0E0],"parents":[2147483647,0,0,2,2],"right_children":[2,-1,4,-1,-1],"split_conditions":[7.321667E-1,-7.349289E-2,-3.97921E-1,-0E0,7.520454E-2],"split_indices":[776,0,701,0,0],"split_type":[0,0,0,0,0],"sum_hessian":[4.821011E0,1.842793E0,2.978218E0,1.0073341E0,1.970884E0],"tree_param":{"num_deleted":"0","num_feature":"777","num_nodes":"5","size_leaf_vector":"1"}},{"base_weights":[2.4923664E-2,-7.960508E-2,5.5490196E-1,-0E0,6.3521735E-2],"categories":[],"categories_nodes":[],"categories_segments":[],"categories_sizes":[],"default_left":[0,0,0,0,0],"id":53,"left_children":[1,-1,3,-1,-1],"loss_changes":[2.7035694E0,0E0,4.500667E-1,0E0,0E0],"parents":[2147483647,0,0,2,2],"right_children":[2,-1,4,-1,-1],"split_conditions":[1E0,-7.960508E-2,1.8723053E-1,-0E0,6.3521735E-2],"split_indices":[774,0,7,0,0],"split_type":[0,0,0,0,0],"sum_hessian":[4.977744E0,1.6066108E0,3.3711336E0,1.0415397E0,2.329594E0],"tree_param":{"num_deleted":"0","num_feature":"777","num_nodes":"5","size_leaf_vector":"1"}},{"base_weights":[-0E0,-7.853812E-2,5.029239E-1,-0E0,6.906339E-2],"categories":[],"categories_nodes":[],"categories_segments":[],"categories_sizes":[],"default_left":[0,0,0,0,0],"id":54,"left_children":[1,-1,3,-1,-1],"loss_changes":[2.275341E0,0E0,6.1916524E-1,0E0,0E0],"parents":[2147483647,0,0,2,2],"right_children":[2,-1,4,-1,-1],"split_conditions":[1E0,-7.853812E-2,7.8435016E-1,-0E0,6.906339E-2],"split_indices":[774,0,775,0,0],"split_type":[0,0,0,0,0],"sum_hessian":[4.542352E0,1.4819201E0,3.060432E0,1.2306246E0,1.8298073E0],"tree_param":{"num_deleted":"0","num_feature":"777","num_nodes":"5","size_leaf_vector":"1"}},{"base_weights":[3.7476737E-2,-7.2421655E-2,6.8118656E-1,7.3426016E-2,1.2955449E-2],"categories":[],"categories_nodes":[],"categories_segments":[],"categories_sizes":[],"default_left":[0,0,0,0,0],"id":55,"left_children":[1,-1,3,-1,-1],"loss_changes":[2.6077757E0,0E0,1.8756235E-1,0E0,0E0],"parents":[2147483647,0,0,2,2],"right_children":[2,-1,4,-1,-1],"split_conditions":[7.321667E-1,-7.2421655E-2,-3.797519E-1,7.3426016E-2,1.2955449E-2],"split_indices":[776,0,122,0,0],"split_type":[0,0,0,0,0],"sum_hessian":[4.2205334E0,1.6269617E0,2.593572E0,1.5912273E0,1.0023446E0],"tree_param":{"num_deleted":"0","num_feature":"777","num_nodes":"5","size_leaf_vector":"1"}},{"base_weights":[-2.5046807E-2,-6.643203E-2,5.4968596E-2],"categories":[],"categories_nodes":[],"categories_segments":[],"categories_sizes":[],"default_left":[0,0,0],"id":56,"left_children":[1,-1,-1],"loss_changes":[2.2893724E0,0E0,0E0],"parents":[2147483647,0,0],"right_children":[2,-1,-1],"split_conditions":[7.5950813E-1,-6.643203E-2,5.4968596E-2],"split_indices":[776,0,0],"split_type":[0,0,0],"sum_hessian":[3.8420095E0,1.877426E0,1.9645836E0],"tree_param":{"num_deleted":"0","num_feature":"777","num_nodes":"3","size_leaf_vector":"1"}},{"base_weights":[1.4141189E-2,-7.736519E-2,5.1582164E-1,4.8270035E-3,7.0683606E-2],"categories":[],"categories_nodes":[],"categories_segments":[],"categories_sizes":[],"default_left":[0,0,0,0,0],"id":57,"left_children":[1,-1,3,-1,-1],"loss_changes":[2.0184765E0,0E0,3.6354297E-1,0E0,0E0],"parents":[2147483647,0,0,2,2],"right_children":[2,-1,4,-1,-1],"split_conditions":[1E0,-7.736519E-2,7.906249E-1,4.8270035E-3,7.0683606E-2],"split_indices":[774,0,775,0,0],"split_type":[0,0,0,0,0],"sum_hessian":[4.0896964E0,1.2838459E0,2.8058505E0,1.4303327E0,1.3755178E0],"tree_param":{"num_deleted":"0","num_feature":"777","num_nodes":"5","size_leaf_vector":"1"}},{"base_weights":[-0E0,-7.0579134E-2,5.0889176E-1,7.266095E-2,-0E0],"categories":[],"categories_nodes":[],"categories_segments":[],"categories_sizes":[],"default_left":[0,0,0,0,0],"id":58,"left_children":[1,-1,3,-1,-1],"loss_changes":[1.7460282E0,0E0,5.986965E-1,0E0,0E0],"parents":[2147483647,0,0,2,2],"right_children":[2,-1,4,-1,-1],"split_conditions":[7.321667E-1,-7.0579134E-2,2.3788998E-1,7.266095E-2,-0E0],"split_indices":[776,0,596,0,0],"split_type":[0,0,0,0,0],"sum_hessian":[3.814836E0,1.3397983E0,2.4750378E0,1.4615624E0,1.0134754E0],"tree_param":{"num_deleted":"0","num_feature":"777","num_nodes":"5","size_leaf_vector":"1"}},{"base_weights":[-2.5279291E-2,-7.149241E-2,4.29132E-2],"categories":[],"categories_nodes":[],"categories_segments":[],"categories_sizes":[],"default_left":[0,0,0],"id":59,"left_children":[1,-1,-1],"loss_changes":[1.7273368E0,0E0,0E0],"parents":[2147483647,0,0],"right_children":[2,-1,-1],"split_conditions":[7.3861045E-1,-7.149241E-2,4.29132E-2],"split_indices":[776,0,0],"split_type":[0,0,0],"sum_hessian":[3.3344967E0,1.3796877E0,1.9548091E0],"tree_param":{"num_deleted":"0","num_feature":"777","num_nodes":"3","size_leaf_vector":"1"}},{"base_weights":[3.2297382E-3,-7.616839E-2,4.9936563E-1,-0E0,6.4348884E-2],"categories":[],"categories_nodes":[],"categories_segments":[],"categories_sizes":[],"default_left":[0,0,0,0,0],"id":60,"left_children":[1,-1,3,-1,-1],"loss_changes":[1.6764345E0,0E0,3.373474E-1,0E0,0E0],"parents":[2147483647,0,0,2,2],"right_children":[2,-1,4,-1,-1],"split_conditions":[1E0,-7.616839E-2,5.300071E-1,-0E0,6.4348884E-2],"split_indices":[774,0,198,0,0],"split_type":[0,0,0,0,0],"sum_hessian":[3.5313995E0,1.1055657E0,2.4258337E0,1.0063366E0,1.4194973E0],"tree_param":{"num_deleted":"0","num_feature":"777","num_nodes":"5","size_leaf_vector":"1"}},{"base_weights":[7.1282186E-2,-6.824103E-2,5.592807E-1,7.171823E-2,-0E0],"categories":[],"categories_nodes":[],"categories_segments":[],"categories_sizes":[],"default_left":[0,0,0,0,0],"id":61,"left_children":[1,-1,3,-1,-1],"loss_changes":[1.5746478E0,0E0,3.8172954E-1,0E0,0E0],"parents":[2147483647,0,0,2,2],"right_children":[2,-1,4,-1,-1],"split_conditions":[7.321667E-1,-6.824103E-2,2.1441798E-1,7.171823E-2,-0E0],"split_indices":[776,0,305,0,0],"split_type":[0,0,0,0,0],"sum_hessian":[3.4457204E0,1.0901455E0,2.3555748E0,1.3551395E0,1.0004355E0],"tree_param":{"num_deleted":"0","num_feature":"777","num_nodes":"5","size_leaf_vector":"1"}},{"base_weights":[4.5736235E-2,5.3675704E-2,-2.3042265E-2],"categories":[],"categories_nodes":[],"categories_segments":[],"categories_sizes":[],"default_left":[0,0,0],"id":62,"left_children":[1,-1,-1],"loss_changes":[6.8953377E-1,0E0,0E0],"parents":[2147483647,0,0],"right_children":[2,-1,-1],"split_conditions":[-1.0217613E0,5.3675704E-2,-2.3042265E-2],"split_indices":[106,0,0],"split_type":[0,0,0],"sum_hessian":[2.9686074E0,1.1372408E0,1.8313667E0],"tree_param":{"num_deleted":"0","num_feature":"777","num_nodes":"3","size_leaf_vector":"1"}},{"base_weights":[3.0659653E-2,-6.736217E-2,4.8841134E-1,-0E0,7.065369E-2],"categories":[],"categories_nodes":[],"categories_segments":[],"categories_sizes":[],"default_left":[0,0,0,0,0],"id":63,"left_children":[1,-1,3,-1,-1],"loss_changes":[1.313785E0,0E0,4.7271132E-1,0E0,0E0],"parents":[2147483647,0,0,2,2],"right_children":[2,-1,4,-1,-1],"split_conditions":[7.321667E-1,-6.736217E-2,-5.283659E-1,-0E0,7.065369E-2],"split_indices":[776,0,44,0,0],"split_type":[0,0,0,0,0],"sum_hessian":[3.2732432E0,1.0186688E0,2.2545743E0,1.0006584E0,1.2539159E0],"tree_param":{"num_deleted":"0","num_feature":"777","num_nodes":"5","size_leaf_vector":"1"}},{"base_weights":[1.948174E-2,3.666394E-2,-4.1247964E-2],"categories":[],"categories_nodes":[],"categories_segments":[],"categories_sizes":[],"default_left":[0,0,0],"id":64,"left_children":[1,-1,-1],"loss_changes":[7.4769825E-1,0E0,0E0],"parents":[2147483647,0,0],"right_children":[2,-1,-1],"split_conditions":[-1.4827403E-1,3.666394E-2,-4.1247964E-2],"split_indices":[258,0,0],"split_type":[0,0,0],"sum_hessian":[3.093266E0,1.8274544E0,1.2658116E0],"tree_param":{"num_deleted":"0","num_feature":"777","num_nodes":"3","size_leaf_vector":"1"}},{"base_weights":[-0E0,2.960924E-2,-4.220716E-2],"categories":[],"categories_nodes":[],"categories_segments":[],"categories_sizes":[],"default_left":[0,0,0],"id":65,"left_children":[1,-1,-1],"loss_changes":[5.7856286E-1,0E0,0E0],"parents":[2147483647,0,0],"right_children":[2,-1,-1],"split_conditions":[-1.4827403E-1,2.960924E-2,-4.220716E-2],"split_indices":[258,0,0],"split_type":[0,0,0],"sum_hessian":[2.7926693E0,1.5824175E0,1.2102519E0],"tree_param":{"num_deleted":"0","num_feature":"777","num_nodes":"3","size_leaf_vector":"1"}},{"base_weights":[1.448776E-2,-3.2801162E-2,6.743752E-2],"categories":[],"categories_nodes":[],"categories_segments":[],"categories_sizes":[],"default_left":[0,0,0],"id":66,"left_children":[1,-1,-1],"loss_changes":[1.094914E0,0E0,0E0],"parents":[2147483647,0,0],"right_children":[2,-1,-1],"split_conditions":[7.9025644E-1,-3.2801162E-2,6.743752E-2],"split_indices":[776,0,0],"split_type":[0,0,0],"sum_hessian":[2.8465805E0,1.8064456E0,1.0401349E0],"tree_param":{"num_deleted":"0","num_feature":"777","num_nodes":"3","size_leaf_vector":"1"}},{"base_weights":[-0E0,4.6639428E-2,-3.1645775E-2],"categories":[],"categories_nodes":[],"categories_segments":[],"categories_sizes":[],"default_left":[0,0,0],"id":67,"left_children":[1,-1,-1],"loss_changes":[6.573666E-1,0E0,0E0],"parents":[2147483647,0,0],"right_children":[2,-1,-1],"split_conditions":[-8.0066013E-1,4.6639428E-2,-3.1645775E-2],"split_indices":[497,0,0],"split_type":[0,0,0],"sum_hessian":[2.721048E0,1.1003219E0,1.6207262E0],"tree_param":{"num_deleted":"0","num_feature":"777","num_nodes":"3","size_leaf_vector":"1"}},{"base_weights":[-0E0,3.050733E-2,-3.7030585E-2],"categories":[],"categories_nodes":[],"categories_segments":[],"categories_sizes":[],"default_left":[0,0,0],"id":68,"left_children":[1,-1,-1],"loss_changes":[4.8363853E-1,0E0,0E0],"parents":[2147483647,0,0],"right_children":[2,-1,-1],"split_conditions":[7.18766E-2,3.050733E-2,-3.7030585E-2],"split_indices":[425,0,0],"split_type":[0,0,0],"sum_hessian":[2.673766E0,1.6099044E0,1.0638616E0],"tree_param":{"num_deleted":"0","num_feature":"777","num_nodes":"3","size_leaf_vector":"1"}},{"base_weights":[5.6551006E-2,3.614029E-2,-3.407884E-2],"categories":[],"categories_nodes":[],"categories_segments":[],"categories_sizes":[],"default_left":[0,0,0],"id":69,"left_children":[1,-1,-1],"loss_changes":[5.15091E-1,0E0,0E0],"parents":[2147483647,0,0],"right_children":[2,-1,-1],"split_conditions":[-1.9972616E-1,3.614029E-2,-3.407884E-2],"split_indices":[249,0,0],"split_type":[0,0,0],"sum_hessian":[2.5642955E0,1.5485388E0,1.0157566E0],"tree_param":{"num_deleted":"0","num_feature":"777","num_nodes":"3","size_leaf_vector":"1"}},{"base_weights":[1.0351545E-1,4.454948E-2,-2.5388356E-2],"categories":[],"categories_nodes":[],"categories_segments":[],"categories_sizes":[],"default_left":[0,0,0],"id":70,"left_children":[1,-1,-1],"loss_changes":[4.8010552E-1,0E0,0E0],"parents":[2147483647,0,0],"right_children":[2,-1,-1],"split_conditions":[-7.198885E-1,4.454948E-2,-2.5388356E-2],"split_indices":[86,0,0],"split_type":[0,0,0],"sum_hessian":[2.2500324E0,1.2111454E0,1.038887E0],"tree_param":{"num_deleted":"0","num_feature":"777","num_nodes":"3","size_leaf_vector":"1"}},{"base_weights":[5.899909E-2,4.0471893E-2,-2.3421781E-2],"categories":[],"categories_nodes":[],"categories_segments":[],"categories_sizes":[],"default_left":[0,0,0],"id":71,"left_children":[1,-1,-1],"loss_changes":[4.481469E-1,0E0,0E0],"parents":[2147483647,0,0],"right_children":[2,-1,-1],"split_conditions":[-5.6308967E-1,4.0471893E-2,-2.3421781E-2],"split_indices":[86,0,0],"split_type":[0,0,0],"sum_hessian":[2.5714757E0,1.2712669E0,1.3002089E0],"tree_param":{"num_deleted":"0","num_feature":"777","num_nodes":"3","size_leaf_vector":"1"}},{"base_weights":[2.4790829E-2,3.401202E-2,-3.35718E-2],"categories":[],"categories_nodes":[],"categories_segments":[],"categories_sizes":[],"default_left":[0,0,0],"id":72,"left_children":[1,-1,-1],"loss_changes":[5.143213E-1,0E0,0E0],"parents":[2147483647,0,0],"right_children":[2,-1,-1],"split_conditions":[7.18766E-2,3.401202E-2,-3.35718E-2],"split_indices":[425,0,0],"split_type":[0,0,0],"sum_hessian":[2.7666278E0,1.5989066E0,1.1677212E0],"tree_param":{"num_deleted":"0","num_feature":"777","num_nodes":"3","size_leaf_vector":"1"}},{"base_weights":[-1.6402215E-2,2.9861042E-2,-3.4938205E-2],"categories":[],"categories_nodes":[],"categories_segments":[],"categories_sizes":[],"default_left":[0,0,0],"id":73,"left_children":[1,-1,-1],"loss_changes":[4.2453942E-1,0E0,0E0],"parents":[2147483647,0,0],"right_children":[2,-1,-1],"split_conditions":[-6.4485234E-1,2.9861042E-2,-3.4938205E-2],"split_indices":[162,0,0],"split_type":[0,0,0],"sum_hessian":[2.4258192E0,1.1141574E0,1.3116618E0],"tree_param":{"num_deleted":"0","num_feature":"777","num_nodes":"3","size_leaf_vector":"1"}},{"base_weights":[-0E0,3.9759316E-2,-3.1036926E-2],"categories":[],"categories_nodes":[],"categories_segments":[],"categories_sizes":[],"default_left":[0,0,0],"id":74,"left_children":[1,-1,-1],"loss_changes":[5.2813196E-1,0E0,0E0],"parents":[2147483647,0,0],"right_children":[2,-1,-1],"split_conditions":[-6.9711405E-1,3.9759316E-2,-3.1036926E-2],"split_indices":[124,0,0],"split_type":[0,0,0],"sum_hessian":[2.61199E0,1.1518676E0,1.4601223E0],"tree_param":{"num_deleted":"0","num_feature":"777","num_nodes":"3","size_leaf_vector":"1"}},{"base_weights":[-0E0,-4.2864695E-2,2.9637134E-2],"categories":[],"categories_nodes":[],"categories_segments":[],"categories_sizes":[],"default_left":[0,0,0],"id":75,"left_children":[1,-1,-1],"loss_changes":[5.2407193E-1,0E0,0E0],"parents":[2147483647,0,0],"right_children":[2,-1,-1],"split_conditions":[1.9058104E-1,-4.2864695E-2,2.9637134E-2],"split_indices":[25,0,0],"split_type":[0,0,0],"sum_hessian":[2.4832344E0,1.0530963E0,1.4301381E0],"tree_param":{"num_deleted":"0","num_feature":"777","num_nodes":"3","size_leaf_vector":"1"}},{"base_weights":[5.6757003E-2,4.1631702E-2,-1.939588E-2],"categories":[],"categories_nodes":[],"categories_segments":[],"categories_sizes":[],"default_left":[0,0,0],"id":76,"left_children":[1,-1,-1],"loss_changes":[3.6229607E-1,0E0,0E0],"parents":[2147483647,0,0],"right_children":[2,-1,-1],"split_conditions":[-4.8531568E-1,4.1631702E-2,-1.939588E-2],"split_indices":[369,0,0],"split_type":[0,0,0],"sum_hessian":[2.2566395E0,1.0250152E0,1.2316244E0],"tree_param":{"num_deleted":"0","num_feature":"777","num_nodes":"3","size_leaf_vector":"1"}},{"base_weights":[6.024271E-2,4.384727E-2,-2.3843007E-2],"categories":[],"categories_nodes":[],"categories_segments":[],"categories_sizes":[],"default_left":[0,0,0],"id":77,"left_children":[1,-1,-1],"loss_changes":[4.5922187E-1,0E0,0E0],"parents":[2147483647,0,0],"right_children":[2,-1,-1],"split_conditions":[-6.2434876E-1,4.384727E-2,-2.3843007E-2],"split_indices":[565,0,0],"split_type":[0,0,0],"sum_hessian":[2.3395827E0,1.1190236E0,1.220559E0],"tree_param":{"num_deleted":"0","num_feature":"777","num_nodes":"3","size_leaf_vector":"1"}},{"base_weights":[6.090323E-2,-2.890984E-2,3.7145313E-2],"categories":[],"categories_nodes":[],"categories_segments":[],"categories_sizes":[],"default_left":[0,0,0],"id":78,"left_children":[1,-1,-1],"loss_changes":[4.5015785E-1,0E0,0E0],"parents":[2147483647,0,0],"right_children":[2,-1,-1],"split_conditions":[2.0553127E-1,-2.890984E-2,3.7145313E-2],"split_indices":[462,0,0],"split_type":[0,0,0],"sum_hessian":[2.4509048E0,1.0551786E0,1.3957263E0],"tree_param":{"num_deleted":"0","num_feature":"777","num_nodes":"3","size_leaf_vector":"1"}},{"base_weights":[-1.1203144E-2,-5.8784097E-2,4.457277E-2],"categories":[],"categories_nodes":[],"categories_segments":[],"categories_sizes":[],"default_left":[0,0,0],"id":79,"left_children":[1,-1,-1],"loss_changes":[1.0201026E0,0E0,0E0],"parents":[2147483647,0,0],"right_children":[2,-1,-1],"split_conditions":[7.5950813E-1,-5.8784097E-2,4.457277E-2],"split_indices":[776,0,0],"split_type":[0,0,0],"sum_hessian":[2.308834E0,1.1008608E0,1.2079732E0],"tree_param":{"num_deleted":"0","num_feature":"777","num_nodes":"3","size_leaf_vector":"1"}},{"base_weights":[-0E0,3.2803472E-2,-3.222295E-2],"categories":[],"categories_nodes":[],"categories_segments":[],"categories_sizes":[],"default_left":[0,0,0],"id":80,"left_children":[1,-1,-1],"loss_changes":[4.175077E-1,0E0,0E0],"parents":[2147483647,0,0],"right_children":[2,-1,-1],"split_conditions":[-3.797519E-1,3.2803472E-2,-3.222295E-2],"split_indices":[122,0,0],"split_type":[0,0,0],"sum_hessian":[2.4073517E0,1.2076626E0,1.1996893E0],"tree_param":{"num_deleted":"0","num_feature":"777","num_nodes":"3","size_leaf_vector":"1"}},{"base_weights":[-0E0],"categories":[],"categories_nodes":[],"categories_segments":[],"categories_sizes":[],"default_left":[0],"id":81,"left_children":[-1],"loss_changes":[0E0],"parents":[2147483647],"right_children":[-1],"split_conditions":[-0E0],"split_indices":[0],"split_type":[0],"sum_hessian":[1.6745498E0],"tree_param":{"num_deleted":"0","num_feature":"777","num_nodes":"1","size_leaf_vector":"1"}},{"base_weights":[4.348672E-2,2.9972479E-2,-1.513499E-2],"categories":[],"categories_nodes":[],"categories_segments":[],"categories_sizes":[],"default_left":[0,0,0],"id":82,"left_children":[1,-1,-1],"loss_changes":[1.9099107E-1,0E0,0E0],"parents":[2147483647,0,0],"right_children":[2,-1,-1],"split_conditions":[-3.4568274E-1,2.9972479E-2,-1.513499E-2],"split_indices":[220,0,0],"split_type":[0,0,0],"sum_hessian":[2.0746193E0,1.0538232E0,1.020796E0],"tree_param":{"num_deleted":"0","num_feature":"777","num_nodes":"3","size_leaf_vector":"1"}},{"base_weights":[-0E0,3.408243E-2,-3.0948605E-2],"categories":[],"categories_nodes":[],"categories_segments":[],"categories_sizes":[],"default_left":[0,0,0],"id":83,"left_children":[1,-1,-1],"loss_changes":[3.969751E-1,0E0,0E0],"parents":[2147483647,0,0],"right_children":[2,-1,-1],"split_conditions":[-3.797519E-1,3.408243E-2,-3.0948605E-2],"split_indices":[122,0,0],"split_type":[0,0,0],"sum_hessian":[2.270889E0,1.1697031E0,1.1011858E0],"tree_param":{"num_deleted":"0","num_feature":"777","num_nodes":"3","size_leaf_vector":"1"}},{"base_weights":[-0E0,2.1591274E-2,-2.712062E-2],"categories":[],"categories_nodes":[],"categories_segments":[],"categories_sizes":[],"default_left":[0,0,0],"id":84,"left_children":[1,-1,-1],"loss_changes":[1.9964299E-1,0E0,0E0],"parents":[2147483647,0,0],"right_children":[2,-1,-1],"split_conditions":[-2.2945653E-1,2.1591274E-2,-2.712062E-2],"split_indices":[387,0,0],"split_type":[0,0,0],"sum_hessian":[2.0080197E0,1.0074161E0,1.0006037E0],"tree_param":{"num_deleted":"0","num_feature":"777","num_nodes":"3","size_leaf_vector":"1"}},{"base_weights":[-4.0241636E-2,-3.609854E-2,2.2311177E-2],"categories":[],"categories_nodes":[],"categories_segments":[],"categories_sizes":[],"default_left":[0,0,0],"id":85,"left_children":[1,-1,-1],"loss_changes":[3.0797425E-1,0E0,0E0],"parents":[2147483647,0,0],"right_children":[2,-1,-1],"split_conditions":[2.4046868E-1,-3.609854E-2,2.2311177E-2],"split_indices":[431,0,0],"split_type":[0,0,0],"sum_hessian":[2.072837E0,1.059524E0,1.013313E0],"tree_param":{"num_deleted":"0","num_feature":"777","num_nodes":"3","size_leaf_vector":"1"}},{"base_weights":[-8.639258E-3,2.6718996E-2,-3.7226856E-2],"categories":[],"categories_nodes":[],"categories_segments":[],"categories_sizes":[],"default_left":[0,0,0],"id":86,"left_children":[1,-1,-1],"loss_changes":[3.6950007E-1,0E0,0E0],"parents":[2147483647,0,0],"right_children":[2,-1,-1],"split_conditions":[-3.721283E-1,2.6718996E-2,-3.7226856E-2],"split_indices":[387,0,0],"split_type":[0,0,0],"sum_hessian":[2.1410556E0,1.0823845E0,1.058671E0],"tree_param":{"num_deleted":"0","num_feature":"777","num_nodes":"3","size_leaf_vector":"1"}},{"base_weights":[1.0658589E-2],"categories":[],"categories_nodes":[],"categories_segments":[],"categories_sizes":[],"default_left":[0],"id":87,"left_children":[-1],"loss_changes":[0E0],"parents":[2147483647],"right_children":[-1],"split_conditions":[8.526871E-4],"split_indices":[0],"split_type":[0],"sum_hessian":[1.899822E0],"tree_param":{"num_deleted":"0","num_feature":"777","num_nodes":"1","size_leaf_vector":"1"}},{"base_weights":[4.2176645E-2,-2.2296323E-2,3.818824E-2],"categories":[],"categories_nodes":[],"categories_segments":[],"categories_sizes":[],"default_left":[0,0,0],"id":88,"left_children":[1,-1,-1],"loss_changes":[3.739909E-1,0E0,0E0],"parents":[2147483647,0,0],"right_children":[2,-1,-1],"split_conditions":[5.180594E-1,-2.2296323E-2,3.818824E-2],"split_indices":[182,0,0],"split_type":[0,0,0],"sum_hessian":[2.3903825E0,1.2295716E0,1.1608108E0],"tree_param":{"num_deleted":"0","num_feature":"777","num_nodes":"3","size_leaf_vector":"1"}},{"base_weights":[6.2669344E-2,3.848582E-2,-1.863318E-2],"categories":[],"categories_nodes":[],"categories_segments":[],"categories_sizes":[],"default_left":[0,0,0],"id":89,"left_children":[1,-1,-1],"loss_changes":[3.2682794E-1,0E0,0E0],"parents":[2147483647,0,0],"right_children":[2,-1,-1],"split_conditions":[-5.2185255E-1,3.848582E-2,-1.863318E-2],"split_indices":[738,0,0],"split_type":[0,0,0],"sum_hessian":[2.287522E0,1.099495E0,1.1880269E0],"tree_param":{"num_deleted":"0","num_feature":"777","num_nodes":"3","size_leaf_vector":"1"}},{"base_weights":[3.564737E-2,-2.0667026E-2,4.005153E-2],"categories":[],"categories_nodes":[],"categories_segments":[],"categories_sizes":[],"default_left":[0,0,0],"id":90,"left_children":[1,-1,-1],"loss_changes":[3.6378238E-1,0E0,0E0],"parents":[2147483647,0,0],"right_children":[2,-1,-1],"split_conditions":[6.9363385E-1,-2.0667026E-2,4.005153E-2],"split_indices":[505,0,0],"split_type":[0,0,0],"sum_hessian":[2.331663E0,1.2867438E0,1.0449193E0],"tree_param":{"num_deleted":"0","num_feature":"777","num_nodes":"3","size_leaf_vector":"1"}},{"base_weights":[-0E0,-2.700115E-2,2.9152934E-2],"categories":[],"categories_nodes":[],"categories_segments":[],"categories_sizes":[],"default_left":[0,0,0],"id":91,"left_children":[1,-1,-1],"loss_changes":[2.7862075E-1,0E0,0E0],"parents":[2147483647,0,0],"right_children":[2,-1,-1],"split_conditions":[2.683258E-1,-2.700115E-2,2.9152934E-2],"split_indices":[172,0,0],"split_type":[0,0,0],"sum_hessian":[2.144688E0,1.1116377E0,1.0330502E0],"tree_param":{"num_deleted":"0","num_feature":"777","num_nodes":"3","size_leaf_vector":"1"}},{"base_weights":[8.812436E-3,3.3196323E-2,-2.6438653E-2],"categories":[],"categories_nodes":[],"categories_segments":[],"categories_sizes":[],"default_left":[0,0,0],"id":92,"left_children":[1,-1,-1],"loss_changes":[3.4040397E-1,0E0,0E0],"parents":[2147483647,0,0],"right_children":[2,-1,-1],"split_conditions":[-3.797519E-1,3.3196323E-2,-2.6438653E-2],"split_indices":[122,0,0],"split_type":[0,0,0],"sum_hessian":[2.2769706E0,1.191283E0,1.0856878E0],"tree_param":{"num_deleted":"0","num_feature":"777","num_nodes":"3","size_leaf_vector":"1"}},{"base_weights":[-0E0,3.3350483E-2,-2.4380581E-2],"categories":[],"categories_nodes":[],"categories_segments":[],"categories_sizes":[],"default_left":[0,0,0],"id":93,"left_children":[1,-1,-1],"loss_changes":[3.0053174E-1,0E0,0E0],"parents":[2147483647,0,0],"right_children":[2,-1,-1],"split_conditions":[-4.866667E-1,3.3350483E-2,-2.4380581E-2],"split_indices":[319,0,0],"split_type":[0,0,0],"sum_hessian":[2.1525E0,1.0457432E0,1.1067567E0],"tree_param":{"num_deleted":"0","num_feature":"777","num_nodes":"3","size_leaf_vector":"1"}},{"base_weights":[-0E0,-2.6409177E-2,2.9315684E-2],"categories":[],"categories_nodes":[],"categories_segments":[],"categories_sizes":[],"default_left":[0,0,0],"id":94,"left_children":[1,-1,-1],"loss_changes":[2.68497E-1,0E0,0E0],"parents":[2147483647,0,0],"right_children":[2,-1,-1],"split_conditions":[3.4771296E-1,-2.6409177E-2,2.9315684E-2],"split_indices":[312,0,0],"split_type":[0,0,0],"sum_hessian":[2.0840487E0,1.0254176E0,1.0586311E0],"tree_param":{"num_deleted":"0","num_feature":"777","num_nodes":"3","size_leaf_vector":"1"}},{"base_weights":[-0E0,2.9822446E-2,-2.5665311E-2],"categories":[],"categories_nodes":[],"categories_segments":[],"categories_sizes":[],"default_left":[0,0,0],"id":95,"left_children":[1,-1,-1],"loss_changes":[2.6722884E-1,0E0,0E0],"parents":[2147483647,0,0],"right_children":[2,-1,-1],"split_conditions":[-3.4827775E-1,2.9822446E-2,-2.5665311E-2],"split_indices":[634,0,0],"split_type":[0,0,0],"sum_hessian":[2.0997698E0,1.0154923E0,1.0842775E0],"tree_param":{"num_deleted":"0","num_feature":"777","num_nodes":"3","size_leaf_vector":"1"}},{"base_weights":[-5.114171E-2],"categories":[],"categories_nodes":[],"categories_segments":[],"categories_sizes":[],"default_left":[0],"id":96,"left_children":[-1],"loss_changes":[0E0],"parents":[2147483647],"right_children":[-1],"split_conditions":[-4.091337E-3],"split_indices":[0],"split_type":[0],"sum_hessian":[1.7895255E0],"tree_param":{"num_deleted":"0","num_feature":"777","num_nodes":"1","size_leaf_vector":"1"}},{"base_weights":[8.926466E-3],"categories":[],"categories_nodes":[],"categories_segments":[],"categories_sizes":[],"default_left":[0],"id":97,"left_children":[-1],"loss_changes":[0E0],"parents":[2147483647],"right_children":[-1],"split_conditions":[7.1411725E-4],"split_indices":[0],"split_type":[0],"sum_hessian":[1.8701427E0],"tree_param":{"num_deleted":"0","num_feature":"777","num_nodes":"1","size_leaf_vector":"1"}},{"base_weights":[9.922129E-2,3.994132E-2,-1.5241828E-2],"categories":[],"categories_nodes":[],"categories_segments":[],"categories_sizes":[],"default_left":[0,0,0],"id":98,"left_children":[1,-1,-1],"loss_changes":[2.843189E-1,0E0,0E0],"parents":[2147483647,0,0],"right_children":[2,-1,-1],"split_conditions":[-5.6308967E-1,3.994132E-2,-1.5241828E-2],"split_indices":[86,0,0],"split_type":[0,0,0],"sum_hessian":[2.0240376E0,1.0059328E0,1.0181049E0],"tree_param":{"num_deleted":"0","num_feature":"777","num_nodes":"3","size_leaf_vector":"1"}},{"base_weights":[-0E0,3.1405747E-2,-2.6304893E-2],"categories":[],"categories_nodes":[],"categories_segments":[],"categories_sizes":[],"default_left":[0,0,0],"id":99,"left_children":[1,-1,-1],"loss_changes":[3.1123048E-1,0E0,0E0],"parents":[2147483647,0,0],"right_children":[2,-1,-1],"split_conditions":[-3.797519E-1,3.1405747E-2,-2.6304893E-2],"split_indices":[122,0,0],"split_type":[0,0,0],"sum_hessian":[2.2412834E0,1.1561117E0,1.0851717E0],"tree_param":{"num_deleted":"0","num_feature":"777","num_nodes":"3","size_leaf_vector":"1"}},{"base_weights":[-0E0,2.8625613E-2,-2.4115419E-2],"categories":[],"categories_nodes":[],"categories_segments":[],"categories_sizes":[],"default_left":[0,0,0],"id":100,"left_children":[1,-1,-1],"loss_changes":[2.3531821E-1,0E0,0E0],"parents":[2147483647,0,0],"right_children":[2,-1,-1],"split_conditions":[-3.797519E-1,2.8625613E-2,-2.4115419E-2],"split_indices":[122,0,0],"split_type":[0,0,0],"sum_hessian":[2.02893E0,1.0175478E0,1.0113821E0],"tree_param":{"num_deleted":"0","num_feature":"777","num_nodes":"3","size_leaf_vector":"1"}},{"base_weights":[-0E0,1.9587135E-2,-1.6276108E-2],"categories":[],"categories_nodes":[],"categories_segments":[],"categories_sizes":[],"default_left":[0,0,0],"id":101,"left_children":[1,-1,-1],"loss_changes":[1.0933584E-1,0E0,0E0],"parents":[2147483647,0,0],"right_children":[2,-1,-1],"split_conditions":[-2.853205E-1,1.9587135E-2,-1.6276108E-2],"split_indices":[110,0,0],"split_type":[0,0,0],"sum_hessian":[2.0352185E0,1.0247416E0,1.010477E0],"tree_param":{"num_deleted":"0","num_feature":"777","num_nodes":"3","size_leaf_vector":"1"}},{"base_weights":[-0E0,-2.4133602E-2,2.291337E-2],"categories":[],"categories_nodes":[],"categories_segments":[],"categories_sizes":[],"default_left":[0,0,0],"id":102,"left_children":[1,-1,-1],"loss_changes":[1.8636256E-1,0E0,0E0],"parents":[2147483647,0,0],"right_children":[2,-1,-1],"split_conditions":[2.9389971E-1,-2.4133602E-2,2.291337E-2],"split_indices":[312,0,0],"split_type":[0,0,0],"sum_hessian":[2.0348308E0,1.0092813E0,1.0255495E0],"tree_param":{"num_deleted":"0","num_feature":"777","num_nodes":"3","size_leaf_vector":"1"}},{"base_weights":[-0E0,1.7496936E-2,-1.995095E-2],"categories":[],"categories_nodes":[],"categories_segments":[],"categories_sizes":[],"default_left":[0,0,0],"id":103,"left_children":[1,-1,-1],"loss_changes":[1.16876245E-1,0E0,0E0],"parents":[2147483647,0,0],"right_children":[2,-1,-1],"split_conditions":[-1.8658236E-1,1.7496936E-2,-1.995095E-2],"split_indices":[591,0,0],"split_type":[0,0,0],"sum_hessian":[2.0040631E0,1.0004733E0,1.0035899E0],"tree_param":{"num_deleted":"0","num_feature":"777","num_nodes":"3","size_leaf_vector":"1"}},{"base_weights":[-0E0],"categories":[],"categories_nodes":[],"categories_segments":[],"categories_sizes":[],"default_left":[0],"id":104,"left_children":[-1],"loss_changes":[0E0],"parents":[2147483647],"right_children":[-1],"split_conditions":[-0E0],"split_indices":[0],"split_type":[0],"sum_hessian":[1.568627E0],"tree_param":{"num_deleted":"0","num_feature":"777","num_nodes":"1","size_leaf_vector":"1"}},{"base_weights":[-0E0],"categories":[],"categories_nodes":[],"categories_segments":[],"categories_sizes":[],"default_left":[0],"id":105,"left_children":[-1],"loss_changes":[0E0],"parents":[2147483647],"right_children":[-1],"split_conditions":[-0E0],"split_indices":[0],"split_type":[0],"sum_hessian":[1.9210311E0],"tree_param":{"num_deleted":"0","num_feature":"777","num_nodes":"1","size_leaf_vector":"1"}},{"base_weights":[-0E0],"categories":[],"categories_nodes":[],"categories_segments":[],"categories_sizes":[],"default_left":[0],"id":106,"left_children":[-1],"loss_changes":[0E0],"parents":[2147483647],"right_children":[-1],"split_conditions":[-0E0],"split_indices":[0],"split_type":[0],"sum_hessian":[1.8098831E0],"tree_param":{"num_deleted":"0","num_feature":"777","num_nodes":"1","size_leaf_vector":"1"}},{"base_weights":[-0E0],"categories":[],"categories_nodes":[],"categories_segments":[],"categories_sizes":[],"default_left":[0],"id":107,"left_children":[-1],"loss_changes":[0E0],"parents":[2147483647],"right_children":[-1],"split_conditions":[-0E0],"split_indices":[0],"split_type":[0],"sum_hessian":[1.7109817E0],"tree_param":{"num_deleted":"0","num_feature":"777","num_nodes":"1","size_leaf_vector":"1"}},{"base_weights":[-0E0],"categories":[],"categories_nodes":[],"categories_segments":[],"categories_sizes":[],"default_left":[0],"id":108,"left_children":[-1],"loss_changes":[0E0],"parents":[2147483647],"right_children":[-1],"split_conditions":[-0E0],"split_indices":[0],"split_type":[0],"sum_hessian":[1.9973288E0],"tree_param":{"num_deleted":"0","num_feature":"777","num_nodes":"1","size_leaf_vector":"1"}},{"base_weights":[-2.1444857E-2],"categories":[],"categories_nodes":[],"categories_segments":[],"categories_sizes":[],"default_left":[0],"id":109,"left_children":[-1],"loss_changes":[0E0],"parents":[2147483647],"right_children":[-1],"split_conditions":[-1.7155885E-3],"split_indices":[0],"split_type":[0],"sum_hessian":[1.8263049E0],"tree_param":{"num_deleted":"0","num_feature":"777","num_nodes":"1","size_leaf_vector":"1"}},{"base_weights":[-0E0],"categories":[],"categories_nodes":[],"categories_segments":[],"categories_sizes":[],"default_left":[0],"id":110,"left_children":[-1],"loss_changes":[0E0],"parents":[2147483647],"right_children":[-1],"split_conditions":[-0E0],"split_indices":[0],"split_type":[0],"sum_hessian":[1.8761866E0],"tree_param":{"num_deleted":"0","num_feature":"777","num_nodes":"1","size_leaf_vector":"1"}},{"base_weights":[-0E0,2.493788E-2,-2.4568474E-2],"categories":[],"categories_nodes":[],"categories_segments":[],"categories_sizes":[],"default_left":[0,0,0],"id":111,"left_children":[1,-1,-1],"loss_changes":[2.0738104E-1,0E0,0E0],"parents":[2147483647,0,0],"right_children":[2,-1,-1],"split_conditions":[-3.797519E-1,2.493788E-2,-2.4568474E-2],"split_indices":[122,0,0],"split_type":[0,0,0],"sum_hessian":[2.0458148E0,1.029866E0,1.0159489E0],"tree_param":{"num_deleted":"0","num_feature":"777","num_nodes":"3","size_leaf_vector":"1"}},{"base_weights":[8.230062E-2],"categories":[],"categories_nodes":[],"categories_segments":[],"categories_sizes":[],"default_left":[0],"id":112,"left_children":[-1],"loss_changes":[0E0],"parents":[2147483647],"right_children":[-1],"split_conditions":[6.584049E-3],"split_indices":[0],"split_type":[0],"sum_hessian":[1.8797039E0],"tree_param":{"num_deleted":"0","num_feature":"777","num_nodes":"1","size_leaf_vector":"1"}},{"base_weights":[-0E0],"categories":[],"categories_nodes":[],"categories_segments":[],"categories_sizes":[],"default_left":[0],"id":113,"left_children":[-1],"loss_changes":[0E0],"parents":[2147483647],"right_children":[-1],"split_conditions":[-0E0],"split_indices":[0],"split_type":[0],"sum_hessian":[1.8528905E0],"tree_param":{"num_deleted":"0","num_feature":"777","num_nodes":"1","size_leaf_vector":"1"}},{"base_weights":[3.323472E-2],"categories":[],"categories_nodes":[],"categories_segments":[],"categories_sizes":[],"default_left":[0],"id":114,"left_children":[-1],"loss_changes":[0E0],"parents":[2147483647],"right_children":[-1],"split_conditions":[2.6587774E-3],"split_indices":[0],"split_type":[0],"sum_hessian":[1.8174133E0],"tree_param":{"num_deleted":"0","num_feature":"777","num_nodes":"1","size_leaf_vector":"1"}},{"base_weights":[-0E0],"categories":[],"categories_nodes":[],"categories_segments":[],"categories_sizes":[],"default_left":[0],"id":115,"left_children":[-1],"loss_changes":[0E0],"parents":[2147483647],"right_children":[-1],"split_conditions":[-0E0],"split_indices":[0],"split_type":[0],"sum_hessian":[1.7386965E0],"tree_param":{"num_deleted":"0","num_feature":"777","num_nodes":"1","size_leaf_vector":"1"}},{"base_weights":[-0E0],"categories":[],"categories_nodes":[],"categories_segments":[],"categories_sizes":[],"default_left":[0],"id":116,"left_children":[-1],"loss_changes":[0E0],"parents":[2147483647],"right_children":[-1],"split_conditions":[-0E0],"split_indices":[0],"split_type":[0],"sum_hessian":[1.8361187E0],"tree_param":{"num_deleted":"0","num_feature":"777","num_nodes":"1","size_leaf_vector":"1"}},{"base_weights":[-0E0],"categories":[],"categories_nodes":[],"categories_segments":[],"categories_sizes":[],"default_left":[0],"id":117,"left_children":[-1],"loss_changes":[0E0],"parents":[2147483647],"right_children":[-1],"split_conditions":[-0E0],"split_indices":[0],"split_type":[0],"sum_hessian":[1.9107171E0],"tree_param":{"num_deleted":"0","num_feature":"777","num_nodes":"1","size_leaf_vector":"1"}},{"base_weights":[-0E0],"categories":[],"categories_nodes":[],"categories_segments":[],"categories_sizes":[],"default_left":[0],"id":118,"left_children":[-1],"loss_changes":[0E0],"parents":[2147483647],"right_children":[-1],"split_conditions":[-0E0],"split_indices":[0],"split_type":[0],"sum_hessian":[1.9513674E0],"tree_param":{"num_deleted":"0","num_feature":"777","num_nodes":"1","size_leaf_vector":"1"}},{"base_weights":[-3.0610228E-2],"categories":[],"categories_nodes":[],"categories_segments":[],"categories_sizes":[],"default_left":[0],"id":119,"left_children":[-1],"loss_changes":[0E0],"parents":[2147483647],"right_children":[-1],"split_conditions":[-2.4488182E-3],"split_indices":[0],"split_type":[0],"sum_hessian":[1.8290336E0],"tree_param":{"num_deleted":"0","num_feature":"777","num_nodes":"1","size_leaf_vector":"1"}},{"base_weights":[-0E0],"categories":[],"categories_nodes":[],"categories_segments":[],"categories_sizes":[],"default_left":[0],"id":120,"left_children":[-1],"loss_changes":[0E0],"parents":[2147483647],"right_children":[-1],"split_conditions":[-0E0],"split_indices":[0],"split_type":[0],"sum_hessian":[1.945092E0],"tree_param":{"num_deleted":"0","num_feature":"777","num_nodes":"1","size_leaf_vector":"1"}},{"base_weights":[-0E0],"categories":[],"categories_nodes":[],"categories_segments":[],"categories_sizes":[],"default_left":[0],"id":121,"left_children":[-1],"loss_changes":[0E0],"parents":[2147483647],"right_children":[-1],"split_conditions":[-0E0],"split_indices":[0],"split_type":[0],"sum_hessian":[1.9436466E0],"tree_param":{"num_deleted":"0","num_feature":"777","num_nodes":"1","size_leaf_vector":"1"}},{"base_weights":[-0E0],"categories":[],"categories_nodes":[],"categories_segments":[],"categories_sizes":[],"default_left":[0],"id":122,"left_children":[-1],"loss_changes":[0E0],"parents":[2147483647],"right_children":[-1],"split_conditions":[-0E0],"split_indices":[0],"split_type":[0],"sum_hessian":[1.6856842E0],"tree_param":{"num_deleted":"0","num_feature":"777","num_nodes":"1","size_leaf_vector":"1"}},{"base_weights":[-0E0],"categories":[],"categories_nodes":[],"categories_segments":[],"categories_sizes":[],"default_left":[0],"id":123,"left_children":[-1],"loss_changes":[0E0],"parents":[2147483647],"right_children":[-1],"split_conditions":[-0E0],"split_indices":[0],"split_type":[0],"sum_hessian":[1.7248394E0],"tree_param":{"num_deleted":"0","num_feature":"777","num_nodes":"1","size_leaf_vector":"1"}},{"base_weights":[-0E0],"categories":[],"categories_nodes":[],"categories_segments":[],"categories_sizes":[],"default_left":[0],"id":124,"left_children":[-1],"loss_changes":[0E0],"parents":[2147483647],"right_children":[-1],"split_conditions":[-0E0],"split_indices":[0],"split_type":[0],"sum_hessian":[1.9309983E0],"tree_param":{"num_deleted":"0","num_feature":"777","num_nodes":"1","size_leaf_vector":"1"}},{"base_weights":[-0E0],"categories":[],"categories_nodes":[],"categories_segments":[],"categories_sizes":[],"default_left":[0],"id":125,"left_children":[-1],"loss_changes":[0E0],"parents":[2147483647],"right_children":[-1],"split_conditions":[-0E0],"split_indices":[0],"split_type":[0],"sum_hessian":[1.976806E0],"tree_param":{"num_deleted":"0","num_feature":"777","num_nodes":"1","size_leaf_vector":"1"}},{"base_weights":[-0E0],"categories":[],"categories_nodes":[],"categories_segments":[],"categories_sizes":[],"default_left":[0],"id":126,"left_children":[-1],"loss_changes":[0E0],"parents":[2147483647],"right_children":[-1],"split_conditions":[-0E0],"split_indices":[0],"split_type":[0],"sum_hessian":[1.9242213E0],"tree_param":{"num_deleted":"0","num_feature":"777","num_nodes":"1","size_leaf_vector":"1"}},{"base_weights":[-0E0],"categories":[],"categories_nodes":[],"categories_segments":[],"categories_sizes":[],"default_left":[0],"id":127,"left_children":[-1],"loss_changes":[0E0],"parents":[2147483647],"right_children":[-1],"split_conditions":[-0E0],"split_indices":[0],"split_type":[0],"sum_hessian":[1.9575354E0],"tree_param":{"num_deleted":"0","num_feature":"777","num_nodes":"1","size_leaf_vector":"1"}},{"base_weights":[1.7902665E-2,2.6213132E-2,-1.4261062E-2],"categories":[],"categories_nodes":[],"categories_segments":[],"categories_sizes":[],"default_left":[0,0,0],"id":128,"left_children":[1,-1,-1],"loss_changes":[1.4960842E-1,0E0,0E0],"parents":[2147483647,0,0],"right_children":[2,-1,-1],"split_conditions":[-5.2185255E-1,2.6213132E-2,-1.4261062E-2],"split_indices":[738,0,0],"split_type":[0,0,0],"sum_hessian":[2.049379E0,1.0162098E0,1.0331692E0],"tree_param":{"num_deleted":"0","num_feature":"777","num_nodes":"3","size_leaf_vector":"1"}},{"base_weights":[-0E0,-2.305371E-2,2.5109803E-2],"categories":[],"categories_nodes":[],"categories_segments":[],"categories_sizes":[],"default_left":[0,0,0],"id":129,"left_children":[1,-1,-1],"loss_changes":[1.9517729E-1,0E0,0E0],"parents":[2147483647,0,0],"right_children":[2,-1,-1],"split_conditions":[5.015605E-1,-2.305371E-2,2.5109803E-2],"split_indices":[222,0,0],"split_type":[0,0,0],"sum_hessian":[2.0292697E0,1.0102423E0,1.0190275E0],"tree_param":{"num_deleted":"0","num_feature":"777","num_nodes":"3","size_leaf_vector":"1"}},{"base_weights":[-0E0],"categories":[],"categories_nodes":[],"categories_segments":[],"categories_sizes":[],"default_left":[0],"id":130,"left_children":[-1],"loss_changes":[0E0],"parents":[2147483647],"right_children":[-1],"split_conditions":[-0E0],"split_indices":[0],"split_type":[0],"sum_hessian":[1.8569341E0],"tree_param":{"num_deleted":"0","num_feature":"777","num_nodes":"1","size_leaf_vector":"1"}},{"base_weights":[-0E0],"categories":[],"categories_nodes":[],"categories_segments":[],"categories_sizes":[],"default_left":[0],"id":131,"left_children":[-1],"loss_changes":[0E0],"parents":[2147483647],"right_children":[-1],"split_conditions":[-0E0],"split_indices":[0],"split_type":[0],"sum_hessian":[1.8659483E0],"tree_param":{"num_deleted":"0","num_feature":"777","num_nodes":"1","size_leaf_vector":"1"}},{"base_weights":[-0E0],"categories":[],"categories_nodes":[],"categories_segments":[],"categories_sizes":[],"default_left":[0],"id":132,"left_children":[-1],"loss_changes":[0E0],"parents":[2147483647],"right_children":[-1],"split_conditions":[-0E0],"split_indices":[0],"split_type":[0],"sum_hessian":[1.7819626E0],"tree_param":{"num_deleted":"0","num_feature":"777","num_nodes":"1","size_leaf_vector":"1"}},{"base_weights":[-0E0],"categories":[],"categories_nodes":[],"categories_segments":[],"categories_sizes":[],"default_left":[0],"id":133,"left_children":[-1],"loss_changes":[0E0],"parents":[2147483647],"right_children":[-1],"split_conditions":[-0E0],"split_indices":[0],"split_type":[0],"sum_hessian":[1.8688912E0],"tree_param":{"num_deleted":"0","num_feature":"777","num_nodes":"1","size_leaf_vector":"1"}},{"base_weights":[-0E0],"categories":[],"categories_nodes":[],"categories_segments":[],"categories_sizes":[],"default_left":[0],"id":134,"left_children":[-1],"loss_changes":[0E0],"parents":[2147483647],"right_children":[-1],"split_conditions":[-0E0],"split_indices":[0],"split_type":[0],"sum_hessian":[1.7101618E0],"tree_param":{"num_deleted":"0","num_feature":"777","num_nodes":"1","size_leaf_vector":"1"}},{"base_weights":[6.289387E-2],"categories":[],"categories_nodes":[],"categories_segments":[],"categories_sizes":[],"default_left":[0],"id":135,"left_children":[-1],"loss_changes":[0E0],"parents":[2147483647],"right_children":[-1],"split_conditions":[5.0315093E-3],"split_indices":[0],"split_type":[0],"sum_hessian":[1.8009737E0],"tree_param":{"num_deleted":"0","num_feature":"777","num_nodes":"1","size_leaf_vector":"1"}},{"base_weights":[-0E0],"categories":[],"categories_nodes":[],"categories_segments":[],"categories_sizes":[],"default_left":[0],"id":136,"left_children":[-1],"loss_changes":[0E0],"parents":[2147483647],"right_children":[-1],"split_conditions":[-0E0],"split_indices":[0],"split_type":[0],"sum_hessian":[1.7836585E0],"tree_param":{"num_deleted":"0","num_feature":"777","num_nodes":"1","size_leaf_vector":"1"}},{"base_weights":[-0E0],"categories":[],"categories_nodes":[],"categories_segments":[],"categories_sizes":[],"default_left":[0],"id":137,"left_children":[-1],"loss_changes":[0E0],"parents":[2147483647],"right_children":[-1],"split_conditions":[-0E0],"split_indices":[0],"split_type":[0],"sum_hessian":[1.8188457E0],"tree_param":{"num_deleted":"0","num_feature":"777","num_nodes":"1","size_leaf_vector":"1"}},{"base_weights":[8.359166E-2],"categories":[],"categories_nodes":[],"categories_segments":[],"categories_sizes":[],"default_left":[0],"id":138,"left_children":[-1],"loss_changes":[0E0],"parents":[2147483647],"right_children":[-1],"split_conditions":[6.687333E-3],"split_indices":[0],"split_type":[0],"sum_hessian":[1.7552146E0],"tree_param":{"num_deleted":"0","num_feature":"777","num_nodes":"1","size_leaf_vector":"1"}},{"base_weights":[-0E0],"categories":[],"categories_nodes":[],"categories_segments":[],"categories_sizes":[],"default_left":[0],"id":139,"left_children":[-1],"loss_changes":[0E0],"parents":[2147483647],"right_children":[-1],"split_conditions":[-0E0],"split_indices":[0],"split_type":[0],"sum_hessian":[1.7844069E0],"tree_param":{"num_deleted":"0","num_feature":"777","num_nodes":"1","size_leaf_vector":"1"}},{"base_weights":[-3.3320513E-2],"categories":[],"categories_nodes":[],"categories_segments":[],"categories_sizes":[],"default_left":[0],"id":140,"left_children":[-1],"loss_changes":[0E0],"parents":[2147483647],"right_children":[-1],"split_conditions":[-2.665641E-3],"split_indices":[0],"split_type":[0],"sum_hessian":[1.7372422E0],"tree_param":{"num_deleted":"0","num_feature":"777","num_nodes":"1","size_leaf_vector":"1"}},{"base_weights":[-0E0],"categories":[],"categories_nodes":[],"categories_segments":[],"categories_sizes":[],"default_left":[0],"id":141,"left_children":[-1],"loss_changes":[0E0],"parents":[2147483647],"right_children":[-1],"split_conditions":[-0E0],"split_indices":[0],"split_type":[0],"sum_hessian":[1.8938059E0],"tree_param":{"num_deleted":"0","num_feature":"777","num_nodes":"1","size_leaf_vector":"1"}},{"base_weights":[-3.8055565E-2],"categories":[],"categories_nodes":[],"categories_segments":[],"categories_sizes":[],"default_left":[0],"id":142,"left_children":[-1],"loss_changes":[0E0],"parents":[2147483647],"right_children":[-1],"split_conditions":[-3.044445E-3],"split_indices":[0],"split_type":[0],"sum_hessian":[1.6769903E0],"tree_param":{"num_deleted":"0","num_feature":"777","num_nodes":"1","size_leaf_vector":"1"}},{"base_weights":[-0E0],"categories":[],"categories_nodes":[],"categories_segments":[],"categories_sizes":[],"default_left":[0],"id":143,"left_children":[-1],"loss_changes":[0E0],"parents":[2147483647],"right_children":[-1],"split_conditions":[-0E0],"split_indices":[0],"split_type":[0],"sum_hessian":[1.8344337E0],"tree_param":{"num_deleted":"0","num_feature":"777","num_nodes":"1","size_leaf_vector":"1"}},{"base_weights":[-2.2714408E-2],"categories":[],"categories_nodes":[],"categories_segments":[],"categories_sizes":[],"default_left":[0],"id":144,"left_children":[-1],"loss_changes":[0E0],"parents":[2147483647],"right_children":[-1],"split_conditions":[-1.8171526E-3],"split_indices":[0],"split_type":[0],"sum_hessian":[1.7591326E0],"tree_param":{"num_deleted":"0","num_feature":"777","num_nodes":"1","size_leaf_vector":"1"}},{"base_weights":[-0E0],"categories":[],"categories_nodes":[],"categories_segments":[],"categories_sizes":[],"default_left":[0],"id":145,"left_children":[-1],"loss_changes":[0E0],"parents":[2147483647],"right_children":[-1],"split_conditions":[-0E0],"split_indices":[0],"split_type":[0],"sum_hessian":[1.864562E0],"tree_param":{"num_deleted":"0","num_feature":"777","num_nodes":"1","size_leaf_vector":"1"}},{"base_weights":[-0E0],"categories":[],"categories_nodes":[],"categories_segments":[],"categories_sizes":[],"default_left":[0],"id":146,"left_children":[-1],"loss_changes":[0E0],"parents":[2147483647],"right_children":[-1],"split_conditions":[-0E0],"split_indices":[0],"split_type":[0],"sum_hessian":[1.9577748E0],"tree_param":{"num_deleted":"0","num_feature":"777","num_nodes":"1","size_leaf_vector":"1"}},{"base_weights":[-0E0],"categories":[],"categories_nodes":[],"categories_segments":[],"categories_sizes":[],"default_left":[0],"id":147,"left_children":[-1],"loss_changes":[0E0],"parents":[2147483647],"right_children":[-1],"split_conditions":[-0E0],"split_indices":[0],"split_type":[0],"sum_hessian":[1.8578969E0],"tree_param":{"num_deleted":"0","num_feature":"777","num_nodes":"1","size_leaf_vector":"1"}},{"base_weights":[-0E0],"categories":[],"categories_nodes":[],"categories_segments":[],"categories_sizes":[],"default_left":[0],"id":148,"left_children":[-1],"loss_changes":[0E0],"parents":[2147483647],"right_children":[-1],"split_conditions":[-0E0],"split_indices":[0],"split_type":[0],"sum_hessian":[1.8697416E0],"tree_param":{"num_deleted":"0","num_feature":"777","num_nodes":"1","size_leaf_vector":"1"}},{"base_weights":[-2.2213764E-2],"categories":[],"categories_nodes":[],"categories_segments":[],"categories_sizes":[],"default_left":[0],"id":149,"left_children":[-1],"loss_changes":[0E0],"parents":[2147483647],"right_children":[-1],"split_conditions":[-1.7771011E-3],"split_indices":[0],"split_type":[0],"sum_hessian":[1.7949395E0],"tree_param":{"num_deleted":"0","num_feature":"777","num_nodes":"1","size_leaf_vector":"1"}},{"base_weights":[-0E0,-1.3025284E-2,2.0145616E-2],"categories":[],"categories_nodes":[],"categories_segments":[],"categories_sizes":[],"default_left":[0,0,0],"id":150,"left_children":[1,-1,-1],"loss_changes":[9.628053E-2,0E0,0E0],"parents":[2147483647,0,0],"right_children":[2,-1,-1],"split_conditions":[6.0124572E-2,-1.3025284E-2,2.0145616E-2],"split_indices":[24,0,0],"split_type":[0,0,0],"sum_hessian":[2.02177E0,1.0113208E0,1.010449E0],"tree_param":{"num_deleted":"0","num_feature":"777","num_nodes":"3","size_leaf_vector":"1"}},{"base_weights":[-0E0],"categories":[],"categories_nodes":[],"categories_segments":[],"categories_sizes":[],"default_left":[0],"id":151,"left_children":[-1],"loss_changes":[0E0],"parents":[2147483647],"right_children":[-1],"split_conditions":[-0E0],"split_indices":[0],"split_type":[0],"sum_hessian":[1.8599477E0],"tree_param":{"num_deleted":"0","num_feature":"777","num_nodes":"1","size_leaf_vector":"1"}},{"base_weights":[4.0770713E-2],"categories":[],"categories_nodes":[],"categories_segments":[],"categories_sizes":[],"default_left":[0],"id":152,"left_children":[-1],"loss_changes":[0E0],"parents":[2147483647],"right_children":[-1],"split_conditions":[3.261657E-3],"split_indices":[0],"split_type":[0],"sum_hessian":[1.7610338E0],"tree_param":{"num_deleted":"0","num_feature":"777","num_nodes":"1","size_leaf_vector":"1"}},{"base_weights":[-0E0],"categories":[],"categories_nodes":[],"categories_segments":[],"categories_sizes":[],"default_left":[0],"id":153,"left_children":[-1],"loss_changes":[0E0],"parents":[2147483647],"right_children":[-1],"split_conditions":[-0E0],"split_indices":[0],"split_type":[0],"sum_hessian":[1.8080192E0],"tree_param":{"num_deleted":"0","num_feature":"777","num_nodes":"1","size_leaf_vector":"1"}},{"base_weights":[-0E0],"categories":[],"categories_nodes":[],"categories_segments":[],"categories_sizes":[],"default_left":[0],"id":154,"left_children":[-1],"loss_changes":[0E0],"parents":[2147483647],"right_children":[-1],"split_conditions":[-0E0],"split_indices":[0],"split_type":[0],"sum_hessian":[1.8677784E0],"tree_param":{"num_deleted":"0","num_feature":"777","num_nodes":"1","size_leaf_vector":"1"}},{"base_weights":[-0E0],"categories":[],"categories_nodes":[],"categories_segments":[],"categories_sizes":[],"default_left":[0],"id":155,"left_children":[-1],"loss_changes":[0E0],"parents":[2147483647],"right_children":[-1],"split_conditions":[-0E0],"split_indices":[0],"split_type":[0],"sum_hessian":[1.978583E0],"tree_param":{"num_deleted":"0","num_feature":"777","num_nodes":"1","size_leaf_vector":"1"}},{"base_weights":[1.1149999E-2],"categories":[],"categories_nodes":[],"categories_segments":[],"categories_sizes":[],"default_left":[0],"id":156,"left_children":[-1],"loss_changes":[0E0],"parents":[2147483647],"right_children":[-1],"split_conditions":[8.9199987E-4],"split_indices":[0],"split_type":[0],"sum_hessian":[1.7197089E0],"tree_param":{"num_deleted":"0","num_feature":"777","num_nodes":"1","size_leaf_vector":"1"}},{"base_weights":[-0E0],"categories":[],"categories_nodes":[],"categories_segments":[],"categories_sizes":[],"default_left":[0],"id":157,"left_children":[-1],"loss_changes":[0E0],"parents":[2147483647],"right_children":[-1],"split_conditions":[-0E0],"split_indices":[0],"split_type":[0],"sum_hessian":[1.9596808E0],"tree_param":{"num_deleted":"0","num_feature":"777","num_nodes":"1","size_leaf_vector":"1"}},{"base_weights":[-0E0],"categories":[],"categories_nodes":[],"categories_segments":[],"categories_sizes":[],"default_left":[0],"id":158,"left_children":[-1],"loss_changes":[0E0],"parents":[2147483647],"right_children":[-1],"split_conditions":[-0E0],"split_indices":[0],"split_type":[0],"sum_hessian":[1.9724075E0],"tree_param":{"num_deleted":"0","num_feature":"777","num_nodes":"1","size_leaf_vector":"1"}},{"base_weights":[-0E0],"categories":[],"categories_nodes":[],"categories_segments":[],"categories_sizes":[],"default_left":[0],"id":159,"left_children":[-1],"loss_changes":[0E0],"parents":[2147483647],"right_children":[-1],"split_conditions":[-0E0],"split_indices":[0],"split_type":[0],"sum_hessian":[1.9910977E0],"tree_param":{"num_deleted":"0","num_feature":"777","num_nodes":"1","size_leaf_vector":"1"}},{"base_weights":[-0E0],"categories":[],"categories_nodes":[],"categories_segments":[],"categories_sizes":[],"default_left":[0],"id":160,"left_children":[-1],"loss_changes":[0E0],"parents":[2147483647],"right_children":[-1],"split_conditions":[-0E0],"split_indices":[0],"split_type":[0],"sum_hessian":[1.8732966E0],"tree_param":{"num_deleted":"0","num_feature":"777","num_nodes":"1","size_leaf_vector":"1"}},{"base_weights":[-0E0],"categories":[],"categories_nodes":[],"categories_segments":[],"categories_sizes":[],"default_left":[0],"id":161,"left_children":[-1],"loss_changes":[0E0],"parents":[2147483647],"right_children":[-1],"split_conditions":[-0E0],"split_indices":[0],"split_type":[0],"sum_hessian":[1.9548392E0],"tree_param":{"num_deleted":"0","num_feature":"777","num_nodes":"1","size_leaf_vector":"1"}},{"base_weights":[-0E0],"categories":[],"categories_nodes":[],"categories_segments":[],"categories_sizes":[],"default_left":[0],"id":162,"left_children":[-1],"loss_changes":[0E0],"parents":[2147483647],"right_children":[-1],"split_conditions":[-0E0],"split_indices":[0],"split_type":[0],"sum_hessian":[1.913026E0],"tree_param":{"num_deleted":"0","num_feature":"777","num_nodes":"1","size_leaf_vector":"1"}},{"base_weights":[2.5976604E-2],"categories":[],"categories_nodes":[],"categories_segments":[],"categories_sizes":[],"default_left":[0],"id":163,"left_children":[-1],"loss_changes":[0E0],"parents":[2147483647],"right_children":[-1],"split_conditions":[2.0781283E-3],"split_indices":[0],"split_type":[0],"sum_hessian":[1.8451492E0],"tree_param":{"num_deleted":"0","num_feature":"777","num_nodes":"1","size_leaf_vector":"1"}},{"base_weights":[-7.044599E-2],"categories":[],"categories_nodes":[],"categories_segments":[],"categories_sizes":[],"default_left":[0],"id":164,"left_children":[-1],"loss_changes":[0E0],"parents":[2147483647],"right_children":[-1],"split_conditions":[-5.6356792E-3],"split_indices":[0],"split_type":[0],"sum_hessian":[1.661934E0],"tree_param":{"num_deleted":"0","num_feature":"777","num_nodes":"1","size_leaf_vector":"1"}},{"base_weights":[-0E0],"categories":[],"categories_nodes":[],"categories_segments":[],"categories_sizes":[],"default_left":[0],"id":165,"left_children":[-1],"loss_changes":[0E0],"parents":[2147483647],"right_children":[-1],"split_conditions":[-0E0],"split_indices":[0],"split_type":[0],"sum_hessian":[1.9573994E0],"tree_param":{"num_deleted":"0","num_feature":"777","num_nodes":"1","size_leaf_vector":"1"}},{"base_weights":[-0E0],"categories":[],"categories_nodes":[],"categories_segments":[],"categories_sizes":[],"default_left":[0],"id":166,"left_children":[-1],"loss_changes":[0E0],"parents":[2147483647],"right_children":[-1],"split_conditions":[-0E0],"split_indices":[0],"split_type":[0],"sum_hessian":[1.965756E0],"tree_param":{"num_deleted":"0","num_feature":"777","num_nodes":"1","size_leaf_vector":"1"}},{"base_weights":[1.7625062E-2],"categories":[],"categories_nodes":[],"categories_segments":[],"categories_sizes":[],"default_left":[0],"id":167,"left_children":[-1],"loss_changes":[0E0],"parents":[2147483647],"right_children":[-1],"split_conditions":[1.4100049E-3],"split_indices":[0],"split_type":[0],"sum_hessian":[1.9187044E0],"tree_param":{"num_deleted":"0","num_feature":"777","num_nodes":"1","size_leaf_vector":"1"}},{"base_weights":[-0E0],"categories":[],"categories_nodes":[],"categories_segments":[],"categories_sizes":[],"default_left":[0],"id":168,"left_children":[-1],"loss_changes":[0E0],"parents":[2147483647],"right_children":[-1],"split_conditions":[-0E0],"split_indices":[0],"split_type":[0],"sum_hessian":[1.9510051E0],"tree_param":{"num_deleted":"0","num_feature":"777","num_nodes":"1","size_leaf_vector":"1"}},{"base_weights":[-4.920493E-2],"categories":[],"categories_nodes":[],"categories_segments":[],"categories_sizes":[],"default_left":[0],"id":169,"left_children":[-1],"loss_changes":[0E0],"parents":[2147483647],"right_children":[-1],"split_conditions":[-3.9363946E-3],"split_indices":[0],"split_type":[0],"sum_hessian":[1.711745E0],"tree_param":{"num_deleted":"0","num_feature":"777","num_nodes":"1","size_leaf_vector":"1"}},{"base_weights":[-0E0],"categories":[],"categories_nodes":[],"categories_segments":[],"categories_sizes":[],"default_left":[0],"id":170,"left_children":[-1],"loss_changes":[0E0],"parents":[2147483647],"right_children":[-1],"split_conditions":[-0E0],"split_indices":[0],"split_type":[0],"sum_hessian":[1.9858243E0],"tree_param":{"num_deleted":"0","num_feature":"777","num_nodes":"1","size_leaf_vector":"1"}},{"base_weights":[-0E0],"categories":[],"categories_nodes":[],"categories_segments":[],"categories_sizes":[],"default_left":[0],"id":171,"left_children":[-1],"loss_changes":[0E0],"parents":[2147483647],"right_children":[-1],"split_conditions":[-0E0],"split_indices":[0],"split_type":[0],"sum_hessian":[1.9488965E0],"tree_param":{"num_deleted":"0","num_feature":"777","num_nodes":"1","size_leaf_vector":"1"}},{"base_weights":[-0E0],"categories":[],"categories_nodes":[],"categories_segments":[],"categories_sizes":[],"default_left":[0],"id":172,"left_children":[-1],"loss_changes":[0E0],"parents":[2147483647],"right_children":[-1],"split_conditions":[-0E0],"split_indices":[0],"split_type":[0],"sum_hessian":[1.9140526E0],"tree_param":{"num_deleted":"0","num_feature":"777","num_nodes":"1","size_leaf_vector":"1"}},{"base_weights":[-0E0],"categories":[],"categories_nodes":[],"categories_segments":[],"categories_sizes":[],"default_left":[0],"id":173,"left_children":[-1],"loss_changes":[0E0],"parents":[2147483647],"right_children":[-1],"split_conditions":[-0E0],"split_indices":[0],"split_type":[0],"sum_hessian":[1.8648455E0],"tree_param":{"num_deleted":"0","num_feature":"777","num_nodes":"1","size_leaf_vector":"1"}},{"base_weights":[-1.3550762E-2],"categories":[],"categories_nodes":[],"categories_segments":[],"categories_sizes":[],"default_left":[0],"id":174,"left_children":[-1],"loss_changes":[0E0],"parents":[2147483647],"right_children":[-1],"split_conditions":[-1.084061E-3],"split_indices":[0],"split_type":[0],"sum_hessian":[1.746761E0],"tree_param":{"num_deleted":"0","num_feature":"777","num_nodes":"1","size_leaf_vector":"1"}},{"base_weights":[-0E0],"categories":[],"categories_nodes":[],"categories_segments":[],"categories_sizes":[],"default_left":[0],"id":175,"left_children":[-1],"loss_changes":[0E0],"parents":[2147483647],"right_children":[-1],"split_conditions":[-0E0],"split_indices":[0],"split_type":[0],"sum_hessian":[1.5952008E0],"tree_param":{"num_deleted":"0","num_feature":"777","num_nodes":"1","size_leaf_vector":"1"}},{"base_weights":[-0E0],"categories":[],"categories_nodes":[],"categories_segments":[],"categories_sizes":[],"default_left":[0],"id":176,"left_children":[-1],"loss_changes":[0E0],"parents":[2147483647],"right_children":[-1],"split_conditions":[-0E0],"split_indices":[0],"split_type":[0],"sum_hessian":[1.7069213E0],"tree_param":{"num_deleted":"0","num_feature":"777","num_nodes":"1","size_leaf_vector":"1"}},{"base_weights":[-0E0],"categories":[],"categories_nodes":[],"categories_segments":[],"categories_sizes":[],"default_left":[0],"id":177,"left_children":[-1],"loss_changes":[0E0],"parents":[2147483647],"right_children":[-1],"split_conditions":[-0E0],"split_indices":[0],"split_type":[0],"sum_hessian":[1.8107291E0],"tree_param":{"num_deleted":"0","num_feature":"777","num_nodes":"1","size_leaf_vector":"1"}},{"base_weights":[-0E0],"categories":[],"categories_nodes":[],"categories_segments":[],"categories_sizes":[],"default_left":[0],"id":178,"left_children":[-1],"loss_changes":[0E0],"parents":[2147483647],"right_children":[-1],"split_conditions":[-0E0],"split_indices":[0],"split_type":[0],"sum_hessian":[1.9355606E0],"tree_param":{"num_deleted":"0","num_feature":"777","num_nodes":"1","size_leaf_vector":"1"}},{"base_weights":[-0E0],"categories":[],"categories_nodes":[],"categories_segments":[],"categories_sizes":[],"default_left":[0],"id":179,"left_children":[-1],"loss_changes":[0E0],"parents":[2147483647],"right_children":[-1],"split_conditions":[-0E0],"split_indices":[0],"split_type":[0],"sum_hessian":[1.8793249E0],"tree_param":{"num_deleted":"0","num_feature":"777","num_nodes":"1","size_leaf_vector":"1"}},{"base_weights":[-0E0],"categories":[],"categories_nodes":[],"categories_segments":[],"categories_sizes":[],"default_left":[0],"id":180,"left_children":[-1],"loss_changes":[0E0],"parents":[2147483647],"right_children":[-1],"split_conditions":[-0E0],"split_indices":[0],"split_type":[0],"sum_hessian":[1.8984419E0],"tree_param":{"num_deleted":"0","num_feature":"777","num_nodes":"1","size_leaf_vector":"1"}},{"base_weights":[2.5194592E-4,2.4991954E-2,-1.6066562E-2],"categories":[],"categories_nodes":[],"categories_segments":[],"categories_sizes":[],"default_left":[0,0,0],"id":181,"left_children":[1,-1,-1],"loss_changes":[1.4939739E-1,0E0,0E0],"parents":[2147483647,0,0],"right_children":[2,-1,-1],"split_conditions":[-2.2945653E-1,2.4991954E-2,-1.6066562E-2],"split_indices":[387,0,0],"split_type":[0,0,0],"sum_hessian":[2.0468893E0,1.0227699E0,1.0241194E0],"tree_param":{"num_deleted":"0","num_feature":"777","num_nodes":"3","size_leaf_vector":"1"}},{"base_weights":[-0E0],"categories":[],"categories_nodes":[],"categories_segments":[],"categories_sizes":[],"default_left":[0],"id":182,"left_children":[-1],"loss_changes":[0E0],"parents":[2147483647],"right_children":[-1],"split_conditions":[-0E0],"split_indices":[0],"split_type":[0],"sum_hessian":[1.7371467E0],"tree_param":{"num_deleted":"0","num_feature":"777","num_nodes":"1","size_leaf_vector":"1"}},{"base_weights":[-0E0],"categories":[],"categories_nodes":[],"categories_segments":[],"categories_sizes":[],"default_left":[0],"id":183,"left_children":[-1],"loss_changes":[0E0],"parents":[2147483647],"right_children":[-1],"split_conditions":[-0E0],"split_indices":[0],