{"learner":{"attributes":{"best_iteration":"368","best_score":"0.02271057857522884","scikit_learn":"{\"_estimator_type\": \"classifier\"}"},"feature_names":[],"feature_types":[],"gradient_booster":{"model":{"cats":{"enc":[],"feature_segments":[],"sorted_idx":[]},"gbtree_model_param":{"num_parallel_tree":"1","num_trees":"569"},"iteration_indptr":[0,1,2,3,4,5,6,7,8,9,10,11,12,13,14,15,16,17,18,19,20,21,22,23,24,25,26,27,28,29,30,31,32,33,34,35,36,37,38,39,40,41,42,43,44,45,46,47,48,49,50,51,52,53,54,55,56,57,58,59,60,61,62,63,64,65,66,67,68,69,70,71,72,73,74,75,76,77,78,79,80,81,82,83,84,85,86,87,88,89,90,91,92,93,94,95,96,97,98,99,100,101,102,103,104,105,106,107,108,109,110,111,112,113,114,115,116,117,118,119,120,121,122,123,124,125,126,127,128,129,130,131,132,133,134,135,136,137,138,139,140,141,142,143,144,145,146,147,148,149,150,151,152,153,154,155,156,157,158,159,160,161,162,163,164,165,166,167,168,169,170,171,172,173,174,175,176,177,178,179,180,181,182,183,184,185,186,187,188,189,190,191,192,193,194,195,196,197,198,199,200,201,202,203,204,205,206,207,208,209,210,211,212,213,214,215,216,217,218,219,220,221,222,223,224,225,226,227,228,229,230,231,232,233,234,235,236,237,238,239,240,241,242,243,244,245,246,247,248,249,250,251,252,253,254,255,256,257,258,259,260,261,262,263,264,265,266,267,268,269,270,271,272,273,274,275,276,277,278,279,280,281,282,283,284,285,286,287,288,289,290,291,292,293,294,295,296,297,298,299,300,301,302,303,304,305,306,307,308,309,310,311,312,313,314,315,316,317,318,319,320,321,322,323,324,325,326,327,328,329,330,331,332,333,334,335,336,337,338,339,340,341,342,343,344,345,346,347,348,349,350,351,352,353,354,355,356,357,358,359,360,361,362,363,364,365,366,367,368,369,370,371,372,373,374,375,376,377,378,379,380,381,382,383,384,385,386,387,388,389,390,391,392,393,394,395,396,397,398,399,400,401,402,403,404,405,406,407,408,409,410,411,412,413,414,415,416,417,418,419,420,421,422,423,424,425,426,427,428,429,430,431,432,433,434,435,436,437,438,439,440,441,442,443,444,445,446,447,448,449,450,451,452,453,454,455,456,457,458,459,460,461,462,463,464,465,466,467,468,469,470,471,472,473,474,475,476,477,478,479,480,481,482,483,484,485,486,487,488,489,490,491,492,493,494,495,496,497,498,499,500,501,502,503,504,505,506,507,508,509,510,511,512,513,514,515,516,517,518,519,520,521,522,523,524,525,526,527,528,529,530,531,532,533,534,535,536,537,538,539,540,541,542,543,544,545,546,547,548,549,550,551,552,553,554,555,556,557,558,559,560,561,562,563,564,565,566,567,568,569],"tree_info":[0,0,0,0,0,0,0,0,0,0,0,0,0,0,0,0,0,0,0,0,0,0,0,0,0,0,0,0,0,0,0,0,0,0,0,0,0,0,0,0,0,0,0,0,0,0,0,0,0,0,0,0,0,0,0,0,0,0,0,0,0,0,0,0,0,0,0,0,0,0,0,0,0,0,0,0,0,0,0,0,0,0,0,0,0,0,0,0,0,0,0,0,0,0,0,0,0,0,0,0,0,0,0,0,0,0,0,0,0,0,0,0,0,0,0,0,0,0,0,0,0,0,0,0,0,0,0,0,0,0,0,0,0,0,0,0,0,0,0,0,0,0,0,0,0,0,0,0,0,0,0,0,0,0,0,0,0,0,0,0,0,0,0,0,0,0,0,0,0,0,0,0,0,0,0,0,0,0,0,0,0,0,0,0,0,0,0,0,0,0,0,0,0,0,0,0,0,0,0,0,0,0,0,0,0,0,0,0,0,0,0,0,0,0,0,0,0,0,0,0,0,0,0,0,0,0,0,0,0,0,0,0,0,0,0,0,0,0,0,0,0,0,0,0,0,0,0,0,0,0,0,0,0,0,0,0,0,0,0,0,0,0,0,0,0,0,0,0,0,0,0,0,0,0,0,0,0,0,0,0,0,0,0,0,0,0,0,0,0,0,0,0,0,0,0,0,0,0,0,0,0,0,0,0,0,0,0,0,0,0,0,0,0,0,0,0,0,0,0,0,0,0,0,0,0,0,0,0,0,0,0,0,0,0,0,0,0,0,0,0,0,0,0,0,0,0,0,0,0,0,0,0,0,0,0,0,0,0,0,0,0,0,0,0,0,0,0,0,0,0,0,0,0,0,0,0,0,0,0,0,0,0,0,0,0,0,0,0,0,0,0,0,0,0,0,0,0,0,0,0,0,0,0,0,0,0,0,0,0,0,0,0,0,0,0,0,0,0,0,0,0,0,0,0,0,0,0,0,0,0,0,0,0,0,0,0,0,0,0,0,0,0,0,0,0,0,0,0,0,0,0,0,0,0,0,0,0,0,0,0,0,0,0,0,0,0,0,0,0,0,0,0,0,0,0,0,0,0,0,0,0,0,0,0,0,0,0,0,0,0,0,0,0,0,0,0,0,0,0,0,0,0,0,0,0,0,0,0,0,0,0,0,0,0,0,0,0,0,0,0,0,0,0,0,0,0,0,0,0,0,0,0,0,0,0,0,0,0,0,0,0,0,0,0,0,0,0,0,0,0,0,0,0,0,0,0,0,0,0,0,0,0,0,0,0,0,0,0,0],"trees":[{"base_weights":[-4.5532208E-2,-1.6578028E-1,1.8569608E0,9.4879866E-1,1.5377179E-1,2.8386734E-2,1.398045E-1],"categories":[],"categories_nodes":[],"categories_segments":[],"categories_sizes":[],"default_left":[0,0,0,0,0,0,0],"id":0,"left_children":[1,-1,3,5,-1,-1,-1],"loss_changes":[3.4221085E2,0E0,2.254181E0,1.2787135E0,0E0,0E0,0E0],"parents":[2147483647,0,0,2,2,3,3],"right_children":[2,-1,4,6,-1,-1,-1],"split_conditions":[7.321667E-1,-1.6578028E-1,-1.072798E0,-7.177832E-2,1.5377179E-1,2.8386734E-2,1.398045E-1],"split_indices":[776,0,673,0,0,0,0],"split_type":[0,0,0,0,0,0,0],"sum_hessian":[8.862512E1,4.29395E1,4.5685627E1,3.2454271E0,4.24402E1,1.997186E0,1.2482412E0],"tree_param":{"num_deleted":"0","num_feature":"777","num_nodes":"7","size_leaf_vector":"1"}},{"base_weights":[-8.791584E-2,-1.5361323E0,1.535526E0,-1.804446E0,8.263414E-1,-1.5247616E-1,1.7709355E0,-1.5262437E-1,1.2955587E-1,1.3879372E-1,-1.3869463E-1,1.434726E-1,8.3867565E-2],"categories":[],"categories_nodes":[],"categories_segments":[],"categories_sizes":[],"default_left":[0,0,0,0,0,0,0,0,0,0,0,0,0],"id":1,"left_children":[1,3,5,7,9,-1,11,-1,-1,-1,-1,-1,-1],"loss_changes":[2.1849318E2,3.1364876E1,3.565341E1,1.58638E1,1.1830948E1,0E0,2.1258545E-1,0E0,0E0,0E0,0E0,0E0,0E0],"parents":[2147483647,0,0,1,1,2,2,3,3,4,4,6,6],"right_children":[2,4,6,8,10,-1,12,-1,-1,-1,-1,-1,-1],"split_conditions":[7.848692E-1,1.6628714E0,1E0,2.8124628E0,-6.7132735E-1,-1.5247616E-1,3.0753353E-1,-1.5262437E-1,1.2955587E-1,1.3879372E-1,-1.3869463E-1,1.434726E-1,8.3867565E-2],"split_indices":[775,374,774,74,311,0,9,0,0,0,0,0,0],"split_type":[0,0,0,0,0,0,0,0,0,0,0,0,0],"sum_hessian":[9.281227E1,4.909419E1,4.3718086E1,4.414542E1,4.9487677E0,2.7391152E0,4.0978973E1,4.291164E1,1.2337787E0,3.7013361E0,1.2474314E0,3.949571E1,1.483265E0],"tree_param":{"num_deleted":"0","num_feature":"777","num_nodes":"13","size_leaf_vector":"1"}},{"base_weights":[7.2091976E-3,-1.4243469E-1,1.6052953E0,-1.50249E-1,1.3596234E-1],"categories":[],"categories_nodes":[],"categories_segments":[],"categories_sizes":[],"default_left":[0,0,0,0,0],"id":2,"left_children":[1,-1,3,-1,-1],"loss_changes":[2.689615E2,0E0,1.6500275E1,0E0,0E0],"parents":[2147483647,0,0,2,2],"right_children":[2,-1,4,-1,-1],"split_conditions":[7.321667E-1,-1.4243469E-1,-7.2579116E-1,-1.50249E-1,1.3596234E-1],"split_indices":[776,0,269,0,0],"split_type":[0,0,0,0,0],"sum_hessian":[9.403493E1,4.4346424E1,4.9688503E1,1.2453196E0,4.8443184E1],"tree_param":{"num_deleted":"0","num_feature":"777","num_nodes":"5","size_leaf_vector":"1"}},{"base_weights":[1.05580956E-1,-1.3419381E-1,1.5780876E0,1.2923847E-1,3.475537E-2],"categories":[],"categories_nodes":[],"categories_segments":[],"categories_sizes":[],"default_left":[0,0,0,0,0],"id":3,"left_children":[1,-1,3,-1,-1],"loss_changes":[2.3420424E2,0E0,1.8027954E0,0E0,0E0],"parents":[2147483647,0,0,2,2],"right_children":[2,-1,4,-1,-1],"split_conditions":[7.3861045E-1,-1.3419381E-1,1.3853853E0,1.2923847E-1,3.475537E-2],"split_indices":[776,0,38,0,0],"split_type":[0,0,0,0,0],"sum_hessian":[8.9088234E1,4.025505E1,4.8833187E1,4.7161488E1,1.6717004E0],"tree_param":{"num_deleted":"0","num_feature":"777","num_nodes":"5","size_leaf_vector":"1"}},{"base_weights":[-3.1484634E-2,-1.2724271E-1,1.4436799E0,-1.3845862E-1,1.2336203E-1],"categories":[],"categories_nodes":[],"categories_segments":[],"categories_sizes":[],"default_left":[0,0,0,0,0],"id":4,"left_children":[1,-1,3,-1,-1],"loss_changes":[1.9487656E2,0E0,1.3716339E1,0E0,0E0],"parents":[2147483647,0,0,2,2],"right_children":[2,-1,4,-1,-1],"split_conditions":[7.321667E-1,-1.2724271E-1,-7.2579116E-1,-1.3845862E-1,1.2336203E-1],"split_indices":[776,0,269,0,0],"split_type":[0,0,0,0,0],"sum_hessian":[8.4606735E1,4.1171104E1,4.343563E1,1.2386352E0,4.2196995E1],"tree_param":{"num_deleted":"0","num_feature":"777","num_nodes":"5","size_leaf_vector":"1"}},{"base_weights":[4.1340407E-2,-1.2146332E-1,1.4655534E0,6.300085E-2,1.1863921E-1],"categories":[],"categories_nodes":[],"categories_segments":[],"categories_sizes":[],"default_left":[0,0,0,0,0],"id":5,"left_children":[1,-1,3,-1,-1],"loss_changes":[1.8310768E2,0E0,1.6738892E-1,0E0,0E0],"parents":[2147483647,0,0,2,2],"right_children":[2,-1,4,-1,-1],"split_conditions":[7.321667E-1,-1.2146332E-1,-1.5294414E0,6.300085E-2,1.1863921E-1],"split_indices":[776,0,333,0,0],"split_type":[0,0,0,0,0],"sum_hessian":[8.2317345E1,3.9248615E1,4.3068726E1,1.3217869E0,4.174694E1],"tree_param":{"num_deleted":"0","num_feature":"777","num_nodes":"5","size_leaf_vector":"1"}},{"base_weights":[-3.9966255E-2,-1.1675028E-1,1.3226695E0,-1.3482022E-1,1.13723285E-1],"categories":[],"categories_nodes":[],"categories_segments":[],"categories_sizes":[],"default_left":[0,0,0,0,0],"id":6,"left_children":[1,-1,3,-1,-1],"loss_changes":[1.557303E2,0E0,1.2315323E1,0E0,0E0],"parents":[2147483647,0,0,2,2],"right_children":[2,-1,4,-1,-1],"split_conditions":[7.321667E-1,-1.1675028E-1,-7.2579116E-1,-1.3482022E-1,1.13723285E-1],"split_indices":[776,0,269,0,0],"split_type":[0,0,0,0,0],"sum_hessian":[8.038813E1,3.9414825E1,4.09733E1,1.2346858E0,3.9738617E1],"tree_param":{"num_deleted":"0","num_feature":"777","num_nodes":"5","size_leaf_vector":"1"}},{"base_weights":[2.3532877E-2,-1.1750844E0,1.2056307E0,1.0323979E0,-1.12632714E-1,1.3066854E0,-1.13794476E-1,3.567686E-2,1.0757883E-1,1.704835E-2,1.352838E0,4.9116816E-2,1.1000273E-1],"categories":[],"categories_nodes":[],"categories_segments":[],"categories_sizes":[],"default_left":[0,0,0,0,0,0,0,0,0,0,0,0,0],"id":7,"left_children":[1,3,5,7,-1,9,-1,-1,-1,-1,11,-1,-1],"loss_changes":[1.0717197E2,1.9408768E1,1.02242775E1,4.019065E-1,0E0,1.6518326E0,0E0,0E0,0E0,0E0,2.877426E-1,0E0,0E0],"parents":[2147483647,0,0,1,1,2,2,3,3,5,5,10,10],"right_children":[2,4,6,8,-1,10,-1,-1,-1,-1,12,-1,-1],"split_conditions":[7.8350186E-1,-1.998808E0,3.2976666E-1,-1.2832336E-1,-1.12632714E-1,-9.877264E-1,-1.13794476E-1,3.567686E-2,1.0757883E-1,1.704835E-2,-9.875094E-1,4.9116816E-2,1.1000273E-1],"split_indices":[775,109,738,607,0,667,0,0,0,0,14,0,0],"split_type":[0,0,0,0,0,0,0,0,0,0,0,0,0],"sum_hessian":[7.5516685E1,3.7446114E1,3.807057E1,3.5038218E0,3.3942295E1,3.67339E1,1.3366706E0,1.4017673E0,2.1020546E0,1.6064457E0,3.5127453E1,1.2322851E0,3.389517E1],"tree_param":{"num_deleted":"0","num_feature":"777","num_nodes":"13","size_leaf_vector":"1"}},{"base_weights":[-3.477294E-2,-1.0972913E-1,1.2914872E0,1.0847332E-2,1.07198834E-1],"categories":[],"categories_nodes":[],"categories_segments":[],"categories_sizes":[],"default_left":[0,0,0,0,0],"id":8,"left_children":[1,-1,3,-1,-1],"loss_changes":[1.16456345E2,0E0,1.6577797E0,0E0,0E0],"parents":[2147483647,0,0,2,2],"right_children":[2,-1,4,-1,-1],"split_conditions":[7.568771E-1,-1.0972913E-1,-1.4348952E0,1.0847332E-2,1.07198834E-1],"split_indices":[776,0,89,0,0],"split_type":[0,0,0,0,0],"sum_hessian":[6.555788E1,3.2692738E1,3.2865135E1,1.4322096E0,3.1432926E1],"tree_param":{"num_deleted":"0","num_feature":"777","num_nodes":"5","size_leaf_vector":"1"}},{"base_weights":[5.1188704E-2,-1.0620499E-1,1.2316709E0,-1.2213719E-1,1.05757646E-1],"categories":[],"categories_nodes":[],"categories_segments":[],"categories_sizes":[],"default_left":[0,0,0,0,0],"id":9,"left_children":[1,-1,3,-1,-1],"loss_changes":[1.2003643E2,0E0,1.0005394E1,0E0,0E0],"parents":[2147483647,0,0,2,2],"right_children":[2,-1,4,-1,-1],"split_conditions":[7.321667E-1,-1.0620499E-1,-7.2579116E-1,-1.2213719E-1,1.05757646E-1],"split_indices":[776,0,269,0,0],"split_type":[0,0,0,0,0],"sum_hessian":[7.3637764E1,3.3916115E1,3.972165E1,1.1867459E0,3.8534904E1],"tree_param":{"num_deleted":"0","num_feature":"777","num_nodes":"5","size_leaf_vector":"1"}},{"base_weights":[4.2028796E-2,-1.03470676E-1,1.2037231E0,1.2622484E0,-0E0,3.6039785E-2,1.0280233E-1],"categories":[],"categories_nodes":[],"categories_segments":[],"categories_sizes":[],"default_left":[0,0,0,0,0,0,0],"id":10,"left_children":[1,-1,3,5,-1,-1,-1],"loss_changes":[1.00286354E2,0E0,2.4719086E0,3.67939E-1,0E0,0E0,0E0],"parents":[2147483647,0,0,2,2,3,3],"right_children":[2,-1,4,6,-1,-1,-1],"split_conditions":[7.271034E-1,-1.03470676E-1,1.1685929E0,-1.946352E0,-0E0,3.6039785E-2,1.0280233E-1],"split_indices":[776,0,539,323,0,0,0],"split_type":[0,0,0,0,0,0,0],"sum_hessian":[6.453168E1,2.996996E1,3.4561718E1,3.2977085E1,1.5846361E0,1.0780194E0,3.1899065E1],"tree_param":{"num_deleted":"0","num_feature":"777","num_nodes":"7","size_leaf_vector":"1"}},{"base_weights":[-7.714857E-3,-1.01089895E-1,1.155097E0,-1.168349E-1,1.0077543E-1],"categories":[],"categories_nodes":[],"categories_segments":[],"categories_sizes":[],"default_left":[0,0,0,0,0],"id":11,"left_children":[1,-1,3,-1,-1],"loss_changes":[9.103253E1,0E0,8.926273E0,0E0,0E0],"parents":[2147483647,0,0,2,2],"right_children":[2,-1,4,-1,-1],"split_conditions":[7.321667E-1,-1.01089895E-1,-7.2579116E-1,-1.168349E-1,1.0077543E-1],"split_indices":[776,0,269,0,0],"split_type":[0,0,0,0,0],"sum_hessian":[6.2205696E1,2.9952806E1,3.225289E1,1.1661847E0,3.1086706E1],"tree_param":{"num_deleted":"0","num_feature":"777","num_nodes":"5","size_leaf_vector":"1"}},{"base_weights":[-4.5958325E-2,-9.8998986E-2,1.1230417E0,-1.1119009E-1,9.9048644E-2],"categories":[],"categories_nodes":[],"categories_segments":[],"categories_sizes":[],"default_left":[0,0,0,0,0],"id":12,"left_children":[1,-1,3,-1,-1],"loss_changes":[7.635795E1,0E0,8.070488E0,0E0,0E0],"parents":[2147483647,0,0,2,2],"right_children":[2,-1,4,-1,-1],"split_conditions":[7.321667E-1,-9.8998986E-2,-7.2579116E-1,-1.1119009E-1,9.9048644E-2],"split_indices":[776,0,269,0,0],"split_type":[0,0,0,0,0],"sum_hessian":[5.4689777E1,2.7133003E1,2.7556774E1,1.1318064E0,2.6424969E1],"tree_param":{"num_deleted":"0","num_feature":"777","num_nodes":"5","size_leaf_vector":"1"}},{"base_weights":[5.6298647E-2,-9.711178E-2,1.1213709E0,-1.0626552E-1,9.7208E-2],"categories":[],"categories_nodes":[],"categories_segments":[],"categories_sizes":[],"default_left":[0,0,0,0,0],"id":13,"left_children":[1,-1,3,-1,-1],"loss_changes":[7.899193E1,0E0,7.3877983E0,0E0,0E0],"parents":[2147483647,0,0,2,2],"right_children":[2,-1,4,-1,-1],"split_conditions":[7.321667E-1,-9.711178E-2,-7.2579116E-1,-1.0626552E-1,9.7208E-2],"split_indices":[776,0,269,0,0],"split_type":[0,0,0,0,0],"sum_hessian":[5.827709E1,2.6523884E1,3.1753204E1,1.093852E0,3.0659353E1],"tree_param":{"num_deleted":"0","num_feature":"777","num_nodes":"5","size_leaf_vector":"1"}},{"base_weights":[-1.6002763E-2,-9.541881E-2,1.1274824E0,9.528838E-2,-0E0],"categories":[],"categories_nodes":[],"categories_segments":[],"categories_sizes":[],"default_left":[0,0,0,0,0],"id":14,"left_children":[1,-1,3,-1,-1],"loss_changes":[6.6836815E1,0E0,1.9289055E0,0E0,0E0],"parents":[2147483647,0,0,2,2],"right_children":[2,-1,4,-1,-1],"split_conditions":[7.321667E-1,-9.541881E-2,6.4309734E-1,9.528838E-2,-0E0],"split_indices":[776,0,93,0,0],"split_type":[0,0,0,0,0],"sum_hessian":[4.954574E1,2.4468334E1,2.5077402E1,2.3823309E1,1.2540941E0],"tree_param":{"num_deleted":"0","num_feature":"777","num_nodes":"5","size_leaf_vector":"1"}},{"base_weights":[1.7733606E-2,-9.397004E-2,1.0851449E0,4.3516252E-2,9.420481E-2,-0E0,9.138798E-3],"categories":[],"categories_nodes":[],"categories_segments":[],"categories_sizes":[],"default_left":[0,0,0,0,0,0,0],"id":15,"left_children":[1,-1,3,5,-1,-1,-1],"loss_changes":[6.152028E1,0E0,2.3110428E0,1.1155184E-2,0E0,0E0,0E0],"parents":[2147483647,0,0,2,2,3,3],"right_children":[2,-1,4,6,-1,-1,-1],"split_conditions":[7.271034E-1,-9.397004E-2,-5.086988E-1,-7.010772E-1,9.420481E-2,-0E0,9.138798E-3],"split_indices":[776,0,269,8,0,0,0],"split_type":[0,0,0,0,0,0,0],"sum_hessian":[4.8225323E1,2.2723469E1,2.5501856E1,2.1912007E0,2.3310654E1,1.0696958E0,1.1215049E0],"tree_param":{"num_deleted":"0","num_feature":"777","num_nodes":"7","size_leaf_vector":"1"}},{"base_weights":[-8.184123E-2,-9.264044E-2,1.0730877E0,-1.2332608E-2,9.272338E-2],"categories":[],"categories_nodes":[],"categories_segments":[],"categories_sizes":[],"default_left":[0,0,0,0,0],"id":16,"left_children":[1,-1,3,-1,-1],"loss_changes":[5.171938E1,0E0,2.2427387E0,0E0,0E0],"parents":[2147483647,0,0,2,2],"right_children":[2,-1,4,-1,-1],"split_conditions":[7.321667E-1,-9.264044E-2,-9.108836E-1,-1.2332608E-2,9.272338E-2],"split_indices":[776,0,187,0,0],"split_type":[0,0,0,0,0],"sum_hessian":[4.1483902E1,2.152791E1,1.9955992E1,1.2117087E0,1.8744282E1],"tree_param":{"num_deleted":"0","num_feature":"777","num_nodes":"5","size_leaf_vector":"1"}},{"base_weights":[5.5758316E-2,-9.1330335E-2,1.0917784E0,-0E0,9.170741E-2],"categories":[],"categories_nodes":[],"categories_segments":[],"categories_sizes":[],"default_left":[0,0,0,0,0],"id":17,"left_children":[1,-1,3,-1,-1],"loss_changes":[5.1269104E1,0E0,1.3418522E0,0E0,0E0],"parents":[2147483647,0,0,2,2],"right_children":[2,-1,4,-1,-1],"split_conditions":[7.271034E-1,-9.1330335E-2,-8.1342405E-1,-0E0,9.170741E-2],"split_indices":[776,0,182,0,0],"split_type":[0,0,0,0,0],"sum_hessian":[4.1213337E1,1.9061235E1,2.2152102E1,1.043086E0,2.1109016E1],"tree_param":{"num_deleted":"0","num_feature":"777","num_nodes":"5","size_leaf_vector":"1"}},{"base_weights":[2.6093189E-2,-9.0298444E-2,1.0455387E0,9.054198E-2,3.5204815E-3],"categories":[],"categories_nodes":[],"categories_segments":[],"categories_sizes":[],"default_left":[0,0,0,0,0],"id":18,"left_children":[1,-1,3,-1,-1],"loss_changes":[4.6420933E1,0E0,1.6698074E0,0E0,0E0],"parents":[2147483647,0,0,2,2],"right_children":[2,-1,4,-1,-1],"split_conditions":[7.321667E-1,-9.0298444E-2,9.971563E-1,9.054198E-2,3.5204815E-3],"split_indices":[776,0,400,0,0],"split_type":[0,0,0,0,0],"sum_hessian":[3.9319004E1,1.837722E1,2.0941784E1,1.9164059E1,1.7777251E0],"tree_param":{"num_deleted":"0","num_feature":"777","num_nodes":"5","size_leaf_vector":"1"}},{"base_weights":[5.3867497E-2,-8.9255825E-2,1.011905E0,8.9693114E-2,-6.969192E-3],"categories":[],"categories_nodes":[],"categories_segments":[],"categories_sizes":[],"default_left":[0,0,0,0,0],"id":19,"left_children":[1,-1,3,-1,-1],"loss_changes":[4.2401764E1,0E0,2.6351318E0,0E0,0E0],"parents":[2147483647,0,0,2,2],"right_children":[2,-1,4,-1,-1],"split_conditions":[7.321667E-1,-8.9255825E-2,5.9687436E-1,8.9693114E-2,-6.969192E-3],"split_indices":[776,0,130,0,0],"split_type":[0,0,0,0,0],"sum_hessian":[3.773291E1,1.692989E1,2.080302E1,1.9020115E1,1.782904E0],"tree_param":{"num_deleted":"0","num_feature":"777","num_nodes":"5","size_leaf_vector":"1"}},{"base_weights":[-5.681493E-3,-8.881877E-2,1.0654032E0,8.817916E-2,3.2057215E-2],"categories":[],"categories_nodes":[],"categories_segments":[],"categories_sizes":[],"default_left":[0,0,0,0,0],"id":20,"left_children":[1,-1,3,-1,-1],"loss_changes":[3.8903297E1,0E0,2.005043E-1,0E0,0E0],"parents":[2147483647,0,0,2,2],"right_children":[2,-1,4,-1,-1],"split_conditions":[7.568771E-1,-8.881877E-2,1.4581665E0,8.817916E-2,3.2057215E-2],"split_indices":[776,0,656,0,0],"split_type":[0,0,0,0,0],"sum_hessian":[3.2758804E1,1.6181509E1,1.6577295E1,1.549836E1,1.0789353E0],"tree_param":{"num_deleted":"0","num_feature":"777","num_nodes":"5","size_leaf_vector":"1"}},{"base_weights":[-2.6586028E-2,-8.809388E-2,9.8013395E-1,-3.649623E-2,8.764696E-2],"categories":[],"categories_nodes":[],"categories_segments":[],"categories_sizes":[],"default_left":[0,0,0,0,0],"id":21,"left_children":[1,-1,3,-1,-1],"loss_changes":[3.5225414E1,0E0,2.884016E0,0E0,0E0],"parents":[2147483647,0,0,2,2],"right_children":[2,-1,4,-1,-1],"split_conditions":[7.3861045E-1,-8.809388E-2,-9.82036E-1,-3.649623E-2,8.764696E-2],"split_indices":[776,0,89,0,0],"split_type":[0,0,0,0,0],"sum_hessian":[3.242831E1,1.57403755E1,1.6687935E1,1.1510757E0,1.5536859E1],"tree_param":{"num_deleted":"0","num_feature":"777","num_nodes":"5","size_leaf_vector":"1"}},{"base_weights":[-2.8637148E-2,-8.67924E-2,9.526335E-1,1.0618079E0,-3.7643448E-2,8.7391526E-2,3.898673E-2],"categories":[],"categories_nodes":[],"categories_segments":[],"categories_sizes":[],"default_left":[0,0,0,0,0,0,0],"id":22,"left_children":[1,-1,3,5,-1,-1,-1],"loss_changes":[3.227016E1,0E0,2.5984497E0,4.250717E-2,0E0,0E0,0E0],"parents":[2147483647,0,0,2,2,3,3],"right_children":[2,-1,4,6,-1,-1,-1],"split_conditions":[7.321667E-1,-8.67924E-2,1.0356147E0,9.483425E-1,-3.7643448E-2,8.7391526E-2,3.898673E-2],"split_indices":[776,0,593,699,0,0,0],"split_type":[0,0,0,0,0,0,0],"sum_hessian":[3.09991E1,1.4984889E1,1.601421E1,1.4965717E1,1.048493E0,1.3959504E1,1.006213E0],"tree_param":{"num_deleted":"0","num_feature":"777","num_nodes":"7","size_leaf_vector":"1"}},{"base_weights":[3.771678E-2,-8.604773E-2,9.448658E-1,-4.2873193E-2,1.0504882E0,8.707252E-2,2.8471867E-2],"categories":[],"categories_nodes":[],"categories_segments":[],"categories_sizes":[],"default_left":[0,0,0,0,0,0,0],"id":23,"left_children":[1,-1,3,-1,5,-1,-1],"loss_changes":[3.032096E1,0E0,2.693326E0,0E0,2.1430016E-1,0E0,0E0],"parents":[2147483647,0,0,2,2,4,4],"right_children":[2,-1,4,-1,6,-1,-1],"split_conditions":[7.321667E-1,-8.604773E-2,-1.3152357E0,-4.2873193E-2,6.8484354E-1,8.707252E-2,2.8471867E-2],"split_indices":[776,0,751,0,347,0,0],"split_type":[0,0,0,0,0,0,0],"sum_hessian":[2.9917652E1,1.336806E1,1.6549593E1,1.0099511E0,1.5539642E1,1.4539153E1,1.000489E0],"tree_param":{"num_deleted":"0","num_feature":"777","num_nodes":"7","size_leaf_vector":"1"}},{"base_weights":[8.871694E-2,-8.536609E-2,1.0138534E0,6.6699093E-4,8.6529866E-2],"categories":[],"categories_nodes":[],"categories_segments":[],"categories_sizes":[],"default_left":[0,0,0,0,0],"id":24,"left_children":[1,-1,3,-1,-1],"loss_changes":[3.0139252E1,0E0,9.394474E-1,0E0,0E0],"parents":[2147483647,0,0,2,2],"right_children":[2,-1,4,-1,-1],"split_conditions":[7.321667E-1,-8.536609E-2,-1.5725594E0,6.6699093E-4,8.6529866E-2],"split_indices":[776,0,266,0,0],"split_type":[0,0,0,0,0],"sum_hessian":[2.8072119E1,1.2418501E1,1.5653618E1,1.104468E0,1.454915E1],"tree_param":{"num_deleted":"0","num_feature":"777","num_nodes":"5","size_leaf_vector":"1"}},{"base_weights":[3.120372E-2,-8.471316E-2,9.4192374E-1,-1.3954009E-2,8.568975E-2],"categories":[],"categories_nodes":[],"categories_segments":[],"categories_sizes":[],"default_left":[0,0,0,0,0],"id":25,"left_children":[1,-1,3,-1,-1],"loss_changes":[2.4979872E1,0E0,2.1056147E0,0E0,0E0],"parents":[2147483647,0,0,2,2],"right_children":[2,-1,4,-1,-1],"split_conditions":[7.321667E-1,-8.471316E-2,-1.584477E0,-1.3954009E-2,8.568975E-2],"split_indices":[776,0,48,0,0],"split_type":[0,0,0,0,0],"sum_hessian":[2.5055084E1,1.1339885E1,1.3715199E1,1.3241299E0,1.2391069E1],"tree_param":{"num_deleted":"0","num_feature":"777","num_nodes":"5","size_leaf_vector":"1"}},{"base_weights":[3.1908114E-2,-8.407583E-2,9.2749816E-1,8.506971E-2,-1.0440198E-2],"categories":[],"categories_nodes":[],"categories_segments":[],"categories_sizes":[],"default_left":[0,0,0,0,0],"id":26,"left_children":[1,-1,3,-1,-1],"loss_changes":[2.1703419E1,0E0,1.8908482E0,0E0,0E0],"parents":[2147483647,0,0,2,2],"right_children":[2,-1,4,-1,-1],"split_conditions":[7.321667E-1,-8.407583E-2,6.813516E-1,8.506971E-2,-1.0440198E-2],"split_indices":[776,0,387,0,0],"split_type":[0,0,0,0,0],"sum_hessian":[2.2274357E1,1.0017645E1,1.2256712E1,1.0962033E1,1.294678E0],"tree_param":{"num_deleted":"0","num_feature":"777","num_nodes":"5","size_leaf_vector":"1"}},{"base_weights":[-7.573335E-2,-9.708424E-1,8.385816E-2,8.602174E-3,-8.786298E-2],"categories":[],"categories_nodes":[],"categories_segments":[],"categories_sizes":[],"default_left":[0,0,0,0,0],"id":27,"left_children":[1,3,-1,-1,-1],"loss_changes":[2.2529512E1,1.8477154E0,0E0,0E0,0E0],"parents":[2147483647,0,0,1,1],"right_children":[2,4,-1,-1,-1],"split_conditions":[7.668068E-1,-1.642005E0,8.385816E-2,8.602174E-3,-8.786298E-2],"split_indices":[776,225,0,0,0],"split_type":[0,0,0,0,0],"sum_hessian":[2.2282187E1,1.2467863E1,9.814323E0,1.219226E0,1.1248637E1],"tree_param":{"num_deleted":"0","num_feature":"777","num_nodes":"5","size_leaf_vector":"1"}},{"base_weights":[1.9541575E-2,-8.299941E-2,8.527257E-1,-2.8183162E-2,8.395999E-2],"categories":[],"categories_nodes":[],"categories_segments":[],"categories_sizes":[],"default_left":[0,0,0,0,0],"id":28,"left_children":[1,-1,3,-1,-1],"loss_changes":[1.7497025E1,0E0,2.758399E0,0E0,0E0],"parents":[2147483647,0,0,2,2],"right_children":[2,-1,4,-1,-1],"split_conditions":[7.321667E-1,-8.299941E-2,-5.086988E-1,-2.8183162E-2,8.395999E-2],"split_indices":[776,0,269,0,0],"split_type":[0,0,0,0,0],"sum_hessian":[1.977199E1,8.64527E0,1.1126719E1,1.4696366E0,9.6570835E0],"tree_param":{"num_deleted":"0","num_feature":"777","num_nodes":"5","size_leaf_vector":"1"}},{"base_weights":[-0E0,-8.4582746E-2,7.0482486E-1,8.809194E-1,-2.454911E-2,8.0945455E-2,-8.2360115E-3],"categories":[],"categories_nodes":[],"categories_segments":[],"categories_sizes":[],"default_left":[0,0,0,0,0,0,0],"id":29,"left_children":[1,-1,3,5,-1,-1,-1],"loss_changes":[1.4011642E1,0E0,2.078659E0,1.3578119E0,0E0,0E0,0E0],"parents":[2147483647,0,0,2,2,3,3],"right_children":[2,-1,4,6,-1,-1,-1],"split_conditions":[1E0,-8.4582746E-2,-1.002247E-1,3.207009E-1,-2.454911E-2,8.0945455E-2,-8.2360115E-3],"split_indices":[774,0,722,671,0,0,0],"split_type":[0,0,0,0,0,0,0],"sum_hessian":[1.8631634E1,7.501508E0,1.1130125E1,9.587666E0,1.5424601E0,8.568E0,1.0196655E0],"tree_param":{"num_deleted":"0","num_feature":"777","num_nodes":"7","size_leaf_vector":"1"}},{"base_weights":[1.1404576E-2,-8.211006E-2,8.3795315E-1,-2.020595E-2,8.305162E-2],"categories":[],"categories_nodes":[],"categories_segments":[],"categories_sizes":[],"default_left":[0,0,0,0,0],"id":30,"left_children":[1,-1,3,-1,-1],"loss_changes":[1.4952501E1,0E0,2.2455497E0,0E0,0E0],"parents":[2147483647,0,0,2,2],"right_children":[2,-1,4,-1,-1],"split_conditions":[7.321667E-1,-8.211006E-2,-5.086988E-1,-2.020595E-2,8.305162E-2],"split_indices":[776,0,269,0,0],"split_type":[0,0,0,0,0],"sum_hessian":[1.7337912E1,7.61595E0,9.721961E0,1.4124807E0,8.30948E0],"tree_param":{"num_deleted":"0","num_feature":"777","num_nodes":"5","size_leaf_vector":"1"}},{"base_weights":[-7.837454E-2,-9.9559283E-1,8.1994504E-2,-8.6370155E-2,-1.447783E-2],"categories":[],"categories_nodes":[],"categories_segments":[],"categories_sizes":[],"default_left":[0,0,0,0,0],"id":31,"left_children":[1,3,-1,-1,-1],"loss_changes":[1.6956474E1,4.6736145E-1,0E0,0E0,0E0],"parents":[2147483647,0,0,1,1],"right_children":[2,4,-1,-1,-1],"split_conditions":[7.668068E-1,1.2124894E0,8.1994504E-2,-8.6370155E-2,-1.447783E-2],"split_indices":[776,142,0,0,0],"split_type":[0,0,0,0,0],"sum_hessian":[1.6638847E1,9.14822E0,7.490627E0,8.141534E0,1.0066862E0],"tree_param":{"num_deleted":"0","num_feature":"777","num_nodes":"5","size_leaf_vector":"1"}},{"base_weights":[1.6043313E-2,-8.224665E-2,8.404553E-1,-3.0994358E-2,8.2106896E-2],"categories":[],"categories_nodes":[],"categories_segments":[],"categories_sizes":[],"default_left":[0,0,0,0,0],"id":32,"left_children":[1,-1,3,-1,-1],"loss_changes":[1.4016977E1,0E0,2.1952004E0,0E0,0E0],"parents":[2147483647,0,0,2,2],"right_children":[2,-1,4,-1,-1],"split_conditions":[7.3861045E-1,-8.224665E-2,-1.4348952E0,-3.0994358E-2,8.2106896E-2],"split_indices":[776,0,89,0,0],"split_type":[0,0,0,0,0],"sum_hessian":[1.6189775E1,7.072279E0,9.1174965E0,1.1053286E0,8.012168E0],"tree_param":{"num_deleted":"0","num_feature":"777","num_nodes":"5","size_leaf_vector":"1"}},{"base_weights":[4.392475E-2,-8.0828086E-2,8.131321E-1,-2.2385163E-2,8.225308E-2],"categories":[],"categories_nodes":[],"categories_segments":[],"categories_sizes":[],"default_left":[0,0,0,0,0],"id":33,"left_children":[1,-1,3,-1,-1],"loss_changes":[1.219835E1,0E0,2.1699371E0,0E0,0E0],"parents":[2147483647,0,0,2,2],"right_children":[2,-1,4,-1,-1],"split_conditions":[7.321667E-1,-8.0828086E-2,-5.086988E-1,-2.2385163E-2,8.225308E-2],"split_indices":[776,0,269,0,0],"split_type":[0,0,0,0,0],"sum_hessian":[1.4950326E1,6.2328143E0,8.717511E0,1.3384416E0,7.37907E0],"tree_param":{"num_deleted":"0","num_feature":"777","num_nodes":"5","size_leaf_vector":"1"}},{"base_weights":[-0E0,-8.487786E-1,8.0887705E-2,2.5969388E-2,-8.5264005E-2],"categories":[],"categories_nodes":[],"categories_segments":[],"categories_sizes":[],"default_left":[0,0,0,0,0],"id":34,"left_children":[1,3,-1,-1,-1],"loss_changes":[1.2081637E1,2.0476503E0,0E0,0E0,0E0],"parents":[2147483647,0,0,1,1],"right_children":[2,4,-1,-1,-1],"split_conditions":[7.668068E-1,-1.4249303E0,8.0887705E-2,2.5969388E-2,-8.5264005E-2],"split_indices":[776,235,0,0,0],"split_type":[0,0,0,0,0],"sum_hessian":[1.3945206E1,7.5501895E0,6.3950157E0,1.0875131E0,6.4626765E0],"tree_param":{"num_deleted":"0","num_feature":"777","num_nodes":"5","size_leaf_vector":"1"}},{"base_weights":[-8.172897E-3,-8.197786E-2,6.544904E-1,-3.433625E-2,8.9385116E-1,3.267163E-2,7.853663E-2],"categories":[],"categories_nodes":[],"categories_segments":[],"categories_sizes":[],"default_left":[0,0,0,0,0,0,0],"id":35,"left_children":[1,-1,3,-1,5,-1,-1],"loss_changes":[8.282988E0,0E0,1.9808457E0,0E0,6.999636E-2,0E0,0E0],"parents":[2147483647,0,0,2,2,4,4],"right_children":[2,-1,4,-1,6,-1,-1],"split_conditions":[1E0,-8.197786E-2,-1.497972E-1,-3.433625E-2,2.57103E-1,3.267163E-2,7.853663E-2],"split_indices":[774,0,11,0,25,0,0],"split_type":[0,0,0,0,0,0,0],"sum_hessian":[1.2110348E1,4.837597E0,7.272751E0,1.2164433E0,6.0563073E0,1.1893392E0,4.866968E0],"tree_param":{"num_deleted":"0","num_feature":"777","num_nodes":"7","size_leaf_vector":"1"}},{"base_weights":[7.0105836E-2,-7.971205E-2,7.573026E-1,8.157063E-2,-2.7575403E-2],"categories":[],"categories_nodes":[],"categories_segments":[],"categories_sizes":[],"default_left":[0,0,0,0,0],"id":36,"left_children":[1,-1,3,-1,-1],"loss_changes":[9.773866E0,0E0,2.4722772E0,0E0,0E0],"parents":[2147483647,0,0,2,2],"right_children":[2,-1,4,-1,-1],"split_conditions":[7.321667E-1,-7.971205E-2,3.7959754E-1,8.157063E-2,-2.7575403E-2],"split_indices":[776,0,387,0,0],"split_type":[0,0,0,0,0],"sum_hessian":[1.3253257E1,5.1143446E0,8.138912E0,6.665553E0,1.4733592E0],"tree_param":{"num_deleted":"0","num_feature":"777","num_nodes":"5","size_leaf_vector":"1"}},{"base_weights":[3.8108747E-2,-7.917535E-2,7.171471E-1,8.102192E-2,-3.0779654E-2],"categories":[],"categories_nodes":[],"categories_segments":[],"categories_sizes":[],"default_left":[0,0,0,0,0],"id":37,"left_children":[1,-1,3,-1,-1],"loss_changes":[8.152566E0,0E0,2.4215474E0,0E0,0E0],"parents":[2147483647,0,0,2,2],"right_children":[2,-1,4,-1,-1],"split_conditions":[7.321667E-1,-7.917535E-2,3.7959754E-1,8.102192E-2,-3.0779654E-2],"split_indices":[776,0,387,0,0],"split_type":[0,0,0,0,0],"sum_hessian":[1.16071415E1,4.536488E0,7.070653E0,5.6646423E0,1.4060107E0],"tree_param":{"num_deleted":"0","num_feature":"777","num_nodes":"5","size_leaf_vector":"1"}},{"base_weights":[4.816772E-2,-7.335171E-1,7.977875E-2,2.6414808E-2,-8.3290085E-2],"categories":[],"categories_nodes":[],"categories_segments":[],"categories_sizes":[],"default_left":[0,0,0,0,0],"id":38,"left_children":[1,3,-1,-1,-1],"loss_changes":[8.857359E0,2.21848E0,0E0,0E0,0E0],"parents":[2147483647,0,0,1,1],"right_children":[2,4,-1,-1,-1],"split_conditions":[7.668068E-1,-1.405447E0,7.977875E-2,2.6414808E-2,-8.3290085E-2],"split_indices":[776,753,0,0,0],"split_type":[0,0,0,0,0],"sum_hessian":[1.1777398E1,6.396337E0,5.3810616E0,1.3463145E0,5.0500226E0],"tree_param":{"num_deleted":"0","num_feature":"777","num_nodes":"5","size_leaf_vector":"1"}},{"base_weights":[7.651057E-2,-8.2853085E-1,9.1862273E-1,-0E0,-8.032844E-2,3.4728445E-2,7.944792E-2],"categories":[],"categories_nodes":[],"categories_segments":[],"categories_sizes":[],"default_left":[0,0,0,0,0,0,0],"id":39,"left_children":[1,3,5,-1,-1,-1,-1],"loss_changes":[8.159732E0,6.261363E-1,5.1140785E-3,0E0,0E0,0E0,0E0],"parents":[2147483647,0,0,1,1,2,2],"right_children":[2,4,6,-1,-1,-1,-1],"split_conditions":[7.568771E-1,-1.1538265E0,-1.094108E0,-0E0,-8.032844E-2,3.4728445E-2,7.944792E-2],"split_indices":[776,363,338,0,0,0,0],"split_type":[0,0,0,0,0,0,0],"sum_hessian":[1.0572151E1,5.027464E0,5.5446873E0,1.0025803E0,4.0248837E0,1.0079952E0,4.5366917E0],"tree_param":{"num_deleted":"0","num_feature":"777","num_nodes":"7","size_leaf_vector":"1"}},{"base_weights":[-0E0,-7.719156E-1,7.854273E-2,1.588307E-2,-8.2812734E-2],"categories":[],"categories_nodes":[],"categories_segments":[],"categories_sizes":[],"default_left":[0,0,0,0,0],"id":40,"left_children":[1,3,-1,-1,-1],"loss_changes":[7.1226144E0,1.4549832E0,0E0,0E0,0E0],"parents":[2147483647,0,0,1,1],"right_children":[2,4,-1,-1,-1],"split_conditions":[7.668068E-1,-1.3457526E0,7.854273E-2,1.588307E-2,-8.2812734E-2],"split_indices":[776,633,0,0,0],"split_type":[0,0,0,0,0],"sum_hessian":[9.275567E0,5.1941576E0,4.0814095E0,1.014196E0,4.1799617E0],"tree_param":{"num_deleted":"0","num_feature":"777","num_nodes":"5","size_leaf_vector":"1"}},{"base_weights":[4.8252076E-2,-7.7820994E-2,7.268659E-1,-2.7796797E-2,7.985563E-2],"categories":[],"categories_nodes":[],"categories_segments":[],"categories_sizes":[],"default_left":[0,0,0,0,0],"id":41,"left_children":[1,-1,3,-1,-1],"loss_changes":[6.50132E0,0E0,1.7693014E0,0E0,0E0],"parents":[2147483647,0,0,2,2],"right_children":[2,-1,4,-1,-1],"split_conditions":[7.321667E-1,-7.7820994E-2,-1.6112881E0,-2.7796797E-2,7.985563E-2],"split_indices":[776,0,651,0,0],"split_type":[0,0,0,0,0],"sum_hessian":[9.30447E0,3.634026E0,5.6704445E0,1.0507824E0,4.619662E0],"tree_param":{"num_deleted":"0","num_feature":"777","num_nodes":"5","size_leaf_vector":"1"}},{"base_weights":[1.4160958E-1,-8.0264166E-2,7.994628E-1,2.8005347E-2,7.7216014E-2],"categories":[],"categories_nodes":[],"categories_segments":[],"categories_sizes":[],"default_left":[0,0,0,0,0],"id":42,"left_children":[1,-1,3,-1,-1],"loss_changes":[6.8704944E0,0E0,2.593422E-1,0E0,0E0],"parents":[2147483647,0,0,2,2],"right_children":[2,-1,4,-1,-1],"split_conditions":[1E0,-8.0264166E-2,7.8350186E-1,2.8005347E-2,7.7216014E-2],"split_indices":[774,0,775,0,0],"split_type":[0,0,0,0,0],"sum_hessian":[9.030515E0,3.217295E0,5.81322E0,1.8116661E0,4.001554E0],"tree_param":{"num_deleted":"0","num_feature":"777","num_nodes":"5","size_leaf_vector":"1"}},{"base_weights":[-0E0,-7.681541E-2,6.34035E-1,7.857166E-2,-2.573997E-2],"categories":[],"categories_nodes":[],"categories_segments":[],"categories_sizes":[],"default_left":[0,0,0,0,0],"id":43,"left_children":[1,-1,3,-1,-1],"loss_changes":[4.6197386E0,0E0,1.5844818E0,0E0,0E0],"parents":[2147483647,0,0,2,2],"right_children":[2,-1,4,-1,-1],"split_conditions":[7.321667E-1,-7.681541E-2,5.69165E-1,7.857166E-2,-2.573997E-2],"split_indices":[776,0,212,0,0],"split_type":[0,0,0,0,0],"sum_hessian":[7.41004E0,3.0029857E0,4.407054E0,3.3212883E0,1.0857657E0],"tree_param":{"num_deleted":"0","num_feature":"777","num_nodes":"5","size_leaf_vector":"1"}},{"base_weights":[-0E0,-7.664601E-2,7.2553515E-1,-0E0,7.803032E-2],"categories":[],"categories_nodes":[],"categories_segments":[],"categories_sizes":[],"default_left":[0,0,0,0,0],"id":44,"left_children":[1,-1,3,-1,-1],"loss_changes":[4.9225435E0,0E0,7.699549E-1,0E0,0E0],"parents":[2147483647,0,0,2,2],"right_children":[2,-1,4,-1,-1],"split_conditions":[7.321667E-1,-7.664601E-2,-6.620582E-1,-0E0,7.803032E-2],"split_indices":[776,0,673,0,0],"split_type":[0,0,0,0,0],"sum_hessian":[6.979065E0,2.9682667E0,4.010798E0,1.0090598E0,3.0017385E0],"tree_param":{"num_deleted":"0","num_feature":"777","num_nodes":"5","size_leaf_vector":"1"}},{"base_weights":[-8.3512776E-2,-8.819132E-1,7.648945E-2,-2.5082413E-2,-8.235694E-2],"categories":[],"categories_nodes":[],"categories_segments":[],"categories_sizes":[],"default_left":[0,0,0,0,0],"id":45,"left_children":[1,3,-1,-1,-1],"loss_changes":[5.6753416E0,1.4952064E-1,0E0,0E0,0E0],"parents":[2147483647,0,0,1,1],"right_children":[2,4,-1,-1,-1],"split_conditions":[7.668068E-1,-5.9119606E-1,7.648945E-2,-2.5082413E-2,-8.235694E-2],"split_indices":[776,741,0,0,0],"split_type":[0,0,0,0,0],"sum_hessian":[6.727193E0,3.8754838E0,2.8517091E0,1.0049655E0,2.8705182E0],"tree_param":{"num_deleted":"0","num_feature":"777","num_nodes":"5","size_leaf_vector":"1"}},{"base_weights":[-0E0,-7.874759E-2,5.8559024E-1,6.5660164E-2,-4.0016617E-3],"categories":[],"categories_nodes":[],"categories_segments":[],"categories_sizes":[],"default_left":[0,0,0,0,0],"id":46,"left_children":[1,-1,3,-1,-1],"loss_changes":[4.0434737E0,0E0,7.37432E-1,0E0,0E0],"parents":[2147483647,0,0,2,2],"right_children":[2,-1,4,-1,-1],"split_conditions":[1E0,-7.874759E-2,-1.04998454E-1,6.5660164E-2,-4.0016617E-3],"split_indices":[774,0,415,0,0],"split_type":[0,0,0,0,0],"sum_hessian":[6.8302336E0,2.591881E0,4.2383523E0,3.21879E0,1.0195625E0],"tree_param":{"num_deleted":"0","num_feature":"777","num_nodes":"5","size_leaf_vector":"1"}},{"base_weights":[8.6787276E-2,-7.52833E-2,6.759806E-1,7.8250706E-2,-1.2258021E-2],"categories":[],"categories_nodes":[],"categories_segments":[],"categories_sizes":[],"default_left":[0,0,0,0,0],"id":47,"left_children":[1,-1,3,-1,-1],"loss_changes":[4.1608615E0,0E0,1.2278566E0,0E0,0E0],"parents":[2147483647,0,0,2,2],"right_children":[2,-1,4,-1,-1],"split_conditions":[7.321667E-1,-7.52833E-2,7.6281935E-1,7.8250706E-2,-1.2258021E-2],"split_indices":[776,0,487,0,0],"split_type":[0,0,0,0,0],"sum_hessian":[6.8002563E0,2.3905396E0,4.4097166E0,3.3301783E0,1.0795385E0],"tree_param":{"num_deleted":"0","num_feature":"777","num_nodes":"5","size_leaf_vector":"1"}},{"base_weights":[6.256651E-2,-7.471853E-2,6.336623E-1,-2.0937087E-2,7.767566E-2],"categories":[],"categories_nodes":[],"categories_segments":[],"categories_sizes":[],"default_left":[0,0,0,0,0],"id":48,"left_children":[1,-1,3,-1,-1],"loss_changes":[3.6233742E0,0E0,1.3566878E0,0E0,0E0],"parents":[2147483647,0,0,2,2],"right_children":[2,-1,4,-1,-1],"split_conditions":[7.321667E-1,-7.471853E-2,-9.356667E-1,-2.0937087E-2,7.767566E-2],"split_indices":[776,0,2,0,0],"split_type":[0,0,0,0,0],"sum_hessian":[6.307505E0,2.2073996E0,4.100106E0,1.0282097E0,3.071896E0],"tree_param":{"num_deleted":"0","num_feature":"777","num_nodes":"5","size_leaf_vector":"1"}},{"base_weights":[9.0921015E-2,-7.336552E-2,5.9318393E-1,6.8981804E-2,-0E0],"categories":[],"categories_nodes":[],"categories_segments":[],"categories_sizes":[],"default_left":[0,0,0,0,0],"id":49,"left_children":[1,-1,3,-1,-1],"loss_changes":[2.820751E0,0E0,6.3594306E-1,0E0,0E0],"parents":[2147483647,0,0,2,2],"right_children":[2,-1,4,-1,-1],"split_conditions":[1E0,-7.336552E-2,-4.146869E-1,6.8981804E-2,-0E0],"split_indices":[774,0,744,0,0],"split_type":[0,0,0,0,0],"sum_hessian":[5.5238667E0,1.7411288E0,3.782738E0,2.6138923E0,1.1688458E0],"tree_param":{"num_deleted":"0","num_feature":"777","num_nodes":"5","size_leaf_vector":"1"}},{"base_weights":[8.445813E-2,-7.6238535E-2,6.00298E-1,6.8518825E-2,-1.6838801E-3],"categories":[],"categories_nodes":[],"categories_segments":[],"categories_sizes":[],"default_left":[0,0,0,0,0],"id":50,"left_children":[1,-1,3,-1,-1],"loss_changes":[3.1846564E0,0E0,7.537681E-1,0E0,0E0],"parents":[2147483647,0,0,2,2],"right_children":[2,-1,4,-1,-1],"split_conditions":[1E0,-7.6238535E-2,-1.5160851E-2,6.8518825E-2,-1.6838801E-3],"split_indices":[774,0,249,0,0],"split_type":[0,0,0,0,0],"sum_hessian":[5.905874E0,1.8671825E0,4.038691E0,2.980305E0,1.0583861E0],"tree_param":{"num_deleted":"0","num_feature":"777","num_nodes":"5","size_leaf_vector":"1"}},{"base_weights":[-8.1649885E-2,-7.612254E-2,5.755439E-2],"categories":[],"categories_nodes":[],"categories_segments":[],"categories_sizes":[],"default_left":[0,0,0],"id":51,"left_children":[1,-1,-1],"loss_changes":[3.2563634E0,0E0,0E0],"parents":[2147483647,0,0],"right_children":[2,-1,-1],"split_conditions":[7.568771E-1,-7.612254E-2,5.755439E-2],"split_indices":[776,0,0],"split_type":[0,0,0],"sum_hessian":[4.5140996E0,2.230528E0,2.2835717E0],"tree_param":{"num_deleted":"0","num_feature":"777","num_nodes":"3","size_leaf_vector":"1"}},{"base_weights":[4.862008E-2,-7.308533E-2,6.483065E-1,7.5474694E-2,-0E0],"categories":[],"categories_nodes":[],"categories_segments":[],"categories_sizes":[],"default_left":[0,0,0,0,0],"id":52,"left_children":[1,-1,3,-1,-1],"loss_changes":[2.865646E0,0E0,5.967361E-1,0E0,0E0],"parents":[2147483647,0,0,2,2],"right_children":[2,-1,4,-1,-1],"split_conditions":[7.321667E-1,-7.308533E-2,6.217559E-1,7.5474694E-2,-0E0],"split_indices":[776,0,508,0,0],"split_type":[0,0,0,0,0],"sum_hessian":[4.8999486E0,1.792463E0,3.1074855E0,2.1061673E0,1.0013183E0],"tree_param":{"num_deleted":"0","num_feature":"777","num_nodes":"5","size_leaf_vector":"1"}},{"base_weights":[1.9130725E-2,-7.563307E-2,5.330554E-1,6.390388E-2,-0E0],"categories":[],"categories_nodes":[],"categories_segments":[],"categories_sizes":[],"default_left":[0,0,0,0,0],"id":53,"left_children":[1,-1,3,-1,-1],"loss_changes":[2.5098665E0,0E0,5.7098883E-1,0E0,0E0],"parents":[2147483647,0,0,2,2],"right_children":[2,-1,4,-1,-1],"split_conditions":[1E0,-7.563307E-2,-1.1482179E-1,6.390388E-2,-0E0],"split_indices":[774,0,249,0,0],"split_type":[0,0,0,0,0],"sum_hessian":[5.0420704E0,1.6539782E0,3.3880923E0,2.3703532E0,1.017739E0],"tree_param":{"num_deleted":"0","num_feature":"777","num_nodes":"5","size_leaf_vector":"1"}},{"base_weights":[6.906525E-2,-7.210977E-2,6.5222555E-1,7.453363E-2,-0E0],"categories":[],"categories_nodes":[],"categories_segments":[],"categories_sizes":[],"default_left":[0,0,0,0,0],"id":54,"left_children":[1,-1,3,-1,-1],"loss_changes":[2.5842617E0,0E0,4.3696606E-1,0E0,0E0],"parents":[2147483647,0,0,2,2],"right_children":[2,-1,4,-1,-1],"split_conditions":[7.321667E-1,-7.210977E-2,3.1238896E-1,7.453363E-2,-0E0],"split_indices":[776,0,95,0,0],"split_type":[0,0,0,0,0],"sum_hessian":[4.4969745E0,1.5984603E0,2.8985143E0,1.8933336E0,1.0051807E0],"tree_param":{"num_deleted":"0","num_feature":"777","num_nodes":"5","size_leaf_vector":"1"}},{"base_weights":[-0E0,-6.056532E-1,7.247446E-2,-0E0,-7.9193674E-2],"categories":[],"categories_nodes":[],"categories_segments":[],"categories_sizes":[],"default_left":[0,0,0,0,0],"id":55,"left_children":[1,3,-1,-1,-1],"loss_changes":[2.3984318E0,6.5722466E-1,0E0,0E0,0E0],"parents":[2147483647,0,0,1,1],"right_children":[2,4,-1,-1,-1],"split_conditions":[7.668068E-1,-5.633204E-1,7.247446E-2,-0E0,-7.9193674E-2],"split_indices":[776,126,0,0,0],"split_type":[0,0,0,0,0],"sum_hessian":[4.2885647E0,2.6272388E0,1.6613259E0,1.0106663E0,1.6165725E0],"tree_param":{"num_deleted":"0","num_feature":"777","num_nodes":"5","size_leaf_vector":"1"}},{"base_weights":[1.0068387E-2,-5.9971865E-2,7.2873645E-2],"categories":[],"categories_nodes":[],"categories_segments":[],"categories_sizes":[],"default_left":[0,0,0],"id":56,"left_children":[1,-1,-1],"loss_changes":[2.6355355E0,0E0,0E0],"parents":[2147483647,0,0],"right_children":[2,-1,-1],"split_conditions":[7.6570386E-1,-5.9971865E-2,7.2873645E-2],"split_indices":[776,0,0],"split_type":[0,0,0],"sum_hessian":[3.7027693E0,1.9419369E0,1.7608323E0],"tree_param":{"num_deleted":"0","num_feature":"777","num_nodes":"3","size_leaf_vector":"1"}},{"base_weights":[1.2007377E-1,-7.0423186E-2,7.20492E-1,7.262475E-2,2.367255E-2],"categories":[],"categories_nodes":[],"categories_segments":[],"categories_sizes":[],"default_left":[0,0,0,0,0],"id":57,"left_children":[1,-1,3,-1,-1],"loss_changes":[2.349858E0,0E0,4.090631E-2,0E0,0E0],"parents":[2147483647,0,0,2,2],"right_children":[2,-1,4,-1,-1],"split_conditions":[7.321667E-1,-7.0423186E-2,-1.2329336E-1,7.262475E-2,2.367255E-2],"split_indices":[776,0,700,0,0],"split_type":[0,0,0,0,0],"sum_hessian":[3.8208485E0,1.3476632E0,2.4731853E0,1.4725941E0,1.000591E0],"tree_param":{"num_deleted":"0","num_feature":"777","num_nodes":"5","size_leaf_vector":"1"}},{"base_weights":[-0E0,-6.4929646E-1,7.072527E-2,-1.134741E-2,-7.853545E-2],"categories":[],"categories_nodes":[],"categories_segments":[],"categories_sizes":[],"default_left":[0,0,0,0,0],"id":58,"left_children":[1,3,-1,-1,-1],"loss_changes":[2.033534E0,2.1895975E-1,0E0,0E0,0E0],"parents":[2147483647,0,0,1,1],"right_children":[2,4,-1,-1,-1],"split_conditions":[7.668068E-1,1.673174E-1,7.072527E-2,-1.134741E-2,-7.853545E-2],"split_indices":[776,440,0,0,0],"split_type":[0,0,0,0,0],"sum_hessian":[3.4707186E0,2.0869493E0,1.3837693E0,1.0027373E0,1.0842121E0],"tree_param":{"num_deleted":"0","num_feature":"777","num_nodes":"5","size_leaf_vector":"1"}},{"base_weights":[-7.2140366E-2,-7.1241784E-1,6.994908E-2,-7.80081E-2,-2.155573E-2],"categories":[],"categories_nodes":[],"categories_segments":[],"categories_sizes":[],"default_left":[0,0,0,0,0],"id":59,"left_children":[1,3,-1,-1,-1],"loss_changes":[2.1120918E0,8.738184E-2,0E0,0E0,0E0],"parents":[2147483647,0,0,1,1],"right_children":[2,4,-1,-1,-1],"split_conditions":[7.668068E-1,-2.1501297E-2,6.994908E-2,-7.80081E-2,-2.155573E-2],"split_indices":[776,73,0,0,0],"split_type":[0,0,0,0,0],"sum_hessian":[3.3955503E0,2.109898E0,1.2856524E0,1.1091777E0,1.0007203E0],"tree_param":{"num_deleted":"0","num_feature":"777","num_nodes":"5","size_leaf_vector":"1"}},{"base_weights":[-0E0,-4.5871314E-1,6.965586E-2,4.6530454E-3,-7.7012725E-2],"categories":[],"categories_nodes":[],"categories_segments":[],"categories_sizes":[],"default_left":[0,0,0,0,0],"id":60,"left_children":[1,3,-1,-1,-1],"loss_changes":[1.4747751E0,7.042992E-1,0E0,0E0,0E0],"parents":[2147483647,0,0,1,1],"right_children":[2,4,-1,-1,-1],"split_conditions":[7.668068E-1,-2.2467767E-1,6.965586E-2,4.6530454E-3,-7.7012725E-2],"split_indices":[776,300,0,0,0],"split_type":[0,0,0,0,0],"sum_hessian":[3.4683654E0,2.214284E0,1.2540814E0,1.0017674E0,1.2125165E0],"tree_param":{"num_deleted":"0","num_feature":"777","num_nodes":"5","size_leaf_vector":"1"}},{"base_weights":[4.561994E-2,-6.778967E-2,5.5083615E-1,7.016245E-2,2.7127126E-3],"categories":[],"categories_nodes":[],"categories_segments":[],"categories_sizes":[],"default_left":[0,0,0,0,0],"id":61,"left_children":[1,-1,3,-1,-1],"loss_changes":[1.4806634E0,0E0,2.6475316E-1,0E0,0E0],"parents":[2147483647,0,0,2,2],"right_children":[2,-1,4,-1,-1],"split_conditions":[7.271034E-1,-6.778967E-2,2.7100015E-1,7.016245E-2,2.7127126E-3],"split_indices":[776,0,483,0,0],"split_type":[0,0,0,0,0],"sum_hessian":[3.2387488E0,1.0697551E0,2.1689937E0,1.1618793E0,1.0071144E0],"tree_param":{"num_deleted":"0","num_feature":"777","num_nodes":"5","size_leaf_vector":"1"}},{"base_weights":[-0E0,-4.829986E-2,3.3540357E-2],"categories":[],"categories_nodes":[],"categories_segments":[],"categories_sizes":[],"default_left":[0,0,0],"id":62,"left_children":[1,-1,-1],"loss_changes":[7.800796E-1,0E0,0E0],"parents":[2147483647,0,0],"right_children":[2,-1,-1],"split_conditions":[-3.4633145E-2,-4.829986E-2,3.3540357E-2],"split_indices":[533,0,0],"split_type":[0,0,0],"sum_hessian":[2.9796815E0,1.1863601E0,1.7933214E0],"tree_param":{"num_deleted":"0","num_feature":"777","num_nodes":"3","size_leaf_vector":"1"}},{"base_weights":[3.967623E-2,-6.998217E-2,4.900333E-1,6.259216E-2,-0E0],"categories":[],"categories_nodes":[],"categories_segments":[],"categories_sizes":[],"default_left":[0,0,0,0,0],"id":63,"left_children":[1,-1,3,-1,-1],"loss_changes":[1.418752E0,0E0,2.6227903E-1,0E0,0E0],"parents":[2147483647,0,0,2,2],"right_children":[2,-1,4,-1,-1],"split_conditions":[1E0,-6.998217E-2,-1.3533697E-1,6.259216E-2,-0E0],"split_indices":[774,0,694,0,0],"split_type":[0,0,0,0,0],"sum_hessian":[3.4346433E0,1.0267731E0,2.40787E0,1.3365387E0,1.0713315E0],"tree_param":{"num_deleted":"0","num_feature":"777","num_nodes":"5","size_leaf_vector":"1"}},{"base_weights":[4.3923635E-2,3.8937263E-2,-4.3497685E-2],"categories":[],"categories_nodes":[],"categories_segments":[],"categories_sizes":[],"default_left":[0,0,0],"id":64,"left_children":[1,-1,-1],"loss_changes":[8.472246E-1,0E0,0E0],"parents":[2147483647,0,0],"right_children":[2,-1,-1],"split_conditions":[-1.4406483E-1,3.8937263E-2,-4.3497685E-2],"split_indices":[258,0,0],"split_type":[0,0,0],"sum_hessian":[3.1612623E0,1.925159E0,1.2361034E0],"tree_param":{"num_deleted":"0","num_feature":"777","num_nodes":"3","size_leaf_vector":"1"}},{"base_weights":[-2.0937018E-2,-4.4461E-2,4.4049434E-2],"categories":[],"categories_nodes":[],"categories_segments":[],"categories_sizes":[],"default_left":[0,0,0],"id":65,"left_children":[1,-1,-1],"loss_changes":[8.8298017E-1,0E0,0E0],"parents":[2147483647,0,0],"right_children":[2,-1,-1],"split_conditions":[7.1484894E-1,-4.4461E-2,4.4049434E-2],"split_indices":[505,0,0],"split_type":[0,0,0],"sum_hessian":[2.7664719E0,1.5384747E0,1.2279973E0],"tree_param":{"num_deleted":"0","num_feature":"777","num_nodes":"3","size_leaf_vector":"1"}},{"base_weights":[-0E0,-3.9734934E-2,6.788271E-2],"categories":[],"categories_nodes":[],"categories_segments":[],"categories_sizes":[],"default_left":[0,0,0],"id":66,"left_children":[1,-1,-1],"loss_changes":[1.2575264E0,0E0,0E0],"parents":[2147483647,0,0],"right_children":[2,-1,-1],"split_conditions":[7.668068E-1,-3.9734934E-2,6.788271E-2],"split_indices":[776,0,0],"split_type":[0,0,0],"sum_hessian":[2.782117E0,1.6978801E0,1.0842366E0],"tree_param":{"num_deleted":"0","num_feature":"777","num_nodes":"3","size_leaf_vector":"1"}},{"base_weights":[-0E0,4.0079392E-2,-4.2373285E-2],"categories":[],"categories_nodes":[],"categories_segments":[],"categories_sizes":[],"default_left":[0,0,0],"id":67,"left_children":[1,-1,-1],"loss_changes":[6.9698626E-1,0E0,0E0],"parents":[2147483647,0,0],"right_children":[2,-1,-1],"split_conditions":[-4.270654E-1,4.0079392E-2,-4.2373285E-2],"split_indices":[744,0,0],"split_type":[0,0,0],"sum_hessian":[2.509638E0,1.3188429E0,1.1907953E0],"tree_param":{"num_deleted":"0","num_feature":"777","num_nodes":"3","size_leaf_vector":"1"}},{"base_weights":[4.3407872E-2,4.0282473E-2,-2.9789438E-2],"categories":[],"categories_nodes":[],"categories_segments":[],"categories_sizes":[],"default_left":[0,0,0],"id":68,"left_children":[1,-1,-1],"loss_changes":[5.724765E-1,0E0,0E0],"parents":[2147483647,0,0],"right_children":[2,-1,-1],"split_conditions":[-4.146869E-1,4.0282473E-2,-2.9789438E-2],"split_indices":[744,0,0],"split_type":[0,0,0],"sum_hessian":[2.7913542E0,1.456004E0,1.3353502E0],"tree_param":{"num_deleted":"0","num_feature":"777","num_nodes":"3","size_leaf_vector":"1"}},{"base_weights":[3.5829887E-2,3.166687E-2,-3.67671E-2],"categories":[],"categories_nodes":[],"categories_segments":[],"categories_sizes":[],"default_left":[0,0,0],"id":69,"left_children":[1,-1,-1],"loss_changes":[5.2413505E-1,0E0,0E0],"parents":[2147483647,0,0],"right_children":[2,-1,-1],"split_conditions":[-7.058493E-2,3.166687E-2,-3.67671E-2],"split_indices":[126,0,0],"split_type":[0,0,0],"sum_hessian":[2.8604333E0,1.8038841E0,1.0565492E0],"tree_param":{"num_deleted":"0","num_feature":"777","num_nodes":"3","size_leaf_vector":"1"}},{"base_weights":[-0E0,3.249907E-2,-4.4038042E-2],"categories":[],"categories_nodes":[],"categories_segments":[],"categories_sizes":[],"default_left":[0,0,0],"id":70,"left_children":[1,-1,-1],"loss_changes":[6.144361E-1,0E0,0E0],"parents":[2147483647,0,0],"right_children":[2,-1,-1],"split_conditions":[-1.4406483E-1,3.249907E-2,-4.4038042E-2],"split_indices":[258,0,0],"split_type":[0,0,0],"sum_hessian":[2.6512275E0,1.5727599E0,1.0784677E0],"tree_param":{"num_deleted":"0","num_feature":"777","num_nodes":"3","size_leaf_vector":"1"}},{"base_weights":[-0E0,3.204072E-2,-3.525517E-2],"categories":[],"categories_nodes":[],"categories_segments":[],"categories_sizes":[],"default_left":[0,0,0],"id":71,"left_children":[1,-1,-1],"loss_changes":[4.9809355E-1,0E0,0E0],"parents":[2147483647,0,0],"right_children":[2,-1,-1],"split_conditions":[-3.057718E-1,3.204072E-2,-3.525517E-2],"split_indices":[157,0,0],"split_type":[0,0,0],"sum_hessian":[2.7058306E0,1.4401088E0,1.2657218E0],"tree_param":{"num_deleted":"0","num_feature":"777","num_nodes":"3","size_leaf_vector":"1"}},{"base_weights":[6.972699E-2,3.4708455E-2,-2.9233396E-2],"categories":[],"categories_nodes":[],"categories_segments":[],"categories_sizes":[],"default_left":[0,0,0],"id":72,"left_children":[1,-1,-1],"loss_changes":[4.808991E-1,0E0,0E0],"parents":[2147483647,0,0],"right_children":[2,-1,-1],"split_conditions":[2.2168197E-1,3.4708455E-2,-2.9233396E-2],"split_indices":[93,0,0],"split_type":[0,0,0],"sum_hessian":[2.8631828E0,1.7090219E0,1.1541607E0],"tree_param":{"num_deleted":"0","num_feature":"777","num_nodes":"3","size_leaf_vector":"1"}},{"base_weights":[-0E0,-4.0401854E-2,2.7956726E-2],"categories":[],"categories_nodes":[],"categories_segments":[],"categories_sizes":[],"default_left":[0,0,0],"id":73,"left_children":[1,-1,-1],"loss_changes":[4.5900342E-1,0E0,0E0],"parents":[2147483647,0,0],"right_children":[2,-1,-1],"split_conditions":[5.3065753E-1,-4.0401854E-2,2.7956726E-2],"split_indices":[82,0,0],"split_type":[0,0,0],"sum_hessian":[2.4796872E0,1.0046864E0,1.4750007E0],"tree_param":{"num_deleted":"0","num_feature":"777","num_nodes":"3","size_leaf_vector":"1"}},{"base_weights":[-0E0,3.582265E-2,-4.163514E-2],"categories":[],"categories_nodes":[],"categories_segments":[],"categories_sizes":[],"default_left":[0,0,0],"id":74,"left_children":[1,-1,-1],"loss_changes":[5.993403E-1,0E0,0E0],"parents":[2147483647,0,0],"right_children":[2,-1,-1],"split_conditions":[-4.146869E-1,3.582265E-2,-4.163514E-2],"split_indices":[744,0,0],"split_type":[0,0,0],"sum_hessian":[2.4510574E0,1.3195639E0,1.1314936E0],"tree_param":{"num_deleted":"0","num_feature":"777","num_nodes":"3","size_leaf_vector":"1"}},{"base_weights":[1.3794483E-1,4.7800254E-2,-1.6222462E-2],"categories":[],"categories_nodes":[],"categories_segments":[],"categories_sizes":[],"default_left":[0,0,0],"id":75,"left_children":[1,-1,-1],"loss_changes":[4.0765935E-1,0E0,0E0],"parents":[2147483647,0,0],"right_children":[2,-1,-1],"split_conditions":[-7.349338E-1,4.7800254E-2,-1.6222462E-2],"split_indices":[106,0,0],"split_type":[0,0,0],"sum_hessian":[2.1945379E0,1.0650327E0,1.1295052E0],"tree_param":{"num_deleted":"0","num_feature":"777","num_nodes":"3","size_leaf_vector":"1"}},{"base_weights":[-0E0,-3.217879E-2,3.8172442E-2],"categories":[],"categories_nodes":[],"categories_segments":[],"categories_sizes":[],"default_left":[0,0,0],"id":76,"left_children":[1,-1,-1],"loss_changes":[4.930877E-1,0E0,0E0],"parents":[2147483647,0,0],"right_children":[2,-1,-1],"split_conditions":[6.9363385E-1,-3.217879E-2,3.8172442E-2],"split_indices":[505,0,0],"split_type":[0,0,0],"sum_hessian":[2.4646158E0,1.3875468E0,1.0770689E0],"tree_param":{"num_deleted":"0","num_feature":"777","num_nodes":"3","size_leaf_vector":"1"}},{"base_weights":[1.1602602E-1,-2.1124553E-2,4.4230152E-2],"categories":[],"categories_nodes":[],"categories_segments":[],"categories_sizes":[],"default_left":[0,0,0],"id":77,"left_children":[1,-1,-1],"loss_changes":[4.2074266E-1,0E0,0E0],"parents":[2147483647,0,0],"right_children":[2,-1,-1],"split_conditions":[7.7712286E-1,-2.1124553E-2,4.4230152E-2],"split_indices":[775,0,0],"split_type":[0,0,0],"sum_hessian":[2.2124994E0,1.0489221E0,1.1635773E0],"tree_param":{"num_deleted":"0","num_feature":"777","num_nodes":"3","size_leaf_vector":"1"}},{"base_weights":[9.8317444E-2,3.8837146E-2,-2.7967867E-2],"categories":[],"categories_nodes":[],"categories_segments":[],"categories_sizes":[],"default_left":[0,0,0],"id":78,"left_children":[1,-1,-1],"loss_changes":[4.6391964E-1,0E0,0E0],"parents":[2147483647,0,0],"right_children":[2,-1,-1],"split_conditions":[-3.789337E-1,3.8837146E-2,-2.7967867E-2],"split_indices":[122,0,0],"split_type":[0,0,0],"sum_hessian":[2.4625456E0,1.4618785E0,1.0006672E0],"tree_param":{"num_deleted":"0","num_feature":"777","num_nodes":"3","size_leaf_vector":"1"}},{"base_weights":[-0E0,2.8324038E-2,-3.8545847E-2],"categories":[],"categories_nodes":[],"categories_segments":[],"categories_sizes":[],"default_left":[0,0,0],"id":79,"left_children":[1,-1,-1],"loss_changes":[4.253929E-1,0E0,0E0],"parents":[2147483647,0,0],"right_children":[2,-1,-1],"split_conditions":[-4.6872327E-1,2.8324038E-2,-3.8545847E-2],"split_indices":[738,0,0],"split_type":[0,0,0],"sum_hessian":[2.3028612E0,1.2235261E0,1.079335E0],"tree_param":{"num_deleted":"0","num_feature":"777","num_nodes":"3","size_leaf_vector":"1"}},{"base_weights":[-0E0,3.1450696E-2,-2.9990667E-2],"categories":[],"categories_nodes":[],"categories_segments":[],"categories_sizes":[],"default_left":[0,0,0],"id":80,"left_children":[1,-1,-1],"loss_changes":[3.608232E-1,0E0,0E0],"parents":[2147483647,0,0],"right_children":[2,-1,-1],"split_conditions":[-3.057718E-1,3.1450696E-2,-2.9990667E-2],"split_indices":[157,0,0],"split_type":[0,0,0],"sum_hessian":[2.3246753E0,1.1710098E0,1.1536657E0],"tree_param":{"num_deleted":"0","num_feature":"777","num_nodes":"3","size_leaf_vector":"1"}},{"base_weights":[-1.0206925E-1],"categories":[],"categories_nodes":[],"categories_segments":[],"categories_sizes":[],"default_left":[0],"id":81,"left_children":[-1],"loss_changes":[0E0],"parents":[2147483647],"right_children":[-1],"split_conditions":[-8.16554E-3],"split_indices":[0],"split_type":[0],"sum_hessian":[1.9972998E0],"tree_param":{"num_deleted":"0","num_feature":"777","num_nodes":"1","size_leaf_vector":"1"}},{"base_weights":[-0E0,-2.9179491E-2,2.922439E-2],"categories":[],"categories_nodes":[],"categories_segments":[],"categories_sizes":[],"default_left":[0,0,0],"id":82,"left_children":[1,-1,-1],"loss_changes":[3.3074635E-1,0E0,0E0],"parents":[2147483647,0,0],"right_children":[2,-1,-1],"split_conditions":[7.8350186E-1,-2.9179491E-2,2.922439E-2],"split_indices":[775,0,0],"split_type":[0,0,0],"sum_hessian":[2.362027E0,1.0976462E0,1.2643807E0],"tree_param":{"num_deleted":"0","num_feature":"777","num_nodes":"3","size_leaf_vector":"1"}},{"base_weights":[-0E0,-2.6245324E-2,3.6563326E-2],"categories":[],"categories_nodes":[],"categories_segments":[],"categories_sizes":[],"default_left":[0,0,0],"id":83,"left_children":[1,-1,-1],"loss_changes":[3.642437E-1,0E0,0E0],"parents":[2147483647,0,0],"right_children":[2,-1,-1],"split_conditions":[6.9363385E-1,-2.6245324E-2,3.6563326E-2],"split_indices":[505,0,0],"split_type":[0,0,0],"sum_hessian":[2.2592723E0,1.251043E0,1.0082294E0],"tree_param":{"num_deleted":"0","num_feature":"777","num_nodes":"3","size_leaf_vector":"1"}},{"base_weights":[-0E0,-3.7608933E-2,2.9473595E-2],"categories":[],"categories_nodes":[],"categories_segments":[],"categories_sizes":[],"default_left":[0,0,0],"id":84,"left_children":[1,-1,-1],"loss_changes":[3.8071936E-1,0E0,0E0],"parents":[2147483647,0,0],"right_children":[2,-1,-1],"split_conditions":[4.3786865E-1,-3.7608933E-2,2.9473595E-2],"split_indices":[705,0,0],"split_type":[0,0,0],"sum_hessian":[2.0146744E0,1.0068607E0,1.0078136E0],"tree_param":{"num_deleted":"0","num_feature":"777","num_nodes":"3","size_leaf_vector":"1"}},{"base_weights":[-9.404012E-3,2.1998158E-2,-3.2223646E-2],"categories":[],"categories_nodes":[],"categories_segments":[],"categories_sizes":[],"default_left":[0,0,0],"id":85,"left_children":[1,-1,-1],"loss_changes":[2.5955537E-1,0E0,0E0],"parents":[2147483647,0,0],"right_children":[2,-1,-1],"split_conditions":[-2.729017E-1,2.1998158E-2,-3.2223646E-2],"split_indices":[162,0,0],"split_type":[0,0,0],"sum_hessian":[2.0635812E0,1.0311724E0,1.0324088E0],"tree_param":{"num_deleted":"0","num_feature":"777","num_nodes":"3","size_leaf_vector":"1"}},{"base_weights":[-8.578604E-3,-3.553953E-2,2.828415E-2],"categories":[],"categories_nodes":[],"categories_segments":[],"categories_sizes":[],"default_left":[0,0,0],"id":86,"left_children":[1,-1,-1],"loss_changes":[3.6600628E-1,0E0,0E0],"parents":[2147483647,0,0],"right_children":[2,-1,-1],"split_conditions":[5.525384E-1,-3.553953E-2,2.828415E-2],"split_indices":[647,0,0],"split_type":[0,0,0],"sum_hessian":[2.1311917E0,1.1116158E0,1.019576E0],"tree_param":{"num_deleted":"0","num_feature":"777","num_nodes":"3","size_leaf_vector":"1"}},{"base_weights":[-0E0,-2.49872E-2,3.1162633E-2],"categories":[],"categories_nodes":[],"categories_segments":[],"categories_sizes":[],"default_left":[0,0,0],"id":87,"left_children":[1,-1,-1],"loss_changes":[2.8190172E-1,0E0,0E0],"parents":[2147483647,0,0],"right_children":[2,-1,-1],"split_conditions":[4.4049793E-1,-2.49872E-2,3.1162633E-2],"split_indices":[462,0,0],"split_type":[0,0,0],"sum_hessian":[2.1626825E0,1.129805E0,1.0328774E0],"tree_param":{"num_deleted":"0","num_feature":"777","num_nodes":"3","size_leaf_vector":"1"}},{"base_weights":[7.73288E-2,4.1311987E-2,-1.7933883E-2],"categories":[],"categories_nodes":[],"categories_segments":[],"categories_sizes":[],"default_left":[0,0,0],"id":88,"left_children":[1,-1,-1],"loss_changes":[3.7250546E-1,0E0,0E0],"parents":[2147483647,0,0],"right_children":[2,-1,-1],"split_conditions":[-5.143051E-1,4.1311987E-2,-1.7933883E-2],"split_indices":[484,0,0],"split_type":[0,0,0],"sum_hessian":[2.4365258E0,1.1365846E0,1.2999412E0],"tree_param":{"num_deleted":"0","num_feature":"777","num_nodes":"3","size_leaf_vector":"1"}},{"base_weights":[7.260739E-2,3.7258845E-2,-2.144966E-2],"categories":[],"categories_nodes":[],"categories_segments":[],"categories_sizes":[],"default_left":[0,0,0],"id":89,"left_children":[1,-1,-1],"loss_changes":[3.4198675E-1,0E0,0E0],"parents":[2147483647,0,0],"right_children":[2,-1,-1],"split_conditions":[-2.0160122E-1,3.7258845E-2,-2.144966E-2],"split_indices":[193,0,0],"split_type":[0,0,0],"sum_hessian":[2.2601266E0,1.2026718E0,1.0574548E0],"tree_param":{"num_deleted":"0","num_feature":"777","num_nodes":"3","size_leaf_vector":"1"}},{"base_weights":[5.127397E-2,-2.4363125E-2,3.4003388E-2],"categories":[],"categories_nodes":[],"categories_segments":[],"categories_sizes":[],"default_left":[0,0,0],"id":90,"left_children":[1,-1,-1],"loss_changes":[3.434486E-1,0E0,0E0],"parents":[2147483647,0,0],"right_children":[2,-1,-1],"split_conditions":[1.0292936E-2,-2.4363125E-2,3.4003388E-2],"split_indices":[241,0,0],"split_type":[0,0,0],"sum_hessian":[2.355352E0,1.0478747E0,1.3074772E0],"tree_param":{"num_deleted":"0","num_feature":"777","num_nodes":"3","size_leaf_vector":"1"}},{"base_weights":[-0E0,-3.167493E-2,2.4426484E-2],"categories":[],"categories_nodes":[],"categories_segments":[],"categories_sizes":[],"default_left":[0,0,0],"id":91,"left_children":[1,-1,-1],"loss_changes":[2.738473E-1,0E0,0E0],"parents":[2147483647,0,0],"right_children":[2,-1,-1],"split_conditions":[9.272702E-2,-3.167493E-2,2.4426484E-2],"split_indices":[533,0,0],"split_type":[0,0,0],"sum_hessian":[2.0903103E0,1.0068545E0,1.0834557E0],"tree_param":{"num_deleted":"0","num_feature":"777","num_nodes":"3","size_leaf_vector":"1"}},{"base_weights":[9.472064E-3,3.286038E-2,-2.2481501E-2],"categories":[],"categories_nodes":[],"categories_segments":[],"categories_sizes":[],"default_left":[0,0,0],"id":92,"left_children":[1,-1,-1],"loss_changes":[2.8752708E-1,0E0,0E0],"parents":[2147483647,0,0],"right_children":[2,-1,-1],"split_conditions":[-3.9193338E-1,3.286038E-2,-2.2481501E-2],"split_indices":[497,0,0],"split_type":[0,0,0],"sum_hessian":[2.213616E0,1.092582E0,1.1210338E0],"tree_param":{"num_deleted":"0","num_feature":"777","num_nodes":"3","size_leaf_vector":"1"}},{"base_weights":[7.469338E-3,3.4029868E-2,-2.2745507E-2],"categories":[],"categories_nodes":[],"categories_segments":[],"categories_sizes":[],"default_left":[0,0,0],"id":93,"left_children":[1,-1,-1],"loss_changes":[3.156633E-1,0E0,0E0],"parents":[2147483647,0,0],"right_children":[2,-1,-1],"split_conditions":[-4.146869E-1,3.4029868E-2,-2.2745507E-2],"split_indices":[744,0,0],"split_type":[0,0,0],"sum_hessian":[2.3303688E0,1.1159189E0,1.2144499E0],"tree_param":{"num_deleted":"0","num_feature":"777","num_nodes":"3","size_leaf_vector":"1"}},{"base_weights":[3.7048638E-2,-1.9133197E-2,3.3434127E-2],"categories":[],"categories_nodes":[],"categories_segments":[],"categories_sizes":[],"default_left":[0,0,0],"id":94,"left_children":[1,-1,-1],"loss_changes":[2.4780908E-1,0E0,0E0],"parents":[2147483647,0,0],"right_children":[2,-1,-1],"split_conditions":[3.4771296E-1,-1.9133197E-2,3.3434127E-2],"split_indices":[312,0,0],"split_type":[0,0,0],"sum_hessian":[2.0346084E0,1.0096617E0,1.0249466E0],"tree_param":{"num_deleted":"0","num_feature":"777","num_nodes":"3","size_leaf_vector":"1"}},{"base_weights":[1.5197107E-2,3.7191465E-2,-2.2995489E-2],"categories":[],"categories_nodes":[],"categories_segments":[],"categories_sizes":[],"default_left":[0,0,0],"id":95,"left_children":[1,-1,-1],"loss_changes":[3.286961E-1,0E0,0E0],"parents":[2147483647,0,0],"right_children":[2,-1,-1],"split_conditions":[-5.143051E-1,3.7191465E-2,-2.2995489E-2],"split_indices":[484,0,0],"split_type":[0,0,0],"sum_hessian":[2.139796E0,1.0073336E0,1.1324625E0],"tree_param":{"num_deleted":"0","num_feature":"777","num_nodes":"3","size_leaf_vector":"1"}},{"base_weights":[-6.546239E-2],"categories":[],"categories_nodes":[],"categories_segments":[],"categories_sizes":[],"default_left":[0],"id":96,"left_children":[-1],"loss_changes":[0E0],"parents":[2147483647],"right_children":[-1],"split_conditions":[-5.2369907E-3],"split_indices":[0],"split_type":[0],"sum_hessian":[1.8079854E0],"tree_param":{"num_deleted":"0","num_feature":"777","num_nodes":"1","size_leaf_vector":"1"}},{"base_weights":[-0E0,-2.5571283E-2,2.0158721E-2],"categories":[],"categories_nodes":[],"categories_segments":[],"categories_sizes":[],"default_left":[0,0,0],"id":97,"left_children":[1,-1,-1],"loss_changes":[1.7865159E-1,0E0,0E0],"parents":[2147483647,0,0],"right_children":[2,-1,-1],"split_conditions":[7.8350186E-1,-2.5571283E-2,2.0158721E-2],"split_indices":[775,0,0],"split_type":[0,0,0],"sum_hessian":[2.0432487E0,1.0077343E0,1.0355145E0],"tree_param":{"num_deleted":"0","num_feature":"777","num_nodes":"3","size_leaf_vector":"1"}},{"base_weights":[7.349605E-2,-1.4625767E-2,3.7200745E-2],"categories":[],"categories_nodes":[],"categories_segments":[],"categories_sizes":[],"default_left":[0,0,0],"id":98,"left_children":[1,-1,-1],"loss_changes":[2.5861338E-1,0E0,0E0],"parents":[2147483647,0,0],"right_children":[2,-1,-1],"split_conditions":[7.8350186E-1,-1.4625767E-2,3.7200745E-2],"split_indices":[775,0,0],"split_type":[0,0,0],"sum_hessian":[2.128797E0,1.1206214E0,1.0081756E0],"tree_param":{"num_deleted":"0","num_feature":"777","num_nodes":"3","size_leaf_vector":"1"}},{"base_weights":[1.9092511E-2,3.7783775E-2,-2.1302346E-2],"categories":[],"categories_nodes":[],"categories_segments":[],"categories_sizes":[],"default_left":[0,0,0],"id":99,"left_children":[1,-1,-1],"loss_changes":[3.3551258E-1,0E0,0E0],"parents":[2147483647,0,0],"right_children":[2,-1,-1],"split_conditions":[-5.143051E-1,3.7783775E-2,-2.1302346E-2],"split_indices":[484,0,0],"split_type":[0,0,0],"sum_hessian":[2.2847016E0,1.0300545E0,1.2546473E0],"tree_param":{"num_deleted":"0","num_feature":"777","num_nodes":"3","size_leaf_vector":"1"}},{"base_weights":[1.3156019E-1],"categories":[],"categories_nodes":[],"categories_segments":[],"categories_sizes":[],"default_left":[0],"id":100,"left_children":[-1],"loss_changes":[0E0],"parents":[2147483647],"right_children":[-1],"split_conditions":[1.0524815E-2],"split_indices":[0],"split_type":[0],"sum_hessian":[1.8721701E0],"tree_param":{"num_deleted":"0","num_feature":"777","num_nodes":"1","size_leaf_vector":"1"}},{"base_weights":[3.1224256E-2],"categories":[],"categories_nodes":[],"categories_segments":[],"categories_sizes":[],"default_left":[0],"id":101,"left_children":[-1],"loss_changes":[0E0],"parents":[2147483647],"right_children":[-1],"split_conditions":[2.4979406E-3],"split_indices":[0],"split_type":[0],"sum_hessian":[1.9829172E0],"tree_param":{"num_deleted":"0","num_feature":"777","num_nodes":"1","size_leaf_vector":"1"}},{"base_weights":[-0E0,-2.5114205E-2,2.8760428E-2],"categories":[],"categories_nodes":[],"categories_segments":[],"categories_sizes":[],"default_left":[0,0,0],"id":102,"left_children":[1,-1,-1],"loss_changes":[2.4903384E-1,0E0,0E0],"parents":[2147483647,0,0],"right_children":[2,-1,-1],"split_conditions":[3.31287E-1,-2.5114205E-2,2.8760428E-2],"split_indices":[312,0,0],"split_type":[0,0,0],"sum_hessian":[2.076511E0,1.0754892E0,1.0010216E0],"tree_param":{"num_deleted":"0","num_feature":"777","num_nodes":"3","size_leaf_vector":"1"}},{"base_weights":[-0E0,-1.7257389E-2,2.221707E-2],"categories":[],"categories_nodes":[],"categories_segments":[],"categories_sizes":[],"default_left":[0,0,0],"id":103,"left_children":[1,-1,-1],"loss_changes":[1.3204284E-1,0E0,0E0],"parents":[2147483647,0,0],"right_children":[2,-1,-1],"split_conditions":[3.7350586E-1,-1.7257389E-2,2.221707E-2],"split_indices":[84,0,0],"split_type":[0,0,0],"sum_hessian":[2.0161266E0,1.009125E0,1.0070016E0],"tree_param":{"num_deleted":"0","num_feature":"777","num_nodes":"3","size_leaf_vector":"1"}},{"base_weights":[-4.1904975E-2],"categories":[],"categories_nodes":[],"categories_segments":[],"categories_sizes":[],"default_left":[0],"id":104,"left_children":[-1],"loss_changes":[0E0],"parents":[2147483647],"right_children":[-1],"split_conditions":[-3.3523978E-3],"split_indices":[0],"split_type":[0],"sum_hessian":[1.7959073E0],"tree_param":{"num_deleted":"0","num_feature":"777","num_nodes":"1","size_leaf_vector":"1"}},{"base_weights":[-0E0],"categories":[],"categories_nodes":[],"categories_segments":[],"categories_sizes":[],"default_left":[0],"id":105,"left_children":[-1],"loss_changes":[0E0],"parents":[2147483647],"right_children":[-1],"split_conditions":[-0E0],"split_indices":[0],"split_type":[0],"sum_hessian":[1.8084713E0],"tree_param":{"num_deleted":"0","num_feature":"777","num_nodes":"1","size_leaf_vector":"1"}},{"base_weights":[-0E0],"categories":[],"categories_nodes":[],"categories_segments":[],"categories_sizes":[],"default_left":[0],"id":106,"left_children":[-1],"loss_changes":[0E0],"parents":[2147483647],"right_children":[-1],"split_conditions":[-0E0],"split_indices":[0],"split_type":[0],"sum_hessian":[1.9393215E0],"tree_param":{"num_deleted":"0","num_feature":"777","num_nodes":"1","size_leaf_vector":"1"}},{"base_weights":[6.772802E-2],"categories":[],"categories_nodes":[],"categories_segments":[],"categories_sizes":[],"default_left":[0],"id":107,"left_children":[-1],"loss_changes":[0E0],"parents":[2147483647],"right_children":[-1],"split_conditions":[5.4182415E-3],"split_indices":[0],"split_type":[0],"sum_hessian":[1.6899661E0],"tree_param":{"num_deleted":"0","num_feature":"777","num_nodes":"1","size_leaf_vector":"1"}},{"base_weights":[4.7913823E-2],"categories":[],"categories_nodes":[],"categories_segments":[],"categories_sizes":[],"default_left":[0],"id":108,"left_children":[-1],"loss_changes":[0E0],"parents":[2147483647],"right_children":[-1],"split_conditions":[3.8331058E-3],"split_indices":[0],"split_type":[0],"sum_hessian":[1.98249E0],"tree_param":{"num_deleted":"0","num_feature":"777","num_nodes":"1","size_leaf_vector":"1"}},{"base_weights":[-4.3697346E-2],"categories":[],"categories_nodes":[],"categories_segments":[],"categories_sizes":[],"default_left":[0],"id":109,"left_children":[-1],"loss_changes":[0E0],"parents":[2147483647],"right_children":[-1],"split_conditions":[-3.4957875E-3],"split_indices":[0],"split_type":[0],"sum_hessian":[1.7630905E0],"tree_param":{"num_deleted":"0","num_feature":"777","num_nodes":"1","size_leaf_vector":"1"}},{"base_weights":[-0E0],"categories":[],"categories_nodes":[],"categories_segments":[],"categories_sizes":[],"default_left":[0],"id":110,"left_children":[-1],"loss_changes":[0E0],"parents":[2147483647],"right_children":[-1],"split_conditions":[-0E0],"split_indices":[0],"split_type":[0],"sum_hessian":[1.9495567E0],"tree_param":{"num_deleted":"0","num_feature":"777","num_nodes":"1","size_leaf_vector":"1"}},{"base_weights":[-0E0,-1.6936617E-2,2.0733034E-2],"categories":[],"categories_nodes":[],"categories_segments":[],"categories_sizes":[],"default_left":[0,0,0],"id":111,"left_children":[1,-1,-1],"loss_changes":[1.19142994E-1,0E0,0E0],"parents":[2147483647,0,0],"right_children":[2,-1,-1],"split_conditions":[9.9673964E-2,-1.6936617E-2,2.0733034E-2],"split_indices":[673,0,0],"split_type":[0,0,0],"sum_hessian":[2.0097694E0,1.0097517E0,1.0000178E0],"tree_param":{"num_deleted":"0","num_feature":"777","num_nodes":"3","size_leaf_vector":"1"}},{"base_weights":[2.1080306E-2,3.157187E-2,-1.9557513E-2],"categories":[],"categories_nodes":[],"categories_segments":[],"categories_sizes":[],"default_left":[0,0,0],"id":112,"left_children":[1,-1,-1],"loss_changes":[2.3642069E-1,0E0,0E0],"parents":[2147483647,0,0],"right_children":[2,-1,-1],"split_conditions":[-2.37774E-1,3.157187E-2,-1.9557513E-2],"split_indices":[545,0,0],"split_type":[0,0,0],"sum_hessian":[2.0832348E0,1.0412102E0,1.0420246E0],"tree_param":{"num_deleted":"0","num_feature":"777","num_nodes":"3","size_leaf_vector":"1"}},{"base_weights":[-0E0],"categories":[],"categories_nodes":[],"categories_segments":[],"categories_sizes":[],"default_left":[0],"id":113,"left_children":[-1],"loss_changes":[0E0],"parents":[2147483647],"right_children":[-1],"split_conditions":[-0E0],"split_indices":[0],"split_type":[0],"sum_hessian":[1.8552113E0],"tree_param":{"num_deleted":"0","num_feature":"777","num_nodes":"1","size_leaf_vector":"1"}},{"base_weights":[1.0406465E-2],"categories":[],"categories_nodes":[],"categories_segments":[],"categories_sizes":[],"default_left":[0],"id":114,"left_children":[-1],"loss_changes":[0E0],"parents":[2147483647],"right_children":[-1],"split_conditions":[8.325172E-4],"split_indices":[0],"split_type":[0],"sum_hessian":[1.678091E0],"tree_param":{"num_deleted":"0","num_feature":"777","num_nodes":"1","size_leaf_vector":"1"}},{"base_weights":[-0E0],"categories":[],"categories_nodes":[],"categories_segments":[],"categories_sizes":[],"default_left":[0],"id":115,"left_children":[-1],"loss_changes":[0E0],"parents":[2147483647],"right_children":[-1],"split_conditions":[-0E0],"split_indices":[0],"split_type":[0],"sum_hessian":[1.7388413E0],"tree_param":{"num_deleted":"0","num_feature":"777","num_nodes":"1","size_leaf_vector":"1"}},{"base_weights":[-0E0],"categories":[],"categories_nodes":[],"categories_segments":[],"categories_sizes":[],"default_left":[0],"id":116,"left_children":[-1],"loss_changes":[0E0],"parents":[2147483647],"right_children":[-1],"split_conditions":[-0E0],"split_indices":[0],"split_type":[0],"sum_hessian":[1.8301666E0],"tree_param":{"num_deleted":"0","num_feature":"777","num_nodes":"1","size_leaf_vector":"1"}},{"base_weights":[-0E0,-1.9005701E-2,1.3700571E-2],"categories":[],"categories_nodes":[],"categories_segments":[],"categories_sizes":[],"default_left":[0,0,0],"id":117,"left_children":[1,-1,-1],"loss_changes":[9.153803E-2,0E0,0E0],"parents":[2147483647,0,0],"right_children":[2,-1,-1],"split_conditions":[-1.5342761E-2,-1.9005701E-2,1.3700571E-2],"split_indices":[235,0,0],"split_type":[0,0,0],"sum_hessian":[2.016308E0,1.0053288E0,1.0109794E0],"tree_param":{"num_deleted":"0","num_feature":"777","num_nodes":"3","size_leaf_vector":"1"}},{"base_weights":[-0E0],"categories":[],"categories_nodes":[],"categories_segments":[],"categories_sizes":[],"default_left":[0],"id":118,"left_children":[-1],"loss_changes":[0E0],"parents":[2147483647],"right_children":[-1],"split_conditions":[-0E0],"split_indices":[0],"split_type":[0],"sum_hessian":[1.9388983E0],"tree_param":{"num_deleted":"0","num_feature":"777","num_nodes":"1","size_leaf_vector":"1"}},{"base_weights":[-0E0],"categories":[],"categories_nodes":[],"categories_segments":[],"categories_sizes":[],"default_left":[0],"id":119,"left_children":[-1],"loss_changes":[0E0],"parents":[2147483647],"right_children":[-1],"split_conditions":[-0E0],"split_indices":[0],"split_type":[0],"sum_hessian":[1.720005E0],"tree_param":{"num_deleted":"0","num_feature":"777","num_nodes":"1","size_leaf_vector":"1"}},{"base_weights":[-0E0],"categories":[],"categories_nodes":[],"categories_segments":[],"categories_sizes":[],"default_left":[0],"id":120,"left_children":[-1],"loss_changes":[0E0],"parents":[2147483647],"right_children":[-1],"split_conditions":[-0E0],"split_indices":[0],"split_type":[0],"sum_hessian":[1.7221532E0],"tree_param":{"num_deleted":"0","num_feature":"777","num_nodes":"1","size_leaf_vector":"1"}},{"base_weights":[-0E0],"categories":[],"categories_nodes":[],"categories_segments":[],"categories_sizes":[],"default_left":[0],"id":121,"left_children":[-1],"loss_changes":[0E0],"parents":[2147483647],"right_children":[-1],"split_conditions":[-0E0],"split_indices":[0],"split_type":[0],"sum_hessian":[1.7802343E0],"tree_param":{"num_deleted":"0","num_feature":"777","num_nodes":"1","size_leaf_vector":"1"}},{"base_weights":[-3.2014504E-2],"categories":[],"categories_nodes":[],"categories_segments":[],"categories_sizes":[],"default_left":[0],"id":122,"left_children":[-1],"loss_changes":[0E0],"parents":[2147483647],"right_children":[-1],"split_conditions":[-2.5611604E-3],"split_indices":[0],"split_type":[0],"sum_hessian":[1.6898206E0],"tree_param":{"num_deleted":"0","num_feature":"777","num_nodes":"1","size_leaf_vector":"1"}},{"base_weights":[-0E0],"categories":[],"categories_nodes":[],"categories_segments":[],"categories_sizes":[],"default_left":[0],"id":123,"left_children":[-1],"loss_changes":[0E0],"parents":[2147483647],"right_children":[-1],"split_conditions":[-0E0],"split_indices":[0],"split_type":[0],"sum_hessian":[1.7803979E0],"tree_param":{"num_deleted":"0","num_feature":"777","num_nodes":"1","size_leaf_vector":"1"}},{"base_weights":[-0E0,2.3780419E-2,-2.8888592E-2],"categories":[],"categories_nodes":[],"categories_segments":[],"categories_sizes":[],"default_left":[0,0,0],"id":124,"left_children":[1,-1,-1],"loss_changes":[2.3408121E-1,0E0,0E0],"parents":[2147483647,0,0],"right_children":[2,-1,-1],"split_conditions":[-3.257816E-1,2.3780419E-2,-2.8888592E-2],"split_indices":[197,0,0],"split_type":[0,0,0],"sum_hessian":[2.0206308E0,1.0117468E0,1.008884E0],"tree_param":{"num_deleted":"0","num_feature":"777","num_nodes":"3","size_leaf_vector":"1"}},{"base_weights":[-0E0,2.9154075E-2,-1.9928426E-2],"categories":[],"categories_nodes":[],"categories_segments":[],"categories_sizes":[],"default_left":[0,0,0],"id":125,"left_children":[1,-1,-1],"loss_changes":[2.0868379E-1,0E0,0E0],"parents":[2147483647,0,0],"right_children":[2,-1,-1],"split_conditions":[-3.9497104E-1,2.9154075E-2,-1.9928426E-2],"split_indices":[484,0,0],"split_type":[0,0,0],"sum_hessian":[2.0267725E0,1.006659E0,1.0201135E0],"tree_param":{"num_deleted":"0","num_feature":"777","num_nodes":"3","size_leaf_vector":"1"}},{"base_weights":[1.1515624E-2],"categories":[],"categories_nodes":[],"categories_segments":[],"categories_sizes":[],"default_left":[0],"id":126,"left_children":[-1],"loss_changes":[0E0],"parents":[2147483647],"right_children":[-1],"split_conditions":[9.212499E-4],"split_indices":[0],"split_type":[0],"sum_hessian":[1.8889298E0],"tree_param":{"num_deleted":"0","num_feature":"777","num_nodes":"1","size_leaf_vector":"1"}},{"base_weights":[-0E0],"categories":[],"categories_nodes":[],"categories_segments":[],"categories_sizes":[],"default_left":[0],"id":127,"left_children":[-1],"loss_changes":[0E0],"parents":[2147483647],"right_children":[-1],"split_conditions":[-0E0],"split_indices":[0],"split_type":[0],"sum_hessian":[1.9421815E0],"tree_param":{"num_deleted":"0","num_feature":"777","num_nodes":"1","size_leaf_vector":"1"}},{"base_weights":[1.0041513E-3,2.5520435E-2,-1.6163783E-2],"categories":[],"categories_nodes":[],"categories_segments":[],"categories_sizes":[],"default_left":[0,0,0],"id":128,"left_children":[1,-1,-1],"loss_changes":[1.5400769E-1,0E0,0E0],"parents":[2147483647,0,0],"right_children":[2,-1,-1],"split_conditions":[-3.9497104E-1,2.5520435E-2,-1.6163783E-2],"split_indices":[484,0,0],"split_type":[0,0,0],"sum_hessian":[2.0478544E0,1.0149885E0,1.0328659E0],"tree_param":{"num_deleted":"0","num_feature":"777","num_nodes":"3","size_leaf_vector":"1"}},{"base_weights":[-0E0,2.6035212E-2,-2.4140667E-2],"categories":[],"categories_nodes":[],"categories_segments":[],"categories_sizes":[],"default_left":[0,0,0],"id":129,"left_children":[1,-1,-1],"loss_changes":[2.1137132E-1,0E0,0E0],"parents":[2147483647,0,0],"right_children":[2,-1,-1],"split_conditions":[-4.146869E-1,2.6035212E-2,-2.4140667E-2],"split_indices":[744,0,0],"split_type":[0,0,0],"sum_hessian":[2.0282533E0,1.000744E0,1.0275093E0],"tree_param":{"num_deleted":"0","num_feature":"777","num_nodes":"3","size_leaf_vector":"1"}},{"base_weights":[-0E0],"categories":[],"categories_nodes":[],"categories_segments":[],"categories_sizes":[],"default_left":[0],"id":130,"left_children":[-1],"loss_changes":[0E0],"parents":[2147483647],"right_children":[-1],"split_conditions":[-0E0],"split_indices":[0],"split_type":[0],"sum_hessian":[1.9237007E0],"tree_param":{"num_deleted":"0","num_feature":"777","num_nodes":"1","size_leaf_vector":"1"}},{"base_weights":[3.3887103E-2],"categories":[],"categories_nodes":[],"categories_segments":[],"categories_sizes":[],"default_left":[0],"id":131,"left_children":[-1],"loss_changes":[0E0],"parents":[2147483647],"right_children":[-1],"split_conditions":[2.7109683E-3],"split_indices":[0],"split_type":[0],"sum_hessian":[1.7078348E0],"tree_param":{"num_deleted":"0","num_feature":"777","num_nodes":"1","size_leaf_vector":"1"}},{"base_weights":[-0E0],"categories":[],"categories_nodes":[],"categories_segments":[],"categories_sizes":[],"default_left":[0],"id":132,"left_children":[-1],"loss_changes":[0E0],"parents":[2147483647],"right_children":[-1],"split_conditions":[-0E0],"split_indices":[0],"split_type":[0],"sum_hessian":[1.8069761E0],"tree_param":{"num_deleted":"0","num_feature":"777","num_nodes":"1","size_leaf_vector":"1"}},{"base_weights":[-0E0],"categories":[],"categories_nodes":[],"categories_segments":[],"categories_sizes":[],"default_left":[0],"id":133,"left_children":[-1],"loss_changes":[0E0],"parents":[2147483647],"right_children":[-1],"split_conditions":[-0E0],"split_indices":[0],"split_type":[0],"sum_hessian":[1.9030021E0],"tree_param":{"num_deleted":"0","num_feature":"777","num_nodes":"1","size_leaf_vector":"1"}},{"base_weights":[-0E0],"categories":[],"categories_nodes":[],"categories_segments":[],"categories_sizes":[],"default_left":[0],"id":134,"left_children":[-1],"loss_changes":[0E0],"parents":[2147483647],"right_children":[-1],"split_conditions":[-0E0],"split_indices":[0],"split_type":[0],"sum_hessian":[1.8773999E0],"tree_param":{"num_deleted":"0","num_feature":"777","num_nodes":"1","size_leaf_vector":"1"}},{"base_weights":[-0E0],"categories":[],"categories_nodes":[],"categories_segments":[],"categories_sizes":[],"default_left":[0],"id":135,"left_children":[-1],"loss_changes":[0E0],"parents":[2147483647],"right_children":[-1],"split_conditions":[-0E0],"split_indices":[0],"split_type":[0],"sum_hessian":[1.8740662E0],"tree_param":{"num_deleted":"0","num_feature":"777","num_nodes":"1","size_leaf_vector":"1"}},{"base_weights":[-0E0],"categories":[],"categories_nodes":[],"categories_segments":[],"categories_sizes":[],"default_left":[0],"id":136,"left_children":[-1],"loss_changes":[0E0],"parents":[2147483647],"right_children":[-1],"split_conditions":[-0E0],"split_indices":[0],"split_type":[0],"sum_hessian":[1.775936E0],"tree_param":{"num_deleted":"0","num_feature":"777","num_nodes":"1","size_leaf_vector":"1"}},{"base_weights":[-0E0],"categories":[],"categories_nodes":[],"categories_segments":[],"categories_sizes":[],"default_left":[0],"id":137,"left_children":[-1],"loss_changes":[0E0],"parents":[2147483647],"right_children":[-1],"split_conditions":[-0E0],"split_indices":[0],"split_type":[0],"sum_hessian":[1.8831607E0],"tree_param":{"num_deleted":"0","num_feature":"777","num_nodes":"1","size_leaf_vector":"1"}},{"base_weights":[-0E0],"categories":[],"categories_nodes":[],"categories_segments":[],"categories_sizes":[],"default_left":[0],"id":138,"left_children":[-1],"loss_changes":[0E0],"parents":[2147483647],"right_children":[-1],"split_conditions":[-0E0],"split_indices":[0],"split_type":[0],"sum_hessian":[1.8668563E0],"tree_param":{"num_deleted":"0","num_feature":"777","num_nodes":"1","size_leaf_vector":"1"}},{"base_weights":[-0E0],"categories":[],"categories_nodes":[],"categories_segments":[],"categories_sizes":[],"default_left":[0],"id":139,"left_children":[-1],"loss_changes":[0E0],"parents":[2147483647],"right_children":[-1],"split_conditions":[-0E0],"split_indices":[0],"split_type":[0],"sum_hessian":[1.6116437E0],"tree_param":{"num_deleted":"0","num_feature":"777","num_nodes":"1","size_leaf_vector":"1"}},{"base_weights":[-0E0],"categories":[],"categories_nodes":[],"categories_segments":[],"categories_sizes":[],"default_left":[0],"id":140,"left_children":[-1],"loss_changes":[0E0],"parents":[2147483647],"right_children":[-1],"split_conditions":[-0E0],"split_indices":[0],"split_type":[0],"sum_hessian":[1.5516366E0],"tree_param":{"num_deleted":"0","num_feature":"777","num_nodes":"1","size_leaf_vector":"1"}},{"base_weights":[-0E0],"categories":[],"categories_nodes":[],"categories_segments":[],"categories_sizes":[],"default_left":[0],"id":141,"left_children":[-1],"loss_changes":[0E0],"parents":[2147483647],"right_children":[-1],"split_conditions":[-0E0],"split_indices":[0],"split_type":[0],"sum_hessian":[1.9382944E0],"tree_param":{"num_deleted":"0","num_feature":"777","num_nodes":"1","size_leaf_vector":"1"}},{"base_weights":[-5.603567E-2],"categories":[],"categories_nodes":[],"categories_segments":[],"categories_sizes":[],"default_left":[0],"id":142,"left_children":[-1],"loss_changes":[0E0],"parents":[2147483647],"right_children":[-1],"split_conditions":[-4.4828537E-3],"split_indices":[0],"split_type":[0],"sum_hessian":[1.708775E0],"tree_param":{"num_deleted":"0","num_feature":"777","num_nodes":"1","size_leaf_vector":"1"}},{"base_weights":[4.4143933E-4],"categories":[],"categories_nodes":[],"categories_segments":[],"categories_sizes":[],"default_left":[0],"id":143,"left_children":[-1],"loss_changes":[0E0],"parents":[2147483647],"right_children":[-1],"split_conditions":[3.5315144E-5],"split_indices":[0],"split_type":[0],"sum_hessian":[1.8788992E0],"tree_param":{"num_deleted":"0","num_feature":"777","num_nodes":"1","size_leaf_vector":"1"}},{"base_weights":[-0E0],"categories":[],"categories_nodes":[],"categories_segments":[],"categories_sizes":[],"default_left":[0],"id":144,"left_children":[-1],"loss_changes":[0E0],"parents":[2147483647],"right_children":[-1],"split_conditions":[-0E0],"split_indices":[0],"split_type":[0],"sum_hessian":[1.8481604E0],"tree_param":{"num_deleted":"0","num_feature":"777","num_nodes":"1","size_leaf_vector":"1"}},{"base_weights":[-0E0],"categories":[],"categories_nodes":[],"categories_segments":[],"categories_sizes":[],"default_left":[0],"id":145,"left_children":[-1],"loss_changes":[0E0],"parents":[2147483647],"right_children":[-1],"split_conditions":[-0E0],"split_indices":[0],"split_type":[0],"sum_hessian":[1.8475838E0],"tree_param":{"num_deleted":"0","num_feature":"777","num_nodes":"1","size_leaf_vector":"1"}},{"base_weights":[-0E0],"categories":[],"categories_nodes":[],"categories_segments":[],"categories_sizes":[],"default_left":[0],"id":146,"left_children":[-1],"loss_changes":[0E0],"parents":[2147483647],"right_children":[-1],"split_conditions":[-0E0],"split_indices":[0],"split_type":[0],"sum_hessian":[1.8722305E0],"tree_param":{"num_deleted":"0","num_feature":"777","num_nodes":"1","size_leaf_vector":"1"}},{"base_weights":[-3.669912E-2],"categories":[],"categories_nodes":[],"categories_segments":[],"categories_sizes":[],"default_left":[0],"id":147,"left_children":[-1],"loss_changes":[0E0],"parents":[2147483647],"right_children":[-1],"split_conditions":[-2.9359295E-3],"split_indices":[0],"split_type":[0],"sum_hessian":[1.7289156E0],"tree_param":{"num_deleted":"0","num_feature":"777","num_nodes":"1","size_leaf_vector":"1"}},{"base_weights":[1.4427237E-2],"categories":[],"categories_nodes":[],"categories_segments":[],"categories_sizes":[],"default_left":[0],"id":148,"left_children":[-1],"loss_changes":[0E0],"parents":[2147483647],"right_children":[-1],"split_conditions":[1.154179E-3],"split_indices":[0],"split_type":[0],"sum_hessian":[1.7614201E0],"tree_param":{"num_deleted":"0","num_feature":"777","num_nodes":"1","size_leaf_vector":"1"}},{"base_weights":[-0E0],"categories":[],"categories_nodes":[],"categories_segments":[],"categories_sizes":[],"default_left":[0],"id":149,"left_children":[-1],"loss_changes":[0E0],"parents":[2147483647],"right_children":[-1],"split_conditions":[-0E0],"split_indices":[0],"split_type":[0],"sum_hessian":[1.7556604E0],"tree_param":{"num_deleted":"0","num_feature":"777","num_nodes":"1","size_leaf_vector":"1"}},{"base_weights":[2.1081174E-2],"categories":[],"categories_nodes":[],"categories_segments":[],"categories_sizes":[],"default_left":[0],"id":150,"left_children":[-1],"loss_changes":[0E0],"parents":[2147483647],"right_children":[-1],"split_conditions":[1.6864939E-3],"split_indices":[0],"split_type":[0],"sum_hessian":[1.9897907E0],"tree_param":{"num_deleted":"0","num_feature":"777","num_nodes":"1","size_leaf_vector":"1"}},{"base_weights":[-0E0],"categories":[],"categories_nodes":[],"categories_segments":[],"categories_sizes":[],"default_left":[0],"id":151,"left_children":[-1],"loss_changes":[0E0],"parents":[2147483647],"right_children":[-1],"split_conditions":[-0E0],"split_indices":[0],"split_type":[0],"sum_hessian":[1.9634373E0],"tree_param":{"num_deleted":"0","num_feature":"777","num_nodes":"1","size_leaf_vector":"1"}},{"base_weights":[-0E0],"categories":[],"categories_nodes":[],"categories_segments":[],"categories_sizes":[],"default_left":[0],"id":152,"left_children":[-1],"loss_changes":[0E0],"parents":[2147483647],"right_children":[-1],"split_conditions":[-0E0],"split_indices":[0],"split_type":[0],"sum_hessian":[1.8721807E0],"tree_param":{"num_deleted":"0","num_feature":"777","num_nodes":"1","size_leaf_vector":"1"}},{"base_weights":[-0E0],"categories":[],"categories_nodes":[],"categories_segments":[],"categories_sizes":[],"default_left":[0],"id":153,"left_children":[-1],"loss_changes":[0E0],"parents":[2147483647],"right_children":[-1],"split_conditions":[-0E0],"split_indices":[0],"split_type":[0],"sum_hessian":[1.8587759E0],"tree_param":{"num_deleted":"0","num_feature":"777","num_nodes":"1","size_leaf_vector":"1"}},{"base_weights":[-0E0],"categories":[],"categories_nodes":[],"categories_segments":[],"categories_sizes":[],"default_left":[0],"id":154,"left_children":[-1],"loss_changes":[0E0],"parents":[2147483647],"right_children":[-1],"split_conditions":[-0E0],"split_indices":[0],"split_type":[0],"sum_hessian":[1.836648E0],"tree_param":{"num_deleted":"0","num_feature":"777","num_nodes":"1","size_leaf_vector":"1"}},{"base_weights":[-0E0],"categories":[],"categories_nodes":[],"categories_segments":[],"categories_sizes":[],"default_left":[0],"id":155,"left_children":[-1],"loss_changes":[0E0],"parents":[2147483647],"right_children":[-1],"split_conditions":[-0E0],"split_indices":[0],"split_type":[0],"sum_hessian":[1.9430469E0],"tree_param":{"num_deleted":"0","num_feature":"777","num_nodes":"1","size_leaf_vector":"1"}},{"base_weights":[-0E0],"categories":[],"categories_nodes":[],"categories_segments":[],"categories_sizes":[],"default_left":[0],"id":156,"left_children":[-1],"loss_changes":[0E0],"parents":[2147483647],"right_children":[-1],"split_conditions":[-0E0],"split_indices":[0],"split_type":[0],"sum_hessian":[1.8000915E0],"tree_param":{"num_deleted":"0","num_feature":"777","num_nodes":"1","size_leaf_vector":"1"}},{"base_weights":[-0E0],"categories":[],"categories_nodes":[],"categories_segments":[],"categories_sizes":[],"default_left":[0],"id":157,"left_children":[-1],"loss_changes":[0E0],"parents":[2147483647],"right_children":[-1],"split_conditions":[-0E0],"split_indices":[0],"split_type":[0],"sum_hessian":[1.8941553E0],"tree_param":{"num_deleted":"0","num_feature":"777","num_nodes":"1","size_leaf_vector":"1"}},{"base_weights":[5.3544905E-2],"categories":[],"categories_nodes":[],"categories_segments":[],"categories_sizes":[],"default_left":[0],"id":158,"left_children":[-1],"loss_changes":[0E0],"parents":[2147483647],"right_children":[-1],"split_conditions":[4.283592E-3],"split_indices":[0],"split_type":[0],"sum_hessian":[1.9431945E0],"tree_param":{"num_deleted":"0","num_feature":"777","num_nodes":"1","size_leaf_vector":"1"}},{"base_weights":[1.3446212E-2],"categories":[],"categories_nodes":[],"categories_segments":[],"categories_sizes":[],"default_left":[0],"id":159,"left_children":[-1],"loss_changes":[0E0],"parents":[2147483647],"right_children":[-1],"split_conditions":[1.0756969E-3],"split_indices":[0],"split_type":[0],"sum_hessian":[1.980759E0],"tree_param":{"num_deleted":"0","num_feature":"777","num_nodes":"1","size_leaf_vector":"1"}},{"base_weights":[-0E0],"categories":[],"categories_nodes":[],"categories_segments":[],"categories_sizes":[],"default_left":[0],"id":160,"left_children":[-1],"loss_changes":[0E0],"parents":[2147483647],"right_children":[-1],"split_conditions":[-0E0],"split_indices":[0],"split_type":[0],"sum_hessian":[1.8974714E0],"tree_param":{"num_deleted":"0","num_feature":"777","num_nodes":"1","size_leaf_vector":"1"}},{"base_weights":[-0E0],"categories":[],"categories_nodes":[],"categories_segments":[],"categories_sizes":[],"default_left":[0],"id":161,"left_children":[-1],"loss_changes":[0E0],"parents":[2147483647],"right_children":[-1],"split_conditions":[-0E0],"split_indices":[0],"split_type":[0],"sum_hessian":[1.8177736E0],"tree_param":{"num_deleted":"0","num_feature":"777","num_nodes":"1","size_leaf_vector":"1"}},{"base_weights":[-0E0,2.4974817E-2,-2.0863798E-2],"categories":[],"categories_nodes":[],"categories_segments":[],"categories_sizes":[],"default_left":[0,0,0],"id":162,"left_children":[1,-1,-1],"loss_changes":[1.7617393E-1,0E0,0E0],"parents":[2147483647,0,0],"right_children":[2,-1,-1],"split_conditions":[-4.146869E-1,2.4974817E-2,-2.0863798E-2],"split_indices":[744,0,0],"split_type":[0,0,0],"sum_hessian":[2.010476E0,1.0019685E0,1.0085076E0],"tree_param":{"num_deleted":"0","num_feature":"777","num_nodes":"3","size_leaf_vector":"1"}},{"base_weights":[-0E0],"categories":[],"categories_nodes":[],"categories_segments":[],"categories_sizes":[],"default_left":[0],"id":163,"left_children":[-1],"loss_changes":[0E0],"parents":[2147483647],"right_children":[-1],"split_conditions":[-0E0],"split_indices":[0],"split_type":[0],"sum_hessian":[1.8972089E0],"tree_param":{"num_deleted":"0","num_feature":"777","num_nodes":"1","size_leaf_vector":"1"}},{"base_weights":[-6.0105674E-2],"categories":[],"categories_nodes":[],"categories_segments":[],"categories_sizes":[],"default_left":[0],"id":164,"left_children":[-1],"loss_changes":[0E0],"parents":[2147483647],"right_children":[-1],"split_conditions":[-4.808454E-3],"split_indices":[0],"split_type":[0],"sum_hessian":[1.4853804E0],"tree_param":{"num_deleted":"0","num_feature":"777","num_nodes":"1","size_leaf_vector":"1"}},{"base_weights":[-0E0],"categories":[],"categories_nodes":[],"categories_segments":[],"categories_sizes":[],"default_left":[0],"id":165,"left_children":[-1],"loss_changes":[0E0],"parents":[2147483647],"right_children":[-1],"split_conditions":[-0E0],"split_indices":[0],"split_type":[0],"sum_hessian":[1.9812264E0],"tree_param":{"num_deleted":"0","num_feature":"777","num_nodes":"1","size_leaf_vector":"1"}},{"base_weights":[-0E0],"categories":[],"categories_nodes":[],"categories_segments":[],"categories_sizes":[],"default_left":[0],"id":166,"left_children":[-1],"loss_changes":[0E0],"parents":[2147483647],"right_children":[-1],"split_conditions":[-0E0],"split_indices":[0],"split_type":[0],"sum_hessian":[1.9947026E0],"tree_param":{"num_deleted":"0","num_feature":"777","num_nodes":"1","size_leaf_vector":"1"}},{"base_weights":[4.210729E-3],"categories":[],"categories_nodes":[],"categories_segments":[],"categories_sizes":[],"default_left":[0],"id":167,"left_children":[-1],"loss_changes":[0E0],"parents":[2147483647],"right_children":[-1],"split_conditions":[3.3685833E-4],"split_indices":[0],"split_type":[0],"sum_hessian":[1.937876E0],"tree_param":{"num_deleted":"0","num_feature":"777","num_nodes":"1","size_leaf_vector":"1"}},{"base_weights":[-0E0],"categories":[],"categories_nodes":[],"categories_segments":[],"categories_sizes":[],"default_left":[0],"id":168,"left_children":[-1],"loss_changes":[0E0],"parents":[2147483647],"right_children":[-1],"split_conditions":[-0E0],"split_indices":[0],"split_type":[0],"sum_hessian":[1.7915705E0],"tree_param":{"num_deleted":"0","num_feature":"777","num_nodes":"1","size_leaf_vector":"1"}},{"base_weights":[-0E0],"categories":[],"categories_nodes":[],"categories_segments":[],"categories_sizes":[],"default_left":[0],"id":169,"left_children":[-1],"loss_changes":[0E0],"parents":[2147483647],"right_children":[-1],"split_conditions":[-0E0],"split_indices":[0],"split_type":[0],"sum_hessian":[1.5545607E0],"tree_param":{"num_deleted":"0","num_feature":"777","num_nodes":"1","size_leaf_vector":"1"}},{"base_weights":[-0E0],"categories":[],"categories_nodes":[],"categories_segments":[],"categories_sizes":[],"default_left":[0],"id":170,"left_children":[-1],"loss_changes":[0E0],"parents":[2147483647],"right_children":[-1],"split_conditions":[-0E0],"split_indices":[0],"split_type":[0],"sum_hessian":[1.9943495E0],"tree_param":{"num_deleted":"0","num_feature":"777","num_nodes":"1","size_leaf_vector":"1"}},{"base_weights":[-0E0],"categories":[],"categories_nodes":[],"categories_segments":[],"categories_sizes":[],"default_left":[0],"id":171,"left_children":[-1],"loss_changes":[0E0],"parents":[2147483647],"right_children":[-1],"split_conditions":[-0E0],"split_indices":[0],"split_type":[0],"sum_hessian":[1.9193902E0],"tree_param":{"num_deleted":"0","num_feature":"777","num_nodes":"1","size_leaf_vector":"1"}},{"base_weights":[-0E0],"categories":[],"categories_nodes":[],"categories_segments":[],"categories_sizes":[],"default_left":[0],"id":172,"left_children":[-1],"loss_changes":[0E0],"parents":[2147483647],"right_children":[-1],"split_conditions":[-0E0],"split_indices":[0],"split_type":[0],"sum_hessian":[1.7963169E0],"tree_param":{"num_deleted":"0","num_feature":"777","num_nodes":"1","size_leaf_vector":"1"}},{"base_weights":[-4.213419E-2],"categories":[],"categories_nodes":[],"categories_segments":[],"categories_sizes":[],"default_left":[0],"id":173,"left_children":[-1],"loss_changes":[0E0],"parents":[2147483647],"right_children":[-1],"split_conditions":[-3.3707353E-3],"split_indices":[0],"split_type":[0],"sum_hessian":[1.7019129E0],"tree_param":{"num_deleted":"0","num_feature":"777","num_nodes":"1","size_leaf_vector":"1"}},{"base_weights":[-7.318547E-2],"categories":[],"categories_nodes":[],"categories_segments":[],"categories_sizes":[],"default_left":[0],"id":174,"left_children":[-1],"loss_changes":[0E0],"parents":[2147483647],"right_children":[-1],"split_conditions":[-5.8548376E-3],"split_indices":[0],"split_type":[0],"sum_hessian":[1.6912203E0],"tree_param":{"num_deleted":"0","num_feature":"777","num_nodes":"1","size_leaf_vector":"1"}},{"base_weights":[-3.2999776E-2],"categories":[],"categories_nodes":[],"categories_segments":[],"categories_sizes":[],"default_left":[0],"id":175,"left_children":[-1],"loss_changes":[0E0],"parents":[2147483647],"right_children":[-1],"split_conditions":[-2.6399822E-3],"split_indices":[0],"split_type":[0],"sum_hessian":[1.6891785E0],"tree_param":{"num_deleted":"0","num_feature":"777","num_nodes":"1","size_leaf_vector":"1"}},{"base_weights":[-0E0],"categories":[],"categories_nodes":[],"categories_segments":[],"categories_sizes":[],"default_left":[0],"id":176,"left_children":[-1],"loss_changes":[0E0],"parents":[2147483647],"right_children":[-1],"split_conditions":[-0E0],"split_indices":[0],"split_type":[0],"sum_hessian":[1.8084501E0],"tree_param":{"num_deleted":"0","num_feature":"777","num_nodes":"1","size_leaf_vector":"1"}},{"base_weights":[-0E0],"categories":[],"categories_nodes":[],"categories_segments":[],"categories_sizes":[],"default_left":[0],"id":177,"left_children":[-1],"loss_changes":[0E0],"parents":[2147483647],"right_children":[-1],"split_conditions":[-0E0],"split_indices":[0],"split_type":[0],"sum_hessian":[1.5937326E0],"tree_param":{"num_deleted":"0","num_feature":"777","num_nodes":"1","size_leaf_vector":"1"}},{"base_weights":[4.235154E-2],"categories":[],"categories_nodes":[],"categories_segments":[],"categories_sizes":[],"default_left":[0],"id":178,"left_children":[-1],"loss_changes":[0E0],"parents":[2147483647],"right_children":[-1],"split_conditions":[3.3881231E-3],"split_indices":[0],"split_type":[0],"sum_hessian":[1.9363083E0],"tree_param":{"num_deleted":"0","num_feature":"777","num_nodes":"1",