{"learner":{"attributes":{"best_iteration":"326","best_score":"0.00424842108423783","scikit_learn":"{\"_estimator_type\": \"classifier\"}"},"feature_names":[],"feature_types":[],"gradient_booster":{"model":{"cats":{"enc":[],"feature_segments":[],"sorted_idx":[]},"gbtree_model_param":{"num_parallel_tree":"1","num_trees":"527"},"iteration_indptr":[0,1,2,3,4,5,6,7,8,9,10,11,12,13,14,15,16,17,18,19,20,21,22,23,24,25,26,27,28,29,30,31,32,33,34,35,36,37,38,39,40,41,42,43,44,45,46,47,48,49,50,51,52,53,54,55,56,57,58,59,60,61,62,63,64,65,66,67,68,69,70,71,72,73,74,75,76,77,78,79,80,81,82,83,84,85,86,87,88,89,90,91,92,93,94,95,96,97,98,99,100,101,102,103,104,105,106,107,108,109,110,111,112,113,114,115,116,117,118,119,120,121,122,123,124,125,126,127,128,129,130,131,132,133,134,135,136,137,138,139,140,141,142,143,144,145,146,147,148,149,150,151,152,153,154,155,156,157,158,159,160,161,162,163,164,165,166,167,168,169,170,171,172,173,174,175,176,177,178,179,180,181,182,183,184,185,186,187,188,189,190,191,192,193,194,195,196,197,198,199,200,201,202,203,204,205,206,207,208,209,210,211,212,213,214,215,216,217,218,219,220,221,222,223,224,225,226,227,228,229,230,231,232,233,234,235,236,237,238,239,240,241,242,243,244,245,246,247,248,249,250,251,252,253,254,255,256,257,258,259,260,261,262,263,264,265,266,267,268,269,270,271,272,273,274,275,276,277,278,279,280,281,282,283,284,285,286,287,288,289,290,291,292,293,294,295,296,297,298,299,300,301,302,303,304,305,306,307,308,309,310,311,312,313,314,315,316,317,318,319,320,321,322,323,324,325,326,327,328,329,330,331,332,333,334,335,336,337,338,339,340,341,342,343,344,345,346,347,348,349,350,351,352,353,354,355,356,357,358,359,360,361,362,363,364,365,366,367,368,369,370,371,372,373,374,375,376,377,378,379,380,381,382,383,384,385,386,387,388,389,390,391,392,393,394,395,396,397,398,399,400,401,402,403,404,405,406,407,408,409,410,411,412,413,414,415,416,417,418,419,420,421,422,423,424,425,426,427,428,429,430,431,432,433,434,435,436,437,438,439,440,441,442,443,444,445,446,447,448,449,450,451,452,453,454,455,456,457,458,459,460,461,462,463,464,465,466,467,468,469,470,471,472,473,474,475,476,477,478,479,480,481,482,483,484,485,486,487,488,489,490,491,492,493,494,495,496,497,498,499,500,501,502,503,504,505,506,507,508,509,510,511,512,513,514,515,516,517,518,519,520,521,522,523,524,525,526,527],"tree_info":[0,0,0,0,0,0,0,0,0,0,0,0,0,0,0,0,0,0,0,0,0,0,0,0,0,0,0,0,0,0,0,0,0,0,0,0,0,0,0,0,0,0,0,0,0,0,0,0,0,0,0,0,0,0,0,0,0,0,0,0,0,0,0,0,0,0,0,0,0,0,0,0,0,0,0,0,0,0,0,0,0,0,0,0,0,0,0,0,0,0,0,0,0,0,0,0,0,0,0,0,0,0,0,0,0,0,0,0,0,0,0,0,0,0,0,0,0,0,0,0,0,0,0,0,0,0,0,0,0,0,0,0,0,0,0,0,0,0,0,0,0,0,0,0,0,0,0,0,0,0,0,0,0,0,0,0,0,0,0,0,0,0,0,0,0,0,0,0,0,0,0,0,0,0,0,0,0,0,0,0,0,0,0,0,0,0,0,0,0,0,0,0,0,0,0,0,0,0,0,0,0,0,0,0,0,0,0,0,0,0,0,0,0,0,0,0,0,0,0,0,0,0,0,0,0,0,0,0,0,0,0,0,0,0,0,0,0,0,0,0,0,0,0,0,0,0,0,0,0,0,0,0,0,0,0,0,0,0,0,0,0,0,0,0,0,0,0,0,0,0,0,0,0,0,0,0,0,0,0,0,0,0,0,0,0,0,0,0,0,0,0,0,0,0,0,0,0,0,0,0,0,0,0,0,0,0,0,0,0,0,0,0,0,0,0,0,0,0,0,0,0,0,0,0,0,0,0,0,0,0,0,0,0,0,0,0,0,0,0,0,0,0,0,0,0,0,0,0,0,0,0,0,0,0,0,0,0,0,0,0,0,0,0,0,0,0,0,0,0,0,0,0,0,0,0,0,0,0,0,0,0,0,0,0,0,0,0,0,0,0,0,0,0,0,0,0,0,0,0,0,0,0,0,0,0,0,0,0,0,0,0,0,0,0,0,0,0,0,0,0,0,0,0,0,0,0,0,0,0,0,0,0,0,0,0,0,0,0,0,0,0,0,0,0,0,0,0,0,0,0,0,0,0,0,0,0,0,0,0,0,0,0,0,0,0,0,0,0,0,0,0,0,0,0,0,0,0,0,0,0,0,0,0,0,0,0,0,0,0,0,0,0,0,0,0,0,0,0,0,0,0,0,0,0,0,0,0,0,0,0,0,0,0,0,0,0,0,0,0,0,0,0,0,0,0,0,0],"trees":[{"base_weights":[-3.0443432E-2,-1.6524145E-1,1.8777286E0,9.557408E-1,1.544092E-1,2.8947929E-2,1.4032826E-1],"categories":[],"categories_nodes":[],"categories_segments":[],"categories_sizes":[],"default_left":[0,0,0,0,0,0,0],"id":0,"left_children":[1,-1,3,5,-1,-1,-1],"loss_changes":[4.2909805E2,0E0,2.2958374E0,1.2756426E0,0E0,0E0,0E0],"parents":[2147483647,0,0,2,2,3,3],"right_children":[2,-1,4,6,-1,-1,-1],"split_conditions":[7.199179E-1,-1.6524145E-1,-7.15174E-1,4.8030454E-1,1.544092E-1,2.8947929E-2,1.4032826E-1],"split_indices":[776,0,66,0,0,0,0],"split_type":[0,0,0,0,0,0,0],"sum_hessian":[1.1037335E2,5.3438683E1,5.693467E1,3.2462752E0,5.3688396E1,1.9977077E0,1.2485673E0],"tree_param":{"num_deleted":"0","num_feature":"777","num_nodes":"7","size_leaf_vector":"1"}},{"base_weights":[-6.726242E-2,-1.5252794E-1,1.0348381E0,-5.348264E-1,1.6518289E0,9.94939E-1,-1.508288E-1,-1.723606E-1,1.7571527E0,-1.4344284E-1,1.4162108E-1,-1.4733906E-1,1.3827665E-1,4.9228556E-2,1.436756E-1],"categories":[],"categories_nodes":[],"categories_segments":[],"categories_sizes":[],"default_left":[0,0,0,0,0,0,0,0,0,0,0,0,0,0,0],"id":1,"left_children":[1,-1,3,5,7,9,-1,11,13,-1,-1,-1,-1,-1,-1],"loss_changes":[2.3227866E2,0E0,6.951132E1,4.1927742E1,1.0094131E1,2.0643833E1,0E0,9.092901E0,1.8019257E0,0E0,0E0,0E0,0E0,0E0,0E0],"parents":[2147483647,0,0,2,2,3,3,4,4,5,5,7,7,8,8],"right_children":[2,-1,4,6,8,10,-1,12,14,-1,-1,-1,-1,-1,-1],"split_conditions":[1E0,-1.5252794E-1,7.6292473E-1,-1.1660724E0,-9.2376137E-1,2.4733557E-1,-1.508288E-1,1.2192999E0,-2.8553206E-1,-1.4344284E-1,1.4162108E-1,-1.4733906E-1,1.3827665E-1,4.9228556E-2,1.436756E-1],"split_indices":[774,0,775,545,491,386,0,309,642,0,0,0,0,0,0],"split_type":[0,0,0,0,0,0,0,0,0,0,0,0,0,0,0],"sum_hessian":[1.1441475E2,4.289341E1,7.152134E1,2.0127972E1,5.1393368E1,9.403481E0,1.072449E1,2.741068E0,4.8652298E1,1.9952539E0,7.408227E0,1.4939846E0,1.2470834E0,1.7335279E0,4.691877E1],"tree_param":{"num_deleted":"0","num_feature":"777","num_nodes":"15","size_leaf_vector":"1"}},{"base_weights":[3.760158E-2,-1.4254351E-1,1.6346809E0,1.5332237E-2,1.6798464E0,1.3561238E-1,7.58646E-2],"categories":[],"categories_nodes":[],"categories_segments":[],"categories_sizes":[],"default_left":[0,0,0,0,0,0,0],"id":2,"left_children":[1,-1,3,-1,5,-1,-1],"loss_changes":[3.35791E2,0E0,3.7695007E0,0E0,2.539978E-1,0E0,0E0],"parents":[2147483647,0,0,2,2,4,4],"right_children":[2,-1,4,-1,6,-1,-1],"split_conditions":[7.2496426E-1,-1.4254351E-1,7.290602E-1,1.5332237E-2,5.8646595E-1,1.3561238E-1,7.58646E-2],"split_indices":[776,0,776,0,12,0,0],"split_type":[0,0,0,0,0,0,0],"sum_hessian":[1.1544804E2,5.3929447E1,6.1518593E1,1.957225E0,5.9561367E1,5.8102432E1,1.4589348E0],"tree_param":{"num_deleted":"0","num_feature":"777","num_nodes":"7","size_leaf_vector":"1"}},{"base_weights":[1.2102783E-1,-1.3411726E-1,1.5487745E0,5.0565773E-1,1.2857808E-1,-1.8087605E-3,1.2067804E-1],"categories":[],"categories_nodes":[],"categories_segments":[],"categories_sizes":[],"default_left":[0,0,0,0,0,0,0],"id":3,"left_children":[1,-1,3,5,-1,-1,-1],"loss_changes":[2.811828E2,0E0,3.4230957E0,2.001973E0,0E0,0E0,0E0],"parents":[2147483647,0,0,2,2,3,3],"right_children":[2,-1,4,6,-1,-1,-1],"split_conditions":[7.2496426E-1,-1.3411726E-1,7.3669034E-1,1.424589E0,1.2857808E-1,-1.8087605E-3,1.2067804E-1],"split_indices":[776,0,776,2,0,0,0],"split_type":[0,0,0,0,0,0,0],"sum_hessian":[1.0944986E2,4.840934E1,6.1040524E1,3.3786077E0,5.7661915E1,2.1729298E0,1.2056777E0],"tree_param":{"num_deleted":"0","num_feature":"777","num_nodes":"7","size_leaf_vector":"1"}},{"base_weights":[-1.1861874E-2,-1.2756053E-1,1.22816466E-1],"categories":[],"categories_nodes":[],"categories_segments":[],"categories_sizes":[],"default_left":[0,0,0],"id":4,"left_children":[1,-1,-1],"loss_changes":[2.5382616E2,0E0,0E0],"parents":[2147483647,0,0],"right_children":[2,-1,-1],"split_conditions":[7.290602E-1,-1.2756053E-1,1.22816466E-1],"split_indices":[776,0,0],"split_type":[0,0,0],"sum_hessian":[1.0354484E2,5.122133E1,5.232351E1],"tree_param":{"num_deleted":"0","num_feature":"777","num_nodes":"3","size_leaf_vector":"1"}},{"base_weights":[4.1203268E-2,-1.2150674E-1,1.4465845E0,2.206972E-2,1.1839534E-1],"categories":[],"categories_nodes":[],"categories_segments":[],"categories_sizes":[],"default_left":[0,0,0,0,0],"id":5,"left_children":[1,-1,3,-1,-1],"loss_changes":[2.2149327E2,0E0,1.8419418E0,0E0,0E0],"parents":[2147483647,0,0,2,2],"right_children":[2,-1,4,-1,-1],"split_conditions":[7.228722E-1,-1.2150674E-1,-1.1124167E0,2.206972E-2,1.1839534E-1],"split_indices":[776,0,534,0,0],"split_type":[0,0,0,0,0],"sum_hessian":[1.009094E2,4.778056E1,5.312884E1,1.586942E0,5.15419E1],"tree_param":{"num_deleted":"0","num_feature":"777","num_nodes":"5","size_leaf_vector":"1"}},{"base_weights":[-6.390688E-2,-1.168486E-1,1.3559873E0,-0E0,1.4087136E0,1.1414559E-1,5.092628E-2],"categories":[],"categories_nodes":[],"categories_segments":[],"categories_sizes":[],"default_left":[0,0,0,0,0,0,0],"id":6,"left_children":[1,-1,3,-1,5,-1,-1],"loss_changes":[1.9754314E2,0E0,3.6367111E0,0E0,3.6278534E-1,0E0,0E0],"parents":[2147483647,0,0,2,2,4,4],"right_children":[2,-1,4,-1,6,-1,-1],"split_conditions":[7.2496426E-1,-1.168486E-1,-7.15174E-1,-0E0,1.5487237E0,1.1414559E-1,5.092628E-2],"split_indices":[776,0,66,0,320,0,0],"split_type":[0,0,0,0,0,0,0],"sum_hessian":[9.948367E1,5.0193176E1,4.9290493E1,1.792519E0,4.7497974E1,4.620812E1,1.2898564E0],"tree_param":{"num_deleted":"0","num_feature":"777","num_nodes":"7","size_leaf_vector":"1"}},{"base_weights":[4.1316617E-2,-1.0401572E0,1.0882249E0,-1.3300728E0,3.9205125E-1,1.1782295E0,-1.1978682E-1,9.92457E-2,-1.1257548E-1,-1.0682673E-1,1.0759238E-1,1.2438782E0,-1.1188296E-1,1.3246702E0,-2.1484217E-1,1.3596723E0,3.3887208E-2,-1.093431E-1,6.0426652E-2,5.6933317E-2,1.10020645E-1],"categories":[],"categories_nodes":[],"categories_segments":[],"categories_sizes":[],"default_left":[0,0,0,0,0,0,0,0,0,0,0,0,0,0,0,0,0,0,0,0,0],"id":7,"left_children":[1,3,5,7,9,11,-1,-1,-1,-1,-1,13,-1,15,17,19,-1,-1,-1,-1,-1],"loss_changes":[1.064299E2,1.9318756E1,1.1195213E1,7.7552185E0,1.2866594E1,7.9158096E0,0E0,0E0,0E0,0E0,0E0,5.478874E0,0E0,1.1053848E0,2.7577124E0,1.0662842E-1,0E0,0E0,0E0,0E0,0E0],"parents":[2147483647,0,0,1,1,2,2,3,3,4,4,5,5,11,11,13,13,14,14,15,15],"right_children":[2,4,6,8,10,12,-1,-1,-1,-1,-1,14,-1,16,18,20,-1,-1,-1,-1,-1],"split_conditions":[7.6412743E-1,1.5649687E0,2.3297708E-1,-2.45276E0,5.9202176E-1,8.951039E-1,-1.1978682E-1,9.92457E-2,-1.1257548E-1,-1.0682673E-1,1.0759238E-1,3.3685538E-1,-1.1188296E-1,9.427016E-1,5.645774E-1,-1.8824297E0,3.3887208E-2,-1.093431E-1,6.0426652E-2,5.6933317E-2,1.10020645E-1],"split_indices":[775,113,5,31,671,22,0,0,0,0,0,605,0,285,0,311,0,0,0,0,0],"split_type":[0,0,0,0,0,0,0,0,0,0,0,0,0,0,0,0,0,0,0,0,0],"sum_hessian":[9.387733E1,4.6120174E1,4.7757153E1,3.842919E1,7.6909823E0,4.622704E1,1.530116E0,1.0476313E0,3.738156E1,2.680892E0,5.010091E0,4.515424E1,1.0727972E0,4.2867767E1,2.2864726E0,4.110726E1,1.7605081E0,1.0906454E0,1.1958271E0,1.2120793E0,3.989518E1],"tree_param":{"num_deleted":"0","num_feature":"777","num_nodes":"21","size_leaf_vector":"1"}},{"base_weights":[-4.244735E-2,-1.0951969E-1,1.2911129E0,1.0808633E-1,-3.3423316E-3],"categories":[],"categories_nodes":[],"categories_segments":[],"categories_sizes":[],"default_left":[0,0,0,0,0],"id":8,"left_children":[1,-1,3,-1,-1],"loss_changes":[1.464069E2,0E0,3.455536E0,0E0,0E0],"parents":[2147483647,0,0,2,2],"right_children":[2,-1,4,-1,-1],"split_conditions":[7.2496426E-1,-1.0951969E-1,1.4414958E0,1.0808633E-1,-3.3423316E-3],"split_indices":[776,0,433,0,0],"split_type":[0,0,0,0,0],"sum_hessian":[8.2635765E1,4.14711E1,4.116467E1,3.9477787E1,1.6868807E0],"tree_param":{"num_deleted":"0","num_feature":"777","num_nodes":"5","size_leaf_vector":"1"}},{"base_weights":[5.9031717E-2,-1.06337205E-1,1.2659123E0,1.0544138E-1,2.6532516E-1,3.8670406E-2,-0E0],"categories":[],"categories_nodes":[],"categories_segments":[],"categories_sizes":[],"default_left":[0,0,0,0,0,0,0],"id":9,"left_children":[1,-1,3,-1,5,-1,-1],"loss_changes":[1.5141565E2,0E0,2.3119507E0,0E0,9.8052636E-2,0E0,0E0],"parents":[2147483647,0,0,2,2,4,4],"right_children":[2,-1,4,-1,6,-1,-1],"split_conditions":[7.2496426E-1,-1.06337205E-1,1.6795905E0,1.0544138E-1,-1.4170294E0,3.8670406E-2,-0E0],"split_indices":[776,0,718,0,1,0,0],"split_type":[0,0,0,0,0,0,0],"sum_hessian":[9.02575E1,4.192576E1,4.833174E1,4.5807384E1,2.5243583E0,1.1382763E0,1.386082E0],"tree_param":{"num_deleted":"0","num_feature":"777","num_nodes":"7","size_leaf_vector":"1"}},{"base_weights":[4.5479767E-2,-1.0354414E-1,1.2100384E0,-0E0,1.2617879E0,2.8096326E-2,1.0261053E-1],"categories":[],"categories_nodes":[],"categories_segments":[],"categories_sizes":[],"default_left":[0,0,0,0,0,0,0],"id":10,"left_children":[1,-1,3,-1,5,-1,-1],"loss_changes":[1.26823616E2,0E0,2.7094269E0,0E0,5.6912994E-1,0E0,0E0],"parents":[2147483647,0,0,2,2,4,4],"right_children":[2,-1,4,-1,6,-1,-1],"split_conditions":[7.199179E-1,-1.0354414E-1,7.290602E-1,-0E0,-2.7597005E0,2.8096326E-2,1.0261053E-1],"split_indices":[776,0,776,0,18,0,0],"split_type":[0,0,0,0,0,0,0],"sum_hessian":[8.11702E1,3.769443E1,4.347577E1,1.7960395E0,4.167973E1,1.0855186E0,4.059421E1],"tree_param":{"num_deleted":"0","num_feature":"777","num_nodes":"7","size_leaf_vector":"1"}},{"base_weights":[-6.747868E-3,-1.01347536E-1,1.195521E0,-0E0,1.237854E0,2.853819E-2,1.0070039E-1],"categories":[],"categories_nodes":[],"categories_segments":[],"categories_sizes":[],"default_left":[0,0,0,0,0,0,0],"id":11,"left_children":[1,-1,3,-1,5,-1,-1],"loss_changes":[1.16416306E2,0E0,2.072403E0,0E0,4.7874832E-1,0E0,0E0],"parents":[2147483647,0,0,2,2,4,4],"right_children":[2,-1,4,-1,6,-1,-1],"split_conditions":[7.2496426E-1,-1.01347536E-1,-9.845113E-1,-0E0,-1.712957E0,2.853819E-2,1.0070039E-1],"split_indices":[776,0,491,0,222,0,0],"split_type":[0,0,0,0,0,0,0],"sum_hessian":[7.67181E1,3.7505367E1,3.9212738E1,1.2877276E0,3.792501E1,1.0369178E0,3.6888092E1],"tree_param":{"num_deleted":"0","num_feature":"777","num_nodes":"7","size_leaf_vector":"1"}},{"base_weights":[-5.1367793E-2,-1.1823429E0,1.2010155E0,9.55079E-2,-1.0047683E-1,2.0991327E-2,9.81696E-2],"categories":[],"categories_nodes":[],"categories_segments":[],"categories_sizes":[],"default_left":[0,0,0,0,0,0,0],"id":12,"left_children":[1,3,5,-1,-1,-1,-1],"loss_changes":[9.688274E1,6.393467E0,5.9604645E-1,0E0,0E0,0E0,0E0],"parents":[2147483647,0,0,1,1,2,2],"right_children":[2,4,6,-1,-1,-1,-1],"split_conditions":[7.290602E-1,-2.6530187E0,-1.4805909E0,9.55079E-2,-1.0047683E-1,2.0991327E-2,9.81696E-2],"split_indices":[776,9,703,0,0,0,0],"split_type":[0,0,0,0,0,0,0],"sum_hessian":[6.828143E1,3.5931953E1,3.234948E1,1.003347E0,3.4928608E1,1.017674E0,3.1331806E1],"tree_param":{"num_deleted":"0","num_feature":"777","num_nodes":"7","size_leaf_vector":"1"}},{"base_weights":[4.2515405E-2,-1.1613395E0,1.1847955E0,6.838336E-2,-9.856505E-2,1.9017601E-2,9.658943E-2],"categories":[],"categories_nodes":[],"categories_segments":[],"categories_sizes":[],"default_left":[0,0,0,0,0,0,0],"id":13,"left_children":[1,3,5,-1,-1,-1,-1],"loss_changes":[9.920792E1,5.109627E0,6.017914E-1,0E0,0E0,0E0,0E0],"parents":[2147483647,0,0,1,1,2,2],"right_children":[2,4,6,-1,-1,-1,-1],"split_conditions":[7.290602E-1,-2.1199691E0,-1.460028E0,6.838336E-2,-9.856505E-2,1.9017601E-2,9.658943E-2],"split_indices":[776,37,413,0,0,0,0],"split_type":[0,0,0,0,0,0,0],"sum_hessian":[7.2021805E1,3.5014153E1,3.7007652E1,1.1065865E0,3.3907566E1,1.0013598E0,3.600629E1],"tree_param":{"num_deleted":"0","num_feature":"777","num_nodes":"7","size_leaf_vector":"1"}},{"base_weights":[4.0122205E-3,-9.570313E-2,1.1684568E0,2.6670903E-2,9.529568E-2],"categories":[],"categories_nodes":[],"categories_segments":[],"categories_sizes":[],"default_left":[0,0,0,0,0],"id":14,"left_children":[1,-1,3,-1,-1],"loss_changes":[8.7245605E1,0E0,3.9585114E-1,0E0,0E0],"parents":[2147483647,0,0,2,2],"right_children":[2,-1,4,-1,-1],"split_conditions":[7.2496426E-1,-9.570313E-2,-1.2856462E0,2.6670903E-2,9.529568E-2],"split_indices":[776,0,654,0,0],"split_type":[0,0,0,0,0],"sum_hessian":[6.230392E1,3.062805E1,3.1675873E1,1.0044802E0,3.0671392E1],"tree_param":{"num_deleted":"0","num_feature":"777","num_nodes":"5","size_leaf_vector":"1"}},{"base_weights":[-4.795749E-3,-9.4139405E-2,1.0986918E0,1.1495137E0,-1.28565E-2,9.4013676E-2,4.382399E-2],"categories":[],"categories_nodes":[],"categories_segments":[],"categories_sizes":[],"default_left":[0,0,0,0,0,0,0],"id":15,"left_children":[1,-1,3,5,-1,-1,-1],"loss_changes":[7.7817276E1,0E0,2.1097527E0,2.1521378E-1,0E0,0E0,0E0],"parents":[2147483647,0,0,2,2,3,3],"right_children":[2,-1,4,6,-1,-1,-1],"split_conditions":[7.2496426E-1,-9.4139405E-2,9.740526E-1,2.430867E0,-1.28565E-2,9.4013676E-2,4.382399E-2],"split_indices":[776,0,437,79,0,0,0],"split_type":[0,0,0,0,0,0,0],"sum_hessian":[6.004564E1,2.9170351E1,3.0875286E1,2.977429E1,1.1009965E0,2.8310507E1,1.4637834E0],"tree_param":{"num_deleted":"0","num_feature":"777","num_nodes":"7","size_leaf_vector":"1"}},{"base_weights":[-7.036635E-2,-1.1091641E0,1.1183993E0,4.665153E-2,-9.455775E-2,9.222948E-2,3.4638435E-2],"categories":[],"categories_nodes":[],"categories_segments":[],"categories_sizes":[],"default_left":[0,0,0,0,0,0,0],"id":16,"left_children":[1,3,5,-1,-1,-1,-1],"loss_changes":[6.5305664E1,3.597004E0,3.6118317E-1,0E0,0E0,0E0,0E0],"parents":[2147483647,0,0,1,1,2,2],"right_children":[2,4,6,-1,-1,-1,-1],"split_conditions":[7.290602E-1,-1.9374995E0,1.430769E0,4.665153E-2,-9.455775E-2,9.222948E-2,3.4638435E-2],"split_indices":[776,82,319,0,0,0,0],"split_type":[0,0,0,0,0,0,0],"sum_hessian":[5.276455E1,2.8214441E1,2.4550106E1,1.0784636E0,2.7135979E1,2.3168957E1,1.3811492E0],"tree_param":{"num_deleted":"0","num_feature":"777","num_nodes":"7","size_leaf_vector":"1"}},{"base_weights":[1.1325085E-2,-9.151036E-2,1.05778E0,-0E0,9.146152E-2],"categories":[],"categories_nodes":[],"categories_segments":[],"categories_sizes":[],"default_left":[0,0,0,0,0],"id":17,"left_children":[1,-1,3,-1,-1],"loss_changes":[6.1715763E1,0E0,2.3922062E0,0E0,0E0],"parents":[2147483647,0,0,2,2],"right_children":[2,-1,4,-1,-1],"split_conditions":[7.199179E-1,-9.151036E-2,-7.15174E-1,-0E0,9.146152E-2],"split_indices":[776,0,66,0,0],"split_type":[0,0,0,0,0],"sum_hessian":[5.094095E1,2.4155214E1,2.6785732E1,2.0345094E0,2.4751223E1],"tree_param":{"num_deleted":"0","num_feature":"777","num_nodes":"5","size_leaf_vector":"1"}},{"base_weights":[5.426942E-2,-9.055611E-2,1.0464636E0,9.0659045E-2,-7.6860837E-3],"categories":[],"categories_nodes":[],"categories_segments":[],"categories_sizes":[],"default_left":[0,0,0,0,0],"id":18,"left_children":[1,-1,3,-1,-1],"loss_changes":[5.7999084E1,0E0,2.7971554E0,0E0,0E0],"parents":[2147483647,0,0,2,2],"right_children":[2,-1,4,-1,-1],"split_conditions":[7.2496426E-1,-9.055611E-2,1.6795905E0,9.0659045E-2,-7.6860837E-3],"split_indices":[776,0,718,0,0],"split_type":[0,0,0,0,0],"sum_hessian":[4.9166992E1,2.2334965E1,2.683203E1,2.5036087E1,1.7959428E0],"tree_param":{"num_deleted":"0","num_feature":"777","num_nodes":"5","size_leaf_vector":"1"}},{"base_weights":[3.898742E-2,-8.9575715E-2,1.0879061E0,2.6709255E-2,8.957313E-2],"categories":[],"categories_nodes":[],"categories_segments":[],"categories_sizes":[],"default_left":[0,0,0,0,0],"id":19,"left_children":[1,-1,3,-1,-1],"loss_changes":[5.6655018E1,0E0,3.903637E-1,0E0,0E0],"parents":[2147483647,0,0,2,2],"right_children":[2,-1,4,-1,-1],"split_conditions":[7.2496426E-1,-8.9575715E-2,-9.044103E-1,2.6709255E-2,8.957313E-2],"split_indices":[776,0,13,0,0],"split_type":[0,0,0,0,0],"sum_hessian":[4.649863E1,2.2037045E1,2.4461586E1,1.1692436E0,2.3292343E1],"tree_param":{"num_deleted":"0","num_feature":"777","num_nodes":"5","size_leaf_vector":"1"}},{"base_weights":[-1.560314E-2,-1.0785643E0,8.8320024E-2,2.1273848E-2,-9.230076E-2],"categories":[],"categories_nodes":[],"categories_segments":[],"categories_sizes":[],"default_left":[0,0,0,0,0],"id":20,"left_children":[1,3,-1,-1,-1],"loss_changes":[5.0117073E1,2.3145714E0,0E0,0E0,0E0],"parents":[2147483647,0,0,1,1],"right_children":[2,4,-1,-1,-1],"split_conditions":[7.3669034E-1,-1.6441951E0,8.8320024E-2,2.1273848E-2,-9.230076E-2],"split_indices":[776,45,0,0,0],"split_type":[0,0,0,0,0],"sum_hessian":[4.1994354E1,2.159821E1,2.0396147E1,1.0513877E0,2.0546822E1],"tree_param":{"num_deleted":"0","num_feature":"777","num_nodes":"5","size_leaf_vector":"1"}},{"base_weights":[-1.5360109E-2,-8.9337945E-2,1.0554718E0,1.340759E-2,8.777291E-2],"categories":[],"categories_nodes":[],"categories_segments":[],"categories_sizes":[],"default_left":[0,0,0,0,0],"id":21,"left_children":[1,-1,3,-1,-1],"loss_changes":[4.6884686E1,0E0,5.811424E-1,0E0,0E0],"parents":[2147483647,0,0,2,2],"right_children":[2,-1,4,-1,-1],"split_conditions":[7.2885185E-1,-8.9337945E-2,-2.1067536E0,1.340759E-2,8.777291E-2],"split_indices":[776,0,35,0,0],"split_type":[0,0,0,0,0],"sum_hessian":[3.9627613E1,1.958928E1,2.0038334E1,1.04129E0,1.8997044E1],"tree_param":{"num_deleted":"0","num_feature":"777","num_nodes":"5","size_leaf_vector":"1"}},{"base_weights":[-0E0,-8.702541E-2,1.0182439E0,8.7425485E-2,-2.83379E-3],"categories":[],"categories_nodes":[],"categories_segments":[],"categories_sizes":[],"default_left":[0,0,0,0,0],"id":22,"left_children":[1,-1,3,-1,-1],"loss_changes":[4.3197582E1,0E0,1.7137375E0,0E0,0E0],"parents":[2147483647,0,0,2,2],"right_children":[2,-1,4,-1,-1],"split_conditions":[7.2496426E-1,-8.702541E-2,1.6515068E0,8.7425485E-2,-2.83379E-3],"split_indices":[776,0,765,0,0],"split_type":[0,0,0,0,0],"sum_hessian":[3.8881516E1,1.8776215E1,2.0105299E1,1.8880651E1,1.2246475E0],"tree_param":{"num_deleted":"0","num_feature":"777","num_nodes":"5","size_leaf_vector":"1"}},{"base_weights":[2.0469867E-2,-1.0268817E0,1.0344615E0,2.4213629E-2,-8.9156024E-2,1.0107854E-2,8.6307965E-2],"categories":[],"categories_nodes":[],"categories_segments":[],"categories_sizes":[],"default_left":[0,0,0,0,0,0,0],"id":23,"left_children":[1,3,5,-1,-1,-1,-1],"loss_changes":[3.874344E1,2.2002373E0,5.9667397E-1,0E0,0E0,0E0,0E0],"parents":[2147483647,0,0,1,1,2,2],"right_children":[2,4,6,-1,-1,-1,-1],"split_conditions":[7.290602E-1,-2.206012E0,-2.349836E0,2.4213629E-2,-8.9156024E-2,1.0107854E-2,8.6307965E-2],"split_indices":[776,186,288,0,0,0,0],"split_type":[0,0,0,0,0,0,0],"sum_hessian":[3.6360516E1,1.7827448E1,1.853307E1,1.0078328E0,1.6819614E1,1.000409E0,1.753266E1],"tree_param":{"num_deleted":"0","num_feature":"777","num_nodes":"7","size_leaf_vector":"1"}},{"base_weights":[1.9557498E-2,-8.846525E-2,1.0267477E0,8.5750684E-2,9.982077E-3],"categories":[],"categories_nodes":[],"categories_segments":[],"categories_sizes":[],"default_left":[0,0,0,0,0],"id":24,"left_children":[1,-1,3,-1,-1],"loss_changes":[3.891303E1,0E0,5.883789E-1,0E0,0E0],"parents":[2147483647,0,0,2,2],"right_children":[2,-1,4,-1,-1],"split_conditions":[7.290602E-1,-8.846525E-2,1.0633956E0,8.5750684E-2,9.982077E-3],"split_indices":[776,0,90,0,0],"split_type":[0,0,0,0,0],"sum_hessian":[3.4219307E1,1.610242E1,1.8116886E1,1.7116032E1,1.0008541E0],"tree_param":{"num_deleted":"0","num_feature":"777","num_nodes":"5","size_leaf_vector":"1"}},{"base_weights":[2.5432908E-3,-9.926348E-1,1.011159E0,-8.783802E-2,2.9209036E-2,8.5108146E-2,1.0148022E-2],"categories":[],"categories_nodes":[],"categories_segments":[],"categories_sizes":[],"default_left":[0,0,0,0,0,0,0],"id":25,"left_children":[1,3,5,-1,-1,-1,-1],"loss_changes":[3.1121614E1,2.335431E0,5.692835E-1,0E0,0E0,0E0,0E0],"parents":[2147483647,0,0,1,1,2,2],"right_children":[2,4,6,-1,-1,-1,-1],"split_conditions":[7.290602E-1,2.2891517E0,1.4465793E0,-8.783802E-2,2.9209036E-2,8.5108146E-2,1.0148022E-2],"split_indices":[776,436,37,0,0,0,0],"split_type":[0,0,0,0,0,0,0],"sum_hessian":[3.0883064E1,1.5485677E1,1.53973875E1,1.4463399E1,1.0222781E0,1.4391941E1,1.0054468E0],"tree_param":{"num_deleted":"0","num_feature":"777","num_nodes":"7","size_leaf_vector":"1"}},{"base_weights":[-2.4259487E-2,-9.7597307E-1,9.9189657E-1,2.8460104E-2,-8.714533E-2,1.3614684E-2,8.44277E-2],"categories":[],"categories_nodes":[],"categories_segments":[],"categories_sizes":[],"default_left":[0,0,0,0,0,0,0],"id":26,"left_children":[1,3,5,-1,-1,-1,-1],"loss_changes":[2.6218378E1,2.233594E0,5.2266407E-1,0E0,0E0,0E0,0E0],"parents":[2147483647,0,0,1,1,2,2],"right_children":[2,4,6,-1,-1,-1,-1],"split_conditions":[7.290602E-1,-1.9817288E0,-1.1602302E0,2.8460104E-2,-8.714533E-2,1.3614684E-2,8.44277E-2],"split_indices":[776,248,763,0,0,0,0],"split_type":[0,0,0,0,0,0,0],"sum_hessian":[2.6992517E1,1.400043E1,1.2992087E1,1.005014E0,1.2995417E1,1.0826961E0,1.1909391E1],"tree_param":{"num_deleted":"0","num_feature":"777","num_nodes":"7","size_leaf_vector":"1"}},{"base_weights":[-2.5014637E-2,-8.396632E-2,9.0305734E-1,1.0068023E0,-2.3202669E-2,2.245634E-2,8.460869E-2],"categories":[],"categories_nodes":[],"categories_segments":[],"categories_sizes":[],"default_left":[0,0,0,0,0,0,0],"id":27,"left_children":[1,-1,3,5,-1,-1,-1],"loss_changes":[2.5920828E1,0E0,1.8652935E0,3.085661E-1,0E0,0E0,0E0],"parents":[2147483647,0,0,2,2,3,3],"right_children":[2,-1,4,6,-1,-1,-1],"split_conditions":[7.2496426E-1,-8.396632E-2,1.7643254E0,-1.3072176E0,-2.3202669E-2,2.245634E-2,8.460869E-2],"split_indices":[776,0,229,283,0,0,0],"split_type":[0,0,0,0,0,0,0],"sum_hessian":[2.7121832E1,1.2948505E1,1.4173327E1,1.3140634E1,1.0326937E0,1.0394042E0,1.210123E1],"tree_param":{"num_deleted":"0","num_feature":"777","num_nodes":"7","size_leaf_vector":"1"}},{"base_weights":[-2.5058262E-2,-1.0501208E0,8.3487384E-2,-8.873231E-2,-2.0939363E-2],"categories":[],"categories_nodes":[],"categories_segments":[],"categories_sizes":[],"default_left":[0,0,0,0,0],"id":28,"left_children":[1,3,-1,-1,-1],"loss_changes":[2.6049295E1,3.855753E-1,0E0,0E0,0E0],"parents":[2147483647,0,0,1,1],"right_children":[2,4,-1,-1,-1],"split_conditions":[7.3669034E-1,1.511127E0,8.3487384E-2,-8.873231E-2,-2.0939363E-2],"split_indices":[776,222,0,0,0],"split_type":[0,0,0,0,0],"sum_hessian":[2.3659155E1,1.21336975E1,1.1525457E1,1.112411E1,1.0095874E0],"tree_param":{"num_deleted":"0","num_feature":"777","num_nodes":"5","size_leaf_vector":"1"}},{"base_weights":[-2.4950167E-3,-8.335737E-2,5.7002395E-1,-5.5072516E-1,8.0206776E-1,-7.401293E-2,-0E0,-3.4026332E-2,9.4658786E-1,3.0999146E-2,8.063593E-2],"categories":[],"categories_nodes":[],"categories_segments":[],"categories_sizes":[],"default_left":[0,0,0,0,0,0,0,0,0,0,0],"id":29,"left_children":[1,-1,3,5,7,-1,-1,-1,9,-1,-1],"loss_changes":[1.3422529E1,0E0,3.8037271E0,4.804396E-1,2.2241755E0,0E0,0E0,0E0,1.8260193E-1,0E0,0E0],"parents":[2147483647,0,0,2,2,3,3,4,4,8,8],"right_children":[2,-1,4,6,8,-1,-1,-1,10,-1,-1],"split_conditions":[1E0,-8.335737E-2,7.5603914E-1,3.6544484E-1,-8.890618E-1,-7.401293E-2,-0E0,-3.4026332E-2,-6.4971715E-1,3.0999146E-2,8.063593E-2],"split_indices":[774,0,775,521,401,0,0,0,626,0,0],"split_type":[0,0,0,0,0,0,0,0,0,0,0],"sum_hessian":[2.2339373E1,7.991079E0,1.4348293E1,2.3583148E0,1.1989979E1,1.3582451E0,1.0000696E0,1.1632949E0,1.0826684E1,1.3075303E0,9.519154E0],"tree_param":{"num_deleted":"0","num_feature":"777","num_nodes":"11","size_leaf_vector":"1"}},{"base_weights":[6.197254E-3,-9.374526E-1,9.629046E-1,-8.565005E-2,1.8601367E-2,9.954051E-3,8.276661E-2],"categories":[],"categories_nodes":[],"categories_segments":[],"categories_sizes":[],"default_left":[0,0,0,0,0,0,0],"id":30,"left_children":[1,3,5,-1,-1,-1,-1],"loss_changes":[1.9783882E1,1.8243589E0,5.108738E-1,0E0,0E0,0E0,0E0],"parents":[2147483647,0,0,1,1,2,2],"right_children":[2,4,6,-1,-1,-1,-1],"split_conditions":[7.290602E-1,1.6877671E0,-1.5384041E0,-8.565005E-2,1.8601367E-2,9.954051E-3,8.276661E-2],"split_indices":[776,359,290,0,0,0,0],"split_type":[0,0,0,0,0,0,0],"sum_hessian":[2.1790619E1,1.0907634E1,1.0882985E1,9.889601E0,1.0180329E0,1.0018454E0,9.88114E0],"tree_param":{"num_deleted":"0","num_feature":"777","num_nodes":"7","size_leaf_vector":"1"}},{"base_weights":[-1.1961756E-1,-1.0346863E0,8.209879E-2,-2.6138233E-2,-8.7430224E-2],"categories":[],"categories_nodes":[],"categories_segments":[],"categories_sizes":[],"default_left":[0,0,0,0,0],"id":31,"left_children":[1,3,-1,-1,-1],"loss_changes":[2.0448166E1,2.5712967E-1,0E0,0E0,0E0],"parents":[2147483647,0,0,1,1],"right_children":[2,4,-1,-1,-1],"split_conditions":[7.3669034E-1,-1.1284281E0,8.209879E-2,-2.6138233E-2,-8.7430224E-2],"split_indices":[776,297,0,0,0],"split_type":[0,0,0,0,0],"sum_hessian":[1.937995E1,1.0836529E1,8.54342E0,1.0098416E0,9.826687E0],"tree_param":{"num_deleted":"0","num_feature":"777","num_nodes":"5","size_leaf_vector":"1"}},{"base_weights":[4.6819817E-2,-8.17523E-2,8.7456477E-1,8.294381E-2,-3.9164536E-2],"categories":[],"categories_nodes":[],"categories_segments":[],"categories_sizes":[],"default_left":[0,0,0,0,0],"id":32,"left_children":[1,-1,3,-1,-1],"loss_changes":[1.7616411E1,0E0,2.5957336E0,0E0,0E0],"parents":[2147483647,0,0,2,2],"right_children":[2,-1,4,-1,-1],"split_conditions":[7.2496426E-1,-8.17523E-2,1.6795905E0,8.294381E-2,-3.9164536E-2],"split_indices":[776,0,718,0,0],"split_type":[0,0,0,0,0],"sum_hessian":[1.9813234E1,8.578394E0,1.1234839E1,1.0132198E1,1.1026413E0],"tree_param":{"num_deleted":"0","num_feature":"777","num_nodes":"5","size_leaf_vector":"1"}},{"base_weights":[2.4373187E-2,-8.132043E-2,8.4624213E-1,-2.7094416E-2,8.250564E-2],"categories":[],"categories_nodes":[],"categories_segments":[],"categories_sizes":[],"default_left":[0,0,0,0,0],"id":33,"left_children":[1,-1,3,-1,-1],"loss_changes":[1.5367915E1,0E0,2.322341E0,0E0,0E0],"parents":[2147483647,0,0,2,2],"right_children":[2,-1,4,-1,-1],"split_conditions":[7.2496426E-1,-8.132043E-2,-2.9834E-1,-2.7094416E-2,8.250564E-2],"split_indices":[776,0,309,0,0],"split_type":[0,0,0,0,0],"sum_hessian":[1.7867933E1,7.8128796E0,1.0055055E1,1.2640558E0,8.790998E0],"tree_param":{"num_deleted":"0","num_feature":"777","num_nodes":"5","size_leaf_vector":"1"}},{"base_weights":[-4.4436334E-3,-8.7536496E-1,8.1031404E-2,4.2289555E-2,-8.693841E-2],"categories":[],"categories_nodes":[],"categories_segments":[],"categories_sizes":[],"default_left":[0,0,0,0,0],"id":34,"left_children":[1,3,-1,-1,-1],"loss_changes":[1.4620705E1,2.761527E0,0E0,0E0,0E0],"parents":[2147483647,0,0,1,1],"right_children":[2,4,-1,-1,-1],"split_conditions":[7.3669034E-1,-1.8312916E0,8.1031404E-2,4.2289555E-2,-8.693841E-2],"split_indices":[776,132,0,0,0],"split_type":[0,0,0,0,0],"sum_hessian":[1.6400139E1,8.903962E0,7.4961762E0,1.0789939E0,7.824968E0],"tree_param":{"num_deleted":"0","num_feature":"777","num_nodes":"5","size_leaf_vector":"1"}},{"base_weights":[-1.6290396E-2,8.283025E-1,-6.990071E-1,7.814307E-2,1.1433525E-2,2.4966428E-2,-9.809177E-1,-8.6819984E-2,-2.136677E-2],"categories":[],"categories_nodes":[],"categories_segments":[],"categories_sizes":[],"default_left":[0,0,0,0,0,0,0,0,0],"id":35,"left_children":[1,3,5,-1,-1,-1,7,-1,-1],"loss_changes":[8.518761E0,5.226207E-1,2.4537187E0,0E0,0E0,0E0,3.095045E-1,0E0,0E0],"parents":[2147483647,0,0,1,1,2,2,6,6],"right_children":[2,4,6,-1,-1,-1,8,-1,-1],"split_conditions":[1E0,1.7675748E-1,-1.174621E0,7.814307E-2,1.1433525E-2,2.4966428E-2,1.0084211E0,-8.6819984E-2,-2.136677E-2],"split_indices":[773,262,524,0,0,0,66,0,0],"split_type":[0,0,0,0,0,0,0,0,0],"sum_hessian":[1.4680333E1,6.4779096E0,8.202423E0,5.159523E0,1.3183866E0,1.6941556E0,6.508268E0,5.504429E0,1.0038387E0],"tree_param":{"num_deleted":"0","num_feature":"777","num_nodes":"9","size_leaf_vector":"1"}},{"base_weights":[1.79133E-2,-8.442797E-1,8.0603495E-2,4.504568E-2,-8.586624E-2],"categories":[],"categories_nodes":[],"categories_segments":[],"categories_sizes":[],"default_left":[0,0,0,0,0],"id":36,"left_children":[1,3,-1,-1,-1],"loss_changes":[1.3076371E1,2.7129197E0,0E0,0E0,0E0],"parents":[2147483647,0,0,1,1],"right_children":[2,4,-1,-1,-1],"split_conditions":[7.3669034E-1,-1.6984047E0,8.0603495E-2,4.504568E-2,-8.586624E-2],"split_indices":[776,295,0,0,0],"split_type":[0,0,0,0,0],"sum_hessian":[1.5182549E1,8.053594E0,7.128956E0,1.04169E0,7.011904E0],"tree_param":{"num_deleted":"0","num_feature":"777","num_nodes":"5","size_leaf_vector":"1"}},{"base_weights":[3.5462305E-2,-8.195608E-2,8.0530845E-2],"categories":[],"categories_nodes":[],"categories_segments":[],"categories_sizes":[],"default_left":[0,0,0],"id":37,"left_children":[1,-1,-1],"loss_changes":[1.3434259E1,0E0,0E0],"parents":[2147483647,0,0],"right_children":[2,-1,-1],"split_conditions":[7.290602E-1,-8.195608E-2,8.0530845E-2],"split_indices":[776,0,0],"split_type":[0,0,0],"sum_hessian":[1.2933053E1,6.1233425E0,6.809711E0],"tree_param":{"num_deleted":"0","num_feature":"777","num_nodes":"3","size_leaf_vector":"1"}},{"base_weights":[-0E0,-8.256236E-2,9.045273E-1,1.4611467E-2,8.0109775E-2],"categories":[],"categories_nodes":[],"categories_segments":[],"categories_sizes":[],"default_left":[0,0,0,0,0],"id":38,"left_children":[1,-1,3,-1,-1],"loss_changes":[1.2564708E1,0E0,3.4777403E-1,0E0,0E0],"parents":[2147483647,0,0,2,2],"right_children":[2,-1,4,-1,-1],"split_conditions":[7.290602E-1,-8.256236E-2,-1.5333707E0,1.4611467E-2,8.0109775E-2],"split_indices":[776,0,15,0,0],"split_type":[0,0,0,0,0],"sum_hessian":[1.3337678E1,6.2338367E0,7.103842E0,1.0073421E0,6.0964994E0],"tree_param":{"num_deleted":"0","num_feature":"777","num_nodes":"5","size_leaf_vector":"1"}},{"base_weights":[5.2164927E-2,-8.489689E-1,7.981524E-2,-8.472061E-2,1.2416576E-2],"categories":[],"categories_nodes":[],"categories_segments":[],"categories_sizes":[],"default_left":[0,0,0,0,0],"id":39,"left_children":[1,3,-1,-1,-1],"loss_changes":[1.0849234E1,1.4778395E0,0E0,0E0,0E0],"parents":[2147483647,0,0,1,1],"right_children":[2,4,-1,-1,-1],"split_conditions":[7.3669034E-1,1.3827451E0,7.981524E-2,-8.472061E-2,1.2416576E-2],"split_indices":[776,532,0,0,0],"split_type":[0,0,0,0,0],"sum_hessian":[1.2592577E1,6.3857994E0,6.2067776E0,5.3772836E0,1.0085162E0],"tree_param":{"num_deleted":"0","num_feature":"777","num_nodes":"5","size_leaf_vector":"1"}},{"base_weights":[6.4431265E-2,-7.865309E-2,7.872077E-1,8.080235E-2,-2.5354942E-2],"categories":[],"categories_nodes":[],"categories_segments":[],"categories_sizes":[],"default_left":[0,0,0,0,0],"id":40,"left_children":[1,-1,3,-1,-1],"loss_changes":[8.6002655E0,0E0,1.7764316E0,0E0,0E0],"parents":[2147483647,0,0,2,2],"right_children":[2,-1,4,-1,-1],"split_conditions":[7.228722E-1,-7.865309E-2,7.778101E-1,8.080235E-2,-2.5354942E-2],"split_indices":[776,0,516,0,0],"split_type":[0,0,0,0,0],"sum_hessian":[1.1268056E1,4.523719E0,6.744337E0,5.7065277E0,1.0378096E0],"tree_param":{"num_deleted":"0","num_feature":"777","num_nodes":"5","size_leaf_vector":"1"}},{"base_weights":[3.9089326E-2,-7.0125014E-1,7.894103E-2,2.1279072E-2,-8.345223E-2],"categories":[],"categories_nodes":[],"categories_segments":[],"categories_sizes":[],"default_left":[0,0,0,0,0],"id":41,"left_children":[1,3,-1,-1,-1],"loss_changes":[7.932162E0,2.176987E0,0E0,0E0,0E0],"parents":[2147483647,0,0,1,1],"right_children":[2,4,-1,-1,-1],"split_conditions":[7.3669034E-1,-1.3220451E0,7.894103E-2,2.1279072E-2,-8.345223E-2],"split_indices":[776,494,0,0,0],"split_type":[0,0,0,0,0],"sum_hessian":[1.1137806E1,6.190586E0,4.9472203E0,1.5285851E0,4.662001E0],"tree_param":{"num_deleted":"0","num_feature":"777","num_nodes":"5","size_leaf_vector":"1"}},{"base_weights":[3.1086601E-2,-8.015596E-2,8.705125E-1,1.7516289E-2,7.876186E-2],"categories":[],"categories_nodes":[],"categories_segments":[],"categories_sizes":[],"default_left":[0,0,0,0,0],"id":42,"left_children":[1,-1,3,-1,-1],"loss_changes":[8.613347E0,0E0,2.5514364E-1,0E0,0E0],"parents":[2147483647,0,0,2,2],"right_children":[2,-1,4,-1,-1],"split_conditions":[7.290602E-1,-8.015596E-2,-8.799185E-1,1.7516289E-2,7.876186E-2],"split_indices":[776,0,47,0,0],"split_type":[0,0,0,0,0],"sum_hessian":[9.830693E0,4.337811E0,5.492882E0,1.0008569E0,4.492025E0],"tree_param":{"num_deleted":"0","num_feature":"777","num_nodes":"5","size_leaf_vector":"1"}},{"base_weights":[1.8147908E-2,-7.749556E-2,7.13332E-1,-1.8269671E-2,7.9906836E-2],"categories":[],"categories_nodes":[],"categories_segments":[],"categories_sizes":[],"default_left":[0,0,0,0,0],"id":43,"left_children":[1,-1,3,-1,-1],"loss_changes":[6.1861057E0,0E0,1.5544875E0,0E0,0E0],"parents":[2147483647,0,0,2,2],"right_children":[2,-1,4,-1,-1],"split_conditions":[7.199179E-1,-7.749556E-2,-3.434835E-1,-1.8269671E-2,7.9906836E-2],"split_indices":[776,0,553,0,0],"split_type":[0,0,0,0,0],"sum_hessian":[8.941392E0,3.6143916E0,5.3269997E0,1.1443105E0,4.1826897E0],"tree_param":{"num_deleted":"0","num_feature":"777","num_nodes":"5","size_leaf_vector":"1"}},{"base_weights":[-0E0,-7.917186E-2,7.8021966E-2],"categories":[],"categories_nodes":[],"categories_segments":[],"categories_sizes":[],"default_left":[0,0,0],"id":44,"left_children":[1,-1,-1],"loss_changes":[7.6022596E0,0E0,0E0],"parents":[2147483647,0,0],"right_children":[2,-1,-1],"split_conditions":[7.2885185E-1,-7.917186E-2,7.8021966E-2],"split_indices":[776,0,0],"split_type":[0,0,0],"sum_hessian":[7.7564526E0,3.8520765E0,3.904376E0],"tree_param":{"num_deleted":"0","num_feature":"777","num_nodes":"3","size_leaf_vector":"1"}},{"base_weights":[-0E0,-7.053197E-1,7.725738E-2,3.796713E-2,-8.427283E-2],"categories":[],"categories_nodes":[],"categories_segments":[],"categories_sizes":[],"default_left":[0,0,0,0,0],"id":45,"left_children":[1,3,-1,-1,-1],"loss_changes":[5.7391014E0,2.1213174E0,0E0,0E0,0E0],"parents":[2147483647,0,0,1,1],"right_children":[2,4,-1,-1,-1],"split_conditions":[7.3669034E-1,-1.4423133E0,7.725738E-2,3.796713E-2,-8.427283E-2],"split_indices":[776,176,0,0,0],"split_type":[0,0,0,0,0],"sum_hessian":[8.330662E0,4.862781E0,3.467881E0,1.02428E0,3.838501E0],"tree_param":{"num_deleted":"0","num_feature":"777","num_nodes":"5","size_leaf_vector":"1"}},{"base_weights":[-1.0678841E-2,7.9426706E-1,-6.264276E-1,2.7180785E-2,7.444185E-2,-7.677374E-2,2.322571E-2],"categories":[],"categories_nodes":[],"categories_segments":[],"categories_sizes":[],"default_left":[0,0,0,0,0,0,0],"id":46,"left_children":[1,3,5,-1,-1,-1,-1],"loss_changes":[3.909824E0,3.62103E-2,1.4951184E0,0E0,0E0,0E0,0E0],"parents":[2147483647,0,0,1,1,2,2],"right_children":[2,4,6,-1,-1,-1,-1],"split_conditions":[1E0,-1.3889427E-1,1.0569124E0,2.7180785E-2,7.444185E-2,-7.677374E-2,2.322571E-2],"split_indices":[773,173,727,0,0,0,0],"split_type":[0,0,0,0,0,0,0],"sum_hessian":[7.808769E0,3.2924237E0,4.5163455E0,1.0108513E0,2.2815726E0,3.4062424E0,1.110103E0],"tree_param":{"num_deleted":"0","num_feature":"777","num_nodes":"7","size_leaf_vector":"1"}},{"base_weights":[5.89071E-2,-5.942021E-1,7.679338E-2,-8.334182E-2,2.6156148E-2],"categories":[],"categories_nodes":[],"categories_segments":[],"categories_sizes":[],"default_left":[0,0,0,0,0],"id":47,"left_children":[1,3,-1,-1,-1],"loss_changes":[4.5337896E0,1.89949E0,0E0,0E0,0E0],"parents":[2147483647,0,0,1,1],"right_children":[2,4,-1,-1,-1],"split_conditions":[7.3669034E-1,8.820035E-1,7.679338E-2,-8.334182E-2,2.6156148E-2],"split_indices":[776,595,0,0,0],"split_type":[0,0,0,0,0],"sum_hessian":[7.5117893E0,4.2896366E0,3.222153E0,2.9693177E0,1.3203188E0],"tree_param":{"num_deleted":"0","num_feature":"777","num_nodes":"5","size_leaf_vector":"1"}},{"base_weights":[-1.06913885E-2,-7.4059196E-2,7.662245E-2],"categories":[],"categories_nodes":[],"categories_segments":[],"categories_sizes":[],"default_left":[0,0,0],"id":48,"left_children":[1,-1,-1],"loss_changes":[5.9690204E0,0E0,0E0],"parents":[2147483647,0,0],"right_children":[2,-1,-1],"split_conditions":[7.3669034E-1,-7.4059196E-2,7.662245E-2],"split_indices":[776,0,0],"split_type":[0,0,0],"sum_hessian":[6.619839E0,3.4688725E0,3.1509666E0],"tree_param":{"num_deleted":"0","num_feature":"777","num_nodes":"3","size_leaf_vector":"1"}},{"base_weights":[6.4941466E-2,6.4548686E-2,-6.1056614E-1,-7.664806E-2,9.131825E-3],"categories":[],"categories_nodes":[],"categories_segments":[],"categories_sizes":[],"default_left":[0,0,0,0,0],"id":49,"left_children":[1,-1,3,-1,-1],"loss_changes":[3.4543934E0,0E0,9.8981416E-1,0E0,0E0],"parents":[2147483647,0,0,2,2],"right_children":[2,-1,4,-1,-1],"split_conditions":[1E0,6.4548686E-2,8.904143E-1,-7.664806E-2,9.131825E-3],"split_indices":[773,0,44,0,0],"split_type":[0,0,0,0,0],"sum_hessian":[6.7266693E0,3.2848554E0,3.441814E0,2.4251163E0,1.0166976E0],"tree_param":{"num_deleted":"0","num_feature":"777","num_nodes":"5","size_leaf_vector":"1"}},{"base_weights":[1.7448714E-1,-7.352446E-2,6.262607E-1,-0E0,8.283328E-1,7.668537E-2,3.0566437E-2],"categories":[],"categories_nodes":[],"categories_segments":[],"categories_sizes":[],"default_left":[0,0,0,0,0,0,0],"id":50,"left_children":[1,-1,3,-1,5,-1,-1],"loss_changes":[3.2367728E0,0E0,5.560888E-1,0E0,2.2064686E-2,0E0,0E0],"parents":[2147483647,0,0,2,2,4,4],"right_children":[2,-1,4,-1,6,-1,-1],"split_conditions":[1E0,-7.352446E-2,7.6292473E-1,-0E0,2.1998325E-2,7.668537E-2,3.0566437E-2],"split_indices":[774,0,775,0,521,0,0],"split_type":[0,0,0,0,0,0,0],"sum_hessian":[6.492941E0,1.8024154E0,4.6905255E0,1.224607E0,3.4659185E0,2.421453E0,1.0444655E0],"tree_param":{"num_deleted":"0","num_feature":"777","num_nodes":"7","size_leaf_vector":"1"}},{"base_weights":[-2.2971477E-2,-7.485597E-2,5.915861E-1,-1.1144663E-2,7.694414E-2],"categories":[],"categories_nodes":[],"categories_segments":[],"categories_sizes":[],"default_left":[0,0,0,0,0],"id":51,"left_children":[1,-1,3,-1,-1],"loss_changes":[3.2628276E0,0E0,1.0145793E0,0E0,0E0],"parents":[2147483647,0,0,2,2],"right_children":[2,-1,4,-1,-1],"split_conditions":[7.2496426E-1,-7.485597E-2,-3.0493882E-1,-1.1144663E-2,7.694414E-2],"split_indices":[776,0,495,0,0],"split_type":[0,0,0,0,0],"sum_hessian":[5.6240516E0,2.3289914E0,3.2950604E0,1.0114679E0,2.2835925E0],"tree_param":{"num_deleted":"0","num_feature":"777","num_nodes":"5","size_leaf_vector":"1"}},{"base_weights":[9.7448505E-2,-7.434873E-2,7.799401E-1,1.5815835E-2,7.7009596E-2],"categories":[],"categories_nodes":[],"categories_segments":[],"categories_sizes":[],"default_left":[0,0,0,0,0],"id":52,"left_children":[1,-1,3,-1,-1],"loss_changes":[3.9979358E0,0E0,2.2246408E-1,0E0,0E0],"parents":[2147483647,0,0,2,2],"right_children":[2,-1,4,-1,-1],"split_conditions":[7.2496426E-1,-7.434873E-2,-6.713959E-1,1.5815835E-2,7.7009596E-2],"split_indices":[776,0,533,0,0],"split_type":[0,0,0,0,0],"sum_hessian":[5.6084437E0,2.1604784E0,3.4479656E0,1.0101635E0,2.437802E0],"tree_param":{"num_deleted":"0","num_feature":"777","num_nodes":"5","size_leaf_vector":"1"}},{"base_weights":[3.8966123E-2,-7.3778085E-2,6.151947E-1,-9.819122E-3,7.675665E-2],"categories":[],"categories_nodes":[],"categories_segments":[],"categories_sizes":[],"default_left":[0,0,0,0,0],"id":53,"left_children":[1,-1,3,-1,-1],"loss_changes":[3.1298583E0,0E0,1.0347704E0,0E0,0E0],"parents":[2147483647,0,0,2,2],"right_children":[2,-1,4,-1,-1],"split_conditions":[7.2496426E-1,-7.3778085E-2,-4.802574E-1,-9.819122E-3,7.675665E-2],"split_indices":[776,0,491,0,0],"split_type":[0,0,0,0,0],"sum_hessian":[5.595987E0,2.005832E0,3.5901551E0,1.0434796E0,2.5466754E0],"tree_param":{"num_deleted":"0","num_feature":"777","num_nodes":"5","size_leaf_vector":"1"}},{"base_weights":[-0E0,-7.863487E-1,7.427836E-2,-1.995665E-2,-8.1417836E-2],"categories":[],"categories_nodes":[],"categories_segments":[],"categories_sizes":[],"default_left":[0,0,0,0,0],"id":54,"left_children":[1,3,-1,-1,-1],"loss_changes":[3.6112256E0,1.7525935E-1,0E0,0E0,0E0],"parents":[2147483647,0,0,1,1],"right_children":[2,4,-1,-1,-1],"split_conditions":[7.3669034E-1,-4.060823E-1,7.427836E-2,-1.995665E-2,-8.1417836E-2],"split_indices":[776,210,0,0,0],"split_type":[0,0,0,0,0],"sum_hessian":[4.8486323E0,2.6975784E0,2.151054E0,1.0061637E0,1.6914147E0],"tree_param":{"num_deleted":"0","num_feature":"777","num_nodes":"5","size_leaf_vector":"1"}},{"base_weights":[2.2480816E-2,-5.806704E-1,7.393244E-2,9.396095E-3,-8.042268E-2],"categories":[],"categories_nodes":[],"categories_segments":[],"categories_sizes":[],"default_left":[0,0,0,0,0],"id":55,"left_children":[1,3,-1,-1,-1],"loss_changes":[2.8052406E0,9.931139E-1,0E0,0E0,0E0],"parents":[2147483647,0,0,1,1],"right_children":[2,4,-1,-1,-1],"split_conditions":[7.3669034E-1,-8.0509424E-1,7.393244E-2,9.396095E-3,-8.042268E-2],"split_indices":[776,300,0,0,0],"split_type":[0,0,0,0,0],"sum_hessian":[4.9631577E0,2.9069235E0,2.0562341E0,1.0089182E0,1.8980052E0],"tree_param":{"num_deleted":"0","num_feature":"777","num_nodes":"5","size_leaf_vector":"1"}},{"base_weights":[1.3674957E-1,-7.205586E-2,7.5917447E-1,2.1307455E-2,7.550413E-2],"categories":[],"categories_nodes":[],"categories_segments":[],"categories_sizes":[],"default_left":[0,0,0,0,0],"id":56,"left_children":[1,-1,3,-1,-1],"loss_changes":[2.9909844E0,0E0,1.105417E-1,0E0,0E0],"parents":[2147483647,0,0,2,2],"right_children":[2,-1,4,-1,-1],"split_conditions":[7.2496426E-1,-7.205586E-2,-6.6491663E-1,2.1307455E-2,7.550413E-2],"split_indices":[776,0,18,0,0],"split_type":[0,0,0,0,0],"sum_hessian":[4.5346828E0,1.6180776E0,2.9166052E0,1.0119333E0,1.9046719E0],"tree_param":{"num_deleted":"0","num_feature":"777","num_nodes":"5","size_leaf_vector":"1"}},{"base_weights":[3.9127152E-2,-7.139117E-2,5.6510913E-1,7.529877E-2,-5.0471677E-3],"categories":[],"categories_nodes":[],"categories_segments":[],"categories_sizes":[],"default_left":[0,0,0,0,0],"id":57,"left_children":[1,-1,3,-1,-1],"loss_changes":[2.2005537E0,0E0,8.1809217E-1,0E0,0E0],"parents":[2147483647,0,0,2,2],"right_children":[2,-1,4,-1,-1],"split_conditions":[7.2496426E-1,-7.139117E-2,5.5089384E-1,7.529877E-2,-5.0471677E-3],"split_indices":[776,0,263,0,0],"split_type":[0,0,0,0,0],"sum_hessian":[4.449684E0,1.5083848E0,2.9412992E0,1.9405468E0,1.0007523E0],"tree_param":{"num_deleted":"0","num_feature":"777","num_nodes":"5","size_leaf_vector":"1"}},{"base_weights":[-0E0,-5.852696E-1,7.202256E-2,-8.061942E-2,-0E0],"categories":[],"categories_nodes":[],"categories_segments":[],"categories_sizes":[],"default_left":[0,0,0,0,0],"id":58,"left_children":[1,3,-1,-1,-1],"loss_changes":[2.2503066E0,7.164833E-1,0E0,0E0,0E0],"parents":[2147483647,0,0,1,1],"right_children":[2,4,-1,-1,-1],"split_conditions":[7.3669034E-1,3.1873056E-1,7.202256E-2,-8.061942E-2,-0E0],"split_indices":[776,730,0,0,0],"split_type":[0,0,0,0,0],"sum_hessian":[4.1549015E0,2.5353394E0,1.6195621E0,1.520916E0,1.0144234E0],"tree_param":{"num_deleted":"0","num_feature":"777","num_nodes":"5","size_leaf_vector":"1"}},{"base_weights":[-0E0,6.285226E-2,-6.559674E-1,-7.762843E-2,-1.1513945E-2],"categories":[],"categories_nodes":[],"categories_segments":[],"categories_sizes":[],"default_left":[0,0,0,0,0],"id":59,"left_children":[1,-1,3,-1,-1],"loss_changes":[2.1558666E0,0E0,2.1846867E-1,0E0,0E0],"parents":[2147483647,0,0,2,2],"right_children":[2,-1,4,-1,-1],"split_conditions":[1E0,6.285226E-2,4.1413003E-1,-7.762843E-2,-1.1513945E-2],"split_indices":[773,0,727,0,0],"split_type":[0,0,0,0,0],"sum_hessian":[4.051095E0,1.871306E0,2.179789E0,1.1720846E0,1.0077044E0],"tree_param":{"num_deleted":"0","num_feature":"777","num_nodes":"5","size_leaf_vector":"1"}},{"base_weights":[1.921162E-2,-4.63998E-1,7.1335346E-2,1.7433347E-2,-7.877542E-2],"categories":[],"categories_nodes":[],"categories_segments":[],"categories_sizes":[],"default_left":[0,0,0,0,0],"id":60,"left_children":[1,3,-1,-1,-1],"loss_changes":[1.7958505E0,1.0195892E0,0E0,0E0,0E0],"parents":[2147483647,0,0,1,1],"right_children":[2,4,-1,-1,-1],"split_conditions":[7.3669034E-1,-6.026813E-1,7.1335346E-2,1.7433347E-2,-7.877542E-2],"split_indices":[776,555,0,0,0],"split_type":[0,0,0,0,0],"sum_hessian":[4.0190797E0,2.5161188E0,1.502961E0,1.0047289E0,1.5113897E0],"tree_param":{"num_deleted":"0","num_feature":"777","num_nodes":"5","size_leaf_vector":"1"}},{"base_weights":[3.0895265E-2,-5.203249E-1,7.138621E-2,-7.685787E-2,-0E0],"categories":[],"categories_nodes":[],"categories_segments":[],"categories_sizes":[],"default_left":[0,0,0,0,0],"id":61,"left_children":[1,3,-1,-1,-1],"loss_changes":[1.8629432E0,5.4585874E-1,0E0,0E0,0E0],"parents":[2147483647,0,0,1,1],"right_children":[2,4,-1,-1,-1],"split_conditions":[7.3669034E-1,3.1162304E-1,7.138621E-2,-7.685787E-2,-0E0],"split_indices":[776,389,0,0,0],"split_type":[0,0,0,0,0],"sum_hessian":[3.7106366E0,2.1922793E0,1.5183574E0,1.1920577E0,1.0002216E0],"tree_param":{"num_deleted":"0","num_feature":"777","num_nodes":"5","size_leaf_vector":"1"}},{"base_weights":[2.1996574E-2,5.8473177E-2,-4.4811502E-2],"categories":[],"categories_nodes":[],"categories_segments":[],"categories_sizes":[],"default_left":[0,0,0],"id":62,"left_children":[1,-1,-1],"loss_changes":[1.4985706E0,0E0,0E0],"parents":[2147483647,0,0],"right_children":[2,-1,-1],"split_conditions":[1E0,5.8473177E-2,-4.4811502E-2],"split_indices":[773,0,0],"split_type":[0,0,0],"sum_hessian":[3.4620469E0,1.6470754E0,1.8149714E0],"tree_param":{"num_deleted":"0","num_feature":"777","num_nodes":"3","size_leaf_vector":"1"}},{"base_weights":[2.935345E-2,-6.846092E-2,5.067025E-1,7.226548E-2,-0E0],"categories":[],"categories_nodes":[],"categories_segments":[],"categories_sizes":[],"default_left":[0,0,0,0,0],"id":63,"left_children":[1,-1,3,-1,-1],"loss_changes":[1.5113316E0,0E0,5.6530833E-1,0E0,0E0],"parents":[2147483647,0,0,2,2],"right_children":[2,-1,4,-1,-1],"split_conditions":[7.228722E-1,-6.846092E-2,2.8251156E-1,7.226548E-2,-0E0],"split_indices":[776,0,298,0,0],"split_type":[0,0,0,0,0],"sum_hessian":[3.554604E0,1.1406409E0,2.4139633E0,1.4112189E0,1.0027443E0],"tree_param":{"num_deleted":"0","num_feature":"777","num_nodes":"5","size_leaf_vector":"1"}},{"base_weights":[3.173007E-2,-6.786661E-2,5.771556E-1,1.1611931E-2,6.8956755E-2],"categories":[],"categories_nodes":[],"categories_segments":[],"categories_sizes":[],"default_left":[0,0,0,0,0],"id":64,"left_children":[1,-1,3,-1,-1],"loss_changes":[1.5097171E0,0E0,1.2580079E-1,0E0,0E0],"parents":[2147483647,0,0,2,2],"right_children":[2,-1,4,-1,-1],"split_conditions":[7.2496426E-1,-6.786661E-2,8.214474E-1,1.1611931E-2,6.8956755E-2],"split_indices":[776,0,703,0,0],"split_type":[0,0,0,0,0],"sum_hessian":[3.091779E0,1.0860565E0,2.0057225E0,1.0003132E0,1.0054094E0],"tree_param":{"num_deleted":"0","num_feature":"777","num_nodes":"5","size_leaf_vector":"1"}},{"base_weights":[2.1477703E-2,-6.684386E-2,5.3420167E-2],"categories":[],"categories_nodes":[],"categories_segments":[],"categories_sizes":[],"default_left":[0,0,0],"id":65,"left_children":[1,-1,-1],"loss_changes":[1.4503973E0,0E0,0E0],"parents":[2147483647,0,0],"right_children":[2,-1,-1],"split_conditions":[7.2496426E-1,-6.684386E-2,5.3420167E-2],"split_indices":[776,0,0],"split_type":[0,0,0],"sum_hessian":[2.5345552E0,1.0022359E0,1.5323192E0],"tree_param":{"num_deleted":"0","num_feature":"777","num_nodes":"3","size_leaf_vector":"1"}},{"base_weights":[1.7591242E-2,-3.3752568E-2,6.8539694E-2],"categories":[],"categories_nodes":[],"categories_segments":[],"categories_sizes":[],"default_left":[0,0,0],"id":66,"left_children":[1,-1,-1],"loss_changes":[1.2534555E0,0E0,0E0],"parents":[2147483647,0,0],"right_children":[2,-1,-1],"split_conditions":[7.3669034E-1,-3.3752568E-2,6.8539694E-2],"split_indices":[776,0,0],"split_type":[0,0,0],"sum_hessian":[3.1383832E0,1.9853894E0,1.1529938E0],"tree_param":{"num_deleted":"0","num_feature":"777","num_nodes":"3","size_leaf_vector":"1"}},{"base_weights":[1.9367877E-2,-3.2843947E-2,5.191761E-2],"categories":[],"categories_nodes":[],"categories_segments":[],"categories_sizes":[],"default_left":[0,0,0],"id":67,"left_children":[1,-1,-1],"loss_changes":[7.6963663E-1,0E0,0E0],"parents":[2147483647,0,0],"right_children":[2,-1,-1],"split_conditions":[8.6022806E-1,-3.2843947E-2,5.191761E-2],"split_indices":[134,0,0],"split_type":[0,0,0],"sum_hessian":[2.6186185E0,1.4552175E0,1.163401E0],"tree_param":{"num_deleted":"0","num_feature":"777","num_nodes":"3","size_leaf_vector":"1"}},{"base_weights":[-0E0,-4.864557E-2,3.7065737E-2],"categories":[],"categories_nodes":[],"categories_segments":[],"categories_sizes":[],"default_left":[0,0,0],"id":68,"left_children":[1,-1,-1],"loss_changes":[8.122436E-1,0E0,0E0],"parents":[2147483647,0,0],"right_children":[2,-1,-1],"split_conditions":[2.9217944E-1,-4.864557E-2,3.7065737E-2],"split_indices":[456,0,0],"split_type":[0,0,0],"sum_hessian":[2.8151033E0,1.1146951E0,1.7004082E0],"tree_param":{"num_deleted":"0","num_feature":"777","num_nodes":"3","size_leaf_vector":"1"}},{"base_weights":[1.5119828E-2,4.868163E-2,-3.949574E-2],"categories":[],"categories_nodes":[],"categories_segments":[],"categories_sizes":[],"default_left":[0,0,0],"id":69,"left_children":[1,-1,-1],"loss_changes":[8.9324254E-1,0E0,0E0],"parents":[2147483647,0,0],"right_children":[2,-1,-1],"split_conditions":[-6.414186E-1,4.868163E-2,-3.949574E-2],"split_indices":[151,0,0],"split_type":[0,0,0],"sum_hessian":[2.7930863E0,1.3928167E0,1.4002696E0],"tree_param":{"num_deleted":"0","num_feature":"777","num_nodes":"3","size_leaf_vector":"1"}},{"base_weights":[-3.5531953E-2,-7.044337E-2,4.620905E-2],"categories":[],"categories_nodes":[],"categories_segments":[],"categories_sizes":[],"default_left":[0,0,0],"id":70,"left_children":[1,-1,-1],"loss_changes":[1.3903816E0,0E0,0E0],"parents":[2147483647,0,0],"right_children":[2,-1,-1],"split_conditions":[7.290602E-1,-7.044337E-2,4.620905E-2],"split_indices":[776,0,0],"split_type":[0,0,0],"sum_hessian":[2.494484E0,1.1202078E0,1.3742763E0],"tree_param":{"num_deleted":"0","num_feature":"777","num_nodes":"3","size_leaf_vector":"1"}},{"base_weights":[-0E0,5.597417E-2,-4.3014172E-2],"categories":[],"categories_nodes":[],"categories_segments":[],"categories_sizes":[],"default_left":[0,0,0],"id":71,"left_children":[1,-1,-1],"loss_changes":[1.0237924E0,0E0,0E0],"parents":[2147483647,0,0],"right_children":[2,-1,-1],"split_conditions":[1E0,5.597417E-2,-4.3014172E-2],"split_indices":[773,0,0],"split_type":[0,0,0],"sum_hessian":[2.559342E0,1.1832107E0,1.3761312E0],"tree_param":{"num_deleted":"0","num_feature":"777","num_nodes":"3","size_leaf_vector":"1"}},{"base_weights":[3.5991874E-2,5.4740615E-2,-3.3672784E-2],"categories":[],"categories_nodes":[],"categories_segments":[],"categories_sizes":[],"default_left":[0,0,0],"id":72,"left_children":[1,-1,-1],"loss_changes":[8.618098E-1,0E0,0E0],"parents":[2147483647,0,0],"right_children":[2,-1,-1],"split_conditions":[1E0,5.4740615E-2,-3.3672784E-2],"split_indices":[773,0,0],"split_type":[0,0,0],"sum_hessian":[2.6845798E0,1.2061046E0,1.4784752E0],"tree_param":{"num_deleted":"0","num_feature":"777","num_nodes":"3","size_leaf_vector":"1"}},{"base_weights":[-0E0,4.9536023E-2,-3.643457E-2],"categories":[],"categories_nodes":[],"categories_segments":[],"categories_sizes":[],"default_left":[0,0,0],"id":73,"left_children":[1,-1,-1],"loss_changes":[7.4244285E-1,0E0,0E0],"parents":[2147483647,0,0],"right_children":[2,-1,-1],"split_conditions":[1E0,4.9536023E-2,-3.643457E-2],"split_indices":[773,0,0],"split_type":[0,0,0],"sum_hessian":[2.5068164E0,1.0627462E0,1.4440702E0],"tree_param":{"num_deleted":"0","num_feature":"777","num_nodes":"3","size_leaf_vector":"1"}},{"base_weights":[1.4549911E-1,4.5925308E-2,-2.2007044E-2],"categories":[],"categories_nodes":[],"categories_segments":[],"categories_sizes":[],"default_left":[0,0,0],"id":74,"left_children":[1,-1,-1],"loss_changes":[4.7205117E-1,0E0,0E0],"parents":[2147483647,0,0],"right_children":[2,-1,-1],"split_conditions":[-6.414186E-1,4.5925308E-2,-2.2007044E-2],"split_indices":[151,0,0],"split_type":[0,0,0],"sum_hessian":[2.3072615E0,1.2732617E0,1.0339997E0],"tree_param":{"num_deleted":"0","num_feature":"777","num_nodes":"3","size_leaf_vector":"1"}},{"base_weights":[-0E0,4.0591773E-2,-4.0276814E-2],"categories":[],"categories_nodes":[],"categories_segments":[],"categories_sizes":[],"default_left":[0,0,0],"id":75,"left_children":[1,-1,-1],"loss_changes":[6.1457896E-1,0E0,0E0],"parents":[2147483647,0,0],"right_children":[2,-1,-1],"split_conditions":[-5.399067E-1,4.0591773E-2,-4.0276814E-2],"split_indices":[151,0,0],"split_type":[0,0,0],"sum_hessian":[2.2867575E0,1.0790124E0,1.2077451E0],"tree_param":{"num_deleted":"0","num_feature":"777","num_nodes":"3","size_leaf_vector":"1"}},{"base_weights":[-2.4135228E-2,-4.914585E-2,3.52981E-2],"categories":[],"categories_nodes":[],"categories_segments":[],"categories_sizes":[],"default_left":[0,0,0],"id":76,"left_children":[1,-1,-1],"loss_changes":[6.421805E-1,0E0,0E0],"parents":[2147483647,0,0],"right_children":[2,-1,-1],"split_conditions":[5.4869485E-1,-4.914585E-2,3.52981E-2],"split_indices":[598,0,0],"split_type":[0,0,0],"sum_hessian":[2.1433277E0,1.0501493E0,1.0931784E0],"tree_param":{"num_deleted":"0","num_feature":"777","num_nodes":"3","size_leaf_vector":"1"}},{"base_weights":[-0E0,-3.841188E-2,3.924924E-2],"categories":[],"categories_nodes":[],"categories_segments":[],"categories_sizes":[],"default_left":[0,0,0],"id":77,"left_children":[1,-1,-1],"loss_changes":[5.623997E-1,0E0,0E0],"parents":[2147483647,0,0],"right_children":[2,-1,-1],"split_conditions":[4.6020326E-1,-3.841188E-2,3.924924E-2],"split_indices":[684,0,0],"split_type":[0,0,0],"sum_hessian":[2.26653E0,1.1255842E0,1.1409459E0],"tree_param":{"num_deleted":"0","num_feature":"777","num_nodes":"3","size_leaf_vector":"1"}},{"base_weights":[6.410213E-2,-2.4969889E-2,3.8749352E-2],"categories":[],"categories_nodes":[],"categories_segments":[],"categories_sizes":[],"default_left":[0,0,0],"id":78,"left_children":[1,-1,-1],"loss_changes":[3.849428E-1,0E0,0E0],"parents":[2147483647,0,0],"right_children":[2,-1,-1],"split_conditions":[5.5532235E-1,-2.4969889E-2,3.8749352E-2],"split_indices":[598,0,0],"split_type":[0,0,0],"sum_hessian":[2.186491E0,1.0111779E0,1.175313E0],"tree_param":{"num_deleted":"0","num_feature":"777","num_nodes":"3","size_leaf_vector":"1"}},{"base_weights":[-0E0],"categories":[],"categories_nodes":[],"categories_segments":[],"categories_sizes":[],"default_left":[0],"id":79,"left_children":[-1],"loss_changes":[0E0],"parents":[2147483647],"right_children":[-1],"split_conditions":[-0E0],"split_indices":[0],"split_type":[0],"sum_hessian":[1.8909532E0],"tree_param":{"num_deleted":"0","num_feature":"777","num_nodes":"1","size_leaf_vector":"1"}},{"base_weights":[-0E0,4.217483E-2,-3.224671E-2],"categories":[],"categories_nodes":[],"categories_segments":[],"categories_sizes":[],"default_left":[0,0,0],"id":80,"left_children":[1,-1,-1],"loss_changes":[5.3593695E-1,0E0,0E0],"parents":[2147483647,0,0],"right_children":[2,-1,-1],"split_conditions":[-6.414186E-1,4.217483E-2,-3.224671E-2],"split_indices":[151,0,0],"split_type":[0,0,0],"sum_hessian":[2.3367097E0,1.1247703E0,1.2119393E0],"tree_param":{"num_deleted":"0","num_feature":"777","num_nodes":"3","size_leaf_vector":"1"}},{"base_weights":[3.4654856E-2],"categories":[],"categories_nodes":[],"categories_segments":[],"categories_sizes":[],"default_left":[0],"id":81,"left_children":[-1],"loss_changes":[0E0],"parents":[2147483647],"right_children":[-1],"split_conditions":[2.7723883E-3],"split_indices":[0],"split_type":[0],"sum_hessian":[1.6940199E0],"tree_param":{"num_deleted":"0","num_feature":"777","num_nodes":"1","size_leaf_vector":"1"}},{"base_weights":[-0E0,4.143474E-2,-4.280056E-2],"categories":[],"categories_nodes":[],"categories_segments":[],"categories_sizes":[],"default_left":[0,0,0],"id":82,"left_children":[1,-1,-1],"loss_changes":[6.6153425E-1,0E0,0E0],"parents":[2147483647,0,0],"right_children":[2,-1,-1],"split_conditions":[-5.293833E-1,4.143474E-2,-4.280056E-2],"split_indices":[151,0,0],"split_type":[0,0,0],"sum_hessian":[2.2718725E0,1.224857E0,1.0470154E0],"tree_param":{"num_deleted":"0","num_feature":"777","num_nodes":"3","size_leaf_vector":"1"}},{"base_weights":[-0E0],"categories":[],"categories_nodes":[],"categories_segments":[],"categories_sizes":[],"default_left":[0],"id":83,"left_children":[-1],"loss_changes":[0E0],"parents":[2147483647],"right_children":[-1],"split_conditions":[-0E0],"split_indices":[0],"split_type":[0],"sum_hessian":[1.9760791E0],"tree_param":{"num_deleted":"0","num_feature":"777","num_nodes":"1","size_leaf_vector":"1"}},{"base_weights":[-0E0],"categories":[],"categories_nodes":[],"categories_segments":[],"categories_sizes":[],"default_left":[0],"id":84,"left_children":[-1],"loss_changes":[0E0],"parents":[2147483647],"right_children":[-1],"split_conditions":[-0E0],"split_indices":[0],"split_type":[0],"sum_hessian":[1.9903501E0],"tree_param":{"num_deleted":"0","num_feature":"777","num_nodes":"1","size_leaf_vector":"1"}},{"base_weights":[-0E0],"categories":[],"categories_nodes":[],"categories_segments":[],"categories_sizes":[],"default_left":[0],"id":85,"left_children":[-1],"loss_changes":[0E0],"parents":[2147483647],"right_children":[-1],"split_conditions":[-0E0],"split_indices":[0],"split_type":[0],"sum_hessian":[1.8539778E0],"tree_param":{"num_deleted":"0","num_feature":"777","num_nodes":"1","size_leaf_vector":"1"}},{"base_weights":[-0E0,3.798957E-2,-4.1563567E-2],"categories":[],"categories_nodes":[],"categories_segments":[],"categories_sizes":[],"default_left":[0,0,0],"id":86,"left_children":[1,-1,-1],"loss_changes":[5.64897E-1,0E0,0E0],"parents":[2147483647,0,0],"right_children":[2,-1,-1],"split_conditions":[-6.414186E-1,3.798957E-2,-4.1563567E-2],"split_indices":[151,0,0],"split_type":[0,0,0],"sum_hessian":[2.1632152E0,1.0970732E0,1.066142E0],"tree_param":{"num_deleted":"0","num_feature":"777","num_nodes":"3","size_leaf_vector":"1"}},{"base_weights":[-0E0,-3.716301E-2,3.4027055E-2],"categories":[],"categories_nodes":[],"categories_segments":[],"categories_sizes":[],"default_left":[0,0,0],"id":87,"left_children":[1,-1,-1],"loss_changes":[4.2638934E-1,0E0,0E0],"parents":[2147483647,0,0],"right_children":[2,-1,-1],"split_conditions":[4.6020326E-1,-3.716301E-2,3.4027055E-2],"split_indices":[684,0,0],"split_type":[0,0,0],"sum_hessian":[2.03172E0,1.0040269E0,1.027693E0],"tree_param":{"num_deleted":"0","num_feature":"777","num_nodes":"3","size_leaf_vector":"1"}},{"base_weights":[-0E0,-2.9843122E-2,3.585857E-2],"categories":[],"categories_nodes":[],"categories_segments":[],"categories_sizes":[],"default_left":[0,0,0],"id":88,"left_children":[1,-1,-1],"loss_changes":[3.9607424E-1,0E0,0E0],"parents":[2147483647,0,0],"right_children":[2,-1,-1],"split_conditions":[4.5264348E-1,-2.9843122E-2,3.585857E-2],"split_indices":[684,0,0],"split_type":[0,0,0],"sum_hessian":[2.2071984E0,1.0976256E0,1.1095726E0],"tree_param":{"num_deleted":"0","num_feature":"777","num_nodes":"3","size_leaf_vector":"1"}},{"base_weights":[-0E0],"categories":[],"categories_nodes":[],"categories_segments":[],"categories_sizes":[],"default_left":[0],"id":89,"left_children":[-1],"loss_changes":[0E0],"parents":[2147483647],"right_children":[-1],"split_conditions":[-0E0],"split_indices":[0],"split_type":[0],"sum_hessian":[1.9565854E0],"tree_param":{"num_deleted":"0","num_feature":"777","num_nodes":"1","size_leaf_vector":"1"}},{"base_weights":[2.2835102E-2,3.6179274E-2,-2.6177708E-2],"categories":[],"categories_nodes":[],"categories_segments":[],"categories_sizes":[],"default_left":[0,0,0],"id":90,"left_children":[1,-1,-1],"loss_changes":[3.5599566E-1,0E0,0E0],"parents":[2147483647,0,0],"right_children":[2,-1,-1],"split_conditions":[-2.934687E-1,3.6179274E-2,-2.6177708E-2],"split_indices":[273,0,0],"split_type":[0,0,0],"sum_hessian":[2.1494365E0,1.1113983E0,1.0380383E0],"tree_param":{"num_deleted":"0","num_feature":"777","num_nodes":"3","size_leaf_vector":"1"}},{"base_weights":[4.2484693E-2],"categories":[],"categories_nodes":[],"categories_segments":[],"categories_sizes":[],"default_left":[0],"id":91,"left_children":[-1],"loss_changes":[0E0],"parents":[2147483647],"right_children":[-1],"split_conditions":[3.3987754E-3],"split_indices":[0],"split_type":[0],"sum_hessian":[1.8609174E0],"tree_param":{"num_deleted":"0","num_feature":"777","num_nodes":"1","size_leaf_vector":"1"}},{"base_weights":[-0E0],"categories":[],"categories_nodes":[],"categories_segments":[],"categories_sizes":[],"default_left":[0],"id":92,"left_children":[-1],"loss_changes":[0E0],"parents":[2147483647],"right_children":[-1],"split_conditions":[-0E0],"split_indices":[0],"split_type":[0],"sum_hessian":[1.9821887E0],"tree_param":{"num_deleted":"0","num_feature":"777","num_nodes":"1","size_leaf_vector":"1"}},{"base_weights":[2.8007554E-2,-2.2762386E-2,3.56948E-2],"categories":[],"categories_nodes":[],"categories_segments":[],"categories_sizes":[],"default_left":[0,0,0],"id":93,"left_children":[1,-1,-1],"loss_changes":[3.007722E-1,0E0,0E0],"parents":[2147483647,0,0],"right_children":[2,-1,-1],"split_conditions":[4.5264348E-1,-2.2762386E-2,3.56948E-2],"split_indices":[684,0,0],"split_type":[0,0,0],"sum_hessian":[2.0346029E0,1.0111247E0,1.023478E0],"tree_param":{"num_deleted":"0","num_feature":"777","num_nodes":"3","size_leaf_vector":"1"}},{"base_weights":[-0E0],"categories":[],"categories_nodes":[],"categories_segments":[],"categories_sizes":[],"default_left":[0],"id":94,"left_children":[-1],"loss_changes":[0E0],"parents":[2147483647],"right_children":[-1],"split_conditions":[-0E0],"split_indices":[0],"split_type":[0],"sum_hessian":[1.989211E0],"tree_param":{"num_deleted":"0","num_feature":"777","num_nodes":"1","size_leaf_vector":"1"}},{"base_weights":[-0E0],"categories":[],"categories_nodes":[],"categories_segments":[],"categories_sizes":[],"default_left":[0],"id":95,"left_children":[-1],"loss_changes":[0E0],"parents":[2147483647],"right_children":[-1],"split_conditions":[-0E0],"split_indices":[0],"split_type":[0],"sum_hessian":[1.9815137E0],"tree_param":{"num_deleted":"0","num_feature":"777","num_nodes":"1","size_leaf_vector":"1"}},{"base_weights":[-0E0],"categories":[],"categories_nodes":[],"categories_segments":[],"categories_sizes":[],"default_left":[0],"id":96,"left_children":[-1],"loss_changes":[0E0],"parents":[2147483647],"right_children":[-1],"split_conditions":[-0E0],"split_indices":[0],"split_type":[0],"sum_hessian":[1.7308552E0],"tree_param":{"num_deleted":"0","num_feature":"777","num_nodes":"1","size_leaf_vector":"1"}},{"base_weights":[-6.637783E-2],"categories":[],"categories_nodes":[],"categories_segments":[],"categories_sizes":[],"default_left":[0],"id":97,"left_children":[-1],"loss_changes":[0E0],"parents":[2147483647],"right_children":[-1],"split_conditions":[-5.3102267E-3],"split_indices":[0],"split_type":[0],"sum_hessian":[1.7325457E0],"tree_param":{"num_deleted":"0","num_feature":"777","num_nodes":"1","size_leaf_vector":"1"}},{"base_weights":[-0E0,-2.713143E-2,3.2013603E-2],"categories":[],"categories_nodes":[],"categories_segments":[],"categories_sizes":[],"default_left":[0,0,0],"id":98,"left_children":[1,-1,-1],"loss_changes":[3.1094486E-1,0E0,0E0],"parents":[2147483647,0,0],"right_children":[2,-1,-1],"split_conditions":[4.4840413E-1,-2.713143E-2,3.2013603E-2],"split_indices":[598,0,0],"split_type":[0,0,0],"sum_hessian":[2.1267884E0,1.0226457E0,1.1041425E0],"tree_param":{"num_deleted":"0","num_feature":"777","num_nodes":"3","size_leaf_vector":"1"}},{"base_weights":[5.380467E-3,3.4306534E-2,-2.4238333E-2],"categories":[],"categories_nodes":[],"categories_segments":[],"categories_sizes":[],"default_left":[0,0,0],"id":99,"left_children":[1,-1,-1],"loss_changes":[3.1120872E-1,0E0,0E0],"parents":[2147483647,0,0],"right_children":[2,-1,-1],"split_conditions":[-6.414186E-1,3.4306534E-2,-2.4238333E-2],"split_indices":[151,0,0],"split_type":[0,0,0],"sum_hessian":[2.148005E0,1.0591941E0,1.0888108E0],"tree_param":{"num_deleted":"0","num_feature":"777","num_nodes":"3","size_leaf_vector":"1"}},{"base_weights":[-0E0],"categories":[],"categories_nodes":[],"categories_segments":[],"categories_sizes":[],"default_left":[0],"id":100,"left_children":[-1],"loss_changes":[0E0],"parents":[2147483647],"right_children":[-1],"split_conditions":[-0E0],"split_indices":[0],"split_type":[0],"sum_hessian":[1.9320979E0],"tree_param":{"num_deleted":"0","num_feature":"777","num_nodes":"1","size_leaf_vector":"1"}},{"base_weights":[-0E0],"categories":[],"categories_nodes":[],"categories_segments":[],"categories_sizes":[],"default_left":[0],"id":101,"left_children":[-1],"loss_changes":[0E0],"parents":[2147483647],"right_children":[-1],"split_conditions":[-0E0],"split_indices":[0],"split_type":[0],"sum_hessian":[1.9704247E0],"tree_param":{"num_deleted":"0","num_feature":"777","num_nodes":"1","size_leaf_vector":"1"}},{"base_weights":[3.585928E-2],"categories":[],"categories_nodes":[],"categories_segments":[],"categories_sizes":[],"default_left":[0],"id":102,"left_children":[-1],"loss_changes":[0E0],"parents":[2147483647],"right_children":[-1],"split_conditions":[2.8687422E-3],"split_indices":[0],"split_type":[0],"sum_hessian":[1.8694084E0],"tree_param":{"num_deleted":"0","num_feature":"777","num_nodes":"1","size_leaf_vector":"1"}},{"base_weights":[-0E0,2.4768012E-2,-2.2329397E-2],"categories":[],"categories_nodes":[],"categories_segments":[],"categories_sizes":[],"default_left":[0,0,0],"id":103,"left_children":[1,-1,-1],"loss_changes":[1.8533747E-1,0E0,0E0],"parents":[2147483647,0,0],"right_children":[2,-1,-1],"split_conditions":[-1.4279996E-1,2.4768012E-2,-2.2329397E-2],"split_indices":[707,0,0],"split_type":[0,0,0],"sum_hessian":[2.0124388E0,1.0102574E0,1.0021814E0],"tree_param":{"num_deleted":"0","num_feature":"777","num_nodes":"3","size_leaf_vector":"1"}},{"base_weights":[-0E0],"categories":[],"categories_nodes":[],"categories_segments":[],"categories_sizes":[],"default_left":[0],"id":104,"left_children":[-1],"loss_changes":[0E0],"parents":[2147483647],"right_children":[-1],"split_conditions":[-0E0],"split_indices":[0],"split_type":[0],"sum_hessian":[1.7184412E0],"tree_param":{"num_deleted":"0","num_feature":"777","num_nodes":"1","size_leaf_vector":"1"}},{"base_weights":[-0E0,-7.154001E-3,1.2843939E-2],"categories":[],"categories_nodes":[],"categories_segments":[],"categories_sizes":[],"default_left":[0,0,0],"id":105,"left_children":[1,-1,-1],"loss_changes":[3.585044E-2,0E0,0E0],"parents":[2147483647,0,0],"right_children":[2,-1,-1],"split_conditions":[1.1667827E-1,-7.154001E-3,1.2843939E-2],"split_indices":[755,0,0],"split_type":[0,0,0],"sum_hessian":[2.0022814E0,1.0004293E0,1.0018523E0],"tree_param":{"num_deleted":"0","num_feature":"777","num_nodes":"3","size_leaf_vector":"1"}},{"base_weights":[-7.54071E-2],"categories":[],"categories_nodes":[],"categories_segments":[],"categories_sizes":[],"default_left":[0],"id":106,"left_children":[-1],"loss_changes":[0E0],"parents":[2147483647],"right_children":[-1],"split_conditions":[-6.032568E-3],"split_indices":[0],"split_type":[0],"sum_hessian":[1.7231606E0],"tree_param":{"num_deleted":"0","num_feature":"777","num_nodes":"1","size_leaf_vector":"1"}},{"base_weights":[-0E0],"categories":[],"categories_nodes":[],"categories_segments":[],"categories_sizes":[],"default_left":[0],"id":107,"left_children":[-1],"loss_changes":[0E0],"parents":[2147483647],"right_children":[-1],"split_conditions":[-0E0],"split_indices":[0],"split_type":[0],"sum_hessian":[1.9109261E0],"tree_param":{"num_deleted":"0","num_feature":"777","num_nodes":"1","size_leaf_vector":"1"}},{"base_weights":[9.358489E-3],"categories":[],"categories_nodes":[],"categories_segments":[],"categories_sizes":[],"default_left":[0],"id":108,"left_children":[-1],"loss_changes":[0E0],"parents":[2147483647],"right_children":[-1],"split_conditions":[7.486791E-4],"split_indices":[0],"split_type":[0],"sum_hessian":[1.8003416E0],"tree_param":{"num_deleted":"0","num_feature":"777","num_nodes":"1","size_leaf_vector":"1"}},{"base_weights":[-0E0],"categories":[],"categories_nodes":[],"categories_segments":[],"categories_sizes":[],"default_left":[0],"id":109,"left_children":[-1],"loss_changes":[0E0],"parents":[2147483647],"right_children":[-1],"split_conditions":[-0E0],"split_indices":[0],"split_type":[0],"sum_hessian":[1.837482E0],"tree_param":{"num_deleted":"0","num_feature":"777","num_nodes":"1","size_leaf_vector":"1"}},{"base_weights":[-0E0],"categories":[],"categories_nodes":[],"categories_segments":[],"categories_sizes":[],"default_left":[0],"id":110,"left_children":[-1],"loss_changes":[0E0],"parents":[2147483647],"right_children":[-1],"split_conditions":[-0E0],"split_indices":[0],"split_type":[0],"sum_hessian":[1.9007939E0],"tree_param":{"num_deleted":"0","num_feature":"777","num_nodes":"1","size_leaf_vector":"1"}},{"base_weights":[6.710216E-2],"categories":[],"categories_nodes":[],"categories_segments":[],"categories_sizes":[],"default_left":[0],"id":111,"left_children":[-1],"loss_changes":[0E0],"parents":[2147483647],"right_children":[-1],"split_conditions":[5.368172E-3],"split_indices":[0],"split_type":[0],"sum_hessian":[1.801674E0],"tree_param":{"num_deleted":"0","num_feature":"777","num_nodes":"1","size_leaf_vector":"1"}},{"base_weights":[2.1394616E-2],"categories":[],"categories_nodes":[],"categories_segments":[],"categories_sizes":[],"default_left":[0],"id":112,"left_children":[-1],"loss_changes":[0E0],"parents":[2147483647],"right_children":[-1],"split_conditions":[1.7115693E-3],"split_indices":[0],"split_type":[0],"sum_hessian":[1.931173E0],"tree_param":{"num_deleted":"0","num_feature":"777","num_nodes":"1","size_leaf_vector":"1"}},{"base_weights":[5.088653E-2],"categories":[],"categories_nodes":[],"categories_segments":[],"categories_sizes":[],"default_left":[0],"id":113,"left_children":[-1],"loss_changes":[0E0],"parents":[2147483647],"right_children":[-1],"split_conditions":[4.0709223E-3],"split_indices":[0],"split_type":[0],"sum_hessian":[1.5529327E0],"tree_param":{"num_deleted":"0","num_feature":"777","num_nodes":"1","size_leaf_vector":"1"}},{"base_weights":[-0E0],"categories":[],"categories_nodes":[],"categories_segments":[],"categories_sizes":[],"default_left":[0],"id":114,"left_children":[-1],"loss_changes":[0E0],"parents":[2147483647],"right_children":[-1],"split_conditions":[-0E0],"split_indices":[0],"split_type":[0],"sum_hessian":[1.8282071E0],"tree_param":{"num_deleted":"0","num_feature":"777","num_nodes":"1","size_leaf_vector":"1"}},{"base_weights":[-0E0],"categories":[],"categories_nodes":[],"categories_segments":[],"categories_sizes":[],"default_left":[0],"id":115,"left_children":[-1],"loss_changes":[0E0],"parents":[2147483647],"right_children":[-1],"split_conditions":[-0E0],"split_indices":[0],"split_type":[0],"sum_hessian":[1.8608414E0],"tree_param":{"num_deleted":"0","num_feature":"777","num_nodes":"1","size_leaf_vector":"1"}},{"base_weights":[-1.7297782E-2],"categories":[],"categories_nodes":[],"categories_segments":[],"categories_sizes":[],"default_left":[0],"id":116,"left_children":[-1],"loss_changes":[0E0],"parents":[2147483647],"right_children":[-1],"split_conditions":[-1.3838225E-3],"split_indices":[0],"split_type":[0],"sum_hessian":[1.7869484E0],"tree_param":{"num_deleted":"0","num_feature":"777","num_nodes":"1","size_leaf_vector":"1"}},{"base_weights":[-0E0],"categories":[],"categories_nodes":[],"categories_segments":[],"categories_sizes":[],"default_left":[0],"id":117,"left_children":[-1],"loss_changes":[0E0],"parents":[2147483647],"right_children":[-1],"split_conditions":[-0E0],"split_indices":[0],"split_type":[0],"sum_hessian":[1.9975947E0],"tree_param":{"num_deleted":"0","num_feature":"777","num_nodes":"1","size_leaf_vector":"1"}},{"base_weights":[-0E0],"categories":[],"categories_nodes":[],"categories_segments":[],"categories_sizes":[],"default_left":[0],"id":118,"left_children":[-1],"loss_changes":[0E0],"parents":[2147483647],"right_children":[-1],"split_conditions":[-0E0],"split_indices":[0],"split_type":[0],"sum_hessian":[1.9648734E0],"tree_param":{"num_deleted":"0","num_feature":"777","num_nodes":"1","size_leaf_vector":"1"}},{"base_weights":[-0E0],"categories":[],"categories_nodes":[],"categories_segments":[],"categories_sizes":[],"default_left":[0],"id":119,"left_children":[-1],"loss_changes":[0E0],"parents":[2147483647],"right_children":[-1],"split_conditions":[-0E0],"split_indices":[0],"split_type":[0],"sum_hessian":[1.8647647E0],"tree_param":{"num_deleted":"0","num_feature":"777","num_nodes":"1","size_leaf_vector":"1"}},{"base_weights":[-6.392407E-3],"categories":[],"categories_nodes":[],"categories_segments":[],"categories_sizes":[],"default_left":[0],"id":120,"left_children":[-1],"loss_changes":[0E0],"parents":[2147483647],"right_children":[-1],"split_conditions":[-5.1139254E-4],"split_indices":[0],"split_type":[0],"sum_hessian":[1.7559988E0],"tree_param":{"num_deleted":"0","num_feature":"777","num_nodes":"1","size_leaf_vector":"1"}},{"base_weights":[-0E0],"categories":[],"categories_nodes":[],"categories_segments":[],"categories_sizes":[],"default_left":[0],"id":121,"left_children":[-1],"loss_changes":[0E0],"parents":[2147483647],"right_children":[-1],"split_conditions":[-0E0],"split_indices":[0],"split_type":[0],"sum_hessian":[1.7345525E0],"tree_param":{"num_deleted":"0","num_feature":"777","num_nodes":"1","size_leaf_vector":"1"}},{"base_weights":[-1.6967963E-2],"categories":[],"categories_nodes":[],"categories_segments":[],"categories_sizes":[],"default_left":[0],"id":122,"left_children":[-1],"loss_changes":[0E0],"parents":[2147483647],"right_children":[-1],"split_conditions":[-1.357437E-3],"split_indices":[0],"split_type":[0],"sum_hessian":[1.7716575E0],"tree_param":{"num_deleted":"0","num_feature":"777","num_nodes":"1","size_leaf_vector":"1"}},{"base_weights":[-0E0],"categories":[],"categories_nodes":[],"categories_segments":[],"categories_sizes":[],"default_left":[0],"id":123,"left_children":[-1],"loss_changes":[0E0],"parents":[2147483647],"right_children":[-1],"split_conditions":[-0E0],"split_indices":[0],"split_type":[0],"sum_hessian":[1.916731E0],"tree_param":{"num_deleted":"0","num_feature":"777","num_nodes":"1","size_leaf_vector":"1"}},{"base_weights":[-0E0],"categories":[],"categories_nodes":[],"categories_segments":[],"categories_sizes":[],"default_left":[0],"id":124,"left_children":[-1],"loss_changes":[0E0],"parents":[2147483647],"right_children":[-1],"split_conditions":[-0E0],"split_indices":[0],"split_type":[0],"sum_hessian":[1.9617139E0],"tree_param":{"num_deleted":"0","num_feature":"777","num_nodes":"1","size_leaf_vector":"1"}},{"base_weights":[-0E0],"categories":[],"categories_nodes":[],"categories_segments":[],"categories_sizes":[],"default_left":[0],"id":125,"left_children":[-1],"loss_changes":[0E0],"parents":[2147483647],"right_children":[-1],"split_conditions":[-0E0],"split_indices":[0],"split_type":[0],"sum_hessian":[1.9604827E0],"tree_param":{"num_deleted":"0","num_feature":"777","num_nodes":"1","size_leaf_vector":"1"}},{"base_weights":[-0E0],"categories":[],"categories_nodes":[],"categories_segments":[],"categories_sizes":[],"default_left":[0],"id":126,"left_children":[-1],"loss_changes":[0E0],"parents":[2147483647],"right_children":[-1],"split_conditions":[-0E0],"split_indices":[0],"split_type":[0],"sum_hessian":[1.9109281E0],"tree_param":{"num_deleted":"0","num_feature":"777","num_nodes":"1","size_leaf_vector":"1"}},{"base_weights":[1.775966E-2],"categories":[],"categories_nodes":[],"categories_segments":[],"categories_sizes":[],"default_left":[0],"id":127,"left_children":[-1],"loss_changes":[0E0],"parents":[2147483647],"right_children":[-1],"split_conditions":[1.4207728E-3],"split_indices":[0],"split_type":[0],"sum_hessian":[1.7828288E0],"tree_param":{"num_deleted":"0","num_feature":"777","num_nodes":"1","size_leaf_vector":"1"}},{"base_weights":[-0E0,1.833936E-2,-1.5955416E-2],"categories":[],"categories_nodes":[],"categories_segments":[],"categories_sizes":[],"default_left":[0,0,0],"id":128,"left_children":[1,-1,-1],"loss_changes":[9.81884E-2,0E0,0E0],"parents":[2147483647,0,0],"right_children":[2,-1,-1],"split_conditions":[-2.617696E-1,1.833936E-2,-1.5955416E-2],"split_indices":[504,0,0],"split_type":[0,0,0],"sum_hessian":[2.0072713E0,1.0023575E0,1.0049139E0],"tree_param":{"num_deleted":"0","num_feature":"777","num_nodes":"3","size_leaf_vector":"1"}},{"base_weights":[-0E0],"categories":[],"categories_nodes":[],"categories_segments":[],"categories_sizes":[],"default_left":[0],"id":129,"left_children":[-1],"loss_changes":[0E0],"parents":[2147483647],"right_children":[-1],"split_conditions":[-0E0],"split_indices":[0],"split_type":[0],"sum_hessian":[1.9755113E0],"tree_param":{"num_deleted":"0","num_feature":"777","num_nodes":"1","size_leaf_vector":"1"}},{"base_weights":[-0E0],"categories":[],"categories_nodes":[],"categories_segments":[],"categories_sizes":[],"default_left":[0],"id":130,"left_children":[-1],"loss_changes":[0E0],"parents":[2147483647],"right_children":[-1],"split_conditions":[-0E0],"split_indices":[0],"split_type":[0],"sum_hessian":[1.9663244E0],"tree_param":{"num_deleted":"0","num_feature":"777","num_nodes":"1","size_leaf_vector":"1"}},{"base_weights":[-0E0],"categories":[],"categories_nodes":[],"categories_segments":[],"categories_sizes":[],"default_left":[0],"id":131,"left_children":[-1],"loss_changes":[0E0],"parents":[2147483647],"right_children":[-1],"split_conditions":[-0E0],"split_indices":[0],"split_type":[0],"sum_hessian":[1.9287664E0],"tree_param":{"num_deleted":"0","num_feature":"777","num_nodes":"1","size_leaf_vector":"1"}},{"base_weights":[-0E0],"categories":[],"categories_nodes":[],"categories_segments":[],"categories_sizes":[],"default_left":[0],"id":132,"left_children":[-1],"loss_changes":[0E0],"parents":[2147483647],"right_children":[-1],"split_conditions":[-0E0],"split_indices":[0],"split_type":[0],"sum_hessian":[1.7225449E0],"tree_param":{"num_deleted":"0","num_feature":"777","num_nodes":"1","size_leaf_vector":"1"}},{"base_weights":[-1.1996503E-2],"categories":[],"categories_nodes":[],"categories_segments":[],"categories_sizes":[],"default_left":[0],"id":133,"left_children":[-1],"loss_changes":[0E0],"parents":[2147483647],"right_children":[-1],"split_conditions":[-9.5972023E-4],"split_indices":[0],"split_type":[0],"sum_hessian":[1.8146428E0],"tree_param":{"num_deleted":"0","num_feature":"777","num_nodes":"1","size_leaf_vector":"1"}},{"base_weights":[-0E0],"categories":[],"categories_nodes":[],"categories_segments":[],"categories_sizes":[],"default_left":[0],"id":134,"left_children":[-1],"loss_changes":[0E0],"parents":[2147483647],"right_children":[-1],"split_conditions":[-0E0],"split_indices":[0],"split_type":[0],"sum_hessian":[1.8514574E0],"tree_param":{"num_deleted":"0","num_feature":"777","num_nodes":"1","size_leaf_vector":"1"}},{"base_weights":[4.20302E-2],"categories":[],"categories_nodes":[],"categories_segments":[],"categories_sizes":[],"default_left":[0],"id":135,"left_children":[-1],"loss_changes":[0E0],"parents":[2147483647],"right_children":[-1],"split_conditions":[3.362416E-3],"split_indices":[0],"split_type":[0],"sum_hessian":[1.8788091E0],"tree_param":{"num_deleted":"0","num_feature":"777","num_nodes":"1","size_leaf_vector":"1"}},{"base_weights":[-0E0],"categories":[],"categories_nodes":[],"categories_segments":[],"categories_sizes":[],"default_left":[0],"id":136,"left_children":[-1],"loss_changes":[0E0],"parents":[2147483647],"right_children":[-1],"split_conditions":[-0E0],"split_indices":[0],"split_type":[0],"sum_hessian":[1.9736347E0],"tree_param":{"num_deleted":"0","num_feature":"777","num_nodes":"1","size_leaf_vector":"1"}},{"base_weights":[-1.2171761E-2],"categories":[],"categories_nodes":[],"categories_segments":[],"categories_sizes":[],"default_left":[0],"id":137,"left_children":[-1],"loss_changes":[0E0],"parents":[2147483647],"right_children":[-1],"split_conditions":[-9.737409E-4],"split_indices":[0],"split_type":[0],"sum_hessian":[1.7261419E0],"tree_param":{"num_deleted":"0","num_feature":"777","num_nodes":"1","size_leaf_vector":"1"}},{"base_weights":[-0E0],"categories":[],"categories_nodes":[],"categories_segments":[],"categories_sizes":[],"default_left":[0],"id":138,"left_children":[-1],"loss_changes":[0E0],"parents":[2147483647],"right_children":[-1],"split_conditions":[-0E0],"split_indices":[0],"split_type":[0],"sum_hessian":[1.933917E0],"tree_param":{"num_deleted":"0","num_feature":"777","num_nodes":"1","size_leaf_vector":"1"}},{"base_weights":[-0E0],"categories":[],"categories_nodes":[],"categories_segments":[],"categories_sizes":[],"default_left":[0],"id":139,"left_children":[-1],"loss_changes":[0E0],"parents":[2147483647],"right_children":[-1],"split_conditions":[-0E0],"split_indices":[0],"split_type":[0],"sum_hessian":[1.8676362E0],"tree_param":{"num_deleted":"0","num_feature":"777","num_nodes":"1","size_leaf_vector":"1"}},{"base_weights":[-0E0],"categories":[],"categories_nodes":[],"categories_segments":[],"categories_sizes":[],"default_left":[0],"id":140,"left_children":[-1],"loss_changes":[0E0],"parents":[2147483647],"right_children":[-1],"split_conditions":[-0E0],"split_indices":[0],"split_type":[0],"sum_hessian":[1.8625743E0],"tree_param":{"num_deleted":"0","num_feature":"777","num_nodes":"1","size_leaf_vector":"1"}},{"base_weights":[-0E0],"categories":[],"categories_nodes":[],"categories_segments":[],"categories_sizes":[],"default_left":[0],"id":141,"left_children":[-1],"loss_changes":[0E0],"parents":[2147483647],"right_children":[-1],"split_conditions":[-0E0],"split_indices":[0],"split_type":[0],"sum_hessian":[1.9688199E0],"tree_param":{"num_deleted":"0","num_feature":"777","num_nodes":"1","size_leaf_vector":"1"}},{"base_weights":[-1.4555368E-2],"categories":[],"categories_nodes":[],"categories_segments":[],"categories_sizes":[],"default_left":[0],"id":142,"left_children":[-1],"loss_changes":[0E0],"parents":[2147483647],"right_children":[-1],"split_conditions":[-1.1644294E-3],"split_indices":[0],"split_type":[0],"sum_hessian":[1.7967689E0],"tree_param":{"num_deleted":"0","num_feature":"777","num_nodes":"1","size_leaf_vector":"1"}},{"base_weights":[-0E0],"categories":[],"categories_nodes":[],"categories_segments":[],"categories_sizes":[],"default_left":[0],"id":143,"left_children":[-1],"loss_changes":[0E0],"parents":[2147483647],"right_children":[-1],"split_conditions":[-0E0],"split_indices":[0],"split_type":[0],"sum_hessian":[1.857262E0],"tree_param":{"num_deleted":"0","num_feature":"777","num_nodes":"1","size_leaf_vector":"1"}},{"base_weights":[-0E0],"categories":[],"categories_nodes":[],"categories_segments":[],"categories_sizes":[],"default_left":[0],"id":144,"left_children":[-1],"loss_changes":[0E0],"parents":[2147483647],"right_children":[-1],"split_conditions":[-0E0],"split_indices":[0],"split_type":[0],"sum_hessian":[1.9132155E0],"tree_param":{"num_deleted":"0","num_feature":"777","num_nodes":"1","size_leaf_vector":"1"}},{"base_weights":[-0E0],"categories":[],"categories_nodes":[],"categories_segments":[],"categories_sizes":[],"default_left":[0],"id":145,"left_children":[-1],"loss_changes":[0E0],"parents":[2147483647],"right_children":[-1],"split_conditions":[-0E0],"split_indices":[0],"split_type":[0],"sum_hessian":[1.8032467E0],"tree_param":{"num_deleted":"0","num_feature":"777","num_nodes":"1","size_leaf_vector":"1"}},{"base_weights":[2.121641E-2],"categories":[],"categories_nodes":[],"categories_segments":[],"categories_sizes":[],"default_left":[0],"id":146,"left_children":[-1],"loss_changes":[0E0],"parents":[2147483647],"right_children":[-1],"split_conditions":[1.6973127E-3],"split_indices":[0],"split_type":[0],"sum_hessian":[1.7478224E0],"tree_param":{"num_deleted":"0","num_feature":"777","num_nodes":"1","size_leaf_vector":"1"}},{"base_weights":[-0E0],"categories":[],"categories_nodes":[],"categories_segments":[],"categories_sizes":[],"default_left":[0],"id":147,"left_children":[-1],"loss_changes":[0E0],"parents":[2147483647],"right_children":[-1],"split_conditions":[-0E0],"split_indices":[0],"split_type":[0],"sum_hessian":[1.749342E0],"tree_param":{"num_deleted":"0","num_feature":"777","num_nodes":"1","size_leaf_vector":"1"}},{"base_weights":[-3.4107473E-2],"categories":[],"categories_nodes":[],"categories_segments":[],"categories_sizes":[],"default_left":[0],"id":148,"left_children":[-1],"loss_changes":[0E0],"parents":[2147483647],"right_children":[-1],"split_conditions":[-2.7285977E-3],"split_indices":[0],"split_type":[0],"sum_hessian":[1.7946514E0],"tree_param":{"num_deleted":"0","num_feature":"777","num_nodes":"1","size_leaf_vector":"1"}},{"base_weights":[-0E0],"categories":[],"categories_nodes":[],"categories_segments":[],"categories_sizes":[],"default_left":[0],"id":149,"left_children":[-1],"loss_changes":[0E0],"parents":[2147483647],"right_children":[-1],"split_conditions":[-0E0],"split_indices":[0],"split_type":[0],"sum_hessian":[1.7430164E0],"tree_param":{"num_deleted":"0","num_feature":"777","num_nodes":"1","size_leaf_vector":"1"}},{"base_weights":[-0E0],"categories":[],"categories_nodes":[],"categories_segments":[],"categories_sizes":[],"default_left":[0],"id":150,"left_children":[-1],"loss_changes":[0E0],"parents":[2147483647],"right_children":[-1],"split_conditions":[-0E0],"split_indices":[0],"split_type":[0],"sum_hessian":[1.896198E0],"tree_param":{"num_deleted":"0","num_feature":"777","num_nodes":"1","size_leaf_vector":"1"}},{"base_weights":[-5.356799E-2],"categories":[],"categories_nodes":[],"categories_segments":[],"categories_sizes":[],"default_left":[0],"id":151,"left_children":[-1],"loss_changes":[0E0],"parents":[2147483647],"right_children":[-1],"split_conditions":[-4.2854394E-3],"split_indices":[0],"split_type":[0],"sum_hessian":[1.7713255E0],"tree_param":{"num_deleted":"0","num_feature":"777","num_nodes":"1","size_leaf_vector":"1"}},{"base_weights":[-0E0],"categories":[],"categories_nodes":[],"categories_segments":[],"categories_sizes":[],"default_left":[0],"id":152,"left_children":[-1],"loss_changes":[0E0],"parents":[2147483647],"right_children":[-1],"split_conditions":[-0E0],"split_indices":[0],"split_type":[0],"sum_hessian":[1.8514721E0],"tree_param":{"num_deleted":"0","num_feature":"777","num_nodes":"1","size_leaf_vector":"1"}},{"base_weights":[2.8761292E-2],"categories":[],"categories_nodes":[],"categories_segments":[],"categories_sizes":[],"default_left":[0],"id":153,"left_children":[-1],"loss_changes":[0E0],"parents":[2147483647],"right_children":[-1],"split_conditions":[2.3009032E-3],"split_indices":[0],"split_type":[0],"sum_hessian":[1.837469E0],"tree_param":{"num_deleted":"0","num_feature":"777","num_nodes":"1","size_leaf_vector":"1"}},{"base_weights":[-0E0],"categories":[],"categories_nodes":[],"categories_segments":[],"categories_sizes":[],"default_left":[0],"id":154,"left_children":[-1],"loss_changes":[0E0],"parents":[2147483647],"right_children":[-1],"split_conditions":[-0E0],"split_indices":[0],"split_type":[0],"sum_hessian":[1.6809177E0],"tree_param":{"num_deleted":"0","num_feature":"777","num_nodes":"1","size_leaf_vector":"1"}},{"base_weights":[5.684802E-2],"categories":[],"categories_nodes":[],"categories_segments":[],"categories_sizes":[],"default_left":[0],"id":155,"left_children":[-1],"loss_changes":[0E0],"parents":[2147483647],"right_children":[-1],"split_conditions":[4.5478414E-3],"split_indices":[0],"split_type":[0],"sum_hessian":[1.8407806E0],"tree_param":{"num_deleted":"0","num_feature":"777","num_nodes":"1","size_leaf_vector":"1"}},{"base_weights":[-0E0],"categories":[],"categories_nodes":[],"categories_segments":[],"categories_sizes":[],"default_left":[0],"id":156,"left_children":[-1],"loss_changes":[0E0],"parents":[2147483647],"right_children":[-1],"split_conditions":[-0E0],"split_indices":[0],"split_type":[0],"sum_hessian":[1.7843493E0],"tree_param":{"num_deleted":"0","num_feature":"777","num_nodes":"1","size_leaf_vector":"1"}},{"base_weights":[-0E0],"categories":[],"categories_nodes":[],"categories_segments":[],"categories_sizes":[],"default_left":[0],"id":157,"left_children":[-1],"loss_changes":[0E0],"parents":[2147483647],"right_children":[-1],"split_conditions":[-0E0],"split_indices":[0],"split_type":[0],"sum_hessian":[1.9297154E0],"tree_param":{"num_deleted":"0","num_feature":"777","num_nodes":"1","size_leaf_vector":"1"}},{"base_weights":[5.950769E-2],"categories":[],"categories_nodes":[],"categories_segments":[],"categories_sizes":[],"default_left":[0],"id":158,"left_children":[-1],"loss_changes":[0E0],"parents":[2147483647],"right_children":[-1],"split_conditions":[4.760615E-3],"split_indices":[0],"split_type":[0],"sum_hessian":[1.8845935E0],"tree_param":{"num_deleted":"0","num_feature":"777","num_nodes":"1","size_leaf_vector":"1"}},{"base_weights":[-0E0],"categories":[],"categories_nodes":[],"categories_segments":[],"categories_sizes":[],"default_left":[0],"id":159,"left_children":[-1],"loss_changes":[0E0],"parents":[2147483647],"right_children":[-1],"split_conditions":[-0E0],"split_indices":[0],"split_type":[0],"sum_hessian":[1.894669E0],"tree_param":{"num_deleted":"0","num_feature":"777","num_nodes":"1","size_leaf_vector":"1"}},{"base_weights":[-0E0],"categories":[],"categories_nodes":[],"categories_segments":[],"categories_sizes":[],"default_left":[0],"id":160,"left_children":[-1],"loss_changes":[0E0],"parents":[2147483647],"right_children":[-1],"split_conditions":[-0E0],"split_indices":[0],"split_type":[0],"sum_hessian":[1.9899018E0],"tree_param":{"num_deleted":"0","num_feature":"777","num_nodes":"1","size_leaf_vector":"1"}},{"base_weights":[-0E0],"categories":[],"categories_nodes":[],"categories_segments":[],"categories_sizes":[],"default_left":[0],"id":161,"left_children":[-1],"loss_changes":[0E0],"parents":[2147483647],"right_children":[-1],"split_conditions":[-0E0],"split_indices":[0],"split_type":[0],"sum_hessian":[1.9293468E0],"tree_param":{"num_deleted":"0","num_feature":"777","num_nodes":"1","size_leaf_vector":"1"}},{"base_weights":[5.7536274E-2],"categories":[],"categories_nodes":[],"categories_segments":[],"categories_sizes":[],"default_left":[0],"id":162,"left_children":[-1],"loss_changes":[0E0],"parents":[2147483647],"right_children":[-1],"split_conditions":[4.6029016E-3],"split_indices":[0],"split_type":[0],"sum_hessian":[1.8307359E0],"tree_param":{"num_deleted":"0","num_feature":"777","num_nodes":"1","size_leaf_vector":"1"}},{"base_weights":[-1.5196293E-3],"categories":[],"categories_nodes":[],"categories_segments":[],"categories_sizes":[],"default_left":[0],"id":163,"left_children":[-1],"loss_changes":[0E0],"parents":[2147483647],"right_children":[-1],"split_conditions":[-1.2157034E-4],"split_indices":[0],"split_type":[0],"sum_hessian":[1.8683984E0],"tree_param":{"num_deleted":"0","num_feature":"777","num_nodes":"1","size_leaf_vector":"1"}},{"base_weights":[-0E0],"categories":[],"categories_nodes":[],"categories_segments":[],"categories_sizes":[],"default_left":[0],"id":164,"left_children":[-1],"loss_changes":[0E0],"parents":[2147483647],"right_children":[-1],"split_conditions":[-0E0],"split_indices":[0],"split_type":[0],"sum_hessian":[1.600546E0],"tree_param":{"num_deleted":"0","num_feature":"777","num_nodes":"1","size_leaf_vector":"1"}},{"base_weights":[-1.8126164E-2],"categories":[],"categories_nodes":[],"categories_segments":[],"categories_sizes":[],"default_left":[0],"id":165,"left_children":[-1],"loss_changes":[0E0],"parents":[2147483647],"right_children":[-1],"split_conditions":[-1.4500931E-3],"split_indices":[0],"split_type":[0],"sum_hessian":[1.8820553E0],"tree_param":{"num_deleted":"0","num_feature":"777","num_nodes":"1","size_leaf_vector":"1"}},{"base_weights":[-0E0],"categories":[],"categories_nodes":[],"categories_segments":[],"categories_sizes":[],"default_left":[0],"id":166,"left_children":[-1],"loss_changes":[0E0],"parents":[2147483647],"right_children":[-1],"split_conditions":[-0E0],"split_indices":[0],"split_type":[0],"sum_hessian":[1.9256293E0],"tree_param":{"num_deleted":"0","num_feature":"777","num_nodes":"1","size_leaf_vector":"1"}},{"base_weights":[8.048083E-3],"categories":[],"categories_nodes":[],"categories_segments":[],"categories_sizes":[],"default_left":[0],"id":167,"left_children":[-1],"loss_changes":[0E0],"parents":[2147483647],"right_children":[-1],"split_conditions":[6.438466E-4],"split_indices":[0],"split_type":[0],"sum_hessian":[1.6266906E0],"tree_param":{"num_deleted":"0","num_feature":"777","num_nodes":"1","size_leaf_vector":"1"}},{"base_weights":[-0E0],"categories":[],"categories_nodes":[],"categories_segments":[],"categories_sizes":[],"default_left":[0],"id":168,"left_children":[-1],"loss_changes":[0E0],"parents":[2147483647],"right_children":[-1],"split_conditions":[-0E0],"split_indices":[0],"split_type":[0],"sum_hessian":[1.999743E0],"tree_param":{"num_deleted":"0","num_feature":"777","num_nodes":"1","size_leaf_vector":"1"}},{"base_weights":[-0E0],"categories":[],"categories_nodes":[],"categories_segments":[],"categories_sizes":[],"default_left":[0],"id":169,"left_children":[-1],"loss_changes":[0E0],"parents":[2147483647],"right_children":[-1],"split_conditions":[-0E0],"split_indices":[0],"split_type":[0],"sum_hessian":[1.8267881E0],"tree_param":{"num_deleted":"0","num_feature":"777","num_nodes":"1","size_leaf_vector":"1"}},{"base_weights":[-0E0],"categories":[],"categories_nodes":[],"categories_segments":[],"categories_sizes":[],"default_left":[0],"id":170,"left_children":[-1],"loss_changes":[0E0],"parents":[2147483647],"right_children":[-1],"split_conditions":[-0E0],"split_indices":[0],"split_type":[0],"sum_hessian":[1.9361426E0],"tree_param":{"num_deleted":"0","num_feature":"777","num_nodes":"1","size_leaf_vector":"1"}},{"base_weights":[3.9411996E-2],"categories":[],"categories_nodes":[],"categories_segments":[],"categories_sizes":[],"default_left":[0],"id":171,"left_children":[-1],"loss_changes":[0E0],"parents":[2147483647],"right_children":[-1],"split_conditions":[3.1529595E-3],"split_indices":[0],"split_type":[0],"sum_hessian":[1.8574202E0],"tree_param":{"num_deleted":"0","num_feature":"777","num_nodes":"1","size_leaf_vector":"1"}},{"base_weights":[-0E0],"categories":[],"categories_nodes":[],"categories_segments":[],"categories_sizes":[],"default_left":[0],"id":172,"left_children":[-1],"loss_changes":[0E0],"parents":[2147483647],"right_children":[-1],"split_conditions":[-0E0],"split_indices":[0],"split_type":[0],"sum_hessian":[1.8527672E0],"tree_param":{"num_deleted":"0","num_feature":"777","num_nodes":"1","size_leaf_vector":"1"}},{"base_weights":[-2.8114805E-3],"categories":[],"categories_nodes":[],"categories_segments":[],"categories_sizes":[],"default_left":[0],"id":173,"left_children":[-1],"loss_changes":[0E0],"parents":[2147483647],"right_children":[-1],"split_conditions":[-2.2491843E-4],"split_indices":[0],"split_type":[0],"sum_hessian":[1.8133792E0],"tree_param":{"num_deleted":"0","num_feature":"777","num_nodes":"1","size_leaf_vector":"1"}},{"base_weights":[-0E0],"categories":[],"categories_nodes":[],"categories_segments":[],"categories_sizes":[],"default_left":[0],"id":174,"left_children":[-1],"loss_changes":[0E0],"parents":[2147483647],"right_children":[-1],"split_conditions":[-0E0],"split_indices":[0],"split_type":[0],"sum_hessian":[1.7387682E0],"tree_param":{"num_deleted":"0","num_feature":"777","num_nodes":"1","size_leaf_vector":"1"}},{"base_weights":[-0E0],"categories":[],"categories_nodes":[],"categories_segments":[],"categories_sizes":[],"default_left":[0],"id":175,"left_children":[-1],"loss_changes":[0E0],"parents":[2147483647],"right_children":[-1],"split_conditions":[-0E0],"split_indices":[0],"split_type":[0],"sum_hessian":[1.6946923E0],"tree_param":{"num_deleted":"0","num_feature":"777","num_nodes":"1","size_leaf_vector":"1"}},{"base_weights":[-0E0],"categories":[],"categories_nodes":[],"categories_segments":[],"categories_sizes":[],"default_left":[0],"id":176,"left_children":[-1],"loss_changes":[0E0],"parents":[2147483647],"right_children":[-1],"split_conditions":[-0E0],"split_indices":[0],"split_type":[0],"sum_hessian":[1.9434131E0],"tree_param":{"num_deleted":"0","num_feature":"777","num_nodes":"1","size_leaf_vector":"1"}},{"base_weights":[-0E0],"categories":[],"categories_nodes":[],"categories_segments":[],"categories_sizes":[],"default_left":[0],"id":177,"left_children":[-1],"loss_changes":[0E0],"parents":[2147483647],"right_children":[-1],"split_conditions":[-0E0],"split_indices":[0],"split_type":[0],"sum_hessian":[1.5897256E0],"tree_param":{"num_deleted":"0","num_feature":"777","num_nodes":"1","size_leaf_vector":"1"}},{"base_weights":[-0E0],"categories":[],"categories_nodes":[],"categories_segments":[],"categories_sizes":[],"default_left":[0],"id":178,"left_children":[-1],"loss_changes":[0E0],"parents":[2147483647],"right_children":[-1],"split_conditions":[-0E0],"split_indices":[0],"split_type":[0],"sum_hessian":[1.9776988E0],"tree_param":{"num_deleted":"0","num_feature":"777","num_nodes":"1","size_leaf_vector":"1"}},{"base_weights":[-8.7136984E-2],"categories":[],"categories_nodes":[],"categories_segments":[],"categories_sizes":[],"default_left":[0],"id":179,"left_children":[-1],"loss_changes":[0E0],