{"learner":{"attributes":{"best_iteration":"58","best_score":"0.06349312025873412","scikit_learn":"{\"_estimator_type\": \"classifier\"}"},"feature_names":[],"feature_types":[],"gradient_booster":{"model":{"cats":{"enc":[],"feature_segments":[],"sorted_idx":[]},"gbtree_model_param":{"num_parallel_tree":"1","num_trees":"259"},"iteration_indptr":[0,1,2,3,4,5,6,7,8,9,10,11,12,13,14,15,16,17,18,19,20,21,22,23,24,25,26,27,28,29,30,31,32,33,34,35,36,37,38,39,40,41,42,43,44,45,46,47,48,49,50,51,52,53,54,55,56,57,58,59,60,61,62,63,64,65,66,67,68,69,70,71,72,73,74,75,76,77,78,79,80,81,82,83,84,85,86,87,88,89,90,91,92,93,94,95,96,97,98,99,100,101,102,103,104,105,106,107,108,109,110,111,112,113,114,115,116,117,118,119,120,121,122,123,124,125,126,127,128,129,130,131,132,133,134,135,136,137,138,139,140,141,142,143,144,145,146,147,148,149,150,151,152,153,154,155,156,157,158,159,160,161,162,163,164,165,166,167,168,169,170,171,172,173,174,175,176,177,178,179,180,181,182,183,184,185,186,187,188,189,190,191,192,193,194,195,196,197,198,199,200,201,202,203,204,205,206,207,208,209,210,211,212,213,214,215,216,217,218,219,220,221,222,223,224,225,226,227,228,229,230,231,232,233,234,235,236,237,238,239,240,241,242,243,244,245,246,247,248,249,250,251,252,253,254,255,256,257,258,259],"tree_info":[0,0,0,0,0,0,0,0,0,0,0,0,0,0,0,0,0,0,0,0,0,0,0,0,0,0,0,0,0,0,0,0,0,0,0,0,0,0,0,0,0,0,0,0,0,0,0,0,0,0,0,0,0,0,0,0,0,0,0,0,0,0,0,0,0,0,0,0,0,0,0,0,0,0,0,0,0,0,0,0,0,0,0,0,0,0,0,0,0,0,0,0,0,0,0,0,0,0,0,0,0,0,0,0,0,0,0,0,0,0,0,0,0,0,0,0,0,0,0,0,0,0,0,0,0,0,0,0,0,0,0,0,0,0,0,0,0,0,0,0,0,0,0,0,0,0,0,0,0,0,0,0,0,0,0,0,0,0,0,0,0,0,0,0,0,0,0,0,0,0,0,0,0,0,0,0,0,0,0,0,0,0,0,0,0,0,0,0,0,0,0,0,0,0,0,0,0,0,0,0,0,0,0,0,0,0,0,0,0,0,0,0,0,0,0,0,0,0,0,0,0,0,0,0,0,0,0,0,0,0,0,0,0,0,0,0,0,0,0,0,0,0,0,0,0,0,0,0,0,0,0,0,0,0,0,0,0,0,0],"trees":[{"base_weights":[-5.7498373E-2,-1.6018379E-1,1.7725536E0,-1.5507908E-1,1.9750487E0,9.595046E-2,1.5922193E-1],"categories":[],"categories_nodes":[],"categories_segments":[],"categories_sizes":[],"default_left":[0,0,0,0,0,0,0],"id":0,"left_children":[1,-1,3,-1,5,-1,-1],"loss_changes":[4.7558737E2,0E0,5.194214E1,0E0,2.4531555E-1,0E0,0E0],"parents":[2147483647,0,0,2,2,4,4],"right_children":[2,-1,4,-1,6,-1,-1],"split_conditions":[7.390736E-1,-1.6018379E-1,1E0,-1.5507908E-1,-1.6965561E0,9.595046E-2,1.5922193E-1],"split_indices":[776,0,774,0,307,0,0],"split_type":[0,0,0,0,0,0,0],"sum_hessian":[1.3349881E2,6.474942E1,6.874938E1,3.4999688E0,6.524941E1,1.4999865E0,6.3749428E1],"tree_param":{"num_deleted":"0","num_feature":"777","num_nodes":"7","size_leaf_vector":"1"}},{"base_weights":[-3.0609056E-2,-1.4826287E-1,1.2567052E0,-1.2722425E0,1.5431672E0,-1.4593044E-1,1.3362677E-1,-1.4050707E-1,1.6505253E0,-1.3435513E-1,1.7131504E0,-1.2719469E-1,1.7902696E0,1.3362677E-1,-1.3663237E-1,2.8338833E-2,1.8320936E0,8.838177E-2,1.4770013E-1],"categories":[],"categories_nodes":[],"categories_segments":[],"categories_sizes":[],"default_left":[0,0,0,0,0,0,0,0,0,0,0,0,0,0,0,0,0,0,0],"id":1,"left_children":[1,-1,3,5,7,-1,-1,-1,9,-1,11,13,15,-1,-1,-1,17,-1,-1],"loss_changes":[3.256195E2,0E0,5.9031494E1,1.3615397E1,2.6047302E1,0E0,0E0,0E0,1.4949707E1,0E0,1.0091019E1,8.110572E0,3.7146912E0,0E0,0E0,0E0,1.915741E-1,0E0,0E0],"parents":[2147483647,0,0,2,2,3,3,4,4,8,8,10,10,11,11,12,12,16,16],"right_children":[2,-1,4,6,8,-1,-1,-1,10,-1,12,14,16,-1,-1,-1,18,-1,-1],"split_conditions":[1E0,-1.4826287E-1,7.682488E-1,1.8441474E0,-7.3822224E-1,-1.4593044E-1,1.3362677E-1,-1.4050707E-1,-8.8117135E-1,-1.3435513E-1,-1.3015398E0,-2.2978566E0,-1.1507616E0,1.3362677E-1,-1.3663237E-1,2.8338833E-2,-1.6634917E0,8.838177E-2,1.4770013E-1],"split_indices":[774,0,775,0,60,0,0,0,507,0,99,309,486,0,0,0,1,0,0],"split_type":[0,0,0,0,0,0,0,0,0,0,0,0,0,0,0,0,0,0,0],"sum_hessian":[1.3862651E2,5.7409145E1,8.121737E1,8.200066E0,7.30173E1,6.958556E0,1.2415092E0,2.2366788E0,7.0780624E1,1.2425994E0,6.9538025E1,2.7326283E0,6.68054E1,1.2415092E0,1.4911191E0,1.9879006E0,6.48175E1,1.4900291E0,6.332747E1],"tree_param":{"num_deleted":"0","num_feature":"777","num_nodes":"19","size_leaf_vector":"1"}},{"base_weights":[5.2452873E-2,-1.6761248E0,1.67678E0,1.2451167E-1,-1.3917962E-1,-1.2541738E-1,1.3894323E-1],"categories":[],"categories_nodes":[],"categories_segments":[],"categories_sizes":[],"default_left":[0,0,0,0,0,0,0],"id":2,"left_children":[1,3,5,-1,-1,-1,-1],"loss_changes":[3.859451E2,1.3872009E1,1.3988098E1,0E0,0E0,0E0,0E0],"parents":[2147483647,0,0,1,1,2,2],"right_children":[2,4,6,-1,-1,-1,-1],"split_conditions":[7.536081E-1,-2.664393E0,1E0,1.2451167E-1,-1.3917962E-1,-1.2541738E-1,1.3894323E-1],"split_indices":[776,188,774,0,0,0,0],"split_type":[0,0,0,0,0,0,0],"sum_hessian":[1.3733574E2,6.649609E1,7.083965E1,1.2198948E0,6.52762E1,1.2227712E0,6.961688E1],"tree_param":{"num_deleted":"0","num_feature":"777","num_nodes":"7","size_leaf_vector":"1"}},{"base_weights":[1.383437E-1,-1.3131869E-1,1.4895802E0,-1.2680884E-1,1.6355839E0,1.3187566E-1,7.084431E-2],"categories":[],"categories_nodes":[],"categories_segments":[],"categories_sizes":[],"default_left":[0,0,0,0,0,0,0],"id":3,"left_children":[1,-1,3,-1,5,-1,-1],"loss_changes":[3.179563E2,0E0,3.3916534E1,0E0,3.0145264E-1,0E0,0E0],"parents":[2147483647,0,0,2,2,4,4],"right_children":[2,-1,4,-1,6,-1,-1],"split_conditions":[7.390015E-1,-1.3131869E-1,1E0,-1.2680884E-1,1.5390819E0,1.3187566E-1,7.084431E-2],"split_indices":[776,0,774,0,313,0,0],"split_type":[0,0,0,0,0,0,0],"sum_hessian":[1.3209473E2,5.6962677E1,7.513204E1,3.341892E0,7.1790146E1,7.0351845E1,1.4383013E0],"tree_param":{"num_deleted":"0","num_feature":"777","num_nodes":"7","size_leaf_vector":"1"}},{"base_weights":[-4.601587E-2,-1.2498483E-1,1.4268756E0,-1.19819425E-1,1.2546292E-1],"categories":[],"categories_nodes":[],"categories_segments":[],"categories_sizes":[],"default_left":[0,0,0,0,0],"id":4,"left_children":[1,-1,3,-1,-1],"loss_changes":[2.7202414E2,0E0,2.5684334E1,0E0,0E0],"parents":[2147483647,0,0,2,2],"right_children":[2,-1,4,-1,-1],"split_conditions":[7.390015E-1,-1.2498483E-1,1E0,-1.19819425E-1,1.2546292E-1],"split_indices":[776,0,774,0,0],"split_type":[0,0,0,0,0],"sum_hessian":[1.2167447E2,5.9992226E1,6.1682243E1,2.7792175E0,5.8903023E1],"tree_param":{"num_deleted":"0","num_feature":"777","num_nodes":"5","size_leaf_vector":"1"}},{"base_weights":[-2.2106547E-2,-1.3842295E0,1.486469E0,6.760646E-1,-1.1992571E-1,1.1989418E-1,6.854922E-2,8.347147E-3,1.1875168E-1],"categories":[],"categories_nodes":[],"categories_segments":[],"categories_sizes":[],"default_left":[0,0,0,0,0,0,0,0,0],"id":5,"left_children":[1,3,5,7,-1,-1,-1,-1,-1],"loss_changes":[2.4195732E2,1.4810852E1,6.942749E-2,1.3045776E0,0E0,0E0,0E0,0E0,0E0],"parents":[2147483647,0,0,1,1,2,2,3,3],"right_children":[2,4,6,8,-1,-1,-1,-1,-1],"split_conditions":[7.629843E-1,-2.0515609E0,1.9589145E0,1.2556752E0,-1.1992571E-1,1.1989418E-1,6.854922E-2,8.347147E-3,1.1875168E-1],"split_indices":[776,584,325,0,0,0,0,0,0],"split_type":[0,0,0,0,0,0,0,0,0],"sum_hessian":[1.17634384E2,6.1862232E1,5.5772152E1,3.1955225E0,5.866671E1,5.4443073E1,1.3290815E0,1.9983248E0,1.1971977E0],"tree_param":{"num_deleted":"0","num_feature":"777","num_nodes":"9","size_leaf_vector":"1"}},{"base_weights":[-8.245427E-2,-1.1526459E-1,1.3058441E0,-1.1328946E-1,1.1590735E-1],"categories":[],"categories_nodes":[],"categories_segments":[],"categories_sizes":[],"default_left":[0,0,0,0,0],"id":6,"left_children":[1,-1,3,-1,-1],"loss_changes":[2.2328697E2,0E0,2.2901436E1,0E0,0E0],"parents":[2147483647,0,0,2,2],"right_children":[2,-1,4,-1,-1],"split_conditions":[7.390736E-1,-1.1526459E-1,1E0,-1.1328946E-1,1.1590735E-1],"split_indices":[776,0,774,0,0],"split_type":[0,0,0,0,0],"sum_hessian":[1.1827597E2,5.982528E1,5.8450695E1,2.8488843E0,5.560181E1],"tree_param":{"num_deleted":"0","num_feature":"777","num_nodes":"5","size_leaf_vector":"1"}},{"base_weights":[1.9074975E-2,-1.0027062E0,9.583148E-1,9.196363E-1,-1.152402E0,1.115297E0,-7.724785E-1,1.0790295E-1,2.0654203E-2,4.986018E-1,-1.323234E0,-1.0205225E-1,1.1950246E0,-1.08247094E-1,9.5861174E-2,-1.0049731E-1,1.078838E-1,-1.1123764E-1,1.0028983E-1,-1.0079276E-1,1.2598381E0,1.3094804E0,-0E0,2.0473553E-2,1.3432026E0,6.8275446E-1,1.3790162E0,2.0654203E-2,9.5861174E-2,6.279601E-2,1.11356035E-1],"categories":[],"categories_nodes":[],"categories_segments":[],"categories_sizes":[],"default_left":[0,0,0,0,0,0,0,0,0,0,0,0,0,0,0,0,0,0,0,0,0,0,0,0,0,0,0,0,0,0,0],"id":7,"left_children":[1,3,5,7,9,11,13,-1,-1,15,17,-1,19,-1,-1,-1,-1,-1,-1,-1,21,23,-1,-1,25,27,29,-1,-1,-1,-1],"loss_changes":[1.0591162E2,1.5285355E1,1.5733654E1,8.6211085E-1,1.3978218E1,1.0159523E1,5.561138E0,0E0,0E0,6.9421334E0,7.839737E0,0E0,8.248222E0,0E0,0E0,0E0,0E0,0E0,0E0,0E0,3.1596527E0,1.4972305E0,0E0,0E0,7.961197E-1,3.9397657E-1,1.0398865E-2,0E0,0E0,0E0,0E0],"parents":[2147483647,0,0,1,1,2,2,3,3,4,4,5,5,6,6,9,9,10,10,12,12,20,20,21,21,24,24,25,25,26,26],"right_children":[2,4,6,8,10,12,14,-1,-1,16,18,-1,20,-1,-1,-1,-1,-1,-1,-1,22,24,-1,-1,26,28,30,-1,-1,-1,-1],"split_conditions":[7.901885E-1,-1.8651594E0,7.717248E-1,-1.6288754E0,-1.5391264E0,-7.1157795E-1,1.1466831E0,1.0790295E-1,2.0654203E-2,7.578843E-1,2.2162094E0,-1.0205225E-1,-6.9758576E-1,-1.08247094E-1,9.5861174E-2,-1.0049731E-1,1.078838E-1,-1.1123764E-1,1.0028983E-1,-1.0079276E-1,8.8952583E-1,-6.9021934E-1,-0E0,2.0473553E-2,-1.0263386E0,6.180297E-1,-1.2645926E0,2.0654203E-2,9.5861174E-2,6.279601E-2,1.11356035E-1],"split_indices":[775,234,73,611,489,222,306,0,0,1,747,0,348,0,0,0,0,0,0,0,318,14,0,0,364,0,308,0,0,0,0],"split_type":[0,0,0,0,0,0,0,0,0,0,0,0,0,0,0,0,0,0,0,0,0,0,0,0,0,0,0,0,0,0,0],"sum_hessian":[1.1024485E2,5.2739132E1,5.7505722E1,3.7299652E0,4.9009167E1,5.2806835E1,4.6988873E0,2.1143944E0,1.6155708E0,4.5188856E0,4.449028E1,1.6264409E0,5.1180393E1,3.691123E0,1.0077641E0,1.4191041E0,3.0997815E0,4.3431248E1,1.0590345E0,1.2403908E0,4.9940002E1,4.8063507E1,1.8764951E0,1.6170427E0,4.6446465E1,2.623335E0,4.3823128E1,1.6155708E0,1.0077641E0,1.2103664E0,4.2612762E1],"tree_param":{"num_deleted":"0","num_feature":"777","num_nodes":"31","size_leaf_vector":"1"}},{"base_weights":[-2.9041216E-2,-1.0872623E-1,1.3073964E0,-1.02387495E-1,1.0951595E-1],"categories":[],"categories_nodes":[],"categories_segments":[],"categories_sizes":[],"default_left":[0,0,0,0,0],"id":8,"left_children":[1,-1,3,-1,-1],"loss_changes":[1.7578935E2,0E0,7.9643173E0,0E0,0E0],"parents":[2147483647,0,0,2,2],"right_children":[2,-1,4,-1,-1],"split_conditions":[7.536081E-1,-1.0872623E-1,1E0,-1.02387495E-1,1.0951595E-1],"split_indices":[776,0,774,0,0],"split_type":[0,0,0,0,0],"sum_hessian":[9.877289E1,4.9549488E1,4.9223396E1,1.0709599E0,4.8152435E1],"tree_param":{"num_deleted":"0","num_feature":"777","num_nodes":"5","size_leaf_vector":"1"}},{"base_weights":[8.354459E-2,-1.0534935E-1,1.1956027E0,8.46572E-2,1.2801634E0,-1.06005676E-1,1.16749465E-1,1.2428628E-2,1.3088255E0,1.0640339E-1,5.888534E-2],"categories":[],"categories_nodes":[],"categories_segments":[],"categories_sizes":[],"default_left":[0,0,0,0,0,0,0,0,0,0,0],"id":9,"left_children":[1,-1,3,5,7,-1,-1,-1,9,-1,-1],"loss_changes":[1.6843503E2,0E0,5.497719E0,8.721686E0,1.6162949E0,0E0,0E0,0E0,3.551407E-1,0E0,0E0],"parents":[2147483647,0,0,2,2,3,3,4,4,8,8],"right_children":[2,-1,4,6,8,-1,-1,-1,10,-1,-1],"split_conditions":[7.390736E-1,-1.0534935E-1,7.536081E-1,4.076713E-1,-9.8289955E-1,-1.06005676E-1,1.16749465E-1,1.2428628E-2,1.7950236E0,1.0640339E-1,5.888534E-2],"split_indices":[776,0,776,331,461,0,0,0,354,0,0],"split_type":[0,0,0,0,0,0,0,0,0,0,0],"sum_hessian":[1.0804434E2,4.7769455E1,6.0274887E1,4.37224E0,5.5902645E1,2.1166005E0,2.2556396E0,1.502708E0,5.439994E1,5.2178238E1,2.2217007E0],"tree_param":{"num_deleted":"0","num_feature":"777","num_nodes":"11","size_leaf_vector":"1"}},{"base_weights":[3.0076386E-2,-1.02753036E-1,1.1844012E0,-1.0236806E-1,1.04304284E-1],"categories":[],"categories_nodes":[],"categories_segments":[],"categories_sizes":[],"default_left":[0,0,0,0,0],"id":10,"left_children":[1,-1,3,-1,-1],"loss_changes":[1.4573753E2,0E0,1.5163887E1,0E0,0E0],"parents":[2147483647,0,0,2,2],"right_children":[2,-1,4,-1,-1],"split_conditions":[7.390015E-1,-1.02753036E-1,1E0,-1.0236806E-1,1.04304284E-1],"split_indices":[776,0,774,0,0],"split_type":[0,0,0,0,0],"sum_hessian":[9.59353E1,4.4803978E1,5.113133E1,2.2898443E0,4.8841484E1],"tree_param":{"num_deleted":"0","num_feature":"777","num_nodes":"5","size_leaf_vector":"1"}},{"base_weights":[-1.8944742E-2,-1.00522965E-1,1.1487085E0,-9.9697776E-2,1.2533731E0,1.0179652E-1,2.6531896E-2],"categories":[],"categories_nodes":[],"categories_segments":[],"categories_sizes":[],"default_left":[0,0,0,0,0,0,0],"id":11,"left_children":[1,-1,3,-1,5,-1,-1],"loss_changes":[1.3079572E2,0E0,1.1754871E1,0E0,5.6752014E-1,0E0,0E0],"parents":[2147483647,0,0,2,2,4,4],"right_children":[2,-1,4,-1,6,-1,-1],"split_conditions":[7.4198484E-1,-1.00522965E-1,1E0,-9.9697776E-2,1.3833426E0,1.0179652E-1,2.6531896E-2],"split_indices":[776,0,774,0,76,0,0],"split_type":[0,0,0,0,0,0,0],"sum_hessian":[9.0382256E1,4.3924744E1,4.645751E1,1.8698905E0,4.458762E1,4.3533287E1,1.0543351E0],"tree_param":{"num_deleted":"0","num_feature":"777","num_nodes":"7","size_leaf_vector":"1"}},{"base_weights":[-6.6197574E-2,-9.850707E-2,1.0980622E0,-9.631924E-2,1.2263069E0,9.988057E-2,2.1289479E-2],"categories":[],"categories_nodes":[],"categories_segments":[],"categories_sizes":[],"default_left":[0,0,0,0,0,0,0],"id":12,"left_children":[1,-1,3,-1,5,-1,-1],"loss_changes":[1.0976691E2,0E0,1.2023872E1,0E0,6.1610794E-1,0E0,0E0],"parents":[2147483647,0,0,2,2,4,4],"right_children":[2,-1,4,-1,6,-1,-1],"split_conditions":[7.390736E-1,-9.850707E-2,1E0,-9.631924E-2,9.460749E-1,9.988057E-2,2.1289479E-2],"split_indices":[776,0,774,0,641,0,0],"split_type":[0,0,0,0,0,0,0],"sum_hessian":[8.0786026E1,4.0427525E1,4.0358505E1,2.0537498E0,3.8304756E1,3.7299377E1,1.0053775E0],"tree_param":{"num_deleted":"0","num_feature":"777","num_nodes":"7","size_leaf_vector":"1"}},{"base_weights":[3.30311E-2,-9.670064E-2,1.1412948E0,-9.077423E-2,9.773384E-2],"categories":[],"categories_nodes":[],"categories_segments":[],"categories_sizes":[],"default_left":[0,0,0,0,0],"id":13,"left_children":[1,-1,3,-1,-1],"loss_changes":[1.1569636E2,0E0,8.22987E0,0E0,0E0],"parents":[2147483647,0,0,2,2],"right_children":[2,-1,4,-1,-1],"split_conditions":[7.4198484E-1,-9.670064E-2,1E0,-9.077423E-2,9.773384E-2],"split_indices":[776,0,774,0,0],"split_type":[0,0,0,0,0],"sum_hessian":[8.395335E1,3.9538013E1,4.4415333E1,1.4372916E0,4.297804E1],"tree_param":{"num_deleted":"0","num_feature":"777","num_nodes":"5","size_leaf_vector":"1"}},{"base_weights":[2.6362808E-2,-9.5085E-2,1.062709E0,-1.4563133E-2,1.1213458E0,1.1555997E0,-0E0,2.4630334E-2,1.1755948E0,4.9628925E-2,9.580259E-2],"categories":[],"categories_nodes":[],"categories_segments":[],"categories_sizes":[],"default_left":[0,0,0,0,0,0,0,0,0,0,0],"id":14,"left_children":[1,-1,3,-1,5,7,-1,-1,9,-1,-1],"loss_changes":[9.398657E1,0E0,3.0695229E0,0E0,1.3909416E0,4.344406E-1,0E0,0E0,1.8055344E-1,0E0,0E0],"parents":[2147483647,0,0,2,2,4,4,5,5,8,8],"right_children":[2,-1,4,-1,6,8,-1,-1,10,-1,-1],"split_conditions":[7.390736E-1,-9.5085E-2,-1.0773981E0,-1.4563133E-2,1.7401981E0,-1.0312773E0,-0E0,2.4630334E-2,-1.3067728E0,4.9628925E-2,9.580259E-2],"split_indices":[776,0,233,0,233,348,0,0,593,0,0],"split_type":[0,0,0,0,0,0,0,0,0,0,0],"sum_hessian":[7.453864E1,3.425562E1,4.028302E1,1.7145088E0,3.8568512E1,3.7354004E1,1.2145077E0,1.0217276E0,3.6332275E1,1.6556319E0,3.4676647E1],"tree_param":{"num_deleted":"0","num_feature":"777","num_nodes":"11","size_leaf_vector":"1"}},{"base_weights":[-4.048707E-2,-9.372212E-2,1.070933E0,-9.168388E-2,9.458025E-2],"categories":[],"categories_nodes":[],"categories_segments":[],"categories_sizes":[],"default_left":[0,0,0,0,0],"id":15,"left_children":[1,-1,3,-1,-1],"loss_changes":[8.768975E1,0E0,8.754765E0,0E0,0E0],"parents":[2147483647,0,0,2,2],"right_children":[2,-1,4,-1,-1],"split_conditions":[7.4198484E-1,-9.372212E-2,1E0,-9.168388E-2,9.458025E-2],"split_indices":[776,0,774,0,0],"split_type":[0,0,0,0,0],"sum_hessian":[6.962833E1,3.4561474E1,3.506685E1,1.5984024E0,3.346845E1],"tree_param":{"num_deleted":"0","num_feature":"777","num_nodes":"5","size_leaf_vector":"1"}},{"base_weights":[-5.253188E-2,-9.240693E-2,1.0247749E0,-8.9327075E-2,1.1453379E0,9.370311E-2,2.4245963E-2],"categories":[],"categories_nodes":[],"categories_segments":[],"categories_sizes":[],"default_left":[0,0,0,0,0,0,0],"id":16,"left_children":[1,-1,3,-1,5,-1,-1],"loss_changes":[7.514189E1,0E0,8.325386E0,0E0,4.644432E-1,0E0,0E0],"parents":[2147483647,0,0,2,2,4,4],"right_children":[2,-1,4,-1,6,-1,-1],"split_conditions":[7.390736E-1,-9.240693E-2,1E0,-8.9327075E-2,1.5046524E0,9.370311E-2,2.4245963E-2],"split_indices":[776,0,774,0,313,0,0],"split_type":[0,0,0,0,0,0,0],"sum_hessian":[6.3128986E1,3.1251808E1,3.1877176E1,1.6196146E0,3.0257563E1,2.9192207E1,1.0653543E0],"tree_param":{"num_deleted":"0","num_feature":"777","num_nodes":"7","size_leaf_vector":"1"}},{"base_weights":[-0E0,-9.123707E-2,1.0348369E0,-8.821181E-2,9.21717E-2],"categories":[],"categories_nodes":[],"categories_segments":[],"categories_sizes":[],"default_left":[0,0,0,0,0],"id":17,"left_children":[1,-1,3,-1,-1],"loss_changes":[7.1608345E1,0E0,8.06979E0,0E0,0E0],"parents":[2147483647,0,0,2,2],"right_children":[2,-1,4,-1,-1],"split_conditions":[7.4198484E-1,-9.123707E-2,1E0,-8.821181E-2,9.21717E-2],"split_indices":[776,0,774,0,0],"split_type":[0,0,0,0,0],"sum_hessian":[6.056298E1,2.8767643E1,3.179534E1,1.5747646E0,3.0220573E1],"tree_param":{"num_deleted":"0","num_feature":"777","num_nodes":"5","size_leaf_vector":"1"}},{"base_weights":[8.081915E-2,-9.012343E-2,1.047667E0,-8.407096E-2,9.184868E-2],"categories":[],"categories_nodes":[],"categories_segments":[],"categories_sizes":[],"default_left":[0,0,0,0,0],"id":18,"left_children":[1,-1,3,-1,-1],"loss_changes":[6.8189445E1,0E0,6.933487E0,0E0,0E0],"parents":[2147483647,0,0,2,2],"right_children":[2,-1,4,-1,-1],"split_conditions":[7.390736E-1,-9.012343E-2,1E0,-8.407096E-2,9.184868E-2],"split_indices":[776,0,774,0,0],"split_type":[0,0,0,0,0],"sum_hessian":[5.830205E1,2.58667E1,3.2435352E1,1.401016E0,3.1034338E1],"tree_param":{"num_deleted":"0","num_feature":"777","num_nodes":"5","size_leaf_vector":"1"}},{"base_weights":[2.6302073E-2,-8.92108E-2,9.61443E-1,-8.619942E-2,1.1006858E0,1.9768454E-2,9.0596065E-2],"categories":[],"categories_nodes":[],"categories_segments":[],"categories_sizes":[],"default_left":[0,0,0,0,0,0,0],"id":19,"left_children":[1,-1,3,-1,5,-1,-1],"loss_changes":[5.8739037E1,0E0,8.68051E0,0E0,5.893707E-1,0E0,0E0],"parents":[2147483647,0,0,2,2,4,4],"right_children":[2,-1,4,-1,6,-1,-1],"split_conditions":[7.390736E-1,-8.92108E-2,1E0,-8.619942E-2,-1.4045103E0,1.9768454E-2,9.0596065E-2],"split_indices":[776,0,774,0,214,0,0],"split_type":[0,0,0,0,0,0,0],"sum_hessian":[5.4926792E1,2.4672075E1,3.0254717E1,1.8531343E0,2.8401583E1,1.1734501E0,2.7228132E1],"tree_param":{"num_deleted":"0","num_feature":"777","num_nodes":"7","size_leaf_vector":"1"}},{"base_weights":[7.4682944E-3,-1.0315334E0,1.0501381E0,-8.9615926E-2,7.481067E-2,8.780164E-2,3.0259714E-2],"categories":[],"categories_nodes":[],"categories_segments":[],"categories_sizes":[],"default_left":[0,0,0,0,0,0,0],"id":20,"left_children":[1,3,5,-1,-1,-1,-1],"loss_changes":[5.51826E1,4.52384E0,6.091919E-1,0E0,0E0,0E0,0E0],"parents":[2147483647,0,0,1,1,2,2],"right_children":[2,4,6,-1,-1,-1,-1],"split_conditions":[7.536081E-1,2.1930695E0,1.1006691E0,-8.9615926E-2,7.481067E-2,8.780164E-2,3.0259714E-2],"split_indices":[776,19,415,0,0,0,0],"split_type":[0,0,0,0,0,0,0],"sum_hessian":[5.081562E1,2.5395256E1,2.5420364E1,2.4382816E1,1.012439E0,2.3543444E1,1.8769195E0],"tree_param":{"num_deleted":"0","num_feature":"777","num_nodes":"7","size_leaf_vector":"1"}},{"base_weights":[-1.4713989E-2,-8.879314E-2,1.0214314E0,3.9258865E-1,8.778111E-2,8.179159E-2,-2.340898E-2],"categories":[],"categories_nodes":[],"categories_segments":[],"categories_sizes":[],"default_left":[0,0,0,0,0,0,0],"id":21,"left_children":[1,-1,3,5,-1,-1,-1],"loss_changes":[5.4010162E1,0E0,9.5874596E-1,1.3522874E0,0E0,0E0,0E0],"parents":[2147483647,0,0,2,2,3,3],"right_children":[2,-1,4,6,-1,-1,-1],"split_conditions":[7.536081E-1,-8.879314E-2,7.786206E-1,-3.6660704E-1,8.778111E-2,8.179159E-2,-2.340898E-2],"split_indices":[776,0,776,369,0,0,0],"split_type":[0,0,0,0,0,0,0],"sum_hessian":[4.746569E1,2.3129486E1,2.4336203E1,2.8290772E0,2.1507126E1,1.5499951E0,1.2790821E0],"tree_param":{"num_deleted":"0","num_feature":"777","num_nodes":"7","size_leaf_vector":"1"}},{"base_weights":[8.328872E-3,-1.0034788E0,1.0375966E0,-8.8032804E-2,7.727885E-2,8.613469E-2,1.8369317E-2],"categories":[],"categories_nodes":[],"categories_segments":[],"categories_sizes":[],"default_left":[0,0,0,0,0,0,0],"id":22,"left_children":[1,3,5,-1,-1,-1,-1],"loss_changes":[4.8247395E1,4.5282917E0,5.5550194E-1,0E0,0E0,0E0,0E0],"parents":[2147483647,0,0,1,1,2,2],"right_children":[2,4,6,-1,-1,-1,-1],"split_conditions":[7.536081E-1,2.2737157E0,1.1159892E0,-8.8032804E-2,7.727885E-2,8.613469E-2,1.8369317E-2],"split_indices":[776,12,640,0,0,0,0],"split_type":[0,0,0,0,0,0,0],"sum_hessian":[4.6204506E1,2.3241842E1,2.2962662E1,2.2234913E1,1.0069308E0,2.1742376E1,1.2202857E0],"tree_param":{"num_deleted":"0","num_feature":"777","num_nodes":"7","size_leaf_vector":"1"}},{"base_weights":[5.029047E-2,-8.6063944E-2,9.302188E-1,-8.322108E-2,1.0631442E0,8.8031165E-2,1.0352296E-2],"categories":[],"categories_nodes":[],"categories_segments":[],"categories_sizes":[],"default_left":[0,0,0,0,0,0,0],"id":23,"left_children":[1,-1,3,-1,5,-1,-1],"loss_changes":[4.238061E1,0E0,6.3756504E0,0E0,6.313362E-1,0E0,0E0],"parents":[2147483647,0,0,2,2,4,4],"right_children":[2,-1,4,-1,6,-1,-1],"split_conditions":[7.390736E-1,-8.6063944E-2,1E0,-8.322108E-2,1.3772159E0,8.8031165E-2,1.0352296E-2],"split_indices":[776,0,774,0,726,0,0],"split_type":[0,0,0,0,0,0,0],"sum_hessian":[4.266778E1,1.86503E1,2.4017483E1,1.4348589E0,2.2582624E1,2.158251E1,1.0001154E0],"tree_param":{"num_deleted":"0","num_feature":"777","num_nodes":"7","size_leaf_vector":"1"}},{"base_weights":[8.686509E-2,-8.545369E-2,9.6417826E-1,-0E0,1.0263971E0,1.0642717E0,1.1618313E-2,3.7569858E-2,8.718696E-2],"categories":[],"categories_nodes":[],"categories_segments":[],"categories_sizes":[],"default_left":[0,0,0,0,0,0,0,0,0],"id":24,"left_children":[1,-1,3,-1,5,7,-1,-1,-1],"loss_changes":[4.1149925E1,0E0,1.4541492E0,0E0,5.731888E-1,9.780502E-2,0E0,0E0,0E0],"parents":[2147483647,0,0,2,2,4,4,5,5],"right_children":[2,-1,4,-1,6,8,-1,-1,-1],"split_conditions":[7.390015E-1,-8.545369E-2,-1.1634494E0,-0E0,1.1074626E0,-7.5417453E-1,1.1618313E-2,3.7569858E-2,8.718696E-2],"split_indices":[776,0,328,0,666,262,0,0,0],"split_type":[0,0,0,0,0,0,0,0,0],"sum_hessian":[4.0499996E1,1.741813E1,2.3081865E1,1.3403082E0,2.1741556E1,2.0703043E1,1.038514E0,1.0947706E0,1.9608273E1],"tree_param":{"num_deleted":"0","num_feature":"777","num_nodes":"9","size_leaf_vector":"1"}},{"base_weights":[1.5852904E-2,-8.492979E-2,8.9694476E-1,-8.212656E-2,1.0316988E0,8.597494E-2,1.1701983E-2],"categories":[],"categories_nodes":[],"categories_segments":[],"categories_sizes":[],"default_left":[0,0,0,0,0,0,0],"id":25,"left_children":[1,-1,3,-1,5,-1,-1],"loss_changes":[3.4811977E1,0E0,5.3117466E0,0E0,5.675373E-1,0E0,0E0],"parents":[2147483647,0,0,2,2,4,4],"right_children":[2,-1,4,-1,6,-1,-1],"split_conditions":[7.4198484E-1,-8.492979E-2,1E0,-8.212656E-2,1.4098128E0,8.597494E-2,1.1701983E-2],"split_indices":[776,0,774,0,142,0,0],"split_type":[0,0,0,0,0,0,0],"sum_hessian":[3.656973E1,1.6384663E1,2.0185068E1,1.237203E0,1.8947866E1,1.7929045E1,1.0188206E0],"tree_param":{"num_deleted":"0","num_feature":"777","num_nodes":"7","size_leaf_vector":"1"}},{"base_weights":[2.7553188E-2,-8.434624E-2,9.4858223E-1,1.0032945E0,-0E0,8.446874E-2,1.6151406E-2],"categories":[],"categories_nodes":[],"categories_segments":[],"categories_sizes":[],"default_left":[0,0,0,0,0,0,0],"id":26,"left_children":[1,-1,3,5,-1,-1,-1],"loss_changes":[3.218319E1,0E0,8.306074E-1,5.304699E-1,0E0,0E0,0E0],"parents":[2147483647,0,0,2,2,3,3],"right_children":[2,-1,4,6,-1,-1,-1],"split_conditions":[7.4072087E-1,-8.434624E-2,8.88974E-1,8.6621904E-1,-0E0,8.446874E-2,1.6151406E-2],"split_indices":[776,0,18,584,0,0,0],"split_type":[0,0,0,0,0,0,0],"sum_hessian":[3.219055E1,1.473877E1,1.745178E1,1.6419094E1,1.0326864E0,1.5250041E1,1.1690533E0],"tree_param":{"num_deleted":"0","num_feature":"777","num_nodes":"7","size_leaf_vector":"1"}},{"base_weights":[2.7427422E-2,-8.3881006E-2,8.8934755E-1,-7.895723E-2,1.0263554E0,8.612837E-2,8.552754E-3],"categories":[],"categories_nodes":[],"categories_segments":[],"categories_sizes":[],"default_left":[0,0,0,0,0,0,0],"id":27,"left_children":[1,-1,3,-1,5,-1,-1],"loss_changes":[3.0580324E1,0E0,4.790656E0,0E0,6.466141E-1,0E0,0E0],"parents":[2147483647,0,0,2,2,4,4],"right_children":[2,-1,4,-1,6,-1,-1],"split_conditions":[7.390736E-1,-8.3881006E-2,1E0,-7.895723E-2,1.0194722E0,8.612837E-2,8.552754E-3],"split_indices":[776,0,774,0,671,0,0],"split_type":[0,0,0,0,0,0,0],"sum_hessian":[3.2875435E1,1.4554612E1,1.8320822E1,1.1618116E0,1.7159012E1,1.6136362E1,1.0226482E0],"tree_param":{"num_deleted":"0","num_feature":"777","num_nodes":"7","size_leaf_vector":"1"}},{"base_weights":[1.4276792E-2,-8.332392E-2,8.2801884E-1,1.2588552E-1,8.145286E-2,-9.7446695E-2,8.3211906E-2],"categories":[],"categories_nodes":[],"categories_segments":[],"categories_sizes":[],"default_left":[0,0,0,0,0,0,0],"id":28,"left_children":[1,-1,3,5,-1,-1,-1],"loss_changes":[2.5067057E1,0E0,2.0655136E0,4.639456E0,0E0,0E0,0E0],"parents":[2147483647,0,0,2,2,3,3],"right_children":[2,-1,4,6,-1,-1,-1],"split_conditions":[7.390015E-1,-8.332392E-2,7.684773E-1,7.1943283E-1,8.145286E-2,-9.7446695E-2,8.3211906E-2],"split_indices":[776,0,776,276,0,0,0],"split_type":[0,0,0,0,0,0,0],"sum_hessian":[2.9085505E1,1.2588165E1,1.6497337E1,3.671287E0,1.2826051E1,1.4251384E0,2.2461486E0],"tree_param":{"num_deleted":"0","num_feature":"777","num_nodes":"7","size_leaf_vector":"1"}},{"base_weights":[-3.191274E-2,-8.348677E-2,7.0355844E-1,-7.211397E-2,8.4939116E-1,9.4168836E-1,-1.2205457E-2,8.0626726E-2,1.7370474E-2],"categories":[],"categories_nodes":[],"categories_segments":[],"categories_sizes":[],"default_left":[0,0,0,0,0,0,0,0,0],"id":29,"left_children":[1,-1,3,-1,5,7,-1,-1,-1],"loss_changes":[1.9569124E1,0E0,3.5810833E0,0E0,1.3951855E0,4.5856762E-1,0E0,0E0,0E0],"parents":[2147483647,0,0,2,2,4,4,5,5],"right_children":[2,-1,4,-1,6,8,-1,-1,-1],"split_conditions":[1E0,-8.348677E-2,7.682488E-1,-7.211397E-2,8.6621237E-1,3.4875986E-1,-1.2205457E-2,8.0626726E-2,1.7370474E-2],"split_indices":[774,0,775,0,514,120,0,0,0],"split_type":[0,0,0,0,0,0,0,0,0],"sum_hessian":[2.6126577E1,1.1056253E1,1.5070323E1,1.1608363E0,1.3909487E1,1.2849232E1,1.0602548E0,1.1601079E1,1.2481525E0],"tree_param":{"num_deleted":"0","num_feature":"777","num_nodes":"9","size_leaf_vector":"1"}},{"base_weights":[3.313333E-2,-9.190973E-1,9.4198054E-1,-8.480567E-2,4.149134E-2,4.1410092E-1,8.277779E-2,-6.8529127E-3,7.3743545E-2],"categories":[],"categories_nodes":[],"categories_segments":[],"categories_sizes":[],"default_left":[0,0,0,0,0,0,0,0,0],"id":30,"left_children":[1,3,5,-1,-1,7,-1,-1,-1],"loss_changes":[2.2385826E1,2.645051E0,4.5138645E-1,0E0,0E0,6.836579E-1,0E0,0E0,0E0],"parents":[2147483647,0,0,1,1,2,2,5,5],"right_children":[2,4,6,-1,-1,8,-1,-1,-1],"split_conditions":[7.536081E-1,2.1329358E0,7.786206E-1,-8.480567E-2,4.149134E-2,-1.6485944E-1,8.277779E-2,-6.8529127E-3,7.3743545E-2],"split_indices":[776,106,776,0,0,376,0,0,0],"split_type":[0,0,0,0,0,0,0,0,0],"sum_hessian":[2.574345E1,1.2506864E1,1.3236586E1,1.148041E1,1.0264549E0,2.2203503E0,1.1016235E1,1.0249374E0,1.1954129E0],"tree_param":{"num_deleted":"0","num_feature":"777","num_nodes":"9","size_leaf_vector":"1"}},{"base_weights":[-4.3297867E-5,-8.221278E-2,8.26916E-1,9.539547E-1,-4.962924E-3,8.187275E-2,3.5296544E-2],"categories":[],"categories_nodes":[],"categories_segments":[],"categories_sizes":[],"default_left":[0,0,0,0,0,0,0],"id":31,"left_children":[1,-1,3,5,-1,-1,-1],"loss_changes":[2.0832386E1,0E0,1.635498E0,2.2224236E-1,0E0,0E0,0E0],"parents":[2147483647,0,0,2,2,3,3],"right_children":[2,-1,4,6,-1,-1,-1],"split_conditions":[7.390015E-1,-8.221278E-2,8.173753E-1,2.014895E-1,-4.962924E-3,8.187275E-2,3.5296544E-2],"split_indices":[776,0,506,39,0,0,0],"split_type":[0,0,0,0,0,0,0],"sum_hessian":[2.4366201E1,1.0923153E1,1.34430485E1,1.1876413E1,1.5666354E0,1.0200859E1,1.6755545E0],"tree_param":{"num_deleted":"0","num_feature":"777","num_nodes":"7","size_leaf_vector":"1"}},{"base_weights":[7.172947E-2,-8.177922E-2,8.0940056E-1,-7.838166E-2,9.888803E-1,8.3968446E-2,9.577998E-3],"categories":[],"categories_nodes":[],"categories_segments":[],"categories_sizes":[],"default_left":[0,0,0,0,0,0,0],"id":32,"left_children":[1,-1,3,-1,5,-1,-1],"loss_changes":[1.959647E1,0E0,4.742671E0,0E0,5.5653286E-1,0E0,0E0],"parents":[2147483647,0,0,2,2,4,4],"right_children":[2,-1,4,-1,6,-1,-1],"split_conditions":[7.390736E-1,-8.177922E-2,1E0,-7.838166E-2,7.325741E-1,8.3968446E-2,9.577998E-3],"split_indices":[776,0,774,0,40,0,0],"split_type":[0,0,0,0,0,0,0],"sum_hessian":[2.4193544E1,9.668818E0,1.4524726E1,1.2388566E0,1.3285869E1,1.227755E1,1.0083196E0],"tree_param":{"num_deleted":"0","num_feature":"777","num_nodes":"7","size_leaf_vector":"1"}},{"base_weights":[7.554362E-2,-8.139186E-2,8.683173E-1,-7.584253E-2,8.3480984E-2],"categories":[],"categories_nodes":[],"categories_segments":[],"categories_sizes":[],"default_left":[0,0,0,0,0],"id":33,"left_children":[1,-1,3,-1,-1],"loss_changes":[1.8508553E1,0E0,4.033635E0,0E0,0E0],"parents":[2147483647,0,0,2,2],"right_children":[2,-1,4,-1,-1],"split_conditions":[7.390736E-1,-8.139186E-2,1E0,-7.584253E-2,8.3480984E-2],"split_indices":[776,0,774,0,0],"split_type":[0,0,0,0,0],"sum_hessian":[2.1260696E1,8.867426E0,1.23932705E1,1.0066907E0,1.138658E1],"tree_param":{"num_deleted":"0","num_feature":"777","num_nodes":"5","size_leaf_vector":"1"}},{"base_weights":[-0E0,-9.136141E-1,8.982705E-1,9.582796E-3,-8.411919E-2,1.7536713E-2,8.116855E-2],"categories":[],"categories_nodes":[],"categories_segments":[],"categories_sizes":[],"default_left":[0,0,0,0,0,0,0],"id":34,"left_children":[1,3,5,-1,-1,-1,-1],"loss_changes":[1.56924095E1,1.4647408E0,6.0332394E-1,0E0,0E0,0E0,0E0],"parents":[2147483647,0,0,1,1,2,2],"right_children":[2,4,6,-1,-1,-1,-1],"split_conditions":[7.536081E-1,-1.5648454E0,7.786206E-1,9.582796E-3,-8.411919E-2,1.7536713E-2,8.116855E-2],"split_indices":[776,601,776,0,0,0,0],"split_type":[0,0,0,0,0,0,0],"sum_hessian":[1.9002682E1,9.382533E0,9.62015E0,1.002933E0,8.3796E0,1.5832397E0,8.03691E0],"tree_param":{"num_deleted":"0","num_feature":"777","num_nodes":"7","size_leaf_vector":"1"}},{"base_weights":[-6.606218E-4,-8.1170216E-2,7.3783076E-1,-9.501638E-3,9.2791605E-1,3.8427856E-2,8.034039E-2],"categories":[],"categories_nodes":[],"categories_segments":[],"categories_sizes":[],"default_left":[0,0,0,0,0,0,0],"id":35,"left_children":[1,-1,3,-1,5,-1,-1],"loss_changes":[1.2658157E1,0E0,1.6809778E0,0E0,6.7914486E-2,0E0,0E0],"parents":[2147483647,0,0,2,2,4,4],"right_children":[2,-1,4,-1,6,-1,-1],"split_conditions":[1E0,-8.1170216E-2,5.838978E-1,-9.501638E-3,-7.3675597E-1,3.8427856E-2,8.034039E-2],"split_indices":[774,0,32,0,270,0,0],"split_type":[0,0,0,0,0,0,0],"sum_hessian":[1.6740114E1,7.113356E0,9.626758E0,1.6377244E0,7.9890327E0,1.4568913E0,6.5321417E0],"tree_param":{"num_deleted":"0","num_feature":"777","num_nodes":"7","size_leaf_vector":"1"}},{"base_weights":[3.570891E-2,-8.0451526E-2,7.866095E-1,-9.307516E-3,9.0880626E-1,7.857534E-2,1.6234567E-2],"categories":[],"categories_nodes":[],"categories_segments":[],"categories_sizes":[],"default_left":[0,0,0,0,0,0,0],"id":36,"left_children":[1,-1,3,-1,5,-1,-1],"loss_changes":[1.3936292E1,0E0,1.2533956E0,0E0,3.2859278E-1,0E0,0E0],"parents":[2147483647,0,0,2,2,4,4],"right_children":[2,-1,4,-1,6,-1,-1],"split_conditions":[7.390736E-1,-8.0451526E-2,-7.826478E-1,-9.307516E-3,7.7607894E-1,7.857534E-2,1.6234567E-2],"split_indices":[776,0,518,0,324,0,0],"split_type":[0,0,0,0,0,0,0],"sum_hessian":[1.773534E1,7.355094E0,1.0380247E1,1.1206003E0,9.259646E0,8.212366E0,1.0472802E0],"tree_param":{"num_deleted":"0","num_feature":"777","num_nodes":"7","size_leaf_vector":"1"}},{"base_weights":[4.6365134E-2,-8.0085285E-2,7.83579E-1,9.4919425E-1,-0E0,8.1061326E-2,3.6872175E-2],"categories":[],"categories_nodes":[],"categories_segments":[],"categories_sizes":[],"default_left":[0,0,0,0,0,0,0],"id":37,"left_children":[1,-1,3,5,-1,-1,-1],"loss_changes":[1.2711578E1,0E0,1.2530909E0,4.6399117E-2,0E0,0E0,0E0],"parents":[2147483647,0,0,2,2,3,3],"right_children":[2,-1,4,6,-1,-1,-1],"split_conditions":[7.390736E-1,-8.0085285E-2,5.8274794E-1,3.8444164E-1,-0E0,8.1061326E-2,3.6872175E-2],"split_indices":[776,0,232,187,0,0,0],"split_type":[0,0,0,0,0,0,0],"sum_hessian":[1.6374767E1,6.6880937E0,9.686673E0,7.9730215E0,1.7136513E0,6.773907E0,1.1991143E0],"tree_param":{"num_deleted":"0","num_feature":"777","num_nodes":"7","size_leaf_vector":"1"}},{"base_weights":[3.759409E-2,-8.9298123E-1,8.5493773E-1,-8.38034E-2,-0E0,1.4032493E-2,8.019621E-2],"categories":[],"categories_nodes":[],"categories_segments":[],"categories_sizes":[],"default_left":[0,0,0,0,0,0,0],"id":38,"left_children":[1,3,5,-1,-1,-1,-1],"loss_changes":[1.2161713E1,1.1199903E0,7.0849323E-1,0E0,0E0,0E0,0E0],"parents":[2147483647,0,0,1,1,2,2],"right_children":[2,4,6,-1,-1,-1,-1],"split_conditions":[7.536081E-1,1.3953408E0,7.786206E-1,-8.38034E-2,-0E0,1.4032493E-2,8.019621E-2],"split_indices":[776,698,776,0,0,0,0],"split_type":[0,0,0,0,0,0,0],"sum_hessian":[1.5875411E1,7.3522444E0,8.523167E0,6.3469424E0,1.005302E0,1.6887438E0,6.8344226E0],"tree_param":{"num_deleted":"0","num_feature":"777","num_nodes":"7","size_leaf_vector":"1"}},{"base_weights":[9.9405766E-2,-7.949463E-2,7.989343E-1,-8.975669E-3,9.448702E-1,3.312332E-2,8.0670096E-2],"categories":[],"categories_nodes":[],"categories_segments":[],"categories_sizes":[],"default_left":[0,0,0,0,0,0,0],"id":39,"left_children":[1,-1,3,-1,5,-1,-1],"loss_changes":[1.1927408E1,0E0,1.3817558E0,0E0,8.7026596E-2,0E0,0E0],"parents":[2147483647,0,0,2,2,4,4],"right_children":[2,-1,4,-1,6,-1,-1],"split_conditions":[7.390736E-1,-7.949463E-2,-1.0337781E0,-8.975669E-3,-8.310583E-1,3.312332E-2,8.0670096E-2],"split_indices":[776,0,535,0,615,0,0],"split_type":[0,0,0,0,0,0,0],"sum_hessian":[1.5506856E1,5.9744143E0,9.532441E0,1.2044184E0,8.328023E0,1.1399862E0,7.188037E0],"tree_param":{"num_deleted":"0","num_feature":"777","num_nodes":"7","size_leaf_vector":"1"}},{"base_weights":[1.2042163E-2,-8.80567E-1,8.963602E-1,-8.344417E-2,-0E0,1.5897261E-2,7.973E-2],"categories":[],"categories_nodes":[],"categories_segments":[],"categories_sizes":[],"default_left":[0,0,0,0,0,0,0],"id":40,"left_children":[1,3,5,-1,-1,-1,-1],"loss_changes":[1.053621E1,9.6495247E-1,3.183055E-1,0E0,0E0,0E0,0E0],"parents":[2147483647,0,0,1,1,2,2],"right_children":[2,4,6,-1,-1,-1,-1],"split_conditions":[7.536081E-1,1.2762915E0,-1.0337781E0,-8.344417E-2,-0E0,1.5897261E-2,7.973E-2],"split_indices":[776,360,535,0,0,0,0],"split_type":[0,0,0,0,0,0,0],"sum_hessian":[1.3225553E1,6.5145154E0,6.7110367E0,5.5126615E0,1.0018536E0,1.01618E0,5.6948566E0],"tree_param":{"num_deleted":"0","num_feature":"777","num_nodes":"7","size_leaf_vector":"1"}},{"base_weights":[1.05141684E-1,-7.879238E-2,7.7084976E-1,9.150465E-1,2.2069358E-3,7.8866646E-2,3.1590417E-2],"categories":[],"categories_nodes":[],"categories_segments":[],"categories_sizes":[],"default_left":[0,0,0,0,0,0,0],"id":41,"left_children":[1,-1,3,5,-1,-1,-1],"loss_changes":[9.839548E0,0E0,7.9672766E-1,6.813669E-2,0E0,0E0,0E0],"parents":[2147483647,0,0,2,2,3,3],"right_children":[2,-1,4,6,-1,-1,-1],"split_conditions":[7.390736E-1,-7.879238E-2,6.215183E-1,1.1579794E0,2.2069358E-3,7.8866646E-2,3.1590417E-2],"split_indices":[776,0,350,631,0,0,0],"split_type":[0,0,0,0,0,0,0],"sum_hessian":[1.3472205E1,5.0288377E0,8.443368E0,6.924637E0,1.5187314E0,5.8448367E0,1.0798001E0],"tree_param":{"num_deleted":"0","num_feature":"777","num_nodes":"7","size_leaf_vector":"1"}},{"base_weights":[1.7225292E-2,-6.7843306E-1,7.901447E-2,-8.0339365E-2,2.2319157E-2],"categories":[],"categories_nodes":[],"categories_segments":[],"categories_sizes":[],"default_left":[0,0,0,0,0],"id":42,"left_children":[1,3,-1,-1,-1],"loss_changes":[8.491222E0,2.3569243E0,0E0,0E0,0E0],"parents":[2147483647,0,0,1,1],"right_children":[2,4,-1,-1,-1],"split_conditions":[7.786206E-1,1.0536822E0,7.901447E-2,-8.0339365E-2,2.2319157E-2],"split_indices":[776,38,0,0,0],"split_type":[0,0,0,0,0],"sum_hessian":[1.2403099E1,7.162883E0,5.2402167E0,5.435571E0,1.7273116E0],"tree_param":{"num_deleted":"0","num_feature":"777","num_nodes":"5","size_leaf_vector":"1"}},{"base_weights":[1.0861731E-3,-7.951758E-2,6.461802E-1,8.727921E-1,-8.273501E-3,7.6188795E-2,3.289077E-2],"categories":[],"categories_nodes":[],"categories_segments":[],"categories_sizes":[],"default_left":[0,0,0,0,0,0,0],"id":43,"left_children":[1,-1,3,5,-1,-1,-1],"loss_changes":[7.165262E0,0E0,1.2672281E0,1.1826515E-2,0E0,0E0,0E0],"parents":[2147483647,0,0,2,2,3,3],"right_children":[2,-1,4,6,-1,-1,-1],"split_conditions":[1E0,-7.951758E-2,1.3203773E-1,3.5450983E-1,-8.273501E-3,7.6188795E-2,3.289077E-2],"split_indices":[774,0,558,439,0,0,0],"split_type":[0,0,0,0,0,0,0],"sum_hessian":[1.1107484E1,4.2828026E0,6.8246813E0,5.3557916E0,1.4688895E0,4.292296E0,1.0634958E0],"tree_param":{"num_deleted":"0","num_feature":"777","num_nodes":"7","size_leaf_vector":"1"}},{"base_weights":[1.004489E-2,-7.902531E-2,6.4143E-1,8.553128E-1,-9.152608E-3,3.2312572E-2,7.7166826E-2],"categories":[],"categories_nodes":[],"categories_segments":[],"categories_sizes":[],"default_left":[0,0,0,0,0,0,0],"id":44,"left_children":[1,-1,3,5,-1,-1,-1],"loss_changes":[6.922168E0,0E0,1.2009664E0,8.1935406E-2,0E0,0E0,0E0],"parents":[2147483647,0,0,2,2,3,3],"right_children":[2,-1,4,6,-1,-1,-1],"split_conditions":[1E0,-7.902531E-2,3.420638E-1,3.8932496E-1,-9.152608E-3,3.2312572E-2,7.7166826E-2],"split_indices":[774,0,453,192,0,0,0],"split_type":[0,0,0,0,0,0,0],"sum_hessian":[1.0932595E1,4.149951E0,6.7826447E0,5.4042478E0,1.378397E0,1.3221959E0,4.0820518E0],"tree_param":{"num_deleted":"0","num_feature":"777","num_nodes":"7","size_leaf_vector":"1"}},{"base_weights":[2.3483858E-4,-7.93524E-1,8.605012E-1,-8.319979E-2,8.970478E-3,7.805476E-2,2.1486605E-2],"categories":[],"categories_nodes":[],"categories_segments":[],"categories_sizes":[],"default_left":[0,0,0,0,0,0,0],"id":45,"left_children":[1,3,5,-1,-1,-1,-1],"loss_changes":[7.0982003E0,1.3076239E0,1.796403E-1,0E0,0E0,0E0,0E0],"parents":[2147483647,0,0,1,1,2,2],"right_children":[2,4,6,-1,-1,-1,-1],"split_conditions":[7.629843E-1,1.2836667E0,6.908106E-1,-8.319979E-2,8.970478E-3,7.805476E-2,2.1486605E-2],"split_indices":[776,486,93,0,0,0,0],"split_type":[0,0,0,0,0,0,0],"sum_hessian":[1.0263285E1,5.2678537E0,4.9954305E0,4.238067E0,1.0297866E0,3.9794297E0,1.0160009E0],"tree_param":{"num_deleted":"0","num_feature":"777","num_nodes":"7","size_leaf_vector":"1"}},{"base_weights":[-0E0,-7.856781E-2,6.6984904E-1,8.063018E-1,-0E0,7.650941E-2,2.6330017E-2],"categories":[],"categories_nodes":[],"categories_segments":[],"categories_sizes":[],"default_left":[0,0,0,0,0,0,0],"id":46,"left_children":[1,-1,3,5,-1,-1,-1],"loss_changes":[6.1333723E0,0E0,4.2145348E-1,1.4992738E-1,0E0,0E0,0E0],"parents":[2147483647,0,0,2,2,3,3],"right_children":[2,-1,4,6,-1,-1,-1],"split_conditions":[1E0,-7.856781E-2,1.2731919E-1,-3.927031E-1,-0E0,7.650941E-2,2.6330017E-2],"split_indices":[774,0,120,489,0,0,0],"split_type":[0,0,0,0,0,0,0],"sum_hessian":[9.232656E0,3.6949208E0,5.537735E0,4.45168E0,1.0860552E0,3.149477E0,1.3022029E0],"tree_param":{"num_deleted":"0","num_feature":"777","num_nodes":"7","size_leaf_vector":"1"}},{"base_weights":[1.1084207E-1,-7.772751E-2,6.6074497E-1,6.840758E-2,-1.4924015E-2],"categories":[],"categories_nodes":[],"categories_segments":[],"categories_sizes":[],"default_left":[0,0,0,0,0],"id":47,"left_children":[1,-1,3,-1,-1],"loss_changes":[5.7556934E0,0E0,1.1634533E0,0E0,0E0],"parents":[2147483647,0,0,2,2],"right_children":[2,-1,4,-1,-1],"split_conditions":[1E0,-7.772751E-2,5.762982E-1,6.840758E-2,-1.4924015E-2],"split_indices":[774,0,671,0,0],"split_type":[0,0,0,0,0],"sum_hessian":[9.607576E0,3.1475894E0,6.4599867E0,5.369437E0,1.0905495E0],"tree_param":{"num_deleted":"0","num_feature":"777","num_nodes":"5","size_leaf_vector":"1"}},{"base_weights":[1.4952211E-1,-7.672393E-2,8.1243485E-1,7.471051E-2,1.1181581E-2],"categories":[],"categories_nodes":[],"categories_segments":[],"categories_sizes":[],"default_left":[0,0,0,0,0],"id":48,"left_children":[1,-1,3,-1,-1],"loss_changes":[6.5680385E0,0E0,3.2639456E-1,0E0,0E0],"parents":[2147483647,0,0,2,2],"right_children":[2,-1,4,-1,-1],"split_conditions":[7.390015E-1,-7.672393E-2,2.5546873E-1,7.471051E-2,1.1181581E-2],"split_indices":[776,0,166,0,0],"split_type":[0,0,0,0,0],"sum_hessian":[8.837818E0,3.2294586E0,5.60836E0,4.5798035E0,1.0285566E0],"tree_param":{"num_deleted":"0","num_feature":"777","num_nodes":"5","size_leaf_vector":"1"}},{"base_weights":[6.606547E-2,-7.756626E-2,6.786678E-1,2.201388E-3,8.199389E-1,2.972936E-2,7.373822E-2],"categories":[],"categories_nodes":[],"categories_segments":[],"categories_sizes":[],"default_left":[0,0,0,0,0,0,0],"id":49,"left_children":[1,-1,3,-1,5,-1,-1],"loss_changes":[5.374673E0,0E0,3.9612937E-1,0E0,2.0727634E-2,0E0,0E0],"parents":[2147483647,0,0,2,2,4,4],"right_children":[2,-1,4,-1,6,-1,-1],"split_conditions":[1E0,-7.756626E-2,-5.2354086E-2,2.201388E-3,2.729449E-1,2.972936E-2,7.373822E-2],"split_indices":[774,0,60,0,271,0,0],"split_type":[0,0,0,0,0,0,0],"sum_hessian":[8.404346E0,3.0378373E0,5.366509E0,1.1209438E0,4.245565E0,1.0553433E0,3.1902218E0],"tree_param":{"num_deleted":"0","num_feature":"777","num_nodes":"7","size_leaf_vector":"1"}},{"base_weights":[9.5458925E-2,-7.687572E-2,5.990727E-1,8.028794E-1,-2.0704966E-2,3.0415691E-2,7.487931E-2],"categories":[],"categories_nodes":[],"categories_segments":[],"categories_sizes":[],"default_left":[0,0,0,0,0,0,0],"id":50,"left_children":[1,-1,3,5,-1,-1,-1],"loss_changes":[4.643184E0,0E0,1.1329668E0,1.0226965E-1,0E0,0E0,0E0],"parents":[2147483647,0,0,2,2,3,3],"right_children":[2,-1,4,6,-1,-1,-1],"split_conditions":[1E0,-7.687572E-2,4.6929115E-1,-3.813165E-2,-2.0704966E-2,3.0415691E-2,7.487931E-2],"split_indices":[774,0,58,340,0,0,0],"split_type":[0,0,0,0,0,0,0],"sum_hessian":[8.684155E0,2.708954E0,5.9752016E0,4.9443126E0,1.0308888E0,1.4554746E0,3.4888382E0],"tree_param":{"num_deleted":"0","num_feature":"777","num_nodes":"7","size_leaf_vector":"1"}},{"base_weights":[-9.769676E-3,-7.594927E-2,5.575111E-1,-1.1902145E-2,6.662309E-2],"categories":[],"categories_nodes":[],"categories_segments":[],"categories_sizes":[],"default_left":[0,0,0,0,0],"id":51,"left_children":[1,-1,3,-1,-1],"loss_changes":[4.0021796E0,0E0,9.7374034E-1,0E0,0E0],"parents":[2147483647,0,0,2,2],"right_children":[2,-1,4,-1,-1],"split_conditions":[7.390736E-1,-7.594927E-2,6.2463205E-2,-1.1902145E-2,6.662309E-2],"split_indices":[776,0,348,0,0],"split_type":[0,0,0,0,0],"sum_hessian":[7.3007703E0,2.8128784E0,4.487892E0,1.144097E0,3.343795E0],"tree_param":{"num_deleted":"0","num_feature":"777","num_nodes":"5","size_leaf_vector":"1"}},{"base_weights":[6.302829E-2,-7.534631E-2,6.1869967E-1,7.270944E-2,-1.4077729E-2],"categories":[],"categories_nodes":[],"categories_segments":[],"categories_sizes":[],"default_left":[0,0,0,0,0],"id":52,"left_children":[1,-1,3,-1,-1],"loss_changes":[4.1505013E0,0E0,1.2283328E0,0E0,0E0],"parents":[2147483647,0,0,2,2],"right_children":[2,-1,4,-1,-1],"split_conditions":[7.390736E-1,-7.534631E-2,7.238063E-1,7.270944E-2,-1.4077729E-2],"split_indices":[776,0,682,0,0],"split_type":[0,0,0,0,0],"sum_hessian":[7.3800693E0,2.536143E0,4.8439264E0,3.6525927E0,1.1913338E0],"tree_param":{"num_deleted":"0","num_feature":"777","num_nodes":"5","size_leaf_vector":"1"}},{"base_weights":[-0E0,-6.839176E-1,7.609285E-2,3.9099285E-4,-8.4853835E-2],"categories":[],"categories_nodes":[],"categories_segments":[],"categories_sizes":[],"default_left":[0,0,0,0,0],"id":53,"left_children":[1,3,-1,-1,-1],"loss_changes":[4.578344E0,1.1776288E0,0E0,0E0,0E0],"parents":[2147483647,0,0,1,1],"right_children":[2,4,-1,-1,-1],"split_conditions":[7.786206E-1,-6.55093E-1,7.609285E-2,3.9099285E-4,-8.4853835E-2],"split_indices":[776,756,0,0,0],"split_type":[0,0,0,0,0],"sum_hessian":[6.8959527E0,3.988474E0,2.9074788E0,1.3185468E0,2.6699271E0],"tree_param":{"num_deleted":"0","num_feature":"777","num_nodes":"5","size_leaf_vector":"1"}},{"base_weights":[6.6776544E-2,-7.492056E-2,7.2272223E-1,7.629306E-2,1.3823234E-2],"categories":[],"categories_nodes":[],"categories_segments":[],"categories_sizes":[],"default_left":[0,0,0,0,0],"id":54,"left_children":[1,-1,3,-1,-1],"loss_changes":[4.1495876E0,0E0,3.5089707E-1,0E0,0E0],"parents":[2147483647,0,0,2,2],"right_children":[2,-1,4,-1,-1],"split_conditions":[7.4198484E-1,-7.492056E-2,2.6414663E-1,7.629306E-2,1.3823234E-2],"split_indices":[776,0,425,0,0],"split_type":[0,0,0,0,0],"sum_hessian":[6.222685E0,2.3775556E0,3.8451295E0,2.5232472E0,1.3218822E0],"tree_param":{"num_deleted":"0","num_feature":"777","num_nodes":"5","size_leaf_vector":"1"}},{"base_weights":[1.9427586E-2,-7.446144E-2,5.39744E-1,-2.4399325E-2,6.664065E-2],"categories":[],"categories_nodes":[],"categories_segments":[],"categories_sizes":[],"default_left":[0,0,0,0,0],"id":55,"left_children":[1,-1,3,-1,-1],"loss_changes":[3.2778842E0,0E0,1.1749603E0,0E0,0E0],"parents":[2147483647,0,0,2,2],"right_children":[2,-1,4,-1,-1],"split_conditions":[7.390736E-1,-7.446144E-2,-1.0337781E0,-2.4399325E-2,6.664065E-2],"split_indices":[776,0,535,0,0],"split_type":[0,0,0,0,0],"sum_hessian":[6.6039333E0,2.2383413E0,4.365592E0,1.0189527E0,3.3466392E0],"tree_param":{"num_deleted":"0","num_feature":"777","num_nodes":"5","size_leaf_vector":"1"}},{"base_weights":[5.1749114E-2,-8.054652E-1,7.8013015E-1,-1.8743752E-2,-8.539964E-2,7.465097E-2,2.4055298E-2],"categories":[],"categories_nodes":[],"categories_segments":[],"categories_sizes":[],"default_left":[0,0,0,0,0,0,0],"id":56,"left_children":[1,3,5,-1,-1,-1,-1],"loss_changes":[3.7257035E0,2.2829711E-1,7.733917E-2,0E0,0E0,0E0,0E0],"parents":[2147483647,0,0,1,1,2,2],"right_children":[2,4,6,-1,-1,-1,-1],"split_conditions":[7.536081E-1,-2.816449E-1,2.9427022E-1,-1.8743752E-2,-8.539964E-2,7.465097E-2,2.4055298E-2],"split_indices":[776,745,710,0,0,0,0],"split_type":[0,0,0,0,0,0,0],"sum_hessian":[5.8515434E0,2.6094477E0,3.2420957E0,1.0004027E0,1.609045E0,2.2249568E0,1.0171388E0],"tree_param":{"num_deleted":"0","num_feature":"777","num_nodes":"7","size_leaf_vector":"1"}},{"base_weights":[4.778784E-2,-4.6629733E-1,7.439659E-2,-7.86583E-2,2.739387E-2],"categories":[],"categories_nodes":[],"categories_segments":[],"categories_sizes":[],"default_left":[0,0,0,0,0],"id":57,"left_children":[1,3,-1,-1,-1],"loss_changes":[2.7311258E0,1.6209619E0,0E0,0E0,0E0],"parents":[2147483647,0,0,1,1],"right_children":[2,4,-1,-1,-1],"split_conditions":[7.684773E-1,6.342088E-1,7.439659E-2,-7.86583E-2,2.739387E-2],"split_indices":[776,373,0,0,0],"split_type":[0,0,0,0,0],"sum_hessian":[5.782135E0,3.585145E0,2.19699E0,2.269759E0,1.3153862E0],"tree_param":{"num_deleted":"0","num_feature":"777","num_nodes":"5","size_leaf_vector":"1"}},{"base_weights":[-1.0516144E-3,-6.5779084E-1,7.372553E-2,-0E0,-8.377792E-2],"categories":[],"categories_nodes":[],"categories_segments":[],"categories_sizes":[],"default_left":[0,0,0,0,0],"id":58,"left_children":[1,3,-1,-1,-1],"loss_changes":[3.0930874E0,8.723532E-1,0E0,0E0,0E0],"parents":[2147483647,0,0,1,1],"right_children":[2,4,-1,-1,-1],"split_conditions":[7.786206E-1,-5.414501E-1,7.372553E-2,-0E0,-8.377792E-2],"split_indices":[776,756,0,0,0],"split_type":[0,0,0,0,0],"sum_hessian":[5.036981E0,3.0285134E0,2.0084674E0,1.0745059E0,1.9540075E0],"tree_param":{"num_deleted":"0","num_feature":"777","num_nodes":"5","size_leaf_vector":"1"}},{"base_weights":[1.2078209E-2,-7.420845E-2,5.0546545E-1,-9.676263E-3,7.467481E-2],"categories":[],"categories_nodes":[],"categories_segments":[],"categories_sizes":[],"default_left":[0,0,0,0,0],"id":59,"left_children":[1,-1,3,-1,-1],"loss_changes":[2.5148213E0,0E0,1.0991917E0,0E0,0E0],"parents":[2147483647,0,0,2,2],"right_children":[2,-1,4,-1,-1],"split_conditions":[1E0,-7.420845E-2,7.4671084E-1,-9.676263E-3,7.467481E-2],"split_indices":[774,0,776,0,0],"split_type":[0,0,0,0,0],"sum_hessian":[5.4128056E0,1.7616404E0,3.651165E0,1.3856457E0,2.2655194E0],"tree_param":{"num_deleted":"0","num_feature":"777","num_nodes":"5","size_leaf_vector":"1"}},{"base_weights":[1.4964816E-2,-7.466606E-1,5.939871E-2,-1.9026551E-2,-8.264122E-2],"categories":[],"categories_nodes":[],"categories_segments":[],"categories_sizes":[],"default_left":[0,0,0,0,0],"id":60,"left_children":[1,3,-1,-1,-1],"loss_changes":[2.718498E0,1.7040825E-1,0E0,0E0,0E0],"parents":[2147483647,0,0,1,1],"right_children":[2,4,-1,-1,-1],"split_conditions":[7.536081E-1,-3.5598925E-1,5.939871E-2,-1.9026551E-2,-8.264122E-2],"split_indices":[776,21,0,0,0],"split_type":[0,0,0,0,0],"sum_hessian":[4.7870507E0,2.2573514E0,2.5296993E0,1.003359E0,1.2539924E0],"tree_param":{"num_deleted":"0","num_feature":"777","num_nodes":"5","size_leaf_vector":"1"}},{"base_weights":[-0E0,-7.0781606E-1,6.8296444E-1,-8.145323E-2,-1.4041737E-2,1.9273378E-2,7.120354E-2],"categories":[],"categories_nodes":[],"categories_segments":[],"categories_sizes":[],"default_left":[0,0,0,0,0,0,0],"id":61,"left_children":[1,3,5,-1,-1,-1,-1],"loss_changes":[2.3315034E0,2.2558153E-1,8.30785E-2,0E0,0E0,0E0,0E0],"parents":[2147483647,0,0,1,1,2,2],"right_children":[2,4,6,-1,-1,-1,-1],"split_conditions":[7.536081E-1,3.4190378E-1,-3.0323824E-1,-8.145323E-2,-1.4041737E-2,1.9273378E-2,7.120354E-2],"split_indices":[776,92,477,0,0,0,0],"split_type":[0,0,0,0,0,0,0],"sum_hessian":[4.7082553E0,2.2375379E0,2.4707174E0,1.2364379E0,1.0011E0,1.0144632E0,1.4562544E0],"tree_param":{"num_deleted":"0","num_feature":"777","num_nodes":"7","size_leaf_vector":"1"}},{"base_weights":[5.147036E-2,-7.091059E-2,4.9086988E-1,-0E0,6.619644E-2],"categories":[],"categories_nodes":[],"categories_segments":[],"categories_sizes":[],"default_left":[0,0,0,0,0],"id":62,"left_children":[1,-1,3,-1,-1],"loss_changes":[1.7946446E0,0E0,5.9309584E-1,0E0,0E0],"parents":[2147483647,0,0,2,2],"right_children":[2,-1,4,-1,-1],"split_conditions":[1E0,-7.091059E-2,1.03520684E-1,-0E0,6.619644E-2],"split_indices":[774,0,455,0,0],"split_type":[0,0,0,0,0],"sum_hessian":[4.346783E0,1.2801979E0,3.066585E0,1.1600438E0,1.9065412E0],"tree_param":{"num_deleted":"0","num_feature":"777","num_nodes":"5","size_leaf_vector":"1"}},{"base_weights":[6.239805E-2,-7.006611E-2,5.017337E-1,6.9363676E-2,-1.1283871E-2],"categories":[],"categories_nodes":[],"categories_segments":[],"categories_sizes":[],"default_left":[0,0,0,0,0],"id":63,"left_children":[1,-1,3,-1,-1],"loss_changes":[1.8514148E0,0E0,8.4938866E-1,0E0,0E0],"parents":[2147483647,0,0,2,2],"right_children":[2,-1,4,-1,-1],"split_conditions":[7.390736E-1,-7.006611E-2,6.6027296E-1,6.9363676E-2,-1.1283871E-2],"split_indices":[776,0,529,0,0],"split_type":[0,0,0,0,0],"sum_hessian":[4.476537E0,1.3215488E0,3.154988E0,2.1173751E0,1.0376129E0],"tree_param":{"num_deleted":"0","num_feature":"777","num_nodes":"5","size_leaf_vector":"1"}},{"base_weights":[2.233152E-2,-7.219772E-2,4.7708094E-1,-6.7802104E-3,7.310067E-2],"categories":[],"categories_nodes":[],"categories_segments":[],"categories_sizes":[],"default_left":[0,0,0,0,0],"id":64,"left_children":[1,-1,3,-1,-1],"loss_changes":[1.8812023E0,0E0,8.806462E-1,0E0,0E0],"parents":[2147483647,0,0,2,2],"right_children":[2,-1,4,-1,-1],"split_conditions":[1E0,-7.219772E-2,7.4671084E-1,-6.7802104E-3,7.310067E-2],"split_indices":[774,0,776,0,0],"split_type":[0,0,0,0,0],"sum_hessian":[4.4731107E0,1.3680388E0,3.1050718E0,1.2589048E0,1.846167E0],"tree_param":{"num_deleted":"0","num_feature":"777","num_nodes":"5","size_leaf_vector":"1"}},{"base_weights":[2.1085953E-3,-6.9576904E-2,4.945983E-2],"categories":[],"categories_nodes":[],"categories_segments":[],"categories_sizes":[],"default_left":[0,0,0],"id":65,"left_children":[1,-1,-1],"loss_changes":[1.7874883E0,0E0,0E0],"parents":[2147483647,0,0],"right_children":[2,-1,-1],"split_conditions":[7.4198484E-1,-6.9576904E-2,4.945983E-2],"split_indices":[776,0,0],"split_type":[0,0,0],"sum_hessian":[3.263765E0,1.2605988E0,2.0031664E0],"tree_param":{"num_deleted":"0","num_feature":"777","num_nodes":"3","size_leaf_vector":"1"}},{"base_weights":[5.0865203E-2,-3.5252765E-1,7.0405066E-2,2.455445E-2,-8.176862E-2],"categories":[],"categories_nodes":[],"categories_segments":[],"categories_sizes":[],"default_left":[0,0,0,0,0],"id":66,"left_children":[1,3,-1,-1,-1],"loss_changes":[1.4312347E0,1.278846E0,0E0,0E0,0E0],"parents":[2147483647,0,0,1,1],"right_children":[2,4,-1,-1,-1],"split_conditions":[7.684773E-1,-5.5120045E-1,7.0405066E-2,2.455445E-2,-8.176862E-2],"split_indices":[776,560,0,0,0],"split_type":[0,0,0,0,0],"sum_hessian":[3.973917E0,2.5992117E0,1.3747054E0,1.2355845E0,1.3636271E0],"tree_param":{"num_deleted":"0","num_feature":"777","num_nodes":"5","size_leaf_vector":"1"}},{"base_weights":[-0E0,-6.9727585E-2,4.1296434E-1,-3.1424393E-3,7.040619E-2],"categories":[],"categories_nodes":[],"categories_segments":[],"categories_sizes":[],"default_left":[0,0,0,0,0],"id":67,"left_children":[1,-1,3,-1,-1],"loss_changes":[1.3171434E0,0E0,6.55581E-1,0E0,0E0],"parents":[2147483647,0,0,2,2],"right_children":[2,-1,4,-1,-1],"split_conditions":[1E0,-6.9727585E-2,7.4671084E-1,-3.1424393E-3,7.040619E-2],"split_indices":[774,0,776,0,0],"split_type":[0,0,0,0,0],"sum_hessian":[3.642491E0,1.0865734E0,2.5559177E0,1.1960223E0,1.3598955E0],"tree_param":{"num_deleted":"0","num_feature":"777","num_nodes":"5","size_leaf_vector":"1"}},{"base_weights":[-0E0,-6.8740234E-2,3.8366902E-1,6.331121E-2,-7.2324076E-3],"categories":[],"categories_nodes":[],"categories_segments":[],"categories_sizes":[],"default_left":[0,0,0,0,0],"id":68,"left_children":[1,-1,3,-1,-1],"loss_changes":[1.1664519E0,0E0,5.7741517E-1,0E0,0E0],"parents":[2147483647,0,0,2,2],"right_children":[2,-1,4,-1,-1],"split_conditions":[1E0,-6.8740234E-2,-4.151229E-1,6.331121E-2,-7.2324076E-3],"split_indices":[774,0,558,0,0],"split_type":[0,0,0,0,0],"sum_hessian":[3.4853823E0,1.0154831E0,2.4698992E0,1.4423715E0,1.0275276E0],"tree_param":{"num_deleted":"0","num_feature":"777","num_nodes":"5","size_leaf_vector":"1"}},{"base_weights":[1.247125E-1,-6.710435E-2,6.1807287E-1,1.4534768E-2,6.766117E-2],"categories":[],"categories_nodes":[],"categories_segments":[],"categories_sizes":[],"default_left":[0,0,0,0,0],"id":69,"left_children":[1,-1,3,-1,-1],"loss_changes":[1.6053004E0,0E0,1.00381196E-1,0E0,0E0],"parents":[2147483647,0,0,2,2],"right_children":[2,-1,4,-1,-1],"split_conditions":[7.390736E-1,-6.710435E-2,-3.0739954E-2,1.4534768E-2,6.766117E-2],"split_indices":[776,0,276,0,0],"split_type":[0,0,0,0,0],"sum_hessian":[3.307297E0,1.0233963E0,2.2839007E0,1.0007651E0,1.2831357E0],"tree_param":{"num_deleted":"0","num_feature":"777","num_nodes":"5","size_leaf_vector":"1"}},{"base_weights":[-2.982812E-2,-3.6573518E-2,4.0798817E-2],"categories":[],"categories_nodes":[],"categories_segments":[],"categories_sizes":[],"default_left":[0,0,0],"id":70,"left_children":[1,-1,-1],"loss_changes":[7.042277E-1,0E0,0E0],"parents":[2147483647,0,0],"right_children":[2,-1,-1],"split_conditions":[6.19089E-1,-3.6573518E-2,4.0798817E-2],"split_indices":[556,0,0],"split_type":[0,0,0],"sum_hessian":[2.9596105E0,1.7810974E0,1.1785132E0],"tree_param":{"num_deleted":"0","num_feature":"777","num_nodes":"3","size_leaf_vector":"1"}},{"base_weights":[1.0164006E-1,4.9540456E-2,-1.5409153E-2],"categories":[],"categories_nodes":[],"categories_segments":[],"categories_sizes":[],"default_left":[0,0,0],"id":71,"left_children":[1,-1,-1],"loss_changes":[5.299871E-1,0E0,0E0],"parents":[2147483647,0,0],"right_children":[2,-1,-1],"split_conditions":[-9.462832E-1,4.9540456E-2,-1.5409153E-2],"split_indices":[5,0,0],"split_type":[0,0,0],"sum_hessian":[3.0365224E0,1.2243463E0,1.812176E0],"tree_param":{"num_deleted":"0","num_feature":"777","num_nodes":"3","size_leaf_vector":"1"}},{"base_weights":[1.5186864E-1,4.6448406E-2,-1.4981078E-2],"categories":[],"categories_nodes":[],"categories_segments":[],"categories_sizes":[],"default_left":[0,0,0],"id":72,"left_children":[1,-1,-1],"loss_changes":[5.211677E-1,0E0,0E0],"parents":[2147483647,0,0],"right_children":[2,-1,-1],"split_conditions":[-6.4066243E-1,4.6448406E-2,-1.4981078E-2],"split_indices":[138,0,0],"split_type":[0,0,0],"sum_hessian":[3.154915E0,1.5307888E0,1.6241263E0],"tree_param":{"num_deleted":"0","num_feature":"777","num_nodes":"3","size_leaf_vector":"1"}},{"base_weights":[-2.5931468E-2,-5.5939708E-2,4.8101373E-2],"categories":[],"categories_nodes":[],"categories_segments":[],"categories_sizes":[],"default_left":[0,0,0],"id":73,"left_children":[1,-1,-1],"loss_changes":[1.2984226E0,0E0,0E0],"parents":[2147483647,0,0],"right_children":[2,-1,-1],"split_conditions":[7.536081E-1,-5.5939708E-2,4.8101373E-2],"split_indices":[776,0,0],"split_type":[0,0,0],"sum_hessian":[2.9270535E0,1.5005772E0,1.4264761E0],"tree_param":{"num_deleted":"0","num_feature":"777","num_nodes":"3","size_leaf_vector":"1"}},{"base_weights":[9.272266E-3,-3.6456564E-1,6.756179E-2,-7.9510376E-2,1.9758398E-2],"categories":[],"categories_nodes":[],"categories_segments":[],"categories_sizes":[],"default_left":[0,0,0,0,0],"id":74,"left_children":[1,3,-1,-1,-1],"loss_changes":[1.0948228E0,9.496994E-1,0E0,0E0,0E0],"parents":[2147483647,0,0,1,1],"right_children":[2,4,-1,-1,-1],"split_conditions":[7.684773E-1,7.4483174E-1,6.756179E-2,-7.9510376E-2,1.9758398E-2],"split_indices":[776,698,0,0,0],"split_type":[0,0,0,0,0],"sum_hessian":[3.2026448E0,2.136528E0,1.0661167E0,1.131187E0,1.0053412E0],"tree_param":{"num_deleted":"0","num_feature":"777","num_nodes":"5","size_leaf_vector":"1"}},{"base_weights":[-0E0,-3.0593429E-2,3.637724E-2],"categories":[],"categories_nodes":[],"categories_segments":[],"categories_sizes":[],"default_left":[0,0,0],"id":75,"left_children":[1,-1,-1],"loss_changes":[4.696829E-1,0E0,0E0],"parents":[2147483647,0,0],"right_children":[2,-1,-1],"split_conditions":[9.602564E-1,-3.0593429E-2,3.637724E-2],"split_indices":[290,0,0],"split_type":[0,0,0],"sum_hessian":[2.5604308E0,1.3368219E0,1.2236089E0],"tree_param":{"num_deleted":"0","num_feature":"777","num_nodes":"3","size_leaf_vector":"1"}},{"base_weights":[-1.8477815E-1,-7.3288694E-2,5.388519E-2],"categories":[],"categories_nodes":[],"categories_segments":[],"categories_sizes":[],"default_left":[0,0,0],"id":76,"left_children":[1,-1,-1],"loss_changes":[1.6399002E0,0E0,0E0],"parents":[2147483647,0,0],"right_children":[2,-1,-1],"split_conditions":[7.684773E-1,-7.3288694E-2,5.388519E-2],"split_indices":[776,0,0],"split_type":[0,0,0],"sum_hessian":[2.4470735E0,1.3946023E0,1.052471E0],"tree_param":{"num_deleted":"0","num_feature":"777","num_nodes":"3","size_leaf_vector":"1"}},{"base_weights":[2.1394957E-2,-3.4604486E-2,4.626586E-2],"categories":[],"categories_nodes":[],"categories_segments":[],"categories_sizes":[],"default_left":[0,0,0],"id":77,"left_children":[1,-1,-1],"loss_changes":[7.607543E-1,0E0,0E0],"parents":[2147483647,0,0],"right_children":[2,-1,-1],"split_conditions":[5.400299E-1,-3.4604486E-2,4.626586E-2],"split_indices":[556,0,0],"split_type":[0,0,0],"sum_hessian":[2.82054E0,1.4426062E0,1.3779337E0],"tree_param":{"num_deleted":"0","num_feature":"777","num_nodes":"3","size_leaf_vector":"1"}},{"base_weights":[-0E0,3.21979E-2,-4.5964636E-2],"categories":[],"categories_nodes":[],"categories_segments":[],"categories_sizes":[],"default_left":[0,0,0],"id":78,"left_children":[1,-1,-1],"loss_changes":[6.6208506E-1,0E0,0E0],"parents":[2147483647,0,0],"right_children":[2,-1,-1],"split_conditions":[-7.3654465E-2,3.21979E-2,-4.5964636E-2],"split_indices":[558,0,0],"split_type":[0,0,0],"sum_hessian":[2.7942529E0,1.7240709E0,1.0701818E0],"tree_param":{"num_deleted":"0","num_feature":"777","num_nodes":"3","size_leaf_vector":"1"}},{"base_weights":[-0E0,-4.055208E-2,3.2323748E-2],"categories":[],"categories_nodes":[],"categories_segments":[],"categories_sizes":[],"default_left":[0,0,0],"id":79,"left_children":[1,-1,-1],"loss_changes":[6.14928E-1,0E0,0E0],"parents":[2147483647,0,0],"right_children":[2,-1,-1],"split_conditions":[2.7572E-1,-4.055208E-2,3.2323748E-2],"split_indices":[725,0,0],"split_type":[0,0,0],"sum_hessian":[2.9048285E0,1.2326337E0,1.672195E0],"tree_param":{"num_deleted":"0","num_feature":"777","num_nodes":"3","size_leaf_vector":"1"}},{"base_weights":[-0E0,2.4723403E-2,-4.187929E-2],"categories":[],"categories_nodes":[],"categories_segments":[],"categories_sizes":[],"default_left":[0,0,0],"id":80,"left_children":[1,-1,-1],"loss_changes":[4.4850728E-1,0E0,0E0],"parents":[2147483647,0,0],"right_children":[2,-1,-1],"split_conditions":[-1.3010712E-1,2.4723403E-2,-4.187929E-2],"split_indices":[558,0,0],"split_type":[0,0,0],"sum_hessian":[2.5039287E0,1.4554502E0,1.0484785E0],"tree_param":{"num_deleted":"0","num_feature":"777","num_nodes":"3","size_leaf_vector":"1"}},{"base_weights":[-0E0,-3.0732777E-2,3.0626727E-2],"categories":[],"categories_nodes":[],"categories_segments":[],"categories_sizes":[],"default_left":[0,0,0],"id":81,"left_children":[1,-1,-1],"loss_changes":[3.3101743E-1,0E0,0E0],"parents":[2147483647,0,0],"right_children":[2,-1,-1],"split_conditions":[8.1236315E-1,-3.0732777E-2,3.0626727E-2],"split_indices":[32,0,0],"split_type":[0,0,0],"sum_hessian":[2.1310494E0,1.0211438E0,1.1099055E0],"tree_param":{"num_deleted":"0","num_feature":"777","num_nodes":"3","size_leaf_vector":"1"}},{"base_weights":[-0E0,4.6012502E-2,-2.6284112E-2],"categories":[],"categories_nodes":[],"categories_segments":[],"categories_sizes":[],"default_left":[0,0,0],"id":82,"left_children":[1,-1,-1],"loss_changes":[5.616961E-1,0E0,0E0],"parents":[2147483647,0,0],"right_children":[2,-1,-1],"split_conditions":[-8.3029765E-1,4.6012502E-2,-2.6284112E-2],"split_indices":[5,0,0],"split_type":[0,0,0],"sum_hessian":[2.7698686E0,1.0606484E0,1.70922E0],"tree_param":{"num_deleted":"0","num_feature":"777","num_nodes":"3","size_leaf_vector":"1"}},{"base_weights":[2.5119763E-2,3.493108E-2,-3.705395E-2],"categories":[],"categories_nodes":[],"categories_segments":[],"categories_sizes":[],"default_left":[0,0,0],"id":83,"left_children":[1,-1,-1],"loss_changes":[5.3983366E-1,0E0,0E0],"parents":[2147483647,0,0],"right_children":[2,-1,-1],"split_conditions":[-3.842727E-2,3.493108E-2,-3.705395E-2],"split_indices":[453,0,0],"split_type":[0,0,0],"sum_hessian":[2.5819714E0,1.537943E0,1.0440285E0],"tree_param":{"num_deleted":"0","num_feature":"777","num_nodes":"3","size_leaf_vector":"1"}},{"base_weights":[-1.358134E-1],"categories":[],"categories_nodes":[],"categories_segments":[],"categories_sizes":[],"default_left":[0],"id":84,"left_children":[-1],"loss_changes":[0E0],"parents":[2147483647],"right_children":[-1],"split_conditions":[-1.0865072E-2],"split_indices":[0],"split_type":[0],"sum_hessian":[1.957622E0],"tree_param":{"num_deleted":"0","num_feature":"777","num_nodes":"1","size_leaf_vector":"1"}},{"base_weights":[-1.7964706E-1,-4.6922963E-2,1.0656476E-2],"categories":[],"categories_nodes":[],"categories_segments":[],"categories_sizes":[],"default_left":[0,0,0],"id":85,"left_children":[1,-1,-1],"loss_changes":[3.4236512E-1,0E0,0E0],"parents":[2147483647,0,0],"right_children":[2,-1,-1],"split_conditions":[4.273948E-1,-4.6922963E-2,1.0656476E-2],"split_indices":[290,0,0],"split_type":[0,0,0],"sum_hessian":[2.1653323E0,1.085123E0,1.0802094E0],"tree_param":{"num_deleted":"0","num_feature":"777","num_nodes":"3","size_leaf_vector":"1"}},{"base_weights":[-0E0,3.5559006E-2,-3.4566496E-2],"categories":[],"categories_nodes":[],"categories_segments":[],"categories_sizes":[],"default_left":[0,0,0],"id":86,"left_children":[1,-1,-1],"loss_changes":[5.3189015E-1,0E0,0E0],"parents":[2147483647,0,0],"right_children":[2,-1,-1],"split_conditions":[-2.37927E-1,3.5559006E-2,-3.4566496E-2],"split_indices":[688,0,0],"split_type":[0,0,0],"sum_hessian":[2.6458218E0,1.3677958E0,1.278026E0],"tree_param":{"num_deleted":"0","num_feature":"777","num_nodes":"3","size_leaf_vector":"1"}},{"base_weights":[1.22341916E-1,-1.3984927E-2,3.9149873E-2],"categories":[],"categories_nodes":[],"categories_segments":[],"categories_sizes":[],"default_left":[0,0,0],"id":87,"left_children":[1,-1,-1],"loss_changes":[3.017857E-1,0E0,0E0],"parents":[2147483647,0,0],"right_children":[2,-1,-1],"split_conditions":[5.920891E-1,-1.3984927E-2,3.9149873E-2],"split_indices":[192,0,0],"split_type":[0,0,0],"sum_hessian":[2.3138702E0,1.1153466E0,1.1985236E0],"tree_param":{"num_deleted":"0","num_feature":"777","num_nodes":"3","size_leaf_vector":"1"}},{"base_weights":[1.4602012E-2,3.206783E-2,-3.0633587E-2],"categories":[],"categories_nodes":[],"categories_segments":[],"categories_sizes":[],"default_left":[0,0,0],"id":88,"left_children":[1,-1,-1],"loss_changes":[4.3348706E-1,0E0,0E0],"parents":[2147483647,0,0],"right_children":[2,-1,-1],"split_conditions":[-1.3010712E-1,3.206783E-2,-3.0633587E-2],"split_indices":[558,0,0],"split_type":[0,0,0],"sum_hessian":[2.6892703E0,1.5168322E0,1.172438E0],"tree_param":{"num_deleted":"0","num_feature":"777","num_nodes":"3","size_leaf_vector":"1"}},{"base_weights":[2.2801151E-2,3.5468914E-2,-3.04063E-2],"categories":[],"categories_nodes":[],"categories_segments":[],"categories_sizes":[],"default_left":[0,0,0],"id":89,"left_children":[1,-1,-1],"loss_changes":[4.5400563E-1,0E0,0E0],"parents":[2147483647,0,0],"right_children":[2,-1,-1],"split_conditions":[-1.4390968E-1,3.5468914E-2,-3.04063E-2],"split_indices":[558,0,0],"split_type":[0,0,0],"sum_hessian":[2.5150301E0,1.373295E0,1.1417353E0],"tree_param":{"num_deleted":"0","num_feature":"777","num_nodes":"3","size_leaf_vector":"1"}},{"base_weights":[2.5955193E-2,-2.7723227E-2,3.1794015E-2],"categories":[],"categories_nodes":[],"categories_segments":[],"categories_sizes":[],"default_left":[0,0,0],"id":90,"left_children":[1,-1,-1],"loss_changes":[3.8429624E-1,0E0,0E0],"parents":[2147483647,0,0],"right_children":[2,-1,-1],"split_conditions":[2.772143E-1,-2.7723227E-2,3.1794015E-2],"split_indices":[725,0,0],"split_type":[0,0,0],"sum_hessian":[2.613442E0,1.1456325E0,1.4678094E0],"tree_param":{"num_deleted":"0","num_feature":"777","num_nodes":"3","size_leaf_vector":"1"}},{"base_weights":[7.048792E-2,3.8466435E-2,-1.642864E-2],"categories":[],"categories_nodes":[],"categories_segments":[],"categories_sizes":[],"default_left":[0,0,0],"id":91,"left_children":[1,-1,-1],"loss_changes":[3.0871218E-1,0E0,0E0],"parents":[2147483647,0,0],"right_children":[2,-1,-1],"split_conditions":[-6.7560726E-1,3.8466435E-2,-1.642864E-2],"split_indices":[138,0,0],"split_type":[0,0,0],"sum_hessian":[2.322965E0,1.090781E0,1.2321838E0],"tree_param":{"num_deleted":"0","num_feature":"777","num_nodes":"3","size_leaf_vector":"1"}},{"base_weights":[-0E0,3.272419E-2,-3.157816E-2],"categories":[],"categories_nodes":[],"categories_segments":[],"categories_sizes":[],"default_left":[0,0,0],"id":92,"left_children":[1,-1,-1],"loss_changes":[4.3715906E-1,0E0,0E0],"parents":[2147483647,0,0],"right_children":[2,-1,-1],"split_conditions":[-2.37927E-1,3.272419E-2,-3.157816E-2],"split_indices":[688,0,0],"split_type":[0,0,0],"sum_hessian":[2.5828247E0,1.33247E0,1.2503545E0],"tree_param":{"num_deleted":"0","num_feature":"777","num_nodes":"3","size_leaf_vector":"1"}},{"base_weights":[1.8850444E-3,3.2847907E-2,-2.8928038E-2],"categories":[],"categories_nodes":[],"categories_segments":[],"categories_sizes":[],"default_left":[0,0,0],"id":93,"left_children":[1,-1,-1],"loss_changes":[3.9081883E-1,0E0,0E0],"parents":[2147483647,0,0],"right_children":[2,-1,-1],"split_conditions":[-2.37927E-1,3.2847907E-2,-2.8928038E-2],"split_indices":[688,0,0],"split_type":[0,0,0],"sum_hessian":[2.4711435E0,1.314943E0,1.1562005E0],"tree_param":{"num_deleted":"0","num_feature":"777","num_nodes":"3","size_leaf_vector":"1"}},{"base_weights":[-0E0,3.0497253E-2,-2.9440856E-2],"categories":[],"categories_nodes":[],"categories_segments":[],"categories_sizes":[],"default_left":[0,0,0],"id":94,"left_children":[1,-1,-1],"loss_changes":[3.4643728E-1,0E0,0E0],"parents":[2147483647,0,0],"right_children":[2,-1,-1],"split_conditions":[-5.022382E-1,3.0497253E-2,-2.9440856E-2],"split_indices":[633,0,0],"split_type":[0,0,0],"sum_hessian":[2.3513238E0,1.1267647E0,1.2245593E0],"tree_param":{"num_deleted":"0","num_feature":"777","num_nodes":"3","size_leaf_vector":"1"}},{"base_weights":[-0E0,-2.7153803E-2,3.118979E-2],"categories":[],"categories_nodes":[],"categories_segments":[],"categories_sizes":[],"default_left":[0,0,0],"id":95,"left_children":[1,-1,-1],"loss_changes":[3.162588E-1,0E0,0E0],"parents":[2147483647,0,0],"right_children":[2,-1,-1],"split_conditions":[1.03520684E-1,-2.7153803E-2,3.118979E-2],"split_indices":[455,0,0],"split_type":[0,0,0],"sum_hessian":[2.2373343E0,1.0830798E0,1.1542546E0],"tree_param":{"num_deleted":"0","num_feature":"777","num_nodes":"3","size_leaf_vector":"1"}},{"base_weights":[-0E0],"categories":[],"categories_nodes":[],"categories_segments":[],"categories_sizes":[],"default_left":[0],"id":96,"left_children":[-1],"loss_changes":[0E0],"parents":[2147483647],"right_children":[-1],"split_conditions":[-0E0],"split_indices":[0],"split_type":[0],"sum_hessian":[1.878667E0],"tree_param":{"num_deleted":"0","num_feature":"777","num_nodes":"1","size_leaf_vector":"1"}},{"base_weights":[-0E0,2.4566488E-2,-3.546174E-2],"categories":[],"categories_nodes":[],"categories_segments":[],"categories_sizes":[],"default_left":[0,0,0],"id":97,"left_children":[1,-1,-1],"loss_changes":[3.5149533E-1,0E0,0E0],"parents":[2147483647,0,0],"right_children":[2,-1,-1],"split_conditions":[-2.37927E-1,2.4566488E-2,-3.546174E-2],"split_indices":[688,0,0],"split_type":[0,0,0],"sum_hessian":[2.3768497E0,1.3012762E0,1.0755734E0],"tree_param":{"num_deleted":"0","num_feature":"777","num_nodes":"3","size_leaf_vector":"1"}},{"base_weights":[-0E0,-3.0575786E-2,2.2858657E-2],"categories":[],"categories_nodes":[],"categories_segments":[],"categories_sizes":[],"default_left":[0,0,0],"id":98,"left_children":[1,-1,-1],"loss_changes":[2.7333027E-1,0E0,0E0],"parents":[2147483647,0,0],"right_children":[2,-1,-1],"split_conditions":[3.9200702E-1,-3.0575786E-2,2.2858657E-2],"split_indices":[60,0,0],"split_type":[0,0,0],"sum_hessian":[2.3444078E0,1.0594475E0,1.2849603E0],"tree_param":{"num_deleted":"0","num_feature":"777","num_nodes":"3","size_leaf_vector":"1"}},{"base_weights":[6.335317E-3,2.806266E-2,-2.758756E-2],"categories":[],"categories_nodes":[],"categories_segments":[],"categories_sizes":[],"default_left":[0,0,0],"id":99,"left_children":[1,-1,-1],"loss_changes":[3.1720874E-1,0E0,0E0],"parents":[2147483647,0,0],"right_children":[2,-1,-1],"split_conditions":[-3.6780935E-2,2.806266E-2,-2.758756E-2],"split_indices":[58,0,0],"split_type":[0,0,0],"sum_hessian":[2.4964657E0,1.4328527E0,1.0636129E0],"tree_param":{"num_deleted":"0","num_feature":"777","num_nodes":"3","size_leaf_vector":"1"}},{"base_weights":[-0E0],"categories":[],"categories_nodes":[],"categories_segments":[],"categories_sizes":[],"default_left":[0],"id":100,"left_children":[-1],"loss_changes":[0E0],"parents":[2147483647],"right_children":[-1],"split_conditions":[-0E0],"split_indices":[0],"split_type":[0],"sum_hessian":[1.9948815E0],"tree_param":{"num_deleted":"0","num_feature":"777","num_nodes":"1","size_leaf_vector":"1"}},{"base_weights":[-0E0,-2.5877682E-2,2.8078102E-2],"categories":[],"categories_nodes":[],"categories_segments":[],"categories_sizes":[],"default_left":[0,0,0],"id":101,"left_children":[1,-1,-1],"loss_changes":[2.443518E-1,0E0,0E0],"parents":[2147483647,0,0],"right_children":[2,-1,-1],"split_conditions":[5.7934767E-1,-2.5877682E-2,2.8078102E-2],"split_indices":[127,0,0],"split_type":[0,0,0],"sum_hessian":[2.025812E0,1.0169675E0,1.0088444E0],"tree_param":{"num_deleted":"0","num_feature":"777","num_nodes":"3","size_leaf_vector":"1"}},{"base_weights":[2.0962514E-2],"categories":[],"categories_nodes":[],"categories_segments":[],"categories_sizes":[],"default_left":[0],"id":102,"left_children":[-1],"loss_changes":[0E0],"parents":[2147483647],"right_children":[-1],"split_conditions":[1.6770011E-3],"split_indices":[0],"split_type":[0],"sum_hessian":[1.8480636E0],"tree_param":{"num_deleted":"0","num_feature":"777","num_nodes":"1","size_leaf_vector":"1"}},{"base_weights":[-0E0,2.2067063E-2,-1.8735107E-2],"categories":[],"categories_nodes":[],"categories_segments":[],"categories_sizes":[],"default_left":[0,0,0],"id":103,"left_children":[1,-1,-1],"loss_changes":[1.4250112E-1,0E0,0E0],"parents":[2147483647,0,0],"right_children":[2,-1,-1],"split_conditions":[-1.8506366E-1,2.2067063E-2,-1.8735107E-2],"split_indices":[396,0,0],"split_type":[0,0,0],"sum_hessian":[2.0532253E0,1.0374224E0,1.0158029E0],"tree_param":{"num_deleted":"0","num_feature":"777","num_nodes":"3","size_leaf_vector":"1"}},{"base_weights":[-0E0,2.6474724E-2,-3.1122876E-2],"categories":[],"categories_nodes":[],"categories_segments":[],"categories_sizes":[],"default_left":[0,0,0],"id":104,"left_children":[1,-1,-1],"loss_changes":[3.0332023E-1,0E0,0E0],"parents":[2147483647,0,0],"right_children":[2,-1,-1],"split_conditions":[-2.37927E-1,2.6474724E-2,-3.1122876E-2],"split_indices":[688,0,0],"split_type":[0,0,0],"sum_hessian":[2.2147532E0,1.1362782E0,1.078475E0],"tree_param":{"num_deleted":"0","num_feature":"777","num_nodes":"3","size_leaf_vector":"1"}},{"base_weights":[-0E0,2.831553E-2,-2.6257055E-2],"categories":[],"categories_nodes":[],"categories_segments":[],"categories_sizes":[],"default_left":[0,0,0],"id":105,"left_children":[1,-1,-1],"loss_changes":[2.6980597E-1,0E0,0E0],"parents":[2147483647,0,0],"right_children":[2,-1,-1],"split_conditions":[-4.151229E-1,2.831553E-2,-2.6257055E-2],"split_indices":[558,0,0],"split_type":[0,0,0],"sum_hessian":[2.200935E0,1.0672338E0,1.1337012E0],"tree_param":{"num_deleted":"0","num_feature":"777","num_nodes":"3","size_leaf_vector":"1"}},{"base_weights":[-3.426442E-2,1.6564943E-2,-3.0782778E-2],"categories":[],"categories_nodes":[],"categories_segments":[],"categories_sizes":[],"default_left":[0,0,0],"id":106,"left_children":[1,-1,-1],"loss_changes":[2.0305514E-1,0E0,0E0],"parents":[2147483647,0,0],"right_children":[2,-1,-1],"split_conditions":[-2.7637336E-1,1.6564943E-2,-3.0782778E-2],"split_indices":[558,0,0],"split_type":[0,0,0],"sum_hessian":[2.031837E0,1.015141E0,1.0166961E0],"tree_param":{"num_deleted":"0","num_feature":"777","num_nodes":"3","size_leaf_vector":"1"}},{"base_weights":[5.4377303E-2],"categories":[],"categories_nodes":[],"categories_segments":[],"categories_sizes":[],"default_left":[0],"id":107,"left_children":[-1],"loss_changes":[0E0],"parents":[2147483647],"right_children":[-1],"split_conditions":[4.350184E-3],"split_indices":[0],"split_type":[0],"sum_hessian":[1.8924221E0],"tree_param":{"num_deleted":"0","num_feature":"777","num_nodes":"1","size_leaf_vector":"1"}},{"base_weights":[3.6172464E-2,-2.1389902E-2,3.0715365E-2],"categories":[],"categories_nodes":[],"categories_segments":[],"categories_sizes":[],"default_left":[0,0,0],"id":108,"left_children":[1,-1,-1],"loss_changes":[2.595305E-1,0E0,0E0],"parents":[2147483647,0,0],"right_children":[2,-1,-1],"split_conditions":[2.772143E-1,-2.1389902E-2,3.0715365E-2],"split_indices":[725,0,0],"split_type":[0,0,0],"sum_hessian":[2.2076542E0,1.001939E0,1.2057151E0],"tree_param":{"num_deleted":"0","num_feature":"777","num_nodes":"3","size_leaf_vector":"1"}},{"base_weights":[-8.580411E-3,-2.6714837E-2,1.7252643E-2],"categories":[],"categories_nodes":[],"categories_segments":[],"categories_sizes":[],"default_left":[0,0,0],"id":109,"left_children":[1,-1,-1],"loss_changes":[1.7348915E-1,0E0,0E0],"parents":[2147483647,0,0],"right_children":[2,-1,-1],"split_conditions":[3.178163E-1,-2.6714837E-2,1.7252643E-2],"split_indices":[725,0,0],"split_type":[0,0,0],"sum_hessian":[2.0641918E0,1.0485739E0,1.0156181E0],"tree_param":{"num_deleted":"0","num_feature":"777","num_nodes":"3","size_leaf_vector":"1"}},{"base_weights":[3.0040083E-2,-1.999369E-2,3.1019615E-2],"categories":[],"categories_nodes":[],"categories_segments":[],"categories_sizes":[],"default_left":[0,0,0],"id":110,"left_children":[1,-1,-1],"loss_changes":[2.423191E-1,0E0,0E0],"parents":[2147483647,0,0],"right_children":[2,-1,-1],"split_conditions":[1.03520684E-1,-1.999369E-2,3.1019615E-2],"split_indices":[455,0,0],"split_type":[0,0,0],"sum_hessian":[2.1365054E0,1.0204489E0,1.1160564E0],"tree_param":{"num_deleted":"0","num_feature":"777","num_nodes":"3","size_leaf_vector":"1"}},{"base_weights":[6.427381E-3,2.9661125E-2,-1.8888822E-2],"categories":[],"categories_nodes":[],"categories_segments":[],"categories_sizes":[],"default_left":[0,0,0],"id":111,"left_children":[1,-1,-1],"loss_changes":[2.0885874E-1,0E0,0E0],"parents":[2147483647,0,0],"right_children":[2,-1,-1],"split_conditions":[-5.022382E-1,2.9661125E-2,-1.8888822E-2],"split_indices":[633,0,0],"split_type":[0,0,0],"sum_hessian":[2.0612814E0,1.0088494E0,1.0524321E0],"tree_param":{"num_deleted":"0","num_feature":"777","num_nodes":"3","size_leaf_vector":"1"}},{"base_weights":[-0E0,-2.4912905E-2,2.4765933E-2],"categories":[],"categories_nodes":[],"categories_segments":[],"categories_sizes":[],"default_left":[0,0,0],"id":112,"left_children":[1,-1,-1],"loss_changes":[2.1486592E-1,0E0,0E0],"parents":[2147483647,0,0],"right_children":[2,-1,-1],"split_conditions":[4.571089E-1,-2.4912905E-2,2.4765933E-2],"split_indices":[71,0,0],"split_type":[0,0,0],"sum_hessian":[2.1083746E0,1.085689E0,1.0226858E0],"tree_param":{"num_deleted":"0","num_feature":"777","num_nodes":"3","size_leaf_vector":"1"}},{"base_weights":[-0E0],"categories":[],"categories_nodes":[],"categories_segments":[],"categories_sizes":[],"default_left":[0],"id":113,"left_children":[-1],"loss_changes":[0E0],"parents":[2147483647],"right_children":[-1],"split_conditions":[-0E0],"split_indices":[0],"split_type":[0],"sum_hessian":[1.9108843E0],"tree_param":{"num_deleted":"0","num_feature":"777","num_nodes":"1","size_leaf_vector":"1"}},{"base_weights":[2.9638954E-3,2.5563892E-2,-1.6856512E-2],"categories":[],"categories_nodes":[],"categories_segments":[],"categories_sizes":[],"default_left":[0,0,0],"id":114,"left_children":[1,-1,-1],"loss_changes":[1.6395831E-1,0E0,0E0],"parents":[2147483647,0,0],"right_children":[2,-1,-1],"split_conditions":[-3.62929E-1,2.5563892E-2,-1.6856512E-2],"split_indices":[677,0,0],"split_type":[0,0,0],"sum_hessian":[2.111009E0,1.0649728E0,1.046036E0],"tree_param":{"num_deleted":"0","num_feature":"777","num_nodes":"3","size_leaf_vector":"1"}},{"base_weights":[7.103304E-2,-0E0,8.933016E-3],"categories":[],"categories_nodes":[],"categories_segments":[],"categories_sizes":[],"default_left":[0,0,0],"id":115,"left_children":[1,-1,-1],"loss_changes":[2.820164E-3,0E0,0E0],"parents":[2147483647,0,0],"right_children":[2,-1,-1],"split_conditions":[2.3133133E-1,-0E0,8.933016E-3],"split_indices":[223,0,0],"split_type":[0,0,0],"sum_hessian":[2.0012214E0,1.0009183E0,1.0003033E0],"tree_param":{"num_deleted":"0","num_feature":"777","num_nodes":"3","size_leaf_vector":"1"}},{"base_weights":[-0E0,-2.2345642E-2,2.1798244E-2],"categories":[],"categories_nodes":[],"categories_segments":[],"categories_sizes":[],"default_left":[0,0,0],"id":116,"left_children":[1,-1,-1],"loss_changes":[1.7054564E-1,0E0,0E0],"parents":[2147483647,0,0],"right_children":[2,-1,-1],"split_conditions":[5.405849E-1,-2.2345642E-2,2.1798244E-2],"split_indices":[82,0,0],"split_type":[0,0,0],"sum_hessian":[2.1185138E0,1.0917856E0,1.0267284E0],"tree_param":{"num_deleted":"0","num_feature":"777","num_nodes":"3","size_leaf_vector":"1"}},{"base_weights":[-0E0,-2.4876267E-2,2.5114113E-2],"categories":[],"categories_nodes":[],"categories_segments":[],"categories_sizes":[],"default_left":[0,0,0],"id":117,"left_children":[1,-1,-1],"loss_changes":[2.1530092E-1,0E0,0E0],"parents":[2147483647,0,0],"right_children":[2,-1,-1],"split_conditions":[3.011891E-1,-2.4876267E-2,2.5114113E-2],"split_indices":[566,0,0],"split_type":[0,0,0],"sum_hessian":[2.0861406E0,1.077804E0,1.0083368E0],"tree_param":{"num_deleted":"0","num_feature":"777","num_nodes":"3","size_leaf_vector":"1"}},{"base_weights":[1.9030496E-3],"categories":[],"categories_nodes":[],"categories_segments":[],"categories_sizes":[],"default_left":[0],"id":118,"left_children":[-1],"loss_changes":[0E0],"parents":[2147483647],"right_children":[-1],"split_conditions":[1.5224397E-4],"split_indices":[0],"split_type":[0],"sum_hessian":[1.8779573E0],"tree_param":{"num_deleted":"0","num_feature":"777","num_nodes":"1","size_leaf_vector":"1"}},{"base_weights":[-0E0,-2.9220523E-2,2.8301464E-2],"categories":[],"categories_nodes":[],"categories_segments":[],"categories_sizes":[],"default_left":[0,0,0],"id":119,"left_children":[1,-1,-1],"loss_changes":[2.7669647E-1,0E0,0E0],"parents":[2147483647,0,0],"right_children":[2,-1,-1],"split_conditions":[2.138413E-1,-2.9220523E-2,2.8301464E-2],"split_indices":[31,0,0],"split_type":[0,0,0],"sum_hessian":[2.019963E0,1.0145059E0,1.0054573E0],"tree_param":{"num_deleted":"0","num_feature":"777","num_nodes":"3","size_leaf_vector":"1"}},{"base_weights":[-0E0],"categories":[],"categories_nodes":[],"categories_segments":[],"categories_sizes":[],"default_left":[0],"id":120,"left_children":[-1],"loss_changes":[0E0],"parents":[2147483647],"right_children":[-1],"split_conditions":[-0E0],"split_indices":[0],"split_type":[0],"sum_hessian":[1.6768532E0],"tree_param":{"num_deleted":"0","num_feature":"777","num_nodes":"1","size_leaf_vector":"1"}},{"base_weights":[-2.3928823E-2],"categories":[],"categories_nodes":[],"categories_segments":[],"categories_sizes":[],"default_left":[0],"id":121,"left_children":[-1],"loss_changes":[0E0],"parents":[2147483647],"right_children":[-1],"split_conditions":[-1.9143058E-3],"split_indices":[0],"split_type":[0],"sum_hessian":[1.7928696E0],"tree_param":{"num_deleted":"0","num_feature":"777","num_nodes":"1","size_leaf_vector":"1"}},{"base_weights":[-0E0],"categories":[],"categories_nodes":[],"categories_segments":[],"categories_sizes":[],"default_left":[0],"id":122,"left_children":[-1],"loss_changes":[0E0],"parents":[2147483647],"right_children":[-1],"split_conditions":[-0E0],"split_indices":[0],"split_type":[0],"sum_hessian":[1.9755841E0],"tree_param":{"num_deleted":"0","num_feature":"777","num_nodes":"1","size_leaf_vector":"1"}},{"base_weights":[3.3405595E-3,-1.9692438E-2,2.7714087E-2],"categories":[],"categories_nodes":[],"categories_segments":[],"categories_sizes":[],"default_left":[0,0,0],"id":123,"left_children":[1,-1,-1],"loss_changes":[2.0426624E-1,0E0,0E0],"parents":[2147483647,0,0],"right_children":[2,-1,-1],"split_conditions":[3.178163E-1,-1.9692438E-2,2.7714087E-2],"split_indices":[725,0,0],"split_type":[0,0,0],"sum_hessian":[2.1259882E0,1.0381889E0,1.0877993E0],"tree_param":{"num_deleted":"0","num_feature":"777","num_nodes":"3","size_leaf_vector":"1"}},{"base_weights":[-0E0],"categories":[],"categories_nodes":[],"categories_segments":[],"categories_sizes":[],"default_left":[0],"id":124,"left_children":[-1],"loss_changes":[0E0],"parents":[2147483647],"right_children":[-1],"split_conditions":[-0E0],"split_indices":[0],"split_type":[0],"sum_hessian":[1.9755452E0],"tree_param":{"num_deleted":"0","num_feature":"777","num_nodes":"1","size_leaf_vector":"1"}},{"base_weights":[1.0233551E-1],"categories":[],"categories_nodes":[],"categories_segments":[],"categories_sizes":[],"default_left":[0],"id":125,"left_children":[-1],"loss_changes":[0E0],"parents":[2147483647],"right_children":[-1],"split_conditions":[8.18684E-3],"split_indices":[0],"split_type":[0],"sum_hessian":[1.848347E0],"tree_param":{"num_deleted":"0","num_feature":"777","num_nodes":"1","size_leaf_vector":"1"}},{"base_weights":[-7.894509E-3],"categories":[],"categories_nodes":[],"categories_segments":[],"categories_sizes":[],"default_left":[0],"id":126,"left_children":[-1],"loss_changes":[0E0],"parents":[2147483647],"right_children":[-1],"split_conditions":[-6.315607E-4],"split_indices":[0],"split_type":[0],"sum_hessian":[1.9205058E0],"tree_param":{"num_deleted":"0","num_feature":"777","num_nodes":"1","size_leaf_vector":"1"}},{"base_weights":[1.1330602E-3,-3.6509894E-2,4.570142E-2],"categories":[],"categories_nodes":[],"categories_segments":[],"categories_sizes":[],"default_left":[0,0,0],"id":127,"left_children":[1,-1,-1],"loss_changes":[5.713859E-1,0E0,0E0],"parents":[2147483647,0,0],"right_children":[2,-1,-1],"split_conditions":[7.536081E-1,-3.6509894E-2,4.570142E-2],"split_indices":[776,0,0],"split_type":[0,0,0],"sum_hessian":[2.0177295E0,1.0093048E0,1.0084249E0],"tree_param":{"num_deleted":"0","num_feature":"777","num_nodes":"3","size_leaf_vector":"1"}},{"base_weights":[-0E0],"categories":[],"categories_nodes":[],"categories_segments":[],"categories_sizes":[],"default_left":[0],"id":128,"left_children":[-1],"loss_changes":[0E0],"parents":[2147483647],"right_children":[-1],"split_conditions":[-0E0],"split_indices":[0],"split_type":[0],"sum_hessian":[1.8237196E0],"tree_param":{"num_deleted":"0","num_feature":"777","num_nodes":"1","size_leaf_vector":"1"}},{"base_weights":[-4.794934E-2],"categories":[],"categories_nodes":[],"categories_segments":[],"categories_sizes":[],"default_left":[0],"id":129,"left_children":[-1],"loss_changes":[0E0],"parents":[2147483647],"right_children":[-1],"split_conditions":[-3.835947E-3],"split_indices":[0],"split_type":[0],"sum_hessian":[1.9158909E0],"tree_param":{"num_deleted":"0","num_feature":"777","num_nodes":"1","size_leaf_vector":"1"}},{"base_weights":[-0E0,-1.9400753E-2,2.3348145E-2],"categories":[],"categories_nodes":[],"categories_segments":[],"categories_sizes":[],"default_left":[0,0,0],"id":130,"left_children":[1,-1,-1],"loss_changes":[1.5936881E-1,0E0,0E0],"parents":[2147483647,0,0],"right_children":[2,-1,-1],"split_conditions":[4.273948E-1,-1.9400753E-2,2.3348145E-2],"split_indices":[290,0,0],"split_type":[0,0,0],"sum_hessian":[2.0838819E0,1.0153085E0,1.0685735E0],"tree_param":{"num_deleted":"0","num_feature":"777","num_nodes":"3","size_leaf_vector":"1"}},{"base_weights":[-0E0,-2.0890476E-2,2.1175837E-2],"categories":[],"categories_nodes":[],"categories_segments":[],"categories_sizes":[],"default_left":[0,0,0],"id":131,"left_children":[1,-1,-1],"loss_changes":[1.4817637E-1,0E0,0E0],"parents":[2147483647,0,0],"right_children":[2,-1,-1],"split_conditions":[2.6600578E-1,-2.0890476E-2,2.1175837E-2],"split_indices":[748,0,0],"split_type":[0,0,0],"sum_hessian":[2.023586E0,1.0137777E0,1.0098084E0],"tree_param":{"num_deleted":"0","num_feature":"777","num_nodes":"3","size_leaf_vector":"1"}},{"base_weights":[-0E0],"categories":[],"categories_nodes":[],"categories_segments":[],"categories_sizes":[],"default_left":[0],"id":132,"left_children":[-1],"loss_changes":[0E0],"parents":[2147483647],"right_children":[-1],"split_conditions":[-0E0],"split_indices":[0],"split_type":[0],"sum_hessian":[1.9423635E0],"tree_param":{"num_deleted":"0","num_feature":"777","num_nodes":"1","size_leaf_vector":"1"}},{"base_weights":[-1.48700345E-2],"categories":[],"categories_nodes":[],"categories_segments":[],"categories_sizes":[],"default_left":[0],"id":133,"left_children":[-1],"loss_changes":[0E0],"parents":[2147483647],"right_children":[-1],"split_conditions":[-1.1896028E-3],"split_indices":[0],"split_type":[0],"sum_hessian":[1.9622412E0],"tree_param":{"num_deleted":"0","num_feature":"777","num_nodes":"1","size_leaf_vector":"1"}},{"base_weights":[-0E0],"categories":[],"categories_nodes":[],"categories_segments":[],"categories_sizes":[],"default_left":[0],"id":134,"left_children":[-1],"loss_changes":[0E0],"parents":[2147483647],"right_children":[-1],"split_conditions":[-0E0],"split_indices":[0],"split_type":[0],"sum_hessian":[1.8594118E0],"tree_param":{"num_deleted":"0","num_feature":"777","num_nodes":"1","size_leaf_vector":"1"}},{"base_weights":[-0E0],"categories":[],"categories_nodes":[],"categories_segments":[],"categories_sizes":[],"default_left":[0],"id":135,"left_children":[-1],"loss_changes":[0E0],"parents":[2147483647],"right_children":[-1],"split_conditions":[-0E0],"split_indices":[0],"split_type":[0],"sum_hessian":[1.9855268E0],"tree_param":{"num_deleted":"0","num_feature":"777","num_nodes":"1","size_leaf_vector":"1"}},{"base_weights":[-0E0],"categories":[],"categories_nodes":[],"categories_segments":[],"categories_sizes":[],"default_left":[0],"id":136,"left_children":[-1],"loss_changes":[0E0],"parents":[2147483647],"right_children":[-1],"split_conditions":[-0E0],"split_indices":[0],"split_type":[0],"sum_hessian":[1.9524463E0],"tree_param":{"num_deleted":"0","num_feature":"777","num_nodes":"1","size_leaf_vector":"1"}},{"base_weights":[-0E0],"categories":[],"categories_nodes":[],"categories_segments":[],"categories_sizes":[],"default_left":[0],"id":137,"left_children":[-1],"loss_changes":[0E0],"parents":[2147483647],"right_children":[-1],"split_conditions":[-0E0],"split_indices":[0],"split_type":[0],"sum_hessian":[1.8043938E0],"tree_param":{"num_deleted":"0","num_feature":"777","num_nodes":"1","size_leaf_vector":"1"}},{"base_weights":[-2.3568796E-3],"categories":[],"categories_nodes":[],"categories_segments":[],"categories_sizes":[],"default_left":[0],"id":138,"left_children":[-1],"loss_changes":[0E0],"parents":[2147483647],"right_children":[-1],"split_conditions":[-1.8855037E-4],"split_indices":[0],"split_type":[0],"sum_hessian":[1.8624586E0],"tree_param":{"num_deleted":"0","num_feature":"777","num_nodes":"1","size_leaf_vector":"1"}},{"base_weights":[-0E0],"categories":[],"categories_nodes":[],"categories_segments":[],"categories_sizes":[],"default_left":[0],"id":139,"left_children":[-1],"loss_changes":[0E0],"parents":[2147483647],"right_children":[-1],"split_conditions":[-0E0],"split_indices":[0],"split_type":[0],"sum_hessian":[1.9775997E0],"tree_param":{"num_deleted":"0","num_feature":"777","num_nodes":"1","size_leaf_vector":"1"}},{"base_weights":[-0E0],"categories":[],"categories_nodes":[],"categories_segments":[],"categories_sizes":[],"default_left":[0],"id":140,"left_children":[-1],"loss_changes":[0E0],"parents":[2147483647],"right_children":[-1],"split_conditions":[-0E0],"split_indices":[0],"split_type":[0],"sum_hessian":[1.9717878E0],"tree_param":{"num_deleted":"0","num_feature":"777","num_nodes":"1","size_leaf_vector":"1"}},{"base_weights":[-6.359328E-4,1.5706081E-2,-2.5070034E-2],"categories":[],"categories_nodes":[],"categories_segments":[],"categories_sizes":[],"default_left":[0,0,0],"id":141,"left_children":[1,-1,-1],"loss_changes":[1.4668159E-1,0E0,0E0],"parents":[2147483647,0,0],"right_children":[2,-1,-1],"split_conditions":[-2.6615313E-1,1.5706081E-2,-2.5070034E-2],"split_indices":[688,0,0],"split_type":[0,0,0],"sum_hessian":[2.0333261E0,1.0258676E0,1.0074586E0],"tree_param":{"num_deleted":"0","num_feature":"777","num_nodes":"3","size_leaf_vector":"1"}},{"base_weights":[-0E0],"categories":[],"categories_nodes":[],"categories_segments":[],"categories_sizes":[],"default_left":[0],"id":142,"left_children":[-1],"loss_changes":[0E0],"parents":[2147483647],"right_children":[-1],"split_conditions":[-0E0],"split_indices":[0],"split_type":[0],"sum_hessian":[1.8483028E0],"tree_param":{"num_deleted":"0","num_feature":"777","num_nodes":"1","size_leaf_vector":"1"}},{"base_weights":[-0E0],"categories":[],"categories_nodes":[],"categories_segments":[],"categories_sizes":[],"default_left":[0],"id":143,"left_children":[-1],"loss_changes":[0E0],"parents":[2147483647],"right_children":[-1],"split_conditions":[-0E0],"split_indices":[0],"split_type":[0],"sum_hessian":[1.8992747E0],"tree_param":{"num_deleted":"0","num_feature":"777","num_nodes":"1","size_leaf_vector":"1"}},{"base_weights":[-0E0],"categories":[],"categories_nodes":[],"categories_segments":[],"categories_sizes":[],"default_left":[0],"id":144,"left_children":[-1],"loss_changes":[0E0],"parents":[2147483647],"right_children":[-1],"split_conditions":[-0E0],"split_indices":[0],"split_type":[0],"sum_hessian":[1.8703116E0],"tree_param":{"num_deleted":"0","num_feature":"777","num_nodes":"1","size_leaf_vector":"1"}},{"base_weights":[-4.9655805E-3],"categories":[],"categories_nodes":[],"categories_segments":[],"categories_sizes":[],"default_left":[0],"id":145,"left_children":[-1],"loss_changes":[0E0],"parents":[2147483647],"right_children":[-1],"split_conditions":[-3.9724645E-4],"split_indices":[0],"split_type":[0],"sum_hessian":[1.8219084E0],"tree_param":{"num_deleted":"0","num_feature":"777","num_nodes":"1","size_leaf_vector":"1"}},{"base_weights":[-6.432858E-2],"categories":[],"categories_nodes":[],"categories_segments":[],"categories_sizes":[],"default_left":[0],"id":146,"left_children":[-1],"loss_changes":[0E0],"parents":[2147483647],"right_children":[-1],"split_conditions":[-5.1462865E-3],"split_indices":[0],"split_type":[0],"sum_hessian":[1.793146E0],"tree_param":{"num_deleted":"0","num_feature":"777","num_nodes":"1","size_leaf_vector":"1"}},{"base_weights":[-0E0],"categories":[],"categories_nodes":[],"categories_segments":[],"categories_sizes":[],"default_left":[0],"id":147,"left_children":[-1],"loss_changes":[0E0],"parents":[2147483647],"right_children":[-1],"split_conditions":[-0E0],"split_indices":[0],"split_type":[0],"sum_hessian":[1.7433993E0],"tree_param":{"num_deleted":"0","num_feature":"777","num_nodes":"1","size_leaf_vector":"1"}},{"base_weights":[-2.0271835E-3],"categories":[],"categories_nodes":[],"categories_segments":[],"categories_sizes":[],"default_left":[0],"id":148,"left_children":[-1],"loss_changes":[0E0],"parents":[2147483647],"right_children":[-1],"split_conditions":[-1.6217468E-4],"split_indices":[0],"split_type":[0],"sum_hessian":[1.6284592E0],"tree_param":{"num_deleted":"0","num_feature":"777","num_nodes":"1","size_leaf_vector":"1"}},{"base_weights":[-0E0],"categories":[],"categories_nodes":[],"categories_segments":[],"categories_sizes":[],"default_left":[0],"id":149,"left_children":[-1],"loss_changes":[0E0],"parents":[2147483647],"right_children":[-1],"split_conditions":[-0E0],"split_indices":[0],"split_type":[0],"sum_hessian":[1.7411518E0],"tree_param":{"num_deleted":"0","num_feature":"777","num_nodes":"1","size_leaf_vector":"1"}},{"base_weights":[-0E0,-1.5073761E-2,1.6508613E-2],"categories":[],"categories_nodes":[],"categories_segments":[],"categories_sizes":[],"default_left":[0,0,0],"id":150,"left_children":[1,-1,-1],"loss_changes":[8.3339304E-2,0E0,0E0],"parents":[2147483647,0,0],"right_children":[2,-1,-1],"split_conditions":[5.405849E-1,-1.5073761E-2,1.6508613E-2],"split_indices":[82,0,0],"split_type":[0,0,0],"sum_hessian":[2.01373E0,1.0023855E0,1.0113446E0],"tree_param":{"num_deleted":"0","num_feature":"777","num_nodes":"3","size_leaf_vector":"1"}},{"base_weights":[-0E0],"categories":[],"categories_nodes":[],"categories_segments":[],"categories_sizes":[],"default_left":[0],"id":151,"left_children":[-1],"loss_changes":[0E0],"parents":[2147483647],"right_children":[-1],"split_conditions":[-0E0],"split_indices":[0],"split_type":[0],"sum_hessian":[1.9162017E0],"tree_param":{"num_deleted":"0","num_feature":"777","num_nodes":"1","size_leaf_vector":"1"}},{"base_weights":[1.911432E-2],"categories":[],"categories_nodes":[],"categories_segments":[],"categories_sizes":[],"default_left":[0],"id":152,"left_children":[-1],"loss_changes":[0E0],"parents":[2147483647],"right_children":[-1],"split_conditions":[1.5291455E-3],"split_indices":[0],"split_type":[0],"sum_hessian":[1.766966E0],"tree_param":{"num_deleted":"0","num_feature":"777","num_nodes":"1","size_leaf_vector":"1"}},{"base_weights":[7.803162E-2],"categories":[],"categories_nodes":[],"categories_segments":[],"categories_sizes":[],"default_left":[0],"id":153,"left_children":[-1],"loss_changes":[0E0],"parents":[2147483647],"right_children":[-1],"split_conditions":[6.2425295E-3],"split_indices":[0],"split_type":[0],"sum_hessian":[1.6942118E0],"tree_param":{"num_deleted":"0","num_feature":"777","num_nodes":"1","size_leaf_vector":"1"}},{"base_weights":[-2.0082926E-3],"categories":[],"categories_nodes":[],"categories_segments":[],"categories_sizes":[],"default_left":[0],"id":154,"left_children":[-1],"loss_changes":[0E0],"parents":[2147483647],"right_children":[-1],"split_conditions":[-1.606634E-4],"split_indices":[0],"split_type":[0],"sum_hessian":[1.711867E0],"tree_param":{"num_deleted":"0","num_feature":"777","num_nodes":"1","size_leaf_vector":"1"}},{"base_weights":[3.171493E-2],"categories":[],"categories_nodes":[],"categories_segments":[],"categories_sizes":[],"default_left":[0],"id":155,"left_children":[-1],"loss_changes":[0E0],"parents":[2147483647],"right_children":[-1],"split_conditions":[2.5371944E-3],"split_indices":[0],"split_type":[0],"sum_hessian":[1.8052787E0],"tree_param":{"num_deleted":"0","num_feature":"777","num_nodes":"1","size_leaf_vector":"1"}},{"base_weights":[-0E0],"categories":[],"categories_nodes":[],"categories_segments":[],"categories_sizes":[],"default_left":[0],"id":156,"left_children":[-1],"loss_changes":[0E0],"parents":[2147483647],"right_children":[-1],"split_conditions":[-0E0],"split_indices":[0],"split_type":[0],"sum_hessian":[1.6662642E0],"tree_param":{"num_deleted":"0","num_feature":"777","num_nodes":"1","size_leaf_vector":"1"}},{"base_weights":[-0E0],"categories":[],"categories_nodes":[],"categories_segments":[],"categories_sizes":[],"default_left":[0],"id":157,"left_children":[-1],"loss_changes":[0E0],"parents":[2147483647],"right_children":[-1],"split_conditions":[-0E0],"split_indices":[0],"split_type":[0],"sum_hessian":[1.9217367E0],"tree_param":{"num_deleted":"0","num_feature":"777","num_nodes":"1","size_leaf_vector":"1"}},{"base_weights":[-0E0],"categories":[],"categories_nodes":[],"categories_segments":[],"categories_sizes":[],"default_left":[0],"id":158,"left_children":[-1],"loss_changes":[0E0],"parents":[2147483647],"right_children":[-1],"split_conditions":[-0E0],"split_indices":[0],"split_type":[0],"sum_hessian":[1.8178011E0],"tree_param":{"num_deleted":"0","num_feature":"777","num_nodes":"1","size_leaf_vector":"1"}},{"base_weights":[-0E0],"categories":[],"categories_nodes":[],"categories_segments":[],"categories_sizes":[],"default_left":[0],"id":159,"left_children":[-1],"loss_changes":[0E0],"parents":[2147483647],"right_children":[-1],"split_conditions":[-0E0],"split_indices":[0],"split_type":[0],"sum_hessian":[1.9722773E0],"tree_param":{"num_deleted":"0","num_feature":"777","num_nodes":"1","size_leaf_vector":"1"}},{"base_weights":[-2.3283498E-2],"categories":[],"categories_nodes":[],"categories_segments":[],"categories_sizes":[],"default_left":[0],"id":160,"left_children":[-1],"loss_changes":[0E0],"parents":[2147483647],"right_children":[-1],"split_conditions":[-1.8626798E-3],"split_indices":[0],"split_type":[0],"sum_hessian":[1.8448461E0],"tree_param":{"num_deleted":"0","num_feature":"777","num_nodes":"1","size_leaf_vector":"1"}},{"base_weights":[-1.2376811E-2],"categories":[],"categories_nodes":[],"categories_segments":[],"categories_sizes":[],"default_left":[0],"id":161,"left_children":[-1],"loss_changes":[0E0],"parents":[2147483647],"right_children":[-1],"split_conditions":[-9.901449E-4],"split_indices":[0],"split_type":[0],"sum_hessian":[1.9062585E0],"tree_param":{"num_deleted":"0","num_feature":"777","num_nodes":"1","size_leaf_vector":"1"}},{"base_weights":[-0E0,-1.4149575E-2,1.8683683E-2],"categories":[],"categories_nodes":[],"categories_segments":[],"categories_sizes":[],"default_left":[0,0,0],"id":162,"left_children":[1,-1,-1],"loss_changes":[9.2231914E-2,0E0,0E0],"parents":[2147483647,0,0],"right_children":[2,-1,-1],"split_conditions":[1.7992638E-1,-1.4149575E-2,1.8683683E-2],"split_indices":[664,0,0],"split_type":[0,0,0],"sum_hessian":[2.0239415E0,1.0021578E0,1.0217837E0],